Sno,Weight
0,-0.04371126
1,-0.028446492
2,0.006323557
3,0.0149630075
4,0.025802609
5,0.037273947
6,0.011190166
7,-0.05347073
8,0.046270337
9,0.010291076
10,0.004380596
11,0.05991021
12,-0.05615148
13,0.0044056373
14,-0.018006241
15,-0.002700983
16,-0.011588245
17,0.04355149
18,0.028763598
19,-0.013386968
20,-0.026044222
21,0.003987856
22,-0.10933063
23,0.005626542
24,-0.011661274
25,-0.03907968
26,-0.0060655335
27,-0.06109569
28,0.026786026
29,0.0020501965
30,-0.054838542
31,-0.07674883
32,0.008393623
33,-3.2678636e-05
34,-0.0058379387
35,-0.10638526
36,-0.026564157
37,0.05015767
38,-0.0282974
39,-0.028854117
40,0.010551042
41,-0.011614905
42,-0.027819214
43,-0.032622594
44,0.034742303
45,-0.024121147
46,0.014766524
47,-0.021580586
48,0.035724293
49,-0.05293838
50,-0.056422602
51,0.006615008
52,0.03860662
53,-0.08667319
54,0.0008563971
55,-0.030323667
56,0.014161118
57,0.019088566
58,-0.034376953
59,0.03161598
60,-0.021246051
61,0.051709455
62,0.024584949
63,9.651779e-05
64,-0.0016787825
65,-0.035083555
66,-0.030685548
67,-0.06995291
68,-0.0749084
69,0.0043551275
70,0.017893083
71,0.0031102349
72,-0.01370636
73,-0.050422724
74,-0.025593983
75,-0.05355398
76,0.009587143
77,-0.019375782
78,0.001595791
79,-0.03210533
80,-0.065891445
81,0.0014058022
82,-0.01125509
83,-0.03122597
84,0.02190991
85,-0.01939395
86,-0.01912371
87,0.020976812
88,0.023103595
89,0.045950275
90,0.063650094
91,0.0009935114
92,0.018698182
93,0.03295851
94,-0.018294262
95,0.046869278
96,-0.020340245
97,-0.029603818
98,0.001977482
99,-0.015856894
100,-0.0065286197
101,-0.028425733
102,-0.001222857
103,-0.0016762344
104,0.02487575
105,0.050373398
106,-0.04344864
107,0.03009646
108,-0.009791986
109,-0.062177993
110,-0.04205039
111,0.0069937613
112,0.009995032
113,0.027315376
114,-0.028574582
115,0.024335384
116,-0.041718338
117,0.0044671115
118,-0.051797386
119,-0.0133733405
120,0.023636874
121,0.008052045
122,0.0010704498
123,0.012545648
124,-0.021465585
125,0.022118218
126,-0.0044278894
127,0.040012095
128,-0.015776513
129,0.17557907
130,-0.0028013326
131,0.10312248
132,0.0003353622
133,0.09870289
134,-0.2987887
135,-0.13716824
136,0.12748995
137,-0.11924603
138,-0.033677418
139,-0.12245327
140,0.09191221
141,0.011908818
142,0.008473049
143,-0.035411563
144,-0.0035284725
145,0.029257458
146,0.0054765013
147,0.06370626
148,-0.028309677
149,0.05978015
150,0.019437244
151,0.08210617
152,-0.030813755
153,-0.23058319
154,-0.0027236193
155,0.084624864
156,-0.058854803
157,0.047220405
158,-0.09435407
159,-0.04288184
160,-0.00806363
161,-0.021352543
162,0.21378958
163,-0.19111143
164,0.046554103
165,-0.039993085
166,-0.034175098
167,0.08651811
168,-0.0068401867
169,-0.115213
170,0.14902027
171,-0.08832213
172,0.044049826
173,0.111973554
174,-0.05813365
175,0.10435046
176,-0.12251592
177,-0.122178346
178,-0.03078005
179,-0.00415035
180,-0.0056412607
181,-0.2328835
182,-0.03889223
183,0.109704554
184,-0.15997417
185,-0.33551416
186,-0.30148906
187,0.0005234685
188,0.026803656
189,-0.061639894
190,0.06944662
191,0.07230549
192,-0.01736003
193,0.028572753
194,0.11807944
195,0.09096192
196,0.2384151
197,-0.078491695
198,-0.0154326
199,-0.012954896
200,0.18175718
201,-0.058522772
202,0.15642095
203,-0.06104371
204,-0.13407865
205,-0.02619422
206,0.00046476157
207,-0.15347627
208,0.15162775
209,-0.06453538
210,-0.02836369
211,0.019738436
212,0.07640401
213,-0.10309707
214,-0.019969067
215,-0.07397376
216,-0.032310463
217,-0.21480596
218,0.0753244
219,-0.20977935
220,-0.07797417
221,-0.046517737
222,0.02031867
223,-0.22021922
224,-0.005905589
225,-0.023078933
226,-0.06913156
227,0.043017447
228,-0.0026047155
229,-0.20799375
230,-0.04019839
231,-0.25066873
232,-0.011994663
233,-0.07487798
234,-0.090728186
235,0.12862599
236,-0.034176476
237,-0.043017272
238,0.007345225
239,-0.13239595
240,0.076843455
241,-0.09296731
242,0.02841482
243,-0.07967368
244,-0.004335306
245,0.06028595
246,0.029461162
247,-0.30033347
248,-0.06786233
249,-0.047610614
250,0.099879436
251,-0.009939979
252,-0.142002
253,0.03694662
254,0.03449854
255,-0.030506978
256,0.011100154
257,0.037568763
258,0.020219024
259,0.007046056
260,0.04213895
261,-0.2863021
262,-0.1450112
263,-0.027742224
264,-0.0048796926
265,-2.4216992e-05
266,-0.05083048
267,0.020959519
268,0.018511442
269,-0.073537864
270,-0.011013572
271,-0.04641906
272,-0.005921776
273,0.020649709
274,-0.03488089
275,0.04903241
276,0.043758065
277,0.028639862
278,0.025196431
279,-0.0023624764
280,-0.052369785
281,0.037275795
282,-0.02263106
283,0.060637213
284,-0.127895
285,-0.0005926569
286,-0.013379229
287,-0.079103224
288,-0.0071911616
289,-0.0051484015
290,0.01206107
291,0.013587353
292,-0.073222674
293,0.0043975217
294,-0.07297958
295,0.0699539
296,-0.03264991
297,-0.031764075
298,-0.023748152
299,0.028230669
300,0.05229399
301,8.72557e-05
302,-0.061291117
303,-0.004577057
304,-0.0153380595
305,0.019456074
306,-0.036823582
307,-0.0025310973
308,-0.07044434
309,-0.019941723
310,-0.022125492
311,0.011943036
312,-0.059133437
313,-0.09100833
314,0.05716282
315,0.08287819
316,0.009104549
317,0.11364147
318,0.04611541
319,0.15376456
320,-0.01046146
321,0.0415731
322,-0.08479275
323,0.025315834
324,-0.0038214491
325,0.05147668
326,0.03838041
327,0.041106988
328,-0.011931905
329,-0.21068394
330,0.045724075
331,-0.048977204
332,-0.056449186
333,-0.09534432
334,0.019466156
335,0.012022454
336,-0.00071450695
337,-0.048161376
338,-0.06657647
339,-0.019916803
340,-0.0012497829
341,-0.1996606
342,-0.19315661
343,0.06555027
344,-0.094554625
345,-0.07445479
346,0.059314784
347,-0.13164881
348,-0.03811165
349,0.018356562
350,0.028085224
351,0.06667539
352,-0.028288858
353,0.013725506
354,-0.07607404
355,0.008628286
356,-0.0028120792
357,0.047303833
358,0.041719854
359,-0.08034548
360,0.06479578
361,-0.09901914
362,0.00979008
363,0.01009394
364,-0.08423491
365,-0.053709768
366,0.014243827
367,-0.08929256
368,-0.15697852
369,-0.10393264
370,-0.06927972
371,-0.039084576
372,-0.009527153
373,0.031105135
374,0.019253608
375,0.0221311
376,-0.05033747
377,-0.07644365
378,0.018451082
379,0.008282305
380,-0.015735215
381,0.03356237
382,0.04840724
383,-0.09378521
384,0.0069521647
385,-0.06380399
386,0.014649092
387,-0.039920088
388,0.027703077
389,-0.029070584
390,0.0029578577
391,-0.0451724
392,-0.04352713
393,-0.0771992
394,-0.022143006
395,-0.07498869
396,-0.0101161115
397,-0.024851717
398,-0.020670006
399,-0.04402917
400,0.00021238704
401,0.031091169
402,-0.1478104
403,-0.0125107765
404,0.021221183
405,0.096572876
406,0.06294073
407,-0.12876591
408,0.049161837
409,0.013625412
410,-0.0050088717
411,-0.027759712
412,-0.07417409
413,-0.12890235
414,0.001926343
415,-0.007288625
416,0.007166455
417,0.0060594627
418,-0.052043065
419,-0.046660773
420,-0.091321535
421,-0.009967111
422,-0.016770624
423,-0.053425875
424,0.0013039643
425,-0.0073592775
426,0.0010266713
427,0.02013029
428,0.011894436
429,-0.045471486
430,-0.015938941
431,-0.046039023
432,0.040131297
433,-0.0007346837
434,0.01591045
435,-0.008722063
436,0.025396826
437,0.01899561
438,0.02627852
439,-0.040766302
440,0.031924862
441,0.049821608
442,0.013213002
443,0.04124129
444,-0.0008257881
445,0.086442776
446,0.082771964
447,-0.01732341
448,-0.023664868
449,0.07855706
450,-0.043247666
451,-0.028195916
452,-0.061667763
453,-0.027834931
454,0.011176352
455,-0.058505304
456,-0.13370518
457,-0.038782194
458,-0.043920502
459,0.016209297
460,-0.037721127
461,0.0057528806
462,0.019371325
463,-0.051046968
464,-0.10457332
465,-0.035972796
466,-0.033139095
467,-0.041735798
468,-0.09583618
469,0.009489845
470,-0.006184077
471,0.045396484
472,0.022915
473,0.036757957
474,-0.19442992
475,0.02187896
476,-0.015545474
477,-0.029059747
478,-0.12725209
479,0.032881405
480,-0.03252392
481,-0.07720058
482,-0.003449223
483,-0.06278889
484,0.032461103
485,0.045237042
486,0.04833193
487,0.03352262
488,0.04791669
489,0.033273816
490,0.053778704
491,-0.098520145
492,-0.019223839
493,-0.0624936
494,0.026960257
495,0.036238793
496,-0.08634004
497,0.02624709
498,-0.008409088
499,0.05562027
500,0.056515764
501,0.08607451
502,0.008898242
503,0.03266779
504,0.014942692
505,-0.02718318
506,-0.061907206
507,-0.04788876
508,0.00051300577
509,0.046815738
510,0.090016335
511,-0.010682225
512,0.045071207
513,-0.04314523
514,0.0024967848
515,-0.034184333
516,0.036356665
517,-0.05517447
518,-0.09595849
519,0.04681002
520,-0.08570457
521,-0.020733831
522,-0.00022239982
523,0.018138446
524,0.011899007
525,-0.09824954
526,0.0096491035
527,0.05640996
528,-0.017093051
529,0.041416135
530,-0.05738911
531,-0.020056749
532,0.041321814
533,0.0115485145
534,0.005379751
535,-0.026285456
536,-0.10279067
537,-0.016216002
538,0.00636491
539,0.014503499
540,-0.034479443
541,-0.07132802
542,0.0026548856
543,-0.006757715
544,-0.009610372
545,-0.008120831
546,-0.016179023
547,0.043608766
548,0.014859406
549,0.0051011653
550,-0.018076122
551,0.012379241
552,-0.017359268
553,-0.013017907
554,-0.15323155
555,0.00747555
556,0.047690544
557,0.009047942
558,-0.002550412
559,0.069628775
560,-0.04443637
561,0.031325333
562,0.027044551
563,-0.0039022127
564,0.039042063
565,-0.046411917
566,-0.06920244
567,0.037963465
568,-0.0981971
569,-0.08937871
570,-0.0038396704
571,0.039616477
572,-0.033924144
573,0.03971826
574,0.04201759
575,0.007883486
576,-0.0014587567
577,-0.002883791
578,0.0994007
579,0.00084619684
580,-0.011754404
581,-0.031107971
582,0.008907686
583,0.030000418
584,-0.040006444
585,-0.18180208
586,-0.019181464
587,0.004177963
588,0.022770867
589,-0.091465965
590,-0.0037469575
591,0.024484763
592,-0.044451598
593,0.020877521
594,-0.018374003
595,0.01812469
596,-0.050431993
597,-0.068983614
598,-0.15212034
599,0.063802764
600,0.06724352
601,-0.14816165
602,0.0062441216
603,-0.045744766
604,-0.058886036
605,-0.018143458
606,-0.08937503
607,-0.033769045
608,-0.012877895
609,-0.040970843
610,0.01765604
611,0.022634441
612,0.0023285314
613,0.026474291
614,0.067289636
615,-0.07525262
616,0.04702902
617,0.0043715197
618,0.077332124
619,-0.03555085
620,-0.1073868
621,0.005520806
622,-0.06103675
623,-0.07355752
624,-0.0445185
625,-0.028201133
626,-0.027731922
627,0.015971465
628,0.03518138
629,-0.006770965
630,0.029727126
631,-0.017628085
632,0.022699317
633,-0.03455309
634,0.012075685
635,0.0047003645
636,-0.059971057
637,0.05568299
638,-0.00541958
639,-0.04062516
640,-0.00982098
641,-0.065397404
642,0.004022583
643,-0.007795612
644,0.035242796
645,-0.06702107
646,0.0146162445
647,-0.05453937
648,-0.03882274
649,-0.13544525
650,-0.011793615
651,0.017853586
652,-0.021326778
653,0.0044820234
654,-0.037917025
655,0.008457007
656,-0.008627632
657,0.04071921
658,0.00328092
659,-0.04959065
660,-0.0692221
661,0.052515928
662,-0.04378991
663,-0.04446787
664,0.025953371
665,-0.050309733
666,-0.00249789
667,-0.011989624
668,-0.029231265
669,-0.03788673
670,-0.04639891
671,0.0004896374
672,-0.005985725
673,-0.004073635
674,-0.030820545
675,-0.100164175
676,-0.06973927
677,0.028898202
678,-0.03329029
679,-0.036250502
680,-0.013388089
681,-0.013605649
682,-0.03735762
683,-0.03673432
684,0.02368455
685,-0.06984908
686,0.016019626
687,-0.05269752
688,0.02998313
689,-0.03818536
690,0.015703829
691,0.012710758
692,-0.028862813
693,-0.043726835
694,-0.010946443
695,-0.08343018
696,0.014615092
697,0.0003236448
698,-0.032773342
699,0.06260216
700,-0.05868118
701,0.031931218
702,0.043857686
703,-0.020279085
704,-0.0010780044
705,0.05836923
706,-0.028043618
707,-0.05872504
708,-0.069059834
709,-0.06566478
710,0.021583945
711,-0.009559969
712,-0.055329733
713,-0.036027715
714,-0.07017086
715,-0.038305245
716,-0.0024092884
717,-0.040184084
718,-0.027459525
719,-0.09627787
720,-0.034165073
721,-0.039887927
722,-0.018156221
723,-0.043742362
724,-0.07814786
725,-0.024669219
726,-0.07210516
727,0.030705005
728,0.00070330146
729,0.03189213
730,-0.06972617
731,0.0073968917
732,-0.012450201
733,0.022872362
734,-0.05615291
735,0.017875316
736,-0.024645137
737,-0.049080543
738,0.0003703792
739,-0.023637407
740,-0.001433645
741,-0.0181244
742,-0.041331574
743,-0.024871338
744,0.04954031
745,0.044690467
746,-0.045332402
747,-0.05387554
748,-0.051820766
749,-0.017490614
750,0.009576461
751,0.008712041
752,-0.033249743
753,-0.01916162
754,-0.027482081
755,0.014580904
756,0.03453356
757,0.0720028
758,0.017210687
759,-0.030993357
760,-0.011616049
761,-0.013072087
762,-0.06573043
763,0.023173984
764,-0.03920747
765,0.041408952
766,0.053872228
767,0.010555515
768,-0.04237147
769,-0.018239984
770,-0.0045894384
771,-0.010341808
772,0.026317433
773,-0.08244208
774,0.020104261
775,-0.0065146405
776,-0.06969231
777,-0.010250638
778,-0.013266616
779,0.056464322
780,-0.027065117
781,-0.036458936
782,-0.051373675
783,0.018692205
784,-0.026229842
785,0.01926375
786,-0.023337739
787,-0.108735636
788,-0.11905738
789,0.012674611
790,0.00033824274
791,-0.015948491
792,0.00017172343
793,-0.0057620867
794,-0.017456003
795,-0.035201278
796,0.016362444
797,0.0060680876
798,-0.07649104
799,-0.018025478
800,0.0033481608
801,-0.00014964037
802,-0.051978778
803,-0.06972493
804,-0.13116355
805,-0.0038102525
806,-0.015743928
807,-0.051773947
808,-0.007882151
809,-0.028649181
810,-0.09383183
811,-0.044560455
812,0.039835423
813,-0.082552664
814,-0.0018584568
815,-0.02418362
816,0.062848724
817,-0.060333807
818,0.015119104
819,-0.017245859
820,-0.014440383
821,-0.008992012
822,-0.061139163
823,-0.048027515
824,0.017483411
825,0.043437634
826,0.026395554
827,0.033088326
828,-0.06911823
829,0.04500946
830,0.04255355
831,-0.028527096
832,-0.0049985964
833,0.0387339
834,-0.048528854
835,-0.051171437
836,-0.06957221
837,-0.033576954
838,0.0017073909
839,-0.007075062
840,-0.030862823
841,-0.0614114
842,-0.027748395
843,-0.0010724381
844,0.017887883
845,-0.041581046
846,-0.030937137
847,-0.080665626
848,-0.067641534
849,-0.01797615
850,-0.010612868
851,-0.04309018
852,-0.07588962
853,-0.031512946
854,-0.05374956
855,0.042297993
856,-0.009943605
857,0.05258896
858,-0.02372014
859,0.008252153
860,-0.021110764
861,-0.0029591115
862,-0.0075550163
863,0.04603425
864,-0.018058328
865,-0.013327213
866,0.0019926461
867,-0.039507113
868,-0.0070233326
869,0.01685144
870,-0.11050246
871,0.01214787
872,0.04060228
873,0.027090166
874,-0.05943382
875,-0.054519888
876,-0.0566513
877,0.021603016
878,-0.008381945
879,0.0077439747
880,-0.10541028
881,0.023705672
882,-0.046022274
883,0.043316938
884,-0.018157123
885,0.00065285934
886,-0.0450703
887,0.0057499357
888,0.0016596727
889,-0.010077677
890,-0.040865604
891,-0.003930908
892,-0.034362357
893,0.02238203
894,0.0036930381
895,-0.005520949
896,0.040854212
897,0.05976246
898,-0.0117507
899,-0.027275804
900,0.015990578
901,-0.16274329
902,0.017328557
903,-0.04073106
904,0.015814338
905,-0.011525738
906,0.00016991033
907,0.07762251
908,-0.011458543
909,-0.12004711
910,0.004613094
911,-0.0053620054
912,-0.0042621507
913,0.026886052
914,-0.024552682
915,-0.0017600539
916,-0.044552144
917,0.010641523
918,0.011115121
919,-0.0015763249
920,0.0054765544
921,0.016875839
922,0.022017146
923,-0.051993154
924,0.009773645
925,-0.0041955886
926,-0.089508586
927,-0.06912169
928,-0.0018298175
929,-0.0009882164
930,-0.014050216
931,-0.021616476
932,0.018460363
933,0.018381312
934,-0.026615003
935,-0.026328215
936,-0.04432639
937,-0.07278801
938,-0.060079847
939,-0.05727034
940,-0.0011509666
941,0.006506603
942,-0.08658156
943,-0.005558978
944,0.028457247
945,-0.022064837
946,0.020788422
947,-0.0053580655
948,-0.13354082
949,-0.0048668142
950,-0.022960357
951,-0.009895423
952,0.029699523
953,0.01954775
954,0.030516053
955,0.016364325
956,-0.030067753
957,0.04836574
958,0.05300174
959,0.009670113
960,0.008597169
961,0.016734201
962,0.0018974745
963,-0.021556366
964,0.030386055
965,0.0058119916
966,0.017338777
967,-0.04767637
968,-0.021124864
969,0.008411328
970,0.041124888
971,-0.06838074
972,-0.025973702
973,-0.018562859
974,-3.0591182e-06
975,-0.018730104
976,-0.046938438
977,0.030988317
978,-0.07047376
979,-0.0118285855
980,-0.009018806
981,-0.06588808
982,-0.07181585
983,0.03595094
984,-0.07502941
985,0.02244159
986,0.021329343
987,-0.015138561
988,-0.09961422
989,0.029362349
990,0.009799836
991,0.018309025
992,0.0031044849
993,-0.008930963
994,-0.14618647
995,-0.012113538
996,-0.006954128
997,-0.059564434
998,-0.011448961
999,0.018521225
1000,0.029548613
1001,-0.09655781
1002,0.0012855724
1003,-0.037888613
1004,-0.1171008
1005,-0.048589956
1006,-0.026148364
1007,0.0059628994
1008,-0.034093212
1009,-0.050429583
1010,-0.0313431
1011,-0.09864886
1012,-0.00033660655
1013,0.009450802
1014,-0.011818188
1015,0.03402663
1016,-0.080430456
1017,-0.047954448
1018,-0.045455832
1019,-0.0004056271
1020,-0.0059050983
1021,0.0104102
1022,0.032190852
1023,-0.05164915
1024,-0.02124797
1025,0.12909345
1026,0.0054989015
1027,-0.0216004
1028,-0.101350956
1029,0.08832209
1030,-0.14274906
1031,-0.022297308
1032,0.011730019
1033,-0.10649807
1034,-0.040453672
1035,-0.015006684
1036,0.13106342
1037,-0.107874304
1038,-0.06290405
1039,-0.30438888
1040,0.014225041
1041,-0.070075676
1042,-0.022680499
1043,0.054394316
1044,-0.0028951932
1045,0.08619697
1046,-0.021880565
1047,0.053583104
1048,-0.060603287
1049,-0.09925959
1050,0.0034053796
1051,0.08573308
1052,-0.0742618
1053,0.06800222
1054,-0.06383587
1055,-0.14089349
1056,0.005557832
1057,-0.005545876
1058,0.15305859
1059,-0.03856363
1060,-0.051085908
1061,-0.16636792
1062,-0.09364465
1063,-0.39358702
1064,-0.0017777192
1065,-0.015510068
1066,0.09547335
1067,0.03759854
1068,-0.059739128
1069,0.022256086
1070,-0.08768196
1071,-0.060694523
1072,-0.061322376
1073,-0.023967966
1074,-0.049417634
1075,-0.010411639
1076,-0.116141506
1077,-0.047067218
1078,-0.06317223
1079,0.029846866
1080,-0.33246565
1081,-0.07992704
1082,-0.06542608
1083,-0.20511152
1084,-0.020781148
1085,-0.23564935
1086,-0.09764246
1087,-0.2700777
1088,-0.02137313
1089,0.06902189
1090,-0.013591927
1091,0.0945722
1092,0.11337861
1093,0.0060174703
1094,-0.09656832
1095,0.015982816
1096,0.16780749
1097,-0.12015688
1098,0.14140625
1099,-0.026103297
1100,-0.040133864
1101,-0.13676448
1102,-0.0036469519
1103,-0.054082688
1104,-0.009599022
1105,-0.0020112044
1106,-0.05877716
1107,-0.021998363
1108,0.08469837
1109,-0.06946284
1110,0.018924898
1111,-0.13014236
1112,-0.076349005
1113,-0.11086298
1114,-0.037842277
1115,-0.14542212
1116,-0.05029988
1117,-0.1282512
1118,0.032060027
1119,-0.14328128
1120,-0.012514647
1121,0.010965679
1122,-0.10950559
1123,0.12742305
1124,0.0026023618
1125,-0.039964914
1126,0.05075659
1127,-0.06161966
1128,-0.0828843
1129,-0.014887558
1130,0.064416945
1131,0.05225985
1132,-0.06911525
1133,-0.2040382
1134,-0.06802761
1135,-0.101231106
1136,0.104418196
1137,-0.015878515
1138,-0.0805679
1139,-0.016510265
1140,-0.022206193
1141,0.05414504
1142,-0.099410534
1143,-0.08568877
1144,-0.06703606
1145,-0.037866436
1146,-0.045692552
1147,-0.0016566572
1148,0.014827649
1149,-0.04409593
1150,0.06853042
1151,-0.054354146
1152,-0.03869175
1153,0.06506262
1154,-0.0027688525
1155,0.0032022425
1156,0.020758728
1157,0.027142363
1158,-0.091095805
1159,-0.075093836
1160,0.07056618
1161,-0.038571786
1162,0.010197331
1163,-0.07676034
1164,0.042789478
1165,-0.10215978
1166,-0.009224499
1167,-0.124480315
1168,-0.0061620227
1169,0.04176154
1170,-0.032085977
1171,0.031906277
1172,0.042237695
1173,-0.08313015
1174,-0.116912775
1175,0.05057899
1176,-0.035128705
1177,-0.048188984
1178,-0.0050996128
1179,0.020147452
1180,0.0021145998
1181,0.040837817
1182,-0.00788977
1183,-0.09426787
1184,-0.005599304
1185,0.0031928848
1186,0.09495651
1187,-0.06145041
1188,-0.024985798
1189,0.004954969
1190,-0.021134082
1191,-0.02099914
1192,-0.015624747
1193,-0.07682748
1194,-0.021012506
1195,-0.018629858
1196,-0.0046755755
1197,-0.021788437
1198,-0.12901372
1199,-0.06458531
1200,-0.09350261
1201,-0.033555873
1202,-0.06565609
1203,-0.014164544
1204,0.030952403
1205,-0.19251221
1206,-0.07853156
1207,0.03861875
1208,-0.13712157
1209,-0.11023157
1210,-0.06709682
1211,-0.00938525
1212,-0.0055609583
1213,4.7716385e-05
1214,-0.10448027
1215,0.03063523
1216,-0.0033367001
1217,-0.12533271
1218,-0.066060975
1219,0.048578788
1220,0.06581838
1221,0.034473427
1222,0.015120588
1223,-0.013903632
1224,0.07263639
1225,-0.037464254
1226,0.02125366
1227,-0.004645725
1228,-0.02751399
1229,-0.11560065
1230,-0.023628308
1231,-0.040930968
1232,0.118654
1233,0.07428053
1234,-0.08313324
1235,-0.081509665
1236,0.0458403
1237,-0.08727318
1238,0.014074028
1239,0.03196846
1240,0.03249182
1241,-0.029699182
1242,0.047418144
1243,-0.1690981
1244,-0.0966186
1245,0.021976972
1246,0.061921563
1247,-0.09677622
1248,-0.01878658
1249,0.06029684
1250,0.0023923158
1251,-0.01962278
1252,-0.022217395
1253,-0.08538656
1254,0.038238484
1255,-0.13128465
1256,0.020119386
1257,-0.03567257
1258,0.009605764
1259,0.056126747
1260,-0.089043014
1261,-0.15324709
1262,-0.056570187
1263,-0.15649353
1264,0.00061950303
1265,-0.07405057
1266,-0.02796216
1267,-0.02823766
1268,-0.032112353
1269,-0.092325106
1270,-0.10895856
1271,-0.09753282
1272,-0.025878772
1273,-0.14543925
1274,-0.04542034
1275,-0.032049846
1276,-0.023620611
1277,0.05586159
1278,-0.102322064
1279,-0.08798128
1280,-0.048436537
1281,0.27376294
1282,0.015586015
1283,-0.015252687
1284,-0.11433839
1285,0.14276156
1286,-0.071391776
1287,-0.020449007
1288,0.06392197
1289,-0.029371765
1290,0.0034507932
1291,-0.020523613
1292,0.09448154
1293,-0.0685823
1294,0.010423809
1295,0.17155029
1296,-0.004078611
1297,-0.09938982
1298,-0.03451157
1299,0.31243545
1300,-0.02797963
1301,-0.036934163
1302,-0.0074472707
1303,0.066372156
1304,0.0020742458
1305,-0.13768326
1306,0.015124564
1307,0.08882219
1308,-0.033466015
1309,0.17942004
1310,-0.011025535
1311,-0.10943983
1312,-0.0020461346
1313,-0.003974587
1314,0.22871146
1315,-0.19001321
1316,0.006150099
1317,-0.06164554
1318,0.03179131
1319,0.0016071529
1320,-0.021086458
1321,-0.021246599
1322,0.16628604
1323,-0.0075391787
1324,0.010681356
1325,-0.025989205
1326,-0.13405776
1327,-0.09981704
1328,-0.13900702
1329,-0.059822753
1330,0.053939857
1331,-0.006017793
1332,-0.05039675
1333,-0.064953245
1334,-0.019817248
1335,0.013129688
1336,0.11272754
1337,-0.17512937
1338,-0.03126456
1339,-0.22023287
1340,-0.0073681725
1341,-0.16813284
1342,-0.036350653
1343,-0.121660024
1344,-0.005830641
1345,-0.093608566
1346,0.039584663
1347,0.06739702
1348,0.37988216
1349,0.042931296
1350,-0.11423935
1351,0.15763819
1352,0.17682494
1353,0.23336208
1354,0.13375765
1355,-0.077312104
1356,-0.13537668
1357,-0.02821965
1358,0.022833334
1359,-0.087253705
1360,-0.01077753
1361,-0.06788349
1362,0.03433026
1363,-0.008478796
1364,-0.020590922
1365,-0.041061964
1366,-0.038653817
1367,-0.15407714
1368,-0.0612405
1369,-0.16894266
1370,0.018827021
1371,-0.1767777
1372,-0.12511078
1373,-0.06617226
1374,0.14979248
1375,-0.13776942
1376,-0.011718557
1377,0.18464309
1378,-0.12575322
1379,0.06899913
1380,-0.015242629
1381,-0.085592754
1382,-0.08436357
1383,-0.1888709
1384,-0.14612839
1385,-0.175914
1386,-0.027489377
1387,0.08823733
1388,-0.12652616
1389,-0.04789717
1390,-0.07561246
1391,-0.1576348
1392,0.13699478
1393,-0.22547175
1394,0.03515784
1395,-0.1924772
1396,-0.05075975
1397,-0.07788637
1398,-0.07373024
1399,0.01428369
1400,-0.08538569
1401,-0.150835
1402,0.15454902
1403,0.021683713
1404,0.12668192
1405,-0.1299031
1406,-0.04909794
1407,-0.18989037
1408,0.0009304334
1409,-0.010825689
1410,-0.0062051485
1411,0.02303084
1412,0.08640309
1413,0.00509323
1414,-0.05760687
1415,-0.015799291
1416,0.05494499
1417,-0.048787933
1418,0.031487122
1419,0.0053087715
1420,-0.055870537
1421,-0.04649984
1422,0.009922318
1423,-0.084352925
1424,-0.010351232
1425,0.067655936
1426,0.03223905
1427,0.0424624
1428,0.07607902
1429,0.030564088
1430,0.0038589113
1431,-0.036310446
1432,0.012940723
1433,-0.022498054
1434,0.0036064475
1435,-0.057595458
1436,-0.054291725
1437,-0.023428667
1438,0.019114317
1439,-0.014415622
1440,-0.021388708
1441,0.0012790966
1442,0.030591214
1443,0.07461967
1444,0.010155562
1445,0.052020572
1446,0.013036632
1447,0.0056814505
1448,-0.01371014
1449,-0.02288367
1450,0.08242956
1451,0.032477424
1452,0.0061719823
1453,-0.009777077
1454,-0.031064037
1455,0.08291748
1456,-0.028262395
1457,0.07050749
1458,-0.017773073
1459,-0.0062029315
1460,-0.0010035873
1461,-0.008582335
1462,-0.08348058
1463,0.05894697
1464,-0.006684904
1465,-0.027514122
1466,-0.05769463
1467,0.08272633
1468,-0.046837516
1469,0.07416095
1470,0.019247197
1471,0.041809835
1472,-0.013129718
1473,0.0334509
1474,0.047893096
1475,-0.054671925
1476,0.022623261
1477,-0.021861196
1478,0.055530433
1479,-0.054467116
1480,-0.017127987
1481,0.03514956
1482,0.016596423
1483,-0.097334065
1484,-0.013180775
1485,-0.07797708
1486,0.028351152
1487,0.06594817
1488,0.10757602
1489,0.07252501
1490,-0.15119122
1491,0.092378184
1492,-0.012151684
1493,-0.26731384
1494,-0.19602026
1495,0.080262065
1496,-0.037515435
1497,-0.016113635
1498,0.05069962
1499,-0.029747954
1500,-0.07607915
1501,0.037191067
1502,-0.03004736
1503,-0.047176655
1504,-0.014507128
1505,-0.039042525
1506,-0.11906107
1507,-0.03055769
1508,-0.011288727
1509,0.036118027
1510,0.04184895
1511,-0.01606463
1512,0.08135038
1513,-0.046663668
1514,0.03502754
1515,-0.057318274
1516,-0.093341425
1517,-0.044830855
1518,0.006646756
1519,-0.06028971
1520,-0.029797109
1521,-0.025614623
1522,0.010326791
1523,-0.019440783
1524,0.062631175
1525,0.04554774
1526,0.04950635
1527,-0.039990686
1528,-0.070253946
1529,-0.07091548
1530,0.019473573
1531,-0.07713151
1532,0.005876759
1533,0.05526445
1534,0.03155514
1535,-0.009569375
1536,-0.027304493
1537,0.096468985
1538,-0.0073888153
1539,-0.002808479
1540,0.049249403
1541,-0.067642875
1542,0.009841001
1543,-0.091037095
1544,0.007410089
1545,-0.028066473
1546,-0.031329367
1547,0.055979658
1548,-0.040186387
1549,-0.00026673934
1550,0.0030590878
1551,0.006327954
1552,-0.016097385
1553,0.015101919
1554,-0.013279631
1555,-0.013751004
1556,-0.056516495
1557,0.040300228
1558,-0.01605607
1559,0.09956196
1560,0.044034462
1561,-0.17707995
1562,-0.019657506
1563,0.009072195
1564,-0.08747443
1565,0.1536868
1566,0.017464371
1567,0.0074879443
1568,0.010795472
1569,-0.0056276163
1570,0.11316266
1571,-0.16959311
1572,-0.060020547
1573,0.017917575
1574,-0.00866756
1575,0.14582156
1576,-0.01163377
1577,-0.019540507
1578,-0.0059233904
1579,-0.040334
1580,0.009830066
1581,-0.0045133233
1582,0.031162238
1583,-0.004785357
1584,0.0245805
1585,-0.07033002
1586,-0.010273161
1587,0.013979741
1588,-0.010330653
1589,-0.019074203
1590,-0.005393849
1591,-0.0051858607
1592,0.039896045
1593,-0.01656463
1594,-0.13580538
1595,0.03307891
1596,0.002301221
1597,0.05103092
1598,0.009320512
1599,0.033348422
1600,0.0025161603
1601,0.031358533
1602,0.014310317
1603,0.010571761
1604,0.13172881
1605,0.059580136
1606,0.023845742
1607,0.07064391
1608,0.12838626
1609,0.028263865
1610,0.09316351
1611,-0.013487394
1612,0.038827054
1613,-0.023080053
1614,0.013030249
1615,-0.10828191
1616,-0.03208035
1617,-0.034164213
1618,-0.0049252845
1619,-0.020103648
1620,0.0602922
1621,-0.04910921
1622,-0.06432336
1623,0.054309886
1624,-0.0022576428
1625,-0.03334447
1626,0.047890205
1627,-0.02151479
1628,0.0031713957
1629,0.0065391674
1630,0.15144898
1631,0.01786706
1632,0.006439147
1633,0.065706566
1634,-0.006480432
1635,0.07149167
1636,-0.016374318
1637,-0.10558438
1638,-0.06568703
1639,-0.039343294
1640,0.0578968
1641,-0.030484572
1642,-0.03820138
1643,0.09429172
1644,-0.027090468
1645,-0.0013273195
1646,-0.009471123
1647,-0.023949558
1648,-0.03623278
1649,-0.13261242
1650,0.0048887413
1651,-0.007821726
1652,0.0041226214
1653,0.03907212
1654,-0.015544126
1655,-0.059162736
1656,0.0055085327
1657,0.04376847
1658,0.08779938
1659,0.002900563
1660,-0.090784
1661,0.022188235
1662,0.06697205
1663,0.036672905
1664,0.019870648
1665,0.07476598
1666,0.011327305
1667,0.008647495
1668,-0.035073884
1669,-0.2250008
1670,0.023053385
1671,0.023961848
1672,-0.030397637
1673,0.02923879
1674,-0.041334495
1675,0.03776486
1676,0.015143221
1677,-0.00928591
1678,-0.00077218784
1679,0.053754564
1680,-0.01085373
1681,-0.116877995
1682,-0.16332176
1683,-0.050465714
1684,0.004093273
1685,-0.103938594
1686,0.044409923
1687,0.042156752
1688,0.013764171
1689,-0.0963522
1690,-0.016212352
1691,0.035367448
1692,-0.03418186
1693,0.007424739
1694,-0.035019103
1695,-0.043955337
1696,-0.0026730287
1697,-0.011468678
1698,-0.010449156
1699,0.027939232
1700,-0.09284759
1701,-0.08988372
1702,0.02253786
1703,0.14808206
1704,-0.00026728612
1705,-0.010684236
1706,-0.02625316
1707,-0.1661172
1708,0.043365438
1709,-0.009527387
1710,0.041062746
1711,-0.027201666
1712,-0.09486173
1713,0.014476324
1714,0.031916957
1715,0.008749837
1716,-0.12858099
1717,0.054208286
1718,-0.028013753
1719,-0.07514566
1720,0.032963954
1721,-0.043496944
1722,-0.07543635
1723,0.056181464
1724,-0.039789706
1725,0.037766222
1726,-0.043984123
1727,0.087014794
1728,0.0077992035
1729,-0.07950688
1730,-0.009609778
1731,0.01587739
1732,0.03905286
1733,0.008864599
1734,-0.059559766
1735,0.06615226
1736,0.01612865
1737,0.07398685
1738,0.05494482
1739,-0.05285973
1740,-0.006836175
1741,-0.041381955
1742,0.018676953
1743,0.015741467
1744,0.039149497
1745,-0.08132805
1746,-0.049619365
1747,-0.02294305
1748,0.0006492708
1749,0.014764312
1750,-0.017624741
1751,0.07539184
1752,0.006150569
1753,-0.017495878
1754,-0.048996616
1755,-0.020505777
1756,0.00501756
1757,-0.067862585
1758,0.019693892
1759,0.041968904
1760,-0.016325487
1761,-0.012922351
1762,0.010085344
1763,0.023531858
1764,0.030895207
1765,0.0027558543
1766,0.026708182
1767,0.017584955
1768,0.000392543
1769,-0.00043751113
1770,-0.0013825677
1771,0.006473023
1772,-0.09102304
1773,-0.039229337
1774,-0.050537135
1775,0.0017664216
1776,-0.062376313
1777,-0.007879434
1778,-0.031796742
1779,0.025415754
1780,-0.08267681
1781,-0.096944444
1782,0.024495196
1783,-0.008431306
1784,-0.0028201279
1785,0.027426593
1786,0.058519498
1787,-0.031981446
1788,-0.08086195
1789,-0.066084936
1790,-0.09772937
1791,-0.04244235
1792,-0.00018058713
1793,-0.0865761
1794,-0.019936072
1795,-0.013857455
1796,-0.006740307
1797,-0.27384385
1798,-0.016445959
1799,-0.09050549
1800,-0.12557091
1801,-0.005383448
1802,0.0077769705
1803,0.020388685
1804,-0.042225253
1805,-0.07104635
1806,-0.04481308
1807,-0.11887175
1808,-0.01924773
1809,-0.02417622
1810,-0.021484034
1811,-0.07860363
1812,0.07984208
1813,0.005440753
1814,0.07452406
1815,-0.04852577
1816,-0.051562313
1817,-0.024358476
1818,-0.014596428
1819,0.009712801
1820,-0.17209445
1821,-0.098779604
1822,-0.014665478
1823,-0.059898157
1824,-0.0062896563
1825,-0.008977319
1826,-0.122249976
1827,0.0831509
1828,-0.05860451
1829,-0.08088614
1830,-0.050772693
1831,-1.0534321e-05
1832,-0.016960645
1833,-0.11057038
1834,-0.09390736
1835,0.024663953
1836,-0.01290328
1837,-0.0040502492
1838,-0.05857775
1839,0.014189318
1840,-0.01212009
1841,0.064165846
1842,-0.021586379
1843,-0.00661787
1844,-0.037428677
1845,0.05940067
1846,-0.072625756
1847,-0.0027034534
1848,-0.027765771
1849,0.04164641
1850,-0.03612573
1851,0.016997626
1852,-0.040252447
1853,-0.010010427
1854,0.01469103
1855,0.03780558
1856,-0.008731251
1857,0.00821335
1858,0.01102024
1859,0.0053898846
1860,-0.019025994
1861,-0.0888479
1862,0.004332127
1863,-0.0803695
1864,-0.116627306
1865,-0.05777846
1866,-0.07494508
1867,-0.14237282
1868,-0.07645441
1869,-0.07100565
1870,0.030272167
1871,0.045667402
1872,-0.011493521
1873,0.0024428507
1874,-0.023120612
1875,0.017697204
1876,-0.09578167
1877,-0.08098115
1878,-0.18891177
1879,0.04109051
1880,-0.10960777
1881,-0.02211976
1882,-0.094487675
1883,0.0136399735
1884,-0.08519639
1885,-0.062138896
1886,-0.09737756
1887,0.058148835
1888,-0.049885333
1889,-0.14763895
1890,-0.07048445
1891,-0.0009489898
1892,0.054120593
1893,0.04582367
1894,0.040627968
1895,0.009923763
1896,0.039067686
1897,-0.008880342
1898,0.024000607
1899,-0.123659804
1900,-0.10847058
1901,-0.010809784
1902,-0.007910483
1903,0.00657022
1904,-0.2591092
1905,-0.033294674
1906,-0.031784315
1907,-0.017491056
1908,0.0043997588
1909,-0.017299894
1910,0.030234791
1911,-0.011887233
1912,-0.10079466
1913,-0.038705476
1914,-0.096431695
1915,-0.02261714
1916,-0.116668165
1917,0.009815619
1918,-0.061197
1919,-0.060766716
1920,0.019476328
1921,-0.031321146
1922,-0.01484428
1923,0.011516341
1924,0.036090795
1925,0.03762569
1926,-0.020548979
1927,0.02830186
1928,0.0400177
1929,0.011469694
1930,0.004520561
1931,-0.017548263
1932,-0.027512528
1933,-0.07056757
1934,-0.012854027
1935,-0.060614076
1936,-0.0055911415
1937,0.024177976
1938,-0.12046477
1939,0.0035197271
1940,0.03830709
1941,-0.029680518
1942,0.005960745
1943,0.009897519
1944,0.041040525
1945,-0.05490878
1946,0.0060758363
1947,-0.0020671408
1948,0.021556392
1949,-0.015952189
1950,-0.027826011
1951,0.03102682
1952,-0.0010491017
1953,0.004844885
1954,0.010772397
1955,0.08666378
1956,-0.029355211
1957,0.022561125
1958,0.009705693
1959,-0.0017316338
1960,-0.0064595663
1961,-0.012843409
1962,0.027239135
1963,-0.00038783636
1964,-0.0044536833
1965,0.0010362015
1966,-0.006601862
1967,-0.033651073
1968,-0.055260364
1969,0.056903087
1970,-0.033152714
1971,-0.00667552
1972,-0.09349118
1973,0.014494733
1974,-0.039571404
1975,-0.007043022
1976,-0.014067027
1977,-0.03248744
1978,-0.054862972
1979,0.044669095
1980,-0.02756281
1981,0.063683964
1982,0.04078867
1983,0.002526069
1984,-0.025762325
1985,0.012529694
1986,-0.020680033
1987,-0.031407427
1988,0.0036100382
1989,-0.008437641
1990,0.012678205
1991,-0.09762122
1992,-0.019822003
1993,0.012905431
1994,0.018958876
1995,-0.05446172
1996,0.013909226
1997,-0.063940026
1998,0.014547265
1999,0.064127095
2000,0.03169882
2001,0.04173201
2002,-0.0879838
2003,-0.033465944
2004,0.003313919
2005,-0.16634476
2006,-0.10212805
2007,0.04842619
2008,-0.03951149
2009,-0.0053825304
2010,-0.13350804
2011,-0.042316142
2012,-0.041480012
2013,0.020178871
2014,-0.026378645
2015,-0.06655739
2016,-0.02063263
2017,-0.048285633
2018,-0.021962648
2019,-0.01847343
2020,0.0014378235
2021,0.040483616
2022,0.04706806
2023,0.013863458
2024,0.071357705
2025,-0.11464166
2026,0.061019644
2027,-0.02728764
2028,-0.14881214
2029,-0.010323986
2030,0.0042429017
2031,-0.012616975
2032,-0.032167487
2033,-0.009169091
2034,0.008957538
2035,-0.05396243
2036,0.01652074
2037,-0.013616097
2038,-0.03749025
2039,-0.06949454
2040,-0.04495658
2041,-0.03865917
2042,0.026126375
2043,-0.048689224
2044,-0.014117032
2045,0.040289193
2046,-0.023660492
2047,-0.012383794
2048,0.032405846
2049,0.109733686
2050,0.0078910915
2051,-0.040531427
2052,0.008362006
2053,0.050468117
2054,-0.055356406
2055,-0.068381876
2056,0.030364703
2057,-0.0220932
2058,-0.038584437
2059,-0.0252516
2060,0.14727624
2061,0.031198774
2062,-0.051507097
2063,0.13716689
2064,-0.010263582
2065,0.06679812
2066,-0.01638326
2067,0.028536158
2068,0.012755627
2069,0.12734973
2070,0.0029781258
2071,0.09163022
2072,-0.008981084
2073,0.011890027
2074,-0.012630052
2075,0.15555891
2076,-0.054269344
2077,0.18531683
2078,-0.050668906
2079,0.061624616
2080,-0.0032931035
2081,0.007848432
2082,0.12729114
2083,-0.037481904
2084,-0.0008797026
2085,-0.0053765276
2086,-0.02559791
2087,0.010601617
2088,-0.0073909075
2089,-0.04835928
2090,0.12512165
2091,0.11846811
2092,-0.13012643
2093,-0.018496651
2094,0.0075119673
2095,-0.0632206
2096,0.018860852
2097,-0.013086937
2098,-0.010326443
2099,-0.0020621284
2100,-0.011677062
2101,-0.023616241
2102,-0.011804852
2103,0.0040038493
2104,-0.049112365
2105,-0.043619663
2106,-0.020851599
2107,0.0021046444
2108,0.01692553
2109,0.015520963
2110,0.108951546
2111,0.020167254
2112,-0.0165347
2113,0.088442504
2114,-0.04027524
2115,0.18862729
2116,0.069086604
2117,0.1562824
2118,-0.0024156284
2119,0.11577924
2120,0.21945868
2121,0.022326842
2122,0.11478506
2123,0.01512605
2124,-0.06611833
2125,0.043401036
2126,-0.039804727
2127,-0.06685632
2128,-0.043698568
2129,0.042702578
2130,-0.060480148
2131,-0.05754771
2132,0.18456888
2133,0.04996846
2134,-0.019401563
2135,-0.029447798
2136,0.016623585
2137,0.00024537108
2138,-0.14105228
2139,-0.051727038
2140,-0.028336987
2141,0.008807956
2142,0.15434812
2143,0.0042915456
2144,0.0018992983
2145,0.11862456
2146,0.007194522
2147,0.116897464
2148,-0.025579298
2149,0.0033215368
2150,0.12376602
2151,-0.094050795
2152,-0.017362423
2153,-0.01090529
2154,0.06805434
2155,0.15088075
2156,0.015047972
2157,0.08830127
2158,0.0026224833
2159,-0.010816232
2160,0.08057113
2161,0.037530564
2162,-0.030274762
2163,0.034901597
2164,0.050431237
2165,0.13530917
2166,0.063845664
2167,-0.01825818
2168,0.0041058557
2169,0.0036110661
2170,0.07994437
2171,-0.055692296
2172,0.049788687
2173,0.049612682
2174,0.15083517
2175,0.009257832
2176,-0.029016796
2177,0.024919588
2178,-0.0003103714
2179,-0.023964385
2180,-0.03640563
2181,0.059345655
2182,-0.07502078
2183,-0.16979374
2184,-0.041525226
2185,-0.006054032
2186,-0.036141597
2187,-0.034957394
2188,0.048422184
2189,-0.0029424594
2190,-0.007614154
2191,-0.19575131
2192,-0.00105604
2193,-0.017623214
2194,-0.058998097
2195,-0.014750117
2196,-0.021525292
2197,0.05363585
2198,0.019182028
2199,0.056697484
2200,0.06907852
2201,-0.0028045275
2202,-0.010483842
2203,-0.025723571
2204,-0.025587603
2205,-0.072044134
2206,-0.001182308
2207,-0.041295763
2208,-0.010279368
2209,-0.0049697775
2210,-0.020623842
2211,-0.26127517
2212,-0.051513087
2213,-0.080440365
2214,-0.04136367
2215,-0.008712797
2216,-0.0005280277
2217,-0.03479179
2218,0.017537639
2219,-0.061856635
2220,-0.10503919
2221,-0.006730379
2222,-0.11384452
2223,0.02783061
2224,0.023068104
2225,-0.120577596
2226,-0.05403284
2227,-0.005098876
2228,0.03260817
2229,-0.08083715
2230,-0.043922503
2231,0.03170073
2232,-0.029700566
2233,1.933299e-05
2234,0.007488296
2235,-0.08855077
2236,0.016437277
2237,-0.075974405
2238,0.0813892
2239,0.01653962
2240,-0.011413895
2241,-0.017084703
2242,-0.0071302946
2243,-0.03155078
2244,-0.044554736
2245,-0.006399088
2246,-0.10646537
2247,-0.07221599
2248,-0.08948022
2249,0.0029994077
2250,-0.04300988
2251,0.012564345
2252,-0.11198383
2253,-0.09358902
2254,0.00068312127
2255,-0.18415792
2256,-0.06311195
2257,-0.053367015
2258,-0.04688146
2259,0.010619415
2260,0.021736762
2261,-0.046344776
2262,-0.06639597
2263,-0.09731349
2264,0.0054093306
2265,-0.021617226
2266,-0.16282617
2267,0.033023458
2268,0.0049782493
2269,-0.102928646
2270,-0.030977733
2271,0.050295588
2272,-0.0098011615
2273,-0.068721294
2274,-0.02423565
2275,-0.12825058
2276,-0.025674645
2277,-0.20644704
2278,-0.05351544
2279,0.014402279
2280,-0.05048739
2281,0.024023565
2282,-0.0944434
2283,0.03171575
2284,-0.056487173
2285,-0.0657062
2286,-0.02944848
2287,0.03398397
2288,0.09239178
2289,-0.011729159
2290,-0.039662253
2291,0.025482906
2292,-0.012239339
2293,0.043665722
2294,0.012770862
2295,0.009002302
2296,-0.018315675
2297,-0.1406748
2298,0.0014172598
2299,-0.011288926
2300,-0.06175722
2301,-0.010075111
2302,0.024472801
2303,-0.0041513797
2304,-0.039860252
2305,0.06438852
2306,-0.014486262
2307,-0.016070694
2308,0.021412876
2309,-0.032706156
2310,-0.04522885
2311,-0.012760574
2312,0.045519605
2313,0.042352248
2314,-0.011151948
2315,0.070972204
2316,-0.04550955
2317,0.01531154
2318,0.002727516
2319,-0.022217844
2320,-0.00013815715
2321,-0.058169637
2322,-0.07951773
2323,0.04768984
2324,-0.09690308
2325,-0.02330086
2326,0.013296601
2327,-0.0016092956
2328,-0.027391374
2329,-0.053006187
2330,-0.023485044
2331,0.0047352468
2332,0.015565219
2333,-0.0033620412
2334,-0.016930873
2335,0.012227432
2336,-0.0023552468
2337,-0.007935443
2338,0.09443702
2339,0.015065376
2340,-0.06703458
2341,0.008698885
2342,-0.025085278
2343,0.009723708
2344,-0.029751336
2345,-0.059667904
2346,0.015827248
2347,-0.03420219
2348,0.023595512
2349,0.027520552
2350,0.019980617
2351,-0.061616942
2352,0.009716983
2353,0.049696494
2354,-0.062062357
2355,-0.018247005
2356,0.06960378
2357,-0.026527636
2358,-0.03421557
2359,0.030321
2360,-0.101659246
2361,-0.019153077
2362,-0.030103916
2363,0.030780854
2364,-0.010370081
2365,0.023695016
2366,0.0070677623
2367,0.04908987
2368,-0.0017000355
2369,-0.02305779
2370,-0.033954933
2371,-0.0105648
2372,0.08554355
2373,-0.034002025
2374,-0.013896534
2375,-0.014907473
2376,0.048769027
2377,0.02056039
2378,0.049682412
2379,0.04852774
2380,0.03079394
2381,-0.0024368088
2382,-0.029977955
2383,-0.018103257
2384,0.016051568
2385,0.00551538
2386,-0.08262506
2387,0.006871582
2388,-0.023921952
2389,0.010646921
2390,-0.022505812
2391,0.06540446
2392,0.046686314
2393,-0.027197037
2394,0.018772237
2395,0.013467945
2396,-0.019832408
2397,0.016660294
2398,0.008452753
2399,0.015478034
2400,-0.019271495
2401,0.012930927
2402,0.024341054
2403,-0.010988461
2404,0.0792011
2405,-0.004129456
2406,0.020973317
2407,0.012442026
2408,0.053716674
2409,0.018981377
2410,0.01987127
2411,-0.036821302
2412,0.009885504
2413,-0.029066872
2414,0.012287921
2415,-0.032369763
2416,0.013775556
2417,0.016739773
2418,-0.02461419
2419,-0.020389378
2420,-0.06327322
2421,-0.064928256
2422,-0.04755629
2423,-0.010432787
2424,0.037915625
2425,0.014094517
2426,0.1292878
2427,-0.059369307
2428,-0.23120548
2429,-0.05599789
2430,-0.038634013
2431,-0.0067294743
2432,0.021551145
2433,0.050626602
2434,-0.013045094
2435,-0.025481239
2436,-0.064163685
2437,-0.04227484
2438,0.024344672
2439,-0.08942509
2440,-0.005698735
2441,-0.0731829
2442,-0.027416741
2443,0.021140933
2444,0.07309605
2445,-0.10246861
2446,0.0014381758
2447,-0.052639503
2448,-0.0044301497
2449,0.09091336
2450,-0.00487614
2451,0.05404709
2452,-0.11226301
2453,0.07490133
2454,-7.797364e-05
2455,0.12670004
2456,-0.007395593
2457,0.044944305
2458,-0.013326136
2459,0.047462728
2460,-0.08566912
2461,0.021261647
2462,-0.026870662
2463,-0.044075135
2464,-0.0051559582
2465,0.004775666
2466,0.027220147
2467,-0.16547586
2468,-0.026944464
2469,-0.11045359
2470,-0.009413848
2471,0.011635053
2472,-0.0021631983
2473,-0.016634729
2474,0.05770354
2475,0.009626055
2476,0.0261936
2477,-0.019844292
2478,-0.06417773
2479,-0.07471254
2480,0.08077797
2481,-0.10644362
2482,-0.008908233
2483,0.0065291724
2484,-0.13895626
2485,0.06625613
2486,-0.052317236
2487,-0.010950693
2488,0.04242806
2489,0.042024676
2490,0.0477436
2491,-0.13973136
2492,0.006819252
2493,-0.17583224
2494,0.08060748
2495,-0.004890997
2496,-0.0067334417
2497,0.10644973
2498,-0.1061991
2499,0.024963425
2500,0.05730272
2501,-0.021223824
2502,-0.07336661
2503,0.022583185
2504,0.026123198
2505,0.051236793
2506,0.044961426
2507,-0.031876214
2508,0.04200872
2509,-0.008574553
2510,-0.005042133
2511,-0.15117094
2512,-0.05370354
2513,-0.09262336
2514,0.042763118
2515,-0.08981134
2516,0.010846381
2517,-0.031396113
2518,0.22465013
2519,-0.09947436
2520,-0.0986096
2521,0.055145428
2522,-0.11332385
2523,0.06092157
2524,-0.050723244
2525,-0.10032472
2526,-0.03770007
2527,0.05667685
2528,-0.030334113
2529,0.029566454
2530,-0.08845763
2531,0.0032176247
2532,-0.021616174
2533,-0.1305716
2534,-0.07460603
2535,0.055289984
2536,-0.1101375
2537,0.013872702
2538,0.023190556
2539,-0.04046779
2540,-0.030827869
2541,0.045080643
2542,-0.004921507
2543,0.11492634
2544,-0.0002613385
2545,0.051076822
2546,-0.028759707
2547,0.018966759
2548,0.010625127
2549,0.09594416
2550,-0.009779329
2551,0.017714715
2552,-0.050324127
2553,0.0036174657
2554,0.0004242354
2555,-0.014430604
2556,0.029702568
2557,0.06682885
2558,0.07084144
2559,-0.019953266
2560,-0.019936565
2561,0.19771847
2562,-0.002054106
2563,-0.00473698
2564,0.025390001
2565,0.19194293
2566,-0.08771082
2567,0.037330583
2568,0.17751531
2569,0.068192884
2570,-0.008354225
2571,0.02080543
2572,-0.03386746
2573,0.090714954
2574,0.0017532603
2575,-0.05898501
2576,0.011846442
2577,-0.010219687
2578,0.036800265
2579,0.03492747
2580,-0.03957034
2581,-0.023622189
2582,-0.06715077
2583,0.10153672
2584,0.033963095
2585,0.00666789
2586,-0.008457393
2587,0.034648493
2588,0.03569651
2589,0.104815
2590,-0.031787258
2591,-0.057343297
2592,-0.019511737
2593,0.001460528
2594,0.17646812
2595,-0.0069704615
2596,-0.01133965
2597,-0.0025482802
2598,0.0047971886
2599,0.050091226
2600,0.040804446
2601,-0.034277
2602,0.13633436
2603,-0.09739622
2604,-0.016370345
2605,-0.025794659
2606,0.0018606944
2607,0.16620131
2608,-0.07880295
2609,0.00025141382
2610,-0.015593495
2611,-0.0043005752
2612,-0.0060151615
2613,-0.06733557
2614,0.05313195
2615,0.09411306
2616,-0.031036964
2617,-0.015273123
2618,0.04791092
2619,0.03315626
2620,0.007172852
2621,-0.01056331
2622,0.054351803
2623,0.10220291
2624,-0.009980119
2625,-0.015656348
2626,0.09516555
2627,0.01293476
2628,0.16019028
2629,0.08566883
2630,0.020057928
2631,-0.026002033
2632,0.1181854
2633,0.1575525
2634,0.124057665
2635,0.045284536
2636,-0.038908217
2637,0.04699801
2638,-0.012627345
2639,0.01763354
2640,0.12583515
2641,0.0005751188
2642,0.0058568525
2643,0.10086105
2644,0.04560343
2645,-0.025859442
2646,-0.087335095
2647,0.026817566
2648,0.039786592
2649,-0.007073518
2650,0.07959271
2651,0.026977513
2652,0.033621155
2653,-0.042494804
2654,0.120949075
2655,-0.025463907
2656,-0.014639677
2657,0.1130801
2658,0.039834764
2659,0.013311547
2660,-0.021087447
2661,-0.14112543
2662,-0.09680701
2663,-0.020207055
2664,0.00605135
2665,-0.014382736
2666,-0.11304488
2667,0.055685584
2668,0.08618354
2669,-0.045906357
2670,-0.0024517435
2671,0.056357745
2672,0.09137773
2673,0.021619806
2674,-0.008362995
2675,-0.0488658
2676,0.07113457
2677,0.005480038
2678,-0.0319119
2679,0.033458255
2680,0.023832452
2681,-0.017055217
2682,0.15715772
2683,-0.036388353
2684,-0.05244718
2685,-0.085888244
2686,-0.0057348786
2687,0.027408086
2688,-0.06554839
2689,-0.0023799709
2690,0.0034199443
2691,-0.049332626
2692,-0.14533997
2693,0.09580332
2694,0.015318252
2695,-0.12203457
2696,0.030924207
2697,-0.16369684
2698,-0.009197036
2699,-0.113350734
2700,0.0737779
2701,-0.010139706
2702,0.030350951
2703,-0.058283817
2704,0.0018314904
2705,-0.082449995
2706,0.031505305
2707,-0.06684473
2708,-0.14318539
2709,0.083285846
2710,0.00033645838
2711,0.057836317
2712,0.082320936
2713,-0.077207595
2714,-0.011738333
2715,0.029974403
2716,-0.012334118
2717,0.011204927
2718,-0.0093633905
2719,0.031652834
2720,0.0022255788
2721,-0.0011561277
2722,0.005272624
2723,-0.40405613
2724,0.007608062
2725,-0.12739258
2726,-0.051253814
2727,0.03262384
2728,-0.024860654
2729,-0.025950624
2730,-0.028377857
2731,-0.1941057
2732,-0.032494612
2733,-0.042763263
2734,-0.0699253
2735,-0.010065564
2736,0.024577519
2737,-0.20502733
2738,-0.018607188
2739,-0.0077704145
2740,-0.041261163
2741,0.024591673
2742,-0.01053375
2743,-0.010674724
2744,0.05142479
2745,0.014323052
2746,-0.05410768
2747,-0.06744395
2748,-0.0021811766
2749,-0.12217403
2750,0.05375681
2751,0.031611267
2752,-0.01747904
2753,0.027294014
2754,0.01816186
2755,0.014731639
2756,0.001386176
2757,0.021989595
2758,-0.15724117
2759,0.04083789
2760,0.056449737
2761,0.009663321
2762,0.019148529
2763,-0.0614465
2764,-0.029394919
2765,0.007727967
2766,-0.0016476734
2767,-0.3130405
2768,-0.02543257
2769,-0.16246572
2770,0.008351278
2771,0.011256848
2772,0.07257745
2773,-0.0121190725
2774,0.27344906
2775,-0.19288468
2776,-0.021305962
2777,0.032697678
2778,-0.012879145
2779,0.006292681
2780,-0.0067499615
2781,-0.16944422
2782,0.0348886
2783,0.03242966
2784,-0.011070642
2785,-0.007696962
2786,-0.040856134
2787,0.03597713
2788,0.0104088755
2789,-0.24069947
2790,-0.18469764
2791,-0.013663172
2792,-0.14302291
2793,0.027248887
2794,-0.14515717
2795,0.04809234
2796,0.104895696
2797,-0.016835865
2798,0.0011605903
2799,0.057930328
2800,0.11837281
2801,-0.0031916492
2802,-0.046050623
2803,0.046184137
2804,-0.0769308
2805,0.05790622
2806,0.02331303
2807,-0.055546433
2808,-0.038959708
2809,-0.056253165
2810,0.054073185
2811,-0.008591871
2812,0.03483949
2813,-0.07819055
2814,0.07333386
2815,0.041627534
2816,-0.0058543026
2817,0.15049733
2818,0.0011131535
2819,-0.0054054908
2820,0.06949988
2821,0.07915886
2822,0.072484694
2823,0.09724507
2824,0.108551964
2825,-0.06444505
2826,0.031909894
2827,-0.10782887
2828,0.07556535
2829,-0.0026763338
2830,-0.023710717
2831,-0.062405862
2832,0.002306184
2833,0.03986729
2834,0.032299034
2835,0.01407452
2836,-0.21223278
2837,-0.10362623
2838,-0.015976924
2839,0.18655819
2840,0.110544845
2841,0.03233097
2842,-0.018400108
2843,-0.032956973
2844,-0.125503
2845,0.19563602
2846,0.016696297
2847,0.040787946
2848,-0.0035205625
2849,-0.0033355427
2850,0.07794643
2851,-0.12772374
2852,0.015540642
2853,-0.074696325
2854,-0.040041946
2855,0.019746201
2856,-0.004422027
2857,-0.007976457
2858,0.0322488
2859,-0.0069241994
2860,-0.018557046
2861,-0.039947838
2862,0.0321603
2863,-0.022640398
2864,0.051646627
2865,-0.10299145
2866,-0.009953448
2867,0.001281942
2868,0.07078961
2869,0.014335092
2870,-0.046066523
2871,0.053360663
2872,0.04982515
2873,0.038709868
2874,0.05203769
2875,0.098633446
2876,-0.0050426363
2877,-0.19674386
2878,-0.089272104
2879,-0.06500126
2880,0.0004594403
2881,-0.021283088
2882,-0.0070358287
2883,0.058612328
2884,0.09612867
2885,0.17824024
2886,-0.060028642
2887,0.06131237
2888,0.15409161
2889,0.11822541
2890,0.1483884
2891,0.026117535
2892,0.028238997
2893,-0.024886567
2894,0.040527042
2895,-0.1540568
2896,0.09029652
2897,-0.22596988
2898,0.012702058
2899,0.001272516
2900,0.10941374
2901,-0.040704165
2902,-0.14208929
2903,0.1914522
2904,0.06144152
2905,-0.022589684
2906,0.08329089
2907,0.07153213
2908,-0.029857712
2909,-0.08954142
2910,0.19230041
2911,0.0075058513
2912,-0.008326421
2913,0.18793727
2914,0.025891868
2915,0.015352045
2916,0.0009491511
2917,0.0241557
2918,-0.19180818
2919,0.020437248
2920,0.06073776
2921,-0.008299956
2922,-0.03228573
2923,0.124944575
2924,-0.020889075
2925,0.09314796
2926,-0.09103126
2927,0.113994226
2928,0.109818466
2929,-0.04049984
2930,-0.01980044
2931,0.004017453
2932,-0.0105354395
2933,-0.107427746
2934,-0.13177194
2935,0.07087141
2936,-0.007136566
2937,0.026497224
2938,0.096233025
2939,0.000344237
2940,0.10523918
2941,0.00081150373
2942,-0.13274908
2943,-0.00039207033
2944,0.033034507
2945,-0.075743556
2946,-0.010960705
2947,0.021356145
2948,-0.03618512
2949,-0.18713671
2950,-0.030536586
2951,-0.014291421
2952,-0.014599758
2953,-0.008053893
2954,0.034545366
2955,0.05675073
2956,0.01743574
2957,-0.027682506
2958,0.06667283
2959,-0.10966421
2960,-0.0042038145
2961,0.0028529211
2962,0.06937195
2963,-0.048489
2964,0.016997084
2965,0.020727668
2966,0.045393817
2967,-0.0061224094
2968,-0.003992875
2969,-0.14094262
2970,-0.014208657
2971,0.046900246
2972,-0.007239584
2973,-0.0052294102
2974,0.05672887
2975,-0.019166384
2976,0.007783622
2977,0.005405365
2978,-0.0038350185
2979,0.043830547
2980,0.045226283
2981,-0.017587058
2982,0.053024564
2983,0.056817964
2984,0.0077974657
2985,0.01612833
2986,-0.0551294
2987,0.052529607
2988,0.028470527
2989,0.01901744
2990,-0.023690896
2991,-0.026265811
2992,-0.030529903
2993,0.030816752
2994,0.046692256
2995,-0.0053874888
2996,-0.0121052
2997,0.0043519386
2998,-0.06677474
2999,-0.15585068
3000,0.0023199294
3001,-0.03363967
3002,-0.08959616
3003,0.01031325
3004,-0.011049101
3005,0.013789756
3006,0.07315185
3007,0.032930132
3008,-0.0013425566
3009,-0.0006858312
3010,-0.009278106
3011,0.025752943
3012,-0.04681424
3013,-0.04002468
3014,-0.028782096
3015,0.048892923
3016,-0.03314354
3017,0.018878039
3018,-0.047367346
3019,-0.10038896
3020,-0.026387036
3021,-0.058847528
3022,0.02598305
3023,0.032469667
3024,-0.13329126
3025,0.029699966
3026,-0.051421296
3027,-0.06958155
3028,0.005044407
3029,-0.09189514
3030,-0.025130695
3031,0.032557264
3032,-0.13418588
3033,-0.0036497675
3034,-0.25347084
3035,-0.048842277
3036,0.004734094
3037,-0.04404758
3038,-0.05832873
3039,0.012825686
3040,-0.011324362
3041,-0.062011298
3042,-0.107546814
3043,0.036905464
3044,-0.0512365
3045,0.032641225
3046,0.041387517
3047,-0.03797494
3048,0.003916504
3049,0.015708238
3050,0.012395273
3051,-0.011210044
3052,-0.07450611
3053,0.017930659
3054,-0.035679426
3055,0.0070687034
3056,-0.2039831
3057,-0.029027097
3058,0.030974038
3059,0.003842282
3060,-0.023479953
3061,0.03481074
3062,0.063384995
3063,-0.06797924
3064,-0.08027618
3065,-0.04601398
3066,0.0459163
3067,0.011635038
3068,-0.043196302
3069,0.0039337496
3070,0.011115554
3071,0.0026513287
3072,0.041899852
3073,0.08281031
3074,0.0032221708
3075,-0.0034587274
3076,0.013336207
3077,0.04500654
3078,-0.03199807
3079,-0.20353098
3080,0.066136576
3081,-0.07703305
3082,0.0033697549
3083,-0.14599346
3084,0.04601945
3085,-0.05922422
3086,0.0041186493
3087,0.032863133
3088,-0.0042655
3089,-0.018822934
3090,0.014716575
3091,0.06340933
3092,0.021967435
3093,0.07272185
3094,0.078617215
3095,0.14518927
3096,0.056412555
3097,-0.05134153
3098,-0.009312562
3099,0.06521951
3100,-0.124832615
3101,0.112605505
3102,0.028557189
3103,-0.047566205
3104,-0.0070363716
3105,-0.019876182
3106,0.15293743
3107,-0.17543882
3108,0.008702617
3109,-0.08541793
3110,0.0046235244
3111,0.112752765
3112,-0.0065050614
3113,-0.03073089
3114,0.07708979
3115,0.0935292
3116,-0.06301223
3117,-0.017952396
3118,-0.13031283
3119,-0.023686344
3120,0.03900721
3121,-0.06826563
3122,-0.007617962
3123,0.00062375626
3124,-0.1283533
3125,0.0048224917
3126,-0.0034945374
3127,-0.015291649
3128,0.06299837
3129,0.0030885732
3130,-0.08158934
3131,-0.051725157
3132,-0.013612291
3133,-0.090398304
3134,0.08145028
3135,0.08101567
3136,0.003754445
3137,0.07121597
3138,-0.015789315
3139,0.06982174
3140,0.07449888
3141,0.066422
3142,0.018436028
3143,0.07696502
3144,0.12622088
3145,0.05006821
3146,0.05331233
3147,-0.06558528
3148,-0.06432072
3149,-0.04558497
3150,-0.002034193
3151,-0.12580247
3152,-0.063003704
3153,0.011873844
3154,-0.041740365
3155,-0.06550911
3156,0.104738034
3157,-0.0934632
3158,-0.102986544
3159,-0.07875605
3160,-0.23910889
3161,-0.017821973
3162,-0.09981966
3163,-0.026988821
3164,-0.044380765
3165,-0.09070579
3166,0.126779
3167,0.003453269
3168,-0.010190651
3169,0.068984486
3170,-0.15710436
3171,0.06866915
3172,-0.033898763
3173,-0.069113106
3174,0.045746535
3175,-0.02750759
3176,-0.014247638
3177,-0.04636255
3178,0.057957195
3179,0.119626135
3180,-0.12154647
3181,-0.033703294
3182,0.029529445
3183,-0.019736277
3184,0.049579352
3185,-0.06168488
3186,0.00035755924
3187,-0.015665155
3188,0.058533877
3189,0.095807105
3190,0.050599184
3191,-0.04289943
3192,-0.13824302
3193,-0.09821235
3194,0.123307824
3195,-0.007137908
3196,0.07627605
3197,-0.009282551
3198,0.04986362
3199,-0.010957825
3200,0.0347124
3201,-0.035347603
3202,-0.012839662
3203,0.06249575
3204,0.04919066
3205,-0.38625655
3206,-0.14680856
3207,-0.080948114
3208,-0.007881207
3209,-0.018662741
3210,0.077333845
3211,0.078089036
3212,-0.059101548
3213,-0.08366094
3214,0.04122389
3215,-0.08109515
3216,-0.0056240917
3217,0.069046885
3218,0.07846302
3219,0.054571472
3220,0.08281813
3221,0.06156583
3222,-0.06136876
3223,-0.05123002
3224,-0.12667917
3225,-0.046235263
3226,-0.000102566526
3227,-0.05758582
3228,-0.094971344
3229,-0.22458403
3230,0.048002485
3231,-0.04828006
3232,-0.007165241
3233,-0.012207144
3234,-0.0033197324
3235,0.065613516
3236,0.0727877
3237,0.012109623
3238,0.05898739
3239,-0.010920328
3240,-0.031535726
3241,-0.01060993
3242,0.0083136475
3243,0.097854644
3244,0.033674728
3245,0.030267065
3246,-0.05048989
3247,0.012945428
3248,-0.060093757
3249,0.11409072
3250,0.0066940775
3251,-0.018038616
3252,0.0759717
3253,-0.09086517
3254,-0.057337586
3255,-0.021113483
3256,-0.23386386
3257,-0.088553995
3258,-0.025249239
3259,-0.00493141
3260,-0.007170016
3261,-0.08507769
3262,0.012272959
3263,0.017365389
3264,0.0009099968
3265,0.01647691
3266,0.06949099
3267,-0.08176492
3268,-0.05327465
3269,-0.044642337
3270,0.09068617
3271,-0.036440734
3272,-0.08232117
3273,-0.22230801
3274,-0.084858835
3275,-0.044995263
3276,-0.062832095
3277,-0.07686379
3278,0.06854475
3279,0.113524735
3280,-0.08989992
3281,0.07417909
3282,-0.062293492
3283,-0.023737047
3284,-0.05320349
3285,-0.28638262
3286,-0.17341422
3287,-0.04507711
3288,-0.02733613
3289,-0.049753685
3290,0.040332936
3291,-0.14467056
3292,-0.0518835
3293,0.076923296
3294,-0.10179194
3295,-0.010945743
3296,-0.0028674423
3297,-0.10000314
3298,-0.069261394
3299,-0.10925622
3300,0.025254108
3301,0.026692253
3302,0.0380045
3303,-0.16840765
3304,-0.014100155
3305,-0.053633433
3306,0.021776835
3307,-0.070621125
3308,-0.06222001
3309,0.052959584
3310,-0.089131266
3311,-0.12550433
3312,-0.2161987
3313,-0.08667115
3314,0.0633055
3315,-0.06688856
3316,0.0797366
3317,0.024288906
3318,0.036630128
3319,-0.050316073
3320,-0.04031846
3321,-0.026184557
3322,-0.07281132
3323,-0.045274414
3324,-0.10312364
3325,0.07775834
3326,0.027891636
3327,-0.003365794
3328,-0.013363702
3329,-0.012390402
3330,-0.010232796
3331,0.007477112
3332,-0.04340479
3333,-0.22338505
3334,0.017628388
3335,-0.04542594
3336,0.03599702
3337,-0.032994606
3338,-0.051667675
3339,0.08043178
3340,0.028909244
3341,-0.03196773
3342,-0.0523153
3343,0.024641313
3344,-0.017293803
3345,-0.0027427732
3346,0.029210672
3347,-0.014737936
3348,-0.091541
3349,-0.03408278
3350,0.042701665
3351,0.020973423
3352,0.014566456
3353,-0.045804936
3354,0.00017547923
3355,0.018551514
3356,-0.2054641
3357,-0.00265501
3358,0.00874211
3359,-0.009327422
3360,-0.01133201
3361,-0.010590678
3362,0.049336307
3363,-0.12261212
3364,-0.0846499
3365,-0.06200707
3366,-0.012903699
3367,0.07113564
3368,-0.022283705
3369,-0.027357819
3370,-0.102740474
3371,0.00025377917
3372,0.018795177
3373,0.0067416
3374,-0.013277263
3375,-0.05559892
3376,-0.028544549
3377,-0.10124465
3378,0.0010476245
3379,0.006447178
3380,-0.11332261
3381,-0.034664646
3382,-0.016609846
3383,-0.030117208
3384,0.033480488
3385,0.020733004
3386,-0.03778863
3387,0.004092433
3388,-0.039167546
3389,0.002241392
3390,-0.01249991
3391,-0.028056374
3392,-0.005097827
3393,-0.03162826
3394,-0.0005087749
3395,-0.011740476
3396,0.04192973
3397,-0.06420374
3398,-0.04838936
3399,0.027286867
3400,-0.029380796
3401,0.080041
3402,0.022359772
3403,-0.056064475
3404,0.002044608
3405,-0.01111363
3406,-0.0040229056
3407,-0.14059092
3408,-0.03373646
3409,-0.14738281
3410,-0.033444304
3411,-0.0016923011
3412,-0.005549794
3413,0.011051645
3414,-0.058633298
3415,0.021284414
3416,-0.020050941
3417,-0.015077311
3418,0.061150122
3419,0.020659346
3420,-0.030749487
3421,-0.026728695
3422,-0.041678276
3423,-0.040710315
3424,-0.01780025
3425,-0.008631654
3426,-0.014674771
3427,0.05652315
3428,0.0034156176
3429,-0.039698318
3430,-0.08837767
3431,0.010630282
3432,0.010569761
3433,-0.030414013
3434,-0.08714123
3435,0.0060651423
3436,-0.09403492
3437,0.05175943
3438,-0.08677689
3439,0.03781113
3440,-0.29056534
3441,-0.14261998
3442,-0.026653579
3443,-0.026956111
3444,-0.08337137
3445,-0.004389879
3446,-0.06235222
3447,-0.015052269
3448,-0.039273262
3449,0.010941932
3450,0.088206716
3451,0.010764443
3452,-0.004008283
3453,0.012023605
3454,-0.03354713
3455,-0.008469994
3456,-0.04679637
3457,-0.038621437
3458,0.0016491308
3459,-0.021644609
3460,-0.0052032964
3461,-0.19260584
3462,0.070746675
3463,-0.0015876561
3464,-0.039087597
3465,0.020255355
3466,-0.009840941
3467,0.05502873
3468,0.03705849
3469,0.013345376
3470,-0.0025976163
3471,-0.07923001
3472,0.0030341458
3473,-0.021098435
3474,-0.056275625
3475,-0.011718237
3476,-0.085204735
3477,-0.049159233
3478,-0.0065582967
3479,-0.028003523
3480,0.052511383
3481,0.039310534
3482,-0.0031637496
3483,0.0146516515
3484,0.059606045
3485,-0.007834462
3486,-0.070695184
3487,0.00984053
3488,-0.0077868183
3489,-0.0013930401
3490,-0.048109252
3491,-0.082755044
3492,-0.02406136
3493,0.04761628
3494,-0.025639586
3495,-0.0540979
3496,0.03147827
3497,-0.014552365
3498,-0.007994666
3499,-0.08148849
3500,0.0025056107
3501,-0.036348615
3502,0.033445798
3503,-0.1323139
3504,0.09588483
3505,-0.07637252
3506,0.003005377
3507,0.00741048
3508,0.0333444
3509,0.036471874
3510,0.04479557
3511,-0.03868594
3512,0.076285735
3513,0.106774665
3514,0.06611764
3515,0.0015828166
3516,0.0009382167
3517,0.03733134
3518,-0.0024772007
3519,0.008933179
3520,-0.004150207
3521,-0.05453925
3522,-0.118703716
3523,0.0146338325
3524,-0.071295865
3525,-0.005744609
3526,-0.070571914
3527,-0.029605007
3528,-0.03342509
3529,-0.010764653
3530,-0.031316098
3531,0.050726626
3532,0.024970844
3533,0.016383119
3534,-0.010691103
3535,-0.061896298
3536,-0.09915872
3537,-0.023637697
3538,0.011028663
3539,-0.10138112
3540,-0.01379996
3541,0.037554055
3542,-0.03623041
3543,0.002642562
3544,0.05214139
3545,0.08861229
3546,-0.04296371
3547,0.05870897
3548,0.042936694
3549,0.051403463
3550,0.008945522
3551,0.05391
3552,-0.010561797
3553,0.022679713
3554,0.05185491
3555,-0.0151151875
3556,-0.042779382
3557,-0.0145165045
3558,-0.056908503
3559,0.059296478
3560,0.005391307
3561,0.030320965
3562,-0.08414691
3563,0.0022939236
3564,-0.0029079926
3565,-0.05703504
3566,0.013560098
3567,0.06603919
3568,-0.02175707
3569,0.05043054
3570,-0.021025991
3571,0.07977391
3572,-0.11211837
3573,-0.038337626
3574,-0.011449629
3575,0.07306777
3576,0.050246004
3577,0.02206564
3578,-0.041544184
3579,-0.06273823
3580,0.07527686
3581,-0.02346783
3582,-0.02755687
3583,0.0065694368
3584,0.03311246
3585,-0.018480385
3586,0.019700373
3587,-0.012378945
3588,-0.14977163
3589,-0.13252623
3590,-0.30388448
3591,-0.055129703
3592,-0.0131852515
3593,-0.0037789843
3594,0.022233937
3595,-0.025772376
3596,-0.0050394973
3597,-0.026476536
3598,-0.010499016
3599,0.06196719
3600,-0.00700437
3601,-0.075747326
3602,-0.010722116
3603,0.1291353
3604,-0.13410401
3605,0.043732747
3606,0.033304993
3607,-0.17370042
3608,-0.21453945
3609,-0.4290124
3610,-0.0017081461
3611,-0.049515653
3612,-0.075118944
3613,-0.17437886
3614,-0.02049851
3615,-0.005568968
3616,-0.0015581474
3617,0.012570417
3618,-0.027422773
3619,-0.21256134
3620,0.017126126
3621,-0.14450246
3622,-0.07858382
3623,-0.16618723
3624,-0.06831668
3625,-0.040459815
3626,0.016611665
3627,-0.007899025
3628,0.010663002
3629,-0.038680878
3630,-0.056396242
3631,-0.06087026
3632,-0.12832528
3633,-0.18941079
3634,0.009496354
3635,0.0029512835
3636,-0.018586969
3637,-0.17214273
3638,-0.022047343
3639,-0.07393081
3640,-0.11185522
3641,-0.2719656
3642,-0.3936774
3643,-0.14617416
3644,-0.019874083
3645,-0.12960714
3646,0.009267224
3647,-0.09691286
3648,-0.007845719
3649,0.022473063
3650,-0.059295468
3651,-0.122923985
3652,0.0045138346
3653,-0.39223185
3654,-0.09497301
3655,0.0031339058
3656,-0.06927247
3657,-0.13512032
3658,-0.07070531
3659,-0.078487344
3660,-0.041081686
3661,-0.05031733
3662,-0.028666262
3663,-0.21519014
3664,0.05796676
3665,-0.10949007
3666,0.0007196496
3667,-0.090189554
3668,-0.17613521
3669,-0.041025553
3670,-0.18448862
3671,-0.19393116
3672,-0.03496032
3673,-0.20322672
3674,-0.049384028
3675,-0.338197
3676,-0.06587962
3677,-0.1280726
3678,-0.2835708
3679,-0.11794295
3680,-0.015863301
3681,-0.23064815
3682,-0.030783944
3683,-0.10110367
3684,0.01454527
3685,-0.07220136
3686,-0.06382074
3687,-0.280675
3688,-0.1669263
3689,-0.058868095
3690,-0.0744923
3691,-0.17199351
3692,-0.0885984
3693,0.010519881
3694,-0.0067237094
3695,-0.10827322
3696,-0.11513038
3697,-0.17272767
3698,-0.038131386
3699,-0.11747516
3700,-0.02345535
3701,0.04023617
3702,0.025833974
3703,-0.3282876
3704,-0.04202381
3705,-0.06986417
3706,-0.041725717
3707,-0.002521962
3708,-0.19075963
3709,-0.07235077
3710,0.040689543
3711,-0.056982923
3712,0.012090696
3713,0.023018818
3714,-0.002411559
3715,-0.0062297597
3716,0.07263668
3717,0.10762398
3718,-0.038414337
3719,-0.025172051
3720,0.13014822
3721,0.073393725
3722,0.03272562
3723,0.0827363
3724,-0.07175537
3725,-0.04029011
3726,-0.018754462
3727,0.029902555
3728,0.0068871807
3729,0.01735051
3730,0.023412101
3731,0.061673995
3732,-0.0476975
3733,-0.022115013
3734,-0.07111312
3735,0.01447856
3736,0.0147387
3737,-0.0040228902
3738,0.0047671315
3739,0.010438061
3740,-0.0144253755
3741,0.031830665
3742,-0.028230162
3743,-0.12124722
3744,-0.00032474208
3745,0.0054474925
3746,0.05213201
3747,0.07022418
3748,0.0057211444
3749,0.06307381
3750,0.010743002
3751,-0.020568347
3752,-0.04154035
3753,-0.048560787
3754,0.07475797
3755,-0.059016243
3756,0.010007208
3757,0.0048823124
3758,-0.03523246
3759,0.10692078
3760,-0.013920866
3761,0.053092405
3762,-0.011028571
3763,-0.0054419613
3764,-0.049738463
3765,-0.042954154
3766,-0.051327188
3767,0.051746372
3768,0.029849745
3769,0.0044698627
3770,-0.012398943
3771,0.056769807
3772,-0.034208484
3773,0.07931857
3774,0.034492638
3775,0.0013375344
3776,-0.0025237496
3777,-0.032746237
3778,0.06981698
3779,-0.019920873
3780,0.042066544
3781,0.015969198
3782,0.066210054
3783,0.011533119
3784,0.011401275
3785,0.06246606
3786,0.03441896
3787,-0.09643288
3788,-0.029116215
3789,-0.058431994
3790,-0.031400718
3791,0.040282182
3792,0.10533933
3793,0.014751243
3794,-0.044715937
3795,0.07806723
3796,0.006264038
3797,-0.07305911
3798,0.0071524875
3799,0.07892427
3800,-0.024263898
3801,0.02638603
3802,0.08714095
3803,-0.040930223
3804,-0.08691818
3805,0.063607804
3806,0.041479103
3807,-0.014993419
3808,0.012273467
3809,0.0040344303
3810,-0.06855184
3811,0.05314534
3812,-0.0049298876
3813,-0.094378605
3814,0.018741729
3815,0.009781186
3816,0.07713985
3817,-0.049950287
3818,0.02083685
3819,-0.0024921787
3820,-0.13119
3821,-0.07667596
3822,-0.23980375
3823,-0.0030979214
3824,0.029340535
3825,0.0025219526
3826,-0.024110198
3827,-0.067731224
3828,0.005221269
3829,-0.026746362
3830,-0.01544174
3831,-0.030137744
3832,-0.07162516
3833,-0.045517627
3834,0.051492985
3835,-0.03425119
3836,-0.039451648
3837,0.019641781
3838,-0.011926911
3839,-0.039349176
3840,0.010419108
3841,-0.04686109
3842,0.006269547
3843,-0.027902646
3844,0.039146166
3845,0.049946822
3846,-0.050998684
3847,0.043168064
3848,-0.007673003
3849,-0.06128469
3850,0.011062792
3851,0.029676232
3852,0.028285028
3853,-0.032423537
3854,0.008006938
3855,0.18859677
3856,0.0013582077
3857,0.01901285
3858,0.032443482
3859,0.04303532
3860,0.05221598
3861,-0.026263142
3862,-0.045511216
3863,0.004718784
3864,-0.011533291
3865,0.050791025
3866,-0.01292346
3867,0.053005166
3868,-0.04190717
3869,-0.026130414
3870,0.029822417
3871,0.027296355
3872,-0.002682199
3873,-0.0010897181
3874,0.01887874
3875,0.09110842
3876,0.012201072
3877,-0.01547682
3878,0.002427324
3879,0.1093908
3880,-0.017111545
3881,0.019840674
3882,0.032620225
3883,0.034385655
3884,0.07420993
3885,0.02899027
3886,-0.00040367857
3887,-0.014548175
3888,-0.0018083735
3889,0.07667957
3890,0.04047365
3891,-0.0055532563
3892,0.004072806
3893,0.061328903
3894,0.0016153685
3895,0.06884905
3896,0.013048958
3897,-0.07203406
3898,0.03324597
3899,0.02899949
3900,-0.015838893
3901,0.020010369
3902,-0.01289167
3903,0.17127657
3904,-0.018122995
3905,-0.009359699
3906,-0.037941117
3907,0.09533205
3908,-0.015523766
3909,0.08459554
3910,0.03758788
3911,0.16935058
3912,-0.025442451
3913,-0.040947963
3914,-0.027083565
3915,-0.0061882823
3916,0.040780384
3917,0.058075342
3918,-0.05025505
3919,0.076983064
3920,0.009542598
3921,0.038646918
3922,0.10275268
3923,-0.025184764
3924,-0.023087664
3925,0.10756255
3926,0.02642386
3927,0.027836049
3928,-0.050294906
3929,-0.012761035
3930,0.060031854
3931,-0.049914535
3932,-0.0010210511
3933,-0.025861528
3934,-0.04584716
3935,0.030612256
3936,-0.021779053
3937,-0.014235352
3938,-0.033637032
3939,0.023498269
3940,-0.030715873
3941,0.012554507
3942,0.048617095
3943,-0.04411239
3944,0.053824883
3945,-0.08857686
3946,0.049713794
3947,0.04678418
3948,-0.08884269
3949,0.05998606
3950,-0.0045063132
3951,-0.08268858
3952,-0.0055139256
3953,-0.033808134
3954,0.025375558
3955,-0.008534275
3956,0.0077428007
3957,-0.016681954
3958,-0.015510896
3959,0.05626685
3960,0.0025210145
3961,0.01589308
3962,0.046685528
3963,-0.011132303
3964,0.056376416
3965,0.033907928
3966,-0.038781743
3967,0.011637066
3968,0.019245252
3969,-0.07014163
3970,-0.008827646
3971,-0.030915756
3972,-0.09408154
3973,0.05678265
3974,-0.14686792
3975,-0.0802819
3976,0.08849374
3977,-0.0993895
3978,-0.07872432
3979,-0.052198913
3980,0.044122536
3981,-0.038687743
3982,-0.13002187
3983,0.059852168
3984,-0.00086145033
3985,-0.03334117
3986,-0.05622167
3987,-0.045190413
3988,0.07782962
3989,0.021050643
3990,0.008736427
3991,0.07905895
3992,0.102327764
3993,-0.25296232
3994,-0.0072841537
3995,0.018388147
3996,-0.047957234
3997,0.059612975
3998,-0.06991176
3999,-0.0692111
4000,-0.0072322865
4001,-0.00013837186
4002,0.027232772
4003,0.04704517
4004,-0.0041171005
4005,-0.12016064
4006,-0.022711571
4007,-0.048653703
4008,-0.005514304
4009,-0.014731986
4010,0.037874117
4011,0.07381892
4012,-0.013479112
4013,-0.009202243
4014,-0.083228484
4015,-0.023116346
4016,-0.1004486
4017,0.022498263
4018,-0.00011575248
4019,-0.0059544896
4020,-0.16709116
4021,0.012775457
4022,-0.0023337833
4023,0.03432562
4024,0.0022985546
4025,0.06302184
4026,-0.23754008
4027,-0.13513985
4028,0.0064289295
4029,-0.13753235
4030,-0.07297584
4031,-0.082804896
4032,0.013198334
4033,-0.044843223
4034,-0.067305714
4035,0.0356639
4036,-0.006992711
4037,0.05173364
4038,-0.0509389
4039,0.010887172
4040,0.010935972
4041,-0.007179948
4042,-0.004017259
4043,-0.0017217284
4044,-0.11992625
4045,-0.0077040507
4046,-0.004900383
4047,0.03415562
4048,-0.008751553
4049,0.023363004
4050,-0.03872325
4051,-0.0076222103
4052,0.04614626
4053,-0.084110305
4054,-0.10352381
4055,-0.049874786
4056,-0.1821641
4057,-0.03396739
4058,-0.060304336
4059,-0.04818378
4060,-0.024986226
4061,-0.13695836
4062,0.035827585
4063,-0.0383931
4064,-0.03249836
4065,-0.012265629
4066,-0.048288763
4067,0.022465562
4068,-0.032801867
4069,0.07982179
4070,0.04043832
4071,-0.03192685
4072,-0.14419934
4073,-0.04152958
4074,0.062689126
4075,0.0021697134
4076,-0.0898776
4077,-0.11049901
4078,-0.19196784
4079,0.087814875
4080,0.031178357
4081,0.004584395
4082,-0.046436504
4083,-0.034901224
4084,-0.01833066
4085,-0.011268445
4086,0.045190465
4087,-0.13738264
4088,-0.1025021
4089,-0.065836884
4090,-0.0055608703
4091,0.017849732
4092,0.015723664
4093,-0.006145552
4094,0.0089480635
4095,-0.08180896
4096,-0.037330348
4097,-0.108123034
4098,-0.006998333
4099,0.0043027904
4100,-0.16804715
4101,-0.0025258514
4102,-0.15270124
4103,-0.088627286
4104,0.044499036
4105,-0.042551205
4106,-0.008047218
4107,0.020835279
4108,0.00035449222
4109,-0.04666314
4110,0.025347238
4111,-0.1447832
4112,-0.00197182
4113,-0.16228543
4114,-0.08810817
4115,0.061280385
4116,-0.021441998
4117,0.056897048
4118,0.030243823
4119,-0.11517823
4120,-0.044223472
4121,-0.24963333
4122,-0.0067577353
4123,-0.07330495
4124,-0.032614022
4125,-0.14184257
4126,-0.020348558
4127,-0.08491443
4128,-0.022240233
4129,-0.0050413725
4130,-0.006694753
4131,-0.21271977
4132,-0.023567427
4133,-0.10676735
4134,0.022140218
4135,0.03561784
4136,0.014379908
4137,-0.07803647
4138,-0.022318577
4139,-0.06255027
4140,-0.015934307
4141,-0.021912402
4142,-0.059374236
4143,-0.006300696
4144,-0.12546243
4145,-0.11029941
4146,-0.010490677
4147,-0.0018578598
4148,0.012996995
4149,-0.10684415
4150,-0.04437878
4151,-0.046085645
4152,-0.1698223
4153,-0.18770064
4154,-0.20968607
4155,-0.13644743
4156,-0.023841538
4157,-0.11044865
4158,0.070686415
4159,-0.1691124
4160,-0.008267852
4161,-0.0059662387
4162,0.016791195
4163,-0.06538156
4164,-0.056468338
4165,-0.15176974
4166,-0.10446771
4167,-0.075297564
4168,-0.082903616
4169,0.06399351
4170,-0.21558888
4171,-0.014009273
4172,-0.055426393
4173,-0.099690504
4174,-0.020912522
4175,-0.11008165
4176,0.057521556
4177,0.022209192
4178,-0.12185382
4179,0.003338996
4180,-0.16916549
4181,-0.11966396
4182,-0.12244025
4183,-0.19361275
4184,0.020028342
4185,-0.11540871
4186,-0.04389033
4187,-0.15684465
4188,-0.08086608
4189,-0.082611345
4190,-0.067529105
4191,-0.1779324
4192,-0.022531265
4193,-0.10229222
4194,0.0007288711
4195,-0.116829515
4196,0.02575083
4197,-0.07816726
4198,0.026904449
4199,-0.13288204
4200,-0.15585862
4201,-0.071924165
4202,0.02125912
4203,-0.10286553
4204,-0.058106244
4205,-0.07780228
4206,-0.07804174
4207,-0.03606788
4208,-0.08020205
4209,-0.12396341
4210,-0.014027058
4211,-0.12948598
4212,0.008791013
4213,0.04397465
4214,-0.016336512
4215,-0.111384325
4216,-0.025462577
4217,-0.09733758
4218,0.012689248
4219,-0.050229296
4220,-0.2791159
4221,-0.11226524
4222,0.035041638
4223,-0.070382915
4224,-0.038059063
4225,0.07767843
4226,-0.0039593857
4227,-0.033951253
4228,0.08833379
4229,0.022166379
4230,-0.01761444
4231,-0.00860539
4232,0.08828201
4233,0.049204424
4234,-0.0060915905
4235,0.07735467
4236,-0.028287949
4237,0.016530057
4238,-0.003511544
4239,-0.08164799
4240,-0.004465802
4241,0.03114845
4242,-0.009224224
4243,0.060148347
4244,-0.05347366
4245,0.018950434
4246,-0.03851453
4247,-0.0023590815
4248,-0.023848457
4249,-0.046880517
4250,-0.0011414996
4251,-0.00073962385
4252,0.026857123
4253,0.014373531
4254,-0.044533275
4255,-0.008593109
4256,-0.019649876
4257,-0.0014249617
4258,0.12044012
4259,-0.06305476
4260,-0.049281564
4261,0.05929241
4262,-0.014457405
4263,0.011679049
4264,-0.026508853
4265,0.01406593
4266,0.06303346
4267,-0.078745574
4268,0.009294629
4269,-0.029924424
4270,0.009618243
4271,-0.10168262
4272,-0.015221667
4273,-0.030236078
4274,-0.013237171
4275,0.012097567
4276,0.07116061
4277,-0.08026007
4278,-0.012793401
4279,-0.005973267
4280,-0.009279512
4281,0.0017401348
4282,-0.043767218
4283,0.052353803
4284,0.0021792683
4285,0.08709216
4286,0.045972835
4287,0.021444231
4288,-0.0013579002
4289,0.017778935
4290,-0.07798967
4291,-0.013497688
4292,0.11950744
4293,-0.031617053
4294,0.03872704
4295,0.028330605
4296,0.06569752
4297,0.041487206
4298,0.050185326
4299,0.051547322
4300,0.0032341315
4301,-0.011994002
4302,-0.0019733708
4303,-0.031789526
4304,-0.11831358
4305,0.017458273
4306,-0.0155824395
4307,-0.040145405
4308,0.015738133
4309,0.030257635
4310,-0.011586771
4311,0.060953297
4312,0.083715476
4313,0.0016742941
4314,0.00038057414
4315,0.0025329192
4316,-0.01060296
4317,0.046143267
4318,0.0031425701
4319,-0.00738259
4320,-0.0044536563
4321,-0.0026853678
4322,0.034746446
4323,-0.013933975
4324,-0.026570098
4325,-0.0071679344
4326,-0.05399265
4327,0.0010590446
4328,0.092930175
4329,0.021024834
4330,-0.082551986
4331,0.005630457
4332,0.01969571
4333,-0.02139027
4334,0.026102407
4335,-0.0071246256
4336,-0.18659331
4337,0.014559892
4338,-0.028594628
4339,0.010633109
4340,-0.027934222
4341,0.005178527
4342,-0.03856347
4343,0.0023258743
4344,0.03993391
4345,-0.0041940785
4346,0.115579225
4347,-0.012469511
4348,-0.03250867
4349,0.030478833
4350,0.041364606
4351,0.00689958
4352,-0.045442455
4353,0.06417823
4354,-0.005953068
4355,-0.00047651023
4356,-0.0051069334
4357,0.002891728
4358,0.12931827
4359,-0.08549365
4360,0.012293412
4361,-0.23923199
4362,-0.020896506
4363,-0.042160362
4364,0.008772362
4365,0.009796488
4366,-0.0070478786
4367,-0.04441788
4368,-0.008723196
4369,0.008153511
4370,-0.008151676
4371,0.03051634
4372,0.04141907
4373,-0.10640492
4374,-0.08454289
4375,0.039915707
4376,0.07548022
4377,0.023978168
4378,-0.005426414
4379,-0.039978262
4380,-0.0073163696
4381,0.030872844
4382,-0.023559058
4383,-0.028143195
4384,-0.0036698345
4385,0.006628811
4386,0.04004035
4387,-0.15239654
4388,-0.01298633
4389,0.0072383964
4390,-0.033327386
4391,0.04037503
4392,-0.010448313
4393,0.009472531
4394,0.002860469
4395,-0.030148223
4396,-0.021601701
4397,-0.021491079
4398,-0.06546184
4399,-0.011689335
4400,0.013362506
4401,-0.049543787
4402,-0.04340294
4403,0.0050730766
4404,0.00044882332
4405,-0.0013806688
4406,0.00675613
4407,0.08726397
4408,-0.0051908325
4409,0.024853826
4410,0.029334955
4411,-0.021970134
4412,-0.01424178
4413,-0.024444342
4414,-0.13105452
4415,0.0022805536
4416,0.005553799
4417,-0.13928448
4418,-0.009728798
4419,-0.01214278
4420,0.034959186
4421,0.008807598
4422,-0.008792907
4423,-0.004924793
4424,0.028359251
4425,0.050693914
4426,-0.012909218
4427,-0.019164866
4428,0.01597448
4429,-0.017964281
4430,-0.015915245
4431,-0.07820771
4432,0.06097831
4433,0.07000345
4434,-0.0088547515
4435,0.00370155
4436,0.029746009
4437,-0.013034113
4438,-0.025099955
4439,-0.013139241
4440,-0.03324879
4441,0.06087518
4442,0.086373985
4443,-0.057881482
4444,0.009693154
4445,0.006356489
4446,0.016589662
4447,-0.0045000105
4448,-0.013429371
4449,0.020766888
4450,-0.013885664
4451,-0.026895689
4452,-0.02253885
4453,-0.07566229
4454,0.026454762
4455,-0.00040154543
4456,0.02510471
4457,0.009326405
4458,-0.04514084
4459,0.02805386
4460,0.0030939484
4461,-0.09204085
4462,0.01132826
4463,0.015586963
4464,0.010268456
4465,-0.007902195
4466,-0.0123375505
4467,0.068876445
4468,-0.036850624
4469,-0.11312793
4470,-0.071230315
4471,0.007164835
4472,-0.0015240613
4473,0.032003377
4474,-0.11003292
4475,-0.0075285654
4476,0.029045343
4477,0.009225925
4478,-0.1144446
4479,0.010349299
4480,-0.027720442
4481,-0.0071560997
4482,0.01674866
4483,-0.010764257
4484,0.0105180405
4485,-0.14762694
4486,0.053955406
4487,-0.043806016
4488,-0.026171226
4489,0.009533467
4490,-0.068758905
4491,0.04666212
4492,-0.016958283
4493,-0.025160361
4494,-0.037943795
4495,-0.1225975
4496,-0.0016687508
4497,-0.026119338
4498,-0.012421606
4499,-0.046688072
4500,0.0011076557
4501,-0.034806475
4502,-0.016449504
4503,-0.058800463
4504,0.06018645
4505,0.111051075
4506,0.008055284
4507,-0.027931359
4508,-0.013001341
4509,-0.03246175
4510,-0.019707518
4511,-0.1054966
4512,-0.019403636
4513,-0.008720115
4514,-0.14208621
4515,-0.04214799
4516,-0.10644628
4517,0.0029874002
4518,-0.06710659
4519,-0.0807565
4520,-0.06328726
4521,0.004431569
4522,0.007779652
4523,0.019975835
4524,-0.008250244
4525,-0.040076897
4526,-0.025239773
4527,-0.0043210327
4528,0.067396864
4529,-0.014092073
4530,-0.08733492
4531,-0.002373344
4532,0.019887751
4533,0.068289354
4534,0.012549607
4535,-0.04190384
4536,0.01859802
4537,0.13167241
4538,0.11566129
4539,-0.0074403007
4540,-0.02505644
4541,0.0610038
4542,-0.00084418175
4543,0.06805566
4544,-0.0109616835
4545,-0.039574485
4546,-0.05674221
4547,-0.03925088
4548,-0.07418979
4549,0.024351696
4550,-0.019186186
4551,-0.058920536
4552,-0.06322107
4553,-0.041269008
4554,-0.019204354
4555,0.03148026
4556,-0.042163875
4557,-0.0032778955
4558,-0.013432408
4559,-0.024169602
4560,-0.008144778
4561,0.011207122
4562,-0.015633315
4563,-0.12764043
4564,-0.07039675
4565,-0.025395475
4566,-0.010317313
4567,0.028444147
4568,0.013008232
4569,0.06598827
4570,-0.040713053
4571,0.061105177
4572,-0.001667982
4573,0.0048066447
4574,0.017620191
4575,0.09219128
4576,-0.010355434
4577,-0.0041329213
4578,0.04405531
4579,-0.08072693
4580,-0.0015615348
4581,0.041925695
4582,0.018602205
4583,0.0868134
4584,0.015016362
4585,0.0057797455
4586,0.047589257
4587,-0.044774793
4588,-0.04258107
4589,-0.13032393
4590,-0.07486763
4591,0.04884123
4592,-0.104109645
4593,0.038525455
4594,-0.077513464
4595,0.014758083
4596,-0.010720345
4597,-0.028761432
4598,0.021589577
4599,0.08137806
4600,0.026815845
4601,-0.021237854
4602,-0.17421094
4603,0.008016186
4604,0.011342401
4605,-0.013114498
4606,-0.029069211
4607,-0.03543
4608,0.04658635
4609,-0.14284341
4610,-0.030441739
4611,-0.025120134
4612,0.09022803
4613,-0.057436846
4614,0.033752326
4615,0.045610428
4616,-0.18210632
4617,0.05570843
4618,0.012325745
4619,0.023945011
4620,-0.12112716
4621,0.028598446
4622,0.006606829
4623,0.053278323
4624,-0.024228279
4625,0.08425846
4626,0.020154743
4627,-0.006883868
4628,-0.07158721
4629,0.01484802
4630,-0.021974523
4631,-0.03652915
4632,0.014482096
4633,0.12605943
4634,-0.008512348
4635,-0.10321256
4636,0.045271806
4637,-0.032361466
4638,0.02310897
4639,0.038560163
4640,0.0122884605
4641,-0.00051948865
4642,-0.2993454
4643,0.012969816
4644,0.038972493
4645,0.08652257
4646,-0.03715603
4647,-0.24840753
4648,-0.024994701
4649,0.0064733326
4650,-0.08602812
4651,-0.015591735
4652,0.02140768
4653,-0.064987786
4654,0.045055445
4655,-0.065304875
4656,-0.004900973
4657,-0.043862753
4658,0.041550055
4659,-0.008656863
4660,0.0076497192
4661,0.0013807921
4662,0.023279786
4663,-0.044302292
4664,0.039921463
4665,0.09303704
4666,0.086954735
4667,0.11619032
4668,-0.015646797
4669,0.1001345
4670,0.042195436
4671,0.0035656388
4672,-0.00048414926
4673,0.038081855
4674,-0.055324823
4675,-0.11667612
4676,-0.17216454
4677,-0.0013729561
4678,0.09905649
4679,-0.022247266
4680,-0.0589294
4681,-0.13062367
4682,-0.1453236
4683,0.029482676
4684,0.044019707
4685,0.007595748
4686,-0.01903822
4687,-0.009762132
4688,-0.13127205
4689,0.04254905
4690,-0.0020102586
4691,-0.03119756
4692,-0.013813636
4693,0.0042688996
4694,-0.17402504
4695,0.062835455
4696,-0.014773337
4697,0.039807156
4698,-0.059171174
4699,0.106964365
4700,0.035006694
4701,0.05646835
4702,-0.028311275
4703,-0.04507653
4704,-0.03100901
4705,-0.0077787098
4706,0.026001789
4707,-0.09394923
4708,-0.0019040413
4709,0.008909327
4710,-0.0795741
4711,0.022123814
4712,0.10341042
4713,0.036003303
4714,-0.1528489
4715,-0.02783155
4716,0.04329689
4717,0.042130046
4718,0.030563978
4719,-0.017917123
4720,-0.050204583
4721,0.03285957
4722,-0.012399175
4723,0.02554988
4724,0.043836474
4725,0.038148507
4726,0.054167807
4727,0.05174622
4728,0.013766868
4729,0.042721197
4730,-0.21251073
4731,0.029560888
4732,0.052570008
4733,0.08692164
4734,0.0013524024
4735,0.04403427
4736,-0.01141981
4737,-0.009479346
4738,0.007881212
4739,-0.01339797
4740,-0.05510808
4741,-0.10932508
4742,-0.104885645
4743,-0.053992912
4744,0.103614405
4745,0.019922705
4746,0.02026309
4747,0.03894036
4748,0.03424035
4749,-0.08702746
4750,0.03243113
4751,-0.21118541
4752,-0.0034319358
4753,-0.17086315
4754,-0.028351229
4755,0.043324906
4756,-0.06034667
4757,-0.08071759
4758,-0.03269828
4759,-0.027567605
4760,-0.10919436
4761,-0.008386557
4762,0.0021417728
4763,0.019894352
4764,0.020583557
4765,-0.080930434
4766,0.024541276
4767,-0.037510082
4768,0.00021938955
4769,-0.007819435
4770,0.058344815
4771,-0.14129785
4772,0.0071013216
4773,-0.09472641
4774,0.01925369
4775,0.02985728
4776,0.00015194819
4777,-0.031441454
4778,-0.009784369
4779,0.06236757
4780,0.01378298
4781,-0.008111166
4782,-0.040404603
4783,0.0025485053
4784,-0.0049695033
4785,-0.080827855
4786,-0.032556288
4787,-0.0026784483
4788,0.03538483
4789,-0.11960217
4790,-0.07739303
4791,-0.047839515
4792,-0.12841088
4793,-0.043851532
4794,-0.0006108937
4795,-0.0030237213
4796,0.011898617
4797,-0.07007021
4798,-0.09844716
4799,0.03266146
4800,-0.00581454
4801,-0.06434536
4802,0.008974958
4803,0.0274641
4804,0.023239076
4805,-0.03768978
4806,-0.08741961
4807,0.03591808
4808,0.06336778
4809,0.007623888
4810,-0.058145966
4811,0.0057310937
4812,-0.005353436
4813,-0.088692285
4814,-0.018324906
4815,-0.12077778
4816,-0.14343809
4817,-0.05992388
4818,-0.055900462
4819,-0.013363208
4820,0.010840654
4821,-0.11932959
4822,-0.011227387
4823,0.020962916
4824,0.04133189
4825,-0.02725469
4826,0.012563652
4827,-0.063652456
4828,-0.06530257
4829,-0.07480221
4830,-0.043224085
4831,0.01094287
4832,-0.027561184
4833,-0.015621866
4834,0.029780015
4835,-0.031877834
4836,-0.042799775
4837,-0.020358874
4838,-0.063083775
4839,-0.13945578
4840,-0.027275281
4841,-0.021426141
4842,0.0076479507
4843,0.05598293
4844,-0.08687105
4845,-0.040182248
4846,-0.12504421
4847,-0.10283395
4848,-0.2347
4849,0.0014056799
4850,0.015605699
4851,-0.03371333
4852,-0.060427934
4853,-0.1019805
4854,0.025207402
4855,-0.02212625
4856,-0.02792396
4857,-0.0226031
4858,0.005079461
4859,-0.003215986
4860,-0.011096724
4861,-0.13477257
4862,-0.10209971
4863,-0.062265977
4864,-0.028935824
4865,-0.09149762
4866,-0.011212707
4867,-0.012439558
4868,0.065156035
4869,-0.2098001
4870,-0.09710231
4871,-0.06218711
4872,0.07366894
4873,-0.010814941
4874,-0.0042808317
4875,0.036644038
4876,0.008514475
4877,-0.025008405
4878,-0.011734504
4879,0.041608732
4880,-0.010748558
4881,0.064369455
4882,-0.0038046124
4883,0.018234292
4884,0.0316943
4885,0.022974469
4886,-0.054867268
4887,-0.07701829
4888,-0.03151348
4889,-0.041813776
4890,-0.0016094705
4891,0.005120801
4892,-0.15839645
4893,-0.06549775
4894,-0.106330484
4895,-0.11669905
4896,-0.018083138
4897,-0.0038777834
4898,-0.008034691
4899,0.041332144
4900,-0.019942177
4901,0.014801317
4902,-0.06227475
4903,-0.047157284
4904,-0.0063993665
4905,-0.08982139
4906,-0.00060344074
4907,-0.055760033
4908,0.020819856
4909,-0.055719003
4910,-0.10535682
4911,-0.021631746
4912,-0.14293776
4913,0.04202946
4914,-0.026322726
4915,-0.012564379
4916,-0.057216164
4917,-0.06325423
4918,-0.016908126
4919,-0.03281731
4920,0.000910913
4921,-0.0443742
4922,-0.052810963
4923,0.07307841
4924,-0.004648597
4925,0.0925744
4926,0.024662958
4927,0.051848933
4928,-0.0122407535
4929,0.00047439718
4930,-0.08981457
4931,0.0017893284
4932,-0.09537142
4933,-0.050198376
4934,0.057066824
4935,0.02813784
4936,-0.089216374
4937,-0.09803733
4938,-0.030840967
4939,-0.07126811
4940,-0.15005189
4941,-0.08279926
4942,0.011286214
4943,0.059579547
4944,0.081956744
4945,-0.036573324
4946,-0.0523014
4947,-0.010630936
4948,-0.058664393
4949,-0.08957858
4950,-0.09175973
4951,0.01075706
4952,-0.06959165
4953,-0.06604943
4954,0.062480398
4955,-0.07336821
4956,-0.09625321
4957,0.015996402
4958,-0.024130119
4959,-0.15806839
4960,-0.011726397
4961,-0.013650592
4962,-0.07402087
4963,0.0453544
4964,-0.010408628
4965,-0.077042475
4966,0.020309761
4967,-0.025275668
4968,0.059383795
4969,-0.10981316
4970,-0.061326034
4971,-0.03690639
4972,-0.056085743
4973,-0.13441053
4974,-0.049756978
4975,-0.060841016
4976,-0.056516018
4977,-0.12522227
4978,-0.05257788
4979,-0.12643917
4980,0.016264476
4981,0.047161598
4982,-0.04622167
4983,-0.07408465
4984,-0.07196617
4985,-0.11582341
4986,0.0014635804
4987,-0.017927704
4988,-0.07659784
4989,0.07182716
4990,0.026454747
4991,-0.12827101
4992,-0.01975647
4993,0.24974336
4994,0.015481558
4995,0.19521356
4996,-0.023115743
4997,0.16662502
4998,-0.24249417
4999,-0.029781656
5000,0.16984515
5001,-0.015851203
5002,-0.040761154
5003,-0.12652203
5004,0.20087041
5005,0.06169375
5006,0.0046801795
5007,-0.09977574
5008,0.0004925254
5009,-0.057131898
5010,0.028971914
5011,-0.08750479
5012,-0.04935053
5013,-0.05580249
5014,0.050481163
5015,0.17252365
5016,0.018650971
5017,-0.26502976
5018,-0.009652834
5019,0.26791438
5020,-0.011030925
5021,0.21661496
5022,-0.022571243
5023,-0.04750083
5024,0.0114325285
5025,0.010642101
5026,0.2511311
5027,-0.074903004
5028,-0.08390022
5029,-0.008353396
5030,-0.06411671
5031,0.15426266
5032,-0.012434511
5033,-0.0117909545
5034,0.31859213
5035,0.05135468
5036,0.10007162
5037,0.19011375
5038,0.025590338
5039,0.24218538
5040,-0.092808045
5041,-0.14409363
5042,-0.055519566
5043,0.0022510234
5044,0.03409558
5045,-0.25086316
5046,-0.034329288
5047,0.20465367
5048,-0.33566144
5049,-0.14034896
5050,-0.2340257
5051,0.023200473
5052,0.022704685
5053,-0.03260176
5054,-0.025065837
5055,0.13028637
5056,-0.007842127
5057,-0.08692429
5058,0.19305815
5059,0.2728079
5060,0.2316806
5061,0.23171972
5062,-0.16088353
5063,0.06432724
5064,0.29999775
5065,-0.05254102
5066,0.21716943
5067,-0.068381935
5068,-0.041389905
5069,0.025045486
5070,-0.029331442
5071,-0.10253436
5072,0.2407331
5073,-0.2124535
5074,0.00964756
5075,0.13044494
5076,0.2567878
5077,-0.07074307
5078,-0.043430086
5079,-0.06562424
5080,-0.013280087
5081,-0.102065325
5082,0.19604784
5083,-0.2486317
5084,-0.036886193
5085,-0.066636
5086,0.2221576
5087,0.04413913
5088,-0.023134742
5089,0.1284164
5090,-0.033533335
5091,0.18324618
5092,0.013980832
5093,-0.06959809
5094,-0.034096025
5095,-0.18603125
5096,-0.030899383
5097,-0.029847605
5098,-0.02350952
5099,0.21467635
5100,0.047039837
5101,-0.013539453
5102,-0.02786134
5103,-0.22008239
5104,-0.0925713
5105,0.023398431
5106,0.0057578143
5107,-0.039672602
5108,-0.077754244
5109,0.009002636
5110,-0.013181952
5111,-0.2458728
5112,-0.038433168
5113,0.028320575
5114,0.27198145
5115,0.0520105
5116,-0.39767233
5117,-0.06658849
5118,-0.017324576
5119,0.025069607
5120,-0.028948331
5121,0.024403943
5122,-0.014205404
5123,-0.0028017254
5124,0.045506515
5125,-0.17704687
5126,0.048243105
5127,0.059877485
5128,0.10225698
5129,0.044564232
5130,-0.017945504
5131,0.100086726
5132,0.030396696
5133,-0.06271256
5134,-0.00249136
5135,0.079212256
5136,-0.014777228
5137,0.0028786168
5138,-0.10270054
5139,0.03170268
5140,-0.16542798
5141,-0.065002054
5142,-0.025735095
5143,0.036026184
5144,0.058375612
5145,0.06784563
5146,0.00061927387
5147,0.042615015
5148,0.05382579
5149,0.014890745
5150,0.002610798
5151,-0.076563366
5152,0.013440214
5153,0.0017868328
5154,0.031060405
5155,0.08823147
5156,-0.03761087
5157,0.0667913
5158,-0.037986398
5159,-0.010444196
5160,-0.005854431
5161,-0.0077270963
5162,0.0022150523
5163,-0.032612674
5164,0.05035804
5165,-0.03003056
5166,-0.020525297
5167,-0.018697564
5168,0.0581168
5169,-0.015150819
5170,-0.02185436
5171,0.0015822572
5172,0.038941808
5173,0.05913846
5174,-0.059594706
5175,0.003679816
5176,0.08243583
5177,0.08720068
5178,0.08767824
5179,0.03294302
5180,-0.004784617
5181,0.07934946
5182,0.0501968
5183,0.042245694
5184,8.187577e-05
5185,-0.07234088
5186,0.015080651
5187,0.049606938
5188,0.038699202
5189,0.122843385
5190,0.03424239
5191,0.025584871
5192,0.0294402
5193,0.032494918
5194,0.05933715
5195,0.017357837
5196,0.041771963
5197,-0.048289254
5198,-0.0029942808
5199,0.048280966
5200,0.007768307
5201,-0.007824723
5202,-0.029643198
5203,0.016623681
5204,0.01679927
5205,-0.074270025
5206,0.0450939
5207,0.040632986
5208,0.019236319
5209,0.10459875
5210,0.05502793
5211,0.03746919
5212,-0.07463486
5213,0.05555684
5214,0.03547301
5215,0.048673145
5216,-0.007901693
5217,0.1047883
5218,-0.011489447
5219,0.058104187
5220,0.01152265
5221,0.008852852
5222,-0.026556473
5223,0.10868181
5224,0.051119737
5225,0.006204058
5226,-0.05281934
5227,0.0179032
5228,-0.11153576
5229,-0.035231274
5230,-0.2648791
5231,0.06722081
5232,-0.0084164115
5233,0.056257825
5234,-0.015906071
5235,-0.062120132
5236,-0.13778035
5237,-0.04724314
5238,-0.03864509
5239,0.044462774
5240,-0.017343573
5241,-0.024795134
5242,0.13008246
5243,-0.037719853
5244,0.015115582
5245,0.014573703
5246,-0.041828416
5247,-0.018052168
5248,-0.04149788
5249,-0.088279486
5250,-0.015482648
5251,-0.059157245
5252,0.07630029
5253,-0.019003492
5254,-0.021291764
5255,0.002631901
5256,-0.05351481
5257,0.04101464
5258,-0.024768448
5259,0.03761837
5260,-0.060497727
5261,0.048141915
5262,6.1491264e-05
5263,0.006554319
5264,-0.013154785
5265,0.044927318
5266,0.052917432
5267,-0.1354539
5268,0.03801845
5269,0.038706932
5270,-0.02885082
5271,-0.0024114465
5272,0.048972275
5273,0.07164796
5274,0.017096644
5275,-0.06313748
5276,0.04269068
5277,0.02456213
5278,0.05105841
5279,-0.013747105
5280,-0.0094329715
5281,0.00236967
5282,-0.14618176
5283,-0.0012047181
5284,-0.050785504
5285,0.07883432
5286,-0.048091374
5287,-0.04509224
5288,0.048795424
5289,0.051591247
5290,-0.1543419
5291,0.015341253
5292,-0.04215645
5293,-0.0064935153
5294,0.062098745
5295,-0.01718113
5296,0.09312309
5297,0.03161869
5298,-0.02850488
5299,-0.009423058
5300,0.060130626
5301,-0.027456844
5302,0.001891466
5303,-0.018924253
5304,0.057962764
5305,0.09961919
5306,0.047103863
5307,0.077286825
5308,0.037380073
5309,0.10967938
5310,0.03310072
5311,-0.01185465
5312,-0.0035092933
5313,0.032317504
5314,-0.0045265323
5315,-0.020187182
5316,-0.14539061
5317,0.04851272
5318,0.06517076
5319,-0.08656419
5320,-0.03650755
5321,-0.15296523
5322,-0.037451204
5323,0.046837002
5324,0.06197148
5325,0.033747733
5326,-0.03367977
5327,0.030980954
5328,-0.051388256
5329,0.04933049
5330,0.041109335
5331,0.038395364
5332,-0.0051927874
5333,-0.0002913158
5334,-0.0010414537
5335,0.090936646
5336,0.06802897
5337,0.07357515
5338,-0.0012231425
5339,0.052825052
5340,0.05087972
5341,0.09558469
5342,0.015750315
5343,0.071445525
5344,-0.037201457
5345,0.06435918
5346,0.05197154
5347,-0.047708835
5348,-0.04638092
5349,0.057247356
5350,0.00920077
5351,0.042911995
5352,0.08186479
5353,0.08040197
5354,-0.15435642
5355,-0.01405644
5356,0.028110676
5357,0.038893852
5358,0.03414068
5359,0.05582909
5360,0.04854304
5361,0.08709028
5362,0.03210892
5363,0.07478694
5364,0.0455327
5365,0.051004082
5366,-0.025671953
5367,0.008349384
5368,0.041924465
5369,0.06324579
5370,-0.1672405
5371,0.015746586
5372,-0.018263623
5373,0.047961418
5374,0.046375226
5375,0.049003027
5376,0.05358463
5377,-0.07889874
5378,-0.0254655
5379,0.014758838
5380,-0.067521654
5381,0.0050217384
5382,-0.11488927
5383,-0.05739959
5384,-0.010715794
5385,-0.058643393
5386,0.013094534
5387,0.019905519
5388,-0.038556796
5389,-0.04100569
5390,0.016037928
5391,-0.031631064
5392,-0.012322825
5393,-0.017042223
5394,-0.0477748
5395,0.003949702
5396,0.037096668
5397,0.024883954
5398,-0.02743352
5399,0.04160829
5400,-0.043507647
5401,-0.023052977
5402,0.00070100115
5403,-0.022546418
5404,-0.10433206
5405,-0.14446034
5406,-0.011115995
5407,0.0025184504
5408,-0.0026394809
5409,-0.010336957
5410,0.015070993
5411,-0.08398621
5412,0.00021363139
5413,-0.10036577
5414,0.03153566
5415,0.01519132
5416,-0.06550358
5417,-0.05637389
5418,-0.041808322
5419,-0.027106168
5420,0.02180571
5421,0.01508995
5422,-0.051071804
5423,-0.14142023
5424,-0.01134611
5425,-0.009179634
5426,0.021295408
5427,0.003939066
5428,-0.015420845
5429,-0.057625063
5430,-0.037936047
5431,-0.05506099
5432,-0.22508235
5433,-0.21747887
5434,-0.05502131
5435,-0.13385172
5436,-0.0768245
5437,-0.1334091
5438,-0.0813988
5439,0.032489303
5440,0.004068742
5441,-0.058659665
5442,-0.02497004
5443,-0.03054233
5444,-0.09254862
5445,-0.018345548
5446,0.01267506
5447,-0.02409546
5448,-0.065273605
5449,-0.11963472
5450,-0.15764594
5451,-0.018447198
5452,-0.008983852
5453,-0.10680371
5454,-0.015762065
5455,-0.056716215
5456,-0.1688
5457,0.06561584
5458,-0.019467432
5459,-0.07494638
5460,-0.025939645
5461,-0.054597296
5462,-0.14164923
5463,-0.122896776
5464,-0.07815962
5465,-0.12431291
5466,-0.007754698
5467,-0.15016446
5468,-0.026720433
5469,-0.11598284
5470,-0.105367266
5471,0.018249923
5472,-0.024845114
5473,-0.13595384
5474,-0.003727852
5475,-0.10447166
5476,-0.038835954
5477,-0.029653963
5478,-0.030929979
5479,-0.17070083
5480,-0.10085966
5481,-0.0142929265
5482,-0.04783647
5483,0.0142058125
5484,-0.11577746
5485,0.030676633
5486,0.022610443
5487,-0.13653043
5488,-0.012381815
5489,-0.041220743
5490,0.006611514
5491,-0.023172602
5492,0.055910327
5493,-0.018598907
5494,0.001667845
5495,-0.05301181
5496,-0.024380954
5497,-0.010427669
5498,-0.023127673
5499,0.00025641275
5500,-0.088089354
5501,-0.033898205
5502,-0.001045828
5503,-0.0067713745
5504,-0.022242226
5505,0.058785956
5506,-0.017712526
5507,-0.021281013
5508,-0.05484965
5509,0.03488866
5510,0.011839407
5511,0.08416374
5512,0.10035941
5513,0.081401795
5514,-0.03602852
5515,-0.0015841608
5516,-0.03607189
5517,-0.022869783
5518,-0.008818599
5519,-0.12647578
5520,-0.015714478
5521,-0.3105889
5522,0.006828229
5523,0.077564605
5524,-0.1339969
5525,-0.14503898
5526,-0.05246302
5527,0.14889713
5528,0.09327959
5529,0.02210299
5530,-0.014633318
5531,0.03554473
5532,0.068506025
5533,0.10918507
5534,-0.041740395
5535,-0.15787083
5536,-0.0071438733
5537,-0.010652947
5538,0.07257778
5539,-0.028978208
5540,-0.016799198
5541,-0.04534446
5542,-0.05486188
5543,-0.029621
5544,-0.004374382
5545,0.010948141
5546,-0.004983145
5547,-0.103975065
5548,-0.018208446
5549,-0.010553327
5550,-0.06764286
5551,0.017048867
5552,0.015536818
5553,-0.04029562
5554,-0.019572245
5555,-0.0018791996
5556,-0.046572763
5557,0.02395276
5558,-0.00613123
5559,0.01527559
5560,0.018187236
5561,0.032753274
5562,0.040948916
5563,-0.013549297
5564,-0.017769078
5565,0.0008293862
5566,0.028063959
5567,0.030286614
5568,-0.019817173
5569,-0.17133182
5570,0.07633517
5571,0.0015902616
5572,0.073077984
5573,0.1241329
5574,-0.08213441
5575,-0.106192574
5576,0.095067404
5577,0.032399658
5578,0.10516086
5579,0.02362684
5580,-0.05515198
5581,-0.0139711965
5582,-0.018720409
5583,-0.003957437
5584,0.021245215
5585,-0.038116395
5586,-0.020024853
5587,0.07234482
5588,0.11169382
5589,-0.015788041
5590,0.027066331
5591,-0.022731766
5592,-0.033054423
5593,0.08906667
5594,0.047620926
5595,0.017083917
5596,-0.0047987155
5597,-0.13587
5598,0.13678683
5599,0.048867427
5600,-0.0014657732
5601,0.091232926
5602,-0.004857713
5603,0.017531881
5604,-0.011289191
5605,-0.19657598
5606,-0.1240153
5607,0.057092134
5608,-0.035983972
5609,-0.019370852
5610,-0.1291289
5611,0.06675583
5612,-0.030195642
5613,-0.07980954
5614,-0.036471162
5615,0.11733049
5616,0.067064956
5617,0.07987769
5618,-0.0079071075
5619,-0.07530962
5620,-0.14799081
5621,-0.1249488
5622,-0.032380946
5623,0.041844048
5624,0.01807278
5625,-0.1524317
5626,0.103398085
5627,-0.0116823
5628,0.021678638
5629,-0.21437052
5630,-0.16046518
5631,-0.053385112
5632,0.017069342
5633,-0.08230982
5634,-0.019534603
5635,-0.12380971
5636,0.0231158
5637,-0.072152615
5638,0.0662176
5639,0.028067162
5640,-0.10415062
5641,0.036126066
5642,0.032771733
5643,0.073704615
5644,-0.04135604
5645,0.05923975
5646,0.026057009
5647,0.08092052
5648,0.00017019203
5649,0.029688302
5650,0.04774962
5651,-0.02881778
5652,0.08986845
5653,0.008068254
5654,-0.10090801
5655,-0.026572427
5656,0.05407161
5657,0.11918557
5658,-0.01503135
5659,-0.030084137
5660,0.05166709
5661,-0.07795
5662,0.0710027
5663,0.06848394
5664,0.0006062791
5665,0.0013328161
5666,-0.2326689
5667,0.10080706
5668,-0.03380046
5669,0.0029886276
5670,-0.020415721
5671,-0.09661179
5672,0.056018
5673,0.047066066
5674,-0.14978966
5675,0.028635746
5676,-0.047752917
5677,0.013311186
5678,0.06759867
5679,-0.07980657
5680,0.054488476
5681,0.12194208
5682,-0.014877335
5683,-0.0028189805
5684,0.048764594
5685,0.057075568
5686,0.026132857
5687,-0.0615702
5688,0.030203255
5689,0.08246227
5690,0.1343567
5691,-0.0041291923
5692,0.057362456
5693,0.03351192
5694,0.018431578
5695,-0.008933673
5696,-0.010792582
5697,-0.0065744463
5698,-0.0782845
5699,-0.030134981
5700,-0.13777554
5701,0.044750202
5702,0.06310117
5703,-0.041253906
5704,-0.08006183
5705,-0.013803459
5706,-0.04050209
5707,0.060379174
5708,0.07497394
5709,0.062815204
5710,-0.002319484
5711,0.124937646
5712,-0.11663561
5713,0.08528377
5714,0.022341555
5715,0.008521921
5716,-0.0132663315
5717,0.057631537
5718,0.0022678482
5719,0.053281654
5720,0.03992079
5721,0.036485367
5722,-0.10309898
5723,0.0883497
5724,0.07316974
5725,0.01327446
5726,-0.02601249
5727,0.046668686
5728,-0.007412817
5729,0.025715519
5730,0.06256297
5731,-0.02582901
5732,-0.034334593
5733,0.048191946
5734,0.10001519
5735,0.1025845
5736,-0.005065275
5737,0.07052049
5738,0.07051419
5739,-0.056067992
5740,0.07355349
5741,0.078453906
5742,0.050848674
5743,0.049136855
5744,-0.048784986
5745,0.06383281
5746,0.045016658
5747,0.07640792
5748,0.078083225
5749,0.007381193
5750,-0.037587345
5751,0.08503909
5752,0.062681206
5753,0.0638108
5754,0.006058727
5755,0.054246563
5756,-0.05342448
5757,-0.024073653
5758,0.015503971
5759,0.06973558
5760,-0.009764494
5761,-0.0055217934
5762,-0.0027524028
5763,-0.015952636
5764,0.05341117
5765,-0.00030456705
5766,0.08906916
5767,0.064744316
5768,0.0073129185
5769,-0.01604087
5770,0.015107074
5771,0.03509608
5772,-0.095895536
5773,0.10677164
5774,-0.008102563
5775,-0.112156875
5776,-0.0140599655
5777,0.05256834
5778,-0.04042689
5779,0.029570019
5780,0.00928283
5781,-0.016611593
5782,-0.10089774
5783,-0.0037378562
5784,0.010759906
5785,0.030225866
5786,-0.001666525
5787,-0.045725722
5788,0.021373875
5789,-0.02659707
5790,0.0015772675
5791,0.07308441
5792,0.0023688185
5793,-0.013838492
5794,-0.017282587
5795,0.08677557
5796,-0.01585248
5797,0.051412944
5798,0.033462252
5799,0.0074994126
5800,0.04140986
5801,0.014172163
5802,0.045954593
5803,-0.024194945
5804,-0.0027423368
5805,-0.020035561
5806,0.074173786
5807,0.04301826
5808,0.04417378
5809,0.0834173
5810,-0.00956815
5811,-0.0044672545
5812,0.044670317
5813,0.059776116
5814,0.082630046
5815,0.033727773
5816,0.016953543
5817,0.04242718
5818,0.02505873
5819,0.043953698
5820,0.020519016
5821,0.019714193
5822,0.01563703
5823,0.009087046
5824,0.0012265013
5825,0.011297858
5826,0.011213435
5827,-0.095571674
5828,-0.028635614
5829,0.03289289
5830,0.02998523
5831,-0.05023151
5832,-0.038596977
5833,0.0026118853
5834,-0.0037463221
5835,0.041548345
5836,0.039381783
5837,0.053209472
5838,-0.00794716
5839,0.069470726
5840,-0.014765727
5841,0.06118232
5842,-0.012787347
5843,-0.045055535
5844,-0.033313643
5845,0.024845397
5846,-0.13412558
5847,0.0376254
5848,0.054270048
5849,0.060123306
5850,0.013931952
5851,0.065692626
5852,0.06533065
5853,0.029851446
5854,-0.038564526
5855,0.034832988
5856,-0.009922974
5857,-0.016748335
5858,0.05623309
5859,-0.06643294
