Sno,Weight
0,0.014954972
1,0.0017475511
2,0.022038225
3,-0.03678862
4,0.015722511
5,-0.044588417
6,0.02071404
7,-0.015648369
8,-0.084223956
9,0.05012179
10,-0.008813159
11,-0.020700542
12,-0.07131206
13,0.02840769
14,-0.016170863
15,-0.01466546
16,0.011714416
17,-0.029856062
18,-0.013838875
19,0.009360452
20,-0.00057469675
21,0.018343734
22,0.004983306
23,-0.031692367
24,-0.027807452
25,0.040379755
26,-0.0944422
27,-0.13341272
28,-0.18049257
29,0.005691544
30,-0.019249773
31,0.038136672
32,0.02592542
33,-0.008056089
34,0.005052489
35,-0.0072125266
36,-0.041897517
37,0.008158694
38,0.014428791
39,-0.04436707
40,-0.010088084
41,0.02065012
42,0.018750925
43,-0.018350797
44,0.021782113
45,-0.07700772
46,-0.0017494807
47,-0.07884218
48,0.022535795
49,-0.03533915
50,-0.0039714705
51,-0.022445247
52,-0.0006659663
53,-0.0061098402
54,0.026100595
55,-0.054254517
56,-0.047759965
57,-0.0067872605
58,-0.059227843
59,-0.05924677
60,-0.0005663809
61,0.0064989054
62,0.03139222
63,0.03808219
64,-0.028461127
65,0.009255595
66,0.028483594
67,0.03902162
68,-0.015528592
69,0.04348405
70,0.0060055093
71,0.0050721625
72,-0.0032013275
73,-0.009857999
74,-0.0016999255
75,0.03804382
76,-0.010619705
77,0.030668361
78,0.0023671836
79,-0.025080299
80,-0.08076606
81,-0.07545887
82,0.02806904
83,-0.0042159753
84,0.019428374
85,0.015943786
86,-0.043457627
87,0.0023732723
88,-0.009402812
89,0.028438998
90,0.01535566
91,-0.018357009
92,-0.0068611163
93,-0.119298264
94,-0.057892427
95,-0.0029672962
96,-0.02821352
97,-0.02241811
98,-0.07252698
99,-0.08568392
100,0.015564676
101,-0.016760187
102,-0.018479723
103,0.014532992
104,0.0014142543
105,-0.0029744592
106,-0.18588683
107,-0.03314661
108,-0.0114287045
109,-0.021343866
110,-0.04313888
111,-0.07516978
112,-0.009316792
113,0.0056679826
114,-0.1649677
115,-0.0048344973
116,0.033523336
117,-0.0044313916
118,0.0006816474
119,0.02140672
120,-0.0010828741
121,-0.03639794
122,0.008568154
123,-0.022382483
124,-0.13027032
125,-0.043295916
126,0.013639368
127,-4.5221805e-05
128,-0.059926376
129,-0.026461933
130,0.10716099
131,0.025934352
132,0.022013992
133,-0.08065303
134,0.0317639
135,-0.0062752794
136,0.0092981495
137,0.049425192
138,-0.038276367
139,-0.08011868
140,-0.020601666
141,0.0052913493
142,-0.018449659
143,-0.0055650603
144,-0.006473183
145,0.006302452
146,-0.21805206
147,-0.20314173
148,0.016851032
149,0.012701769
150,0.0008165497
151,-0.011810539
152,0.022772977
153,-0.018589986
154,-0.10879743
155,-0.07864804
156,-0.07069154
157,-0.019804878
158,-0.024828771
159,0.022265816
160,0.0041746013
161,-0.03369939
162,-0.010576314
163,-0.14368871
164,-0.033778697
165,-0.0011528695
166,-0.027102211
167,-0.019185714
168,0.01999515
169,-0.03329531
170,0.055736035
171,-0.015436117
172,0.119498275
173,-0.10660693
174,-0.043054454
175,0.04599858
176,-0.016181568
177,-0.082848236
178,0.0010023038
179,-0.0041920966
180,0.11592764
181,-0.09921819
182,-0.015501432
183,-0.03406951
184,-0.018920125
185,0.055017438
186,0.14428347
187,-0.09233492
188,-0.002519017
189,-0.00037491208
190,0.016377505
191,-0.10246073
192,0.012649896
193,-0.010897489
194,0.01867414
195,0.039384305
196,-0.058011543
197,0.03726655
198,0.08114807
199,0.02263575
200,-0.14466242
201,-0.0038256678
202,0.039140146
203,0.09857445
204,-0.031862255
205,0.025525022
206,0.045222733
207,-0.11009394
208,-0.06479666
209,-0.052483663
210,0.023440324
211,0.02625516
212,0.012031033
213,0.039795373
214,0.09385142
215,-0.14464758
216,0.0042227525
217,0.034818735
218,0.002923676
219,-0.008066574
220,0.01350452
221,-0.06596656
222,-0.027531961
223,-0.009958915
224,0.032254055
225,0.12625156
226,-0.030877784
227,0.07013935
228,-0.00932589
229,0.008262758
230,-0.05069358
231,0.030248547
232,-0.018936763
233,-0.034857143
234,-0.18620472
235,-0.021035632
236,0.01359325
237,-0.03700698
238,-0.033516835
239,0.0067186207
240,0.0013154966
241,0.008107193
242,-0.16775088
243,0.017143227
244,0.02324339
245,-0.032594956
246,0.029323166
247,-0.0077016163
248,-0.04094772
249,-0.02586454
250,-0.017616114
251,-0.065593645
252,-0.047159623
253,-0.021627255
254,-0.03527665
255,0.041443054
256,-0.040180583
257,-0.054214127
258,-0.018657306
259,-0.04402008
260,-0.02329347
261,-0.16052687
262,-0.063161194
263,0.00671896
264,0.003149047
265,0.019814992
266,0.07896998
267,-0.014478879
268,-0.0920075
269,0.023831349
270,-0.022065805
271,-0.06848691
272,-0.019564923
273,-0.019774275
274,-0.06357518
275,-0.107921384
276,-0.044150863
277,-0.04660959
278,-0.05801253
279,-0.050678354
280,0.03898057
281,0.08111051
282,-0.039953496
283,-0.17596382
284,-0.122224174
285,-0.023299132
286,-0.1044643
287,-0.03242986
288,-0.032785702
289,-0.0075868336
290,0.0069802203
291,0.043615196
292,-0.018614575
293,-0.03938016
294,0.0119720865
295,-0.025810024
296,-0.028473886
297,0.0062933676
298,0.042485394
299,0.02445885
300,-0.024509754
301,-0.16494182
302,0.0029115502
303,-0.2129557
304,-0.09661212
305,-0.04277863
306,0.009151564
307,0.04650429
308,0.005945026
309,-0.003962796
310,-0.023936963
311,-0.14041802
312,-0.028484927
313,-0.07595292
314,0.059000183
315,-0.21439071
316,-0.013633683
317,-0.04809667
318,0.065048344
319,0.03703881
320,0.017696043
321,-0.0012958237
322,0.008028832
323,-0.051018044
324,-0.009326869
325,-0.046434645
326,-0.07411191
327,-0.05533419
328,-0.14850697
329,-0.15263213
330,-0.04963178
331,-0.12067599
332,-0.010998865
333,-0.0011297164
334,0.08228508
335,0.0077988487
336,-0.06463379
337,-0.04938164
338,0.084971294
339,0.03266921
340,-0.039781597
341,0.034795657
342,-0.036764722
343,-0.12953584
344,-0.04880973
345,-0.015180499
346,-0.109049596
347,-0.05545278
348,-0.033557322
349,-0.12597288
350,-0.011460038
351,-0.1954094
352,-0.0003522708
353,0.009914286
354,-0.06529817
355,-0.05573207
356,-0.03160546
357,0.033678677
358,0.014857914
359,-0.05465078
360,0.019943923
361,-0.09171021
362,-0.07182882
363,0.0017408713
364,-0.007651071
365,0.030541355
366,0.0777316
367,-0.0075081415
368,0.0042811707
369,-0.00053973816
370,0.0042087785
371,0.045638632
372,-0.03960973
373,-0.066362105
374,0.061164003
375,-0.018384382
376,0.022744317
377,-0.011804023
378,-0.013838249
379,-0.14130546
380,-0.15594718
381,-0.16334403
382,-0.03144283
383,0.0548935
384,0.054350063
385,0.002846678
386,0.012690255
387,-0.0021004942
388,-0.01078298
389,-0.0016259773
390,0.03736219
391,-0.0053825555
392,-0.022651132
393,-0.037277184
394,-0.043978952
395,-0.11272173
396,-0.017717997
397,0.0010203933
398,0.028271277
399,-0.019671675
400,-0.0032969622
401,0.040322192
402,-0.023966437
403,0.05620531
404,-0.043125313
405,-9.122558e-05
406,-0.019399663
407,0.019876895
408,-0.0658245
409,-0.093092
410,-0.009264269
411,0.010186928
412,-0.0022745067
413,0.00870642
414,0.028009083
415,0.030687356
416,0.00011525341
417,-0.03663032
418,-0.008216044
419,0.0033406876
420,0.035605103
421,0.0030663586
422,0.047037423
423,0.009596494
424,0.0030745063
425,0.05593557
426,0.025521431
427,-0.006398819
428,0.014519599
429,0.008681809
430,-0.013100819
431,0.011591372
432,0.018690456
433,0.020754056
434,-0.010763264
435,-0.0029989774
436,-0.0047728755
437,-0.010909975
438,0.0047308896
439,0.00053465174
440,0.0229739
441,-0.016885804
442,-0.076618925
443,0.019294275
444,-0.025436645
445,0.038983334
446,0.00022880531
447,0.045943003
448,-0.117472745
449,0.013085738
450,-0.043388024
451,0.047939226
452,-0.02894871
453,0.024880543
454,-0.04321046
455,0.0021601322
456,0.003073713
457,-0.0749616
458,-0.017136473
459,-0.016477954
460,0.011630178
461,-0.009959475
462,-0.049169656
463,0.007466964
464,0.03225662
465,0.023945564
466,-0.07320079
467,-0.03390856
468,0.02378684
469,-0.021687344
470,-0.04920591
471,0.026098406
472,-0.010523326
473,0.034764476
474,0.026831565
475,-0.021771371
476,-0.0018449681
477,-0.108527265
478,-0.016477548
479,0.039221954
480,-0.041410085
481,-0.049695734
482,-0.04663742
483,-0.035880852
484,0.014350216
485,-0.050141655
486,0.052973393
487,0.014523989
488,0.0067409324
489,0.03730342
490,-0.1492259
491,0.012056817
492,-0.055178225
493,0.020069852
494,-0.017125143
495,-0.022731258
496,-0.00056609407
497,0.032980535
498,0.031007025
499,-0.035814982
500,0.014316745
501,0.017603943
502,-1.0331278e-05
503,-0.032197405
504,0.014544516
505,-0.012044031
506,0.0030655297
507,0.04960244
508,0.05402891
509,-0.03292676
510,-0.022513932
511,-0.0365203
512,0.027718224
513,-0.042195592
514,-0.08278435
515,0.032059055
516,-0.04350466
517,-0.011319958
518,-0.1314349
519,0.050561484
520,0.033724047
521,-0.0493845
522,0.026731022
523,0.026084784
524,0.025094295
525,0.055792328
526,0.04945858
527,-0.009092836
528,0.05871165
529,0.015644116
530,-0.015752504
531,-0.0410585
532,-0.08664671
533,0.0033810015
534,-0.02633254
535,-0.012622265
536,0.046681818
537,-0.045167785
538,0.017721288
539,-0.0128777465
540,0.0069512725
541,-0.03471968
542,-0.044692233
543,-0.07772984
544,-0.036866877
545,0.054450408
546,-0.024141015
547,-0.028635742
548,0.06542931
549,-0.016515464
550,0.05825838
551,0.06727305
552,0.01640611
553,-0.0038744977
554,0.045209616
555,-0.05123808
556,-0.034935527
557,-0.053294808
558,-0.027488323
559,0.03152888
560,-0.02715485
561,-0.02724561
562,0.025215397
563,-0.03342415
564,0.06129754
565,-0.071794204
566,-0.006220079
567,-0.10619294
568,0.053749606
569,0.038189873
570,-0.059503272
571,-0.06816728
572,-0.018224303
573,-0.018492715
574,0.033066165
575,-0.019420005
576,-0.016561296
577,-0.0026841993
578,0.042009618
579,-0.07630912
580,0.029020548
581,-0.09531562
582,-0.009408648
583,-0.0066829026
584,-0.0623614
585,-0.21190037
586,-0.01237556
587,-0.13033463
588,0.04782091
589,-0.028827464
590,0.029781517
591,0.0024371352
592,-0.011256281
593,0.047962964
594,0.069818504
595,-0.0077812946
596,0.014941203
597,0.064403825
598,0.0065230313
599,-0.18259823
600,0.015205702
601,-0.029094262
602,-0.056963976
603,-0.007847719
604,-0.019442184
605,-0.09814329
606,-0.0040220604
607,0.042668995
608,-0.022489903
609,-0.10088611
610,-0.075758375
611,0.06369235
612,0.06728276
613,0.083531395
614,0.038335517
615,-0.009611905
616,0.038269565
617,-0.034436375
618,-0.0779701
619,0.057927124
620,0.086269304
621,0.012959442
622,0.083587416
623,-0.036119003
624,-0.0137439
625,0.027118955
626,-0.024456512
627,0.075959705
628,-0.08768295
629,-0.070188835
630,0.02716533
631,-0.003848678
632,0.04811882
633,0.08134236
634,-0.024079453
635,-0.074214995
636,-0.023929376
637,-0.2674254
638,-0.07566026
639,0.07044284
640,0.020722734
641,-0.00043709052
642,0.008512259
643,-0.003114032
644,-0.012099898
645,-0.070034
646,0.023560314
647,5.5474797e-05
648,-0.04387968
649,-0.025865922
650,-0.016841087
651,-0.11017022
652,-0.058885664
653,0.01748914
654,0.01043818
655,0.006890967
656,0.0377727
657,0.00923576
658,-0.06736239
659,0.029074768
660,0.018026888
661,0.039725736
662,0.0018501066
663,0.0020964365
664,0.01959548
665,-0.08021373
666,-0.06400418
667,-0.10260316
668,-0.087610595
669,0.00468141
670,-0.0085666
671,0.05597735
672,0.01982972
673,0.023433566
674,-0.019758819
675,0.032452557
676,-0.0021491456
677,0.019047199
678,0.012817231
679,0.015939102
680,0.02260084
681,0.010061191
682,0.03605345
683,0.029951354
684,0.019471167
685,-0.08868881
686,0.015817724
687,-0.07159226
688,0.037159324
689,-0.056755565
690,-0.013730136
691,-0.044345867
692,-0.074680135
693,0.01642128
694,0.032156613
695,-0.03564402
696,-0.00488002
697,-0.01851923
698,-0.068053156
699,-0.019251393
700,-0.057739113
701,0.009858117
702,0.011604797
703,0.03997556
704,-0.034124244
705,0.002652527
706,0.0061427914
707,0.046225313
708,0.005550157
709,0.04338905
710,-0.03433918
711,0.037075758
712,-0.02099112
713,0.010068827
714,-0.0023816456
715,0.061761633
716,0.00885966
717,0.029172
718,-0.027856955
719,-0.023557812
720,-0.035518803
721,-0.04288854
722,0.0017518295
723,-0.016153723
724,0.022368442
725,0.036006752
726,-0.074267425
727,0.05966993
728,0.011425575
729,0.064402096
730,0.023690011
731,0.013721857
732,0.027712319
733,-0.03724266
734,-0.037366576
735,-0.002771026
736,-0.026969863
737,0.00092346594
738,-0.03442667
739,-0.10993612
740,0.02320025
741,0.0048750704
742,0.0048788423
743,0.028570922
744,0.04136548
745,-0.011216967
746,-0.11238518
747,-0.011559417
748,-0.0230723
749,-0.010129244
750,-0.02962419
751,-0.057178564
752,0.008752745
753,0.029985271
754,-0.18227342
755,0.006985226
756,0.047168963
757,0.031046566
758,-0.0064043086
759,0.002528394
760,0.008074025
761,-0.017234402
762,0.04906775
763,0.033304755
764,-0.079042375
765,-0.033104047
766,-0.06967177
767,0.017720308
768,0.039812464
769,0.010316384
770,-0.0062746494
771,0.018663598
772,-0.005743494
773,-0.018451003
774,0.026950398
775,-0.002645753
776,0.0041298387
777,-0.05594736
778,-0.026737392
779,-0.0037563678
780,-0.08908724
781,0.023464205
782,0.013899317
783,0.014174665
784,0.015744977
785,0.024553167
786,-0.035600264
787,0.042772755
788,0.02064103
789,0.013223307
790,-0.018018061
791,0.03086677
792,-0.0045222207
793,-0.04337232
794,-0.007343261
795,-0.031350538
796,-0.020441921
797,0.02014863
798,0.01919545
799,0.046166144
800,0.004994961
801,0.014441618
802,-0.01058735
803,0.041962232
804,0.020001832
805,0.012303398
806,0.009448197
807,0.017840326
808,0.0030377072
809,-0.057506368
810,0.042389363
811,0.02267639
812,0.04023643
813,-0.055102795
814,0.010422675
815,-0.029918803
816,0.038299333
817,0.00031593748
818,0.010472622
819,-0.04153399
820,-0.07504018
821,0.02180323
822,0.011600446
823,-0.011882834
824,0.022419045
825,-0.008396164
826,-0.0604306
827,0.010515143
828,-0.022082707
829,0.011531283
830,0.010649581
831,0.070012525
832,-0.034326814
833,0.0060182326
834,0.002219324
835,0.039291997
836,0.04305882
837,0.03976028
838,-0.04846559
839,0.035137396
840,0.01891343
841,-0.024026038
842,-0.016861748
843,-0.0019642718
844,0.01377758
845,0.0076854834
846,-0.032388236
847,0.0042549856
848,0.026715035
849,-0.0042484957
850,-0.017684165
851,-0.002021519
852,0.044474263
853,0.007438483
854,-0.07500314
855,0.06432098
856,0.004643712
857,0.08843051
858,0.026075853
859,0.020984726
860,0.011437537
861,-0.05914381
862,0.014191149
863,0.020142177
864,-0.013659676
865,-0.027352955
866,-0.022370735
867,-0.07200279
868,0.0272053
869,0.013171082
870,0.026211277
871,0.03109055
872,0.029037844
873,0.035946704
874,-0.12114681
875,0.0058847433
876,-0.056577507
877,-0.030966034
878,0.006227673
879,-0.020258822
880,-0.013950052
881,0.023112018
882,-0.13157895
883,0.022154285
884,0.025846045
885,0.040027726
886,-0.014410037
887,-0.0041923006
888,-0.0021547752
889,0.02218187
890,0.048274808
891,0.025406873
892,-0.1307421
893,-0.07285504
894,-0.123313114
895,-0.0070875357
896,0.020145215
897,-0.04109629
898,-0.07560847
899,-0.04173572
900,-0.035110813
901,-0.04145574
902,-0.014965117
903,0.023721538
904,0.067562796
905,0.0036599194
906,-0.013114679
907,-0.049745154
908,0.03295213
909,0.037355863
910,0.024370398
911,-0.039675687
912,0.04434544
913,0.005755101
914,-0.06283668
915,0.05703747
916,0.00043045997
917,-0.014617456
918,-0.014728976
919,-0.009768877
920,0.04118311
921,0.018727567
922,-0.03232109
923,-0.121009424
924,-0.107709
925,0.008163284
926,-0.029942432
927,-0.028646654
928,0.006320878
929,0.028375799
930,-0.017215887
931,0.03681609
932,0.01042546
933,-0.03853917
934,0.027578685
935,0.0001015497
936,0.011498481
937,-0.03144959
938,0.04919665
939,-0.011095322
940,0.041498777
941,-0.06531721
942,-0.040173918
943,-0.2932062
944,-0.03698994
945,-0.010651294
946,0.0074465773
947,0.005493067
948,-0.013308964
949,0.0010230428
950,0.00397485
951,-0.06651591
952,0.04183624
953,0.037864707
954,-0.01116017
955,-0.06101721
956,-0.013432742
957,-0.032190282
958,0.00075457455
959,0.039487675
960,-0.049751807
961,-0.0010778412
962,0.012829372
963,-0.026123835
964,-0.002619852
965,-0.033813596
966,0.0027661652
967,-0.04329241
968,-0.031918906
969,-0.14106797
970,0.02217122
971,0.0005711107
972,0.013215021
973,-0.016777981
974,-0.01663437
975,0.08207826
976,0.01294812
977,0.006797225
978,0.04745867
979,0.0016129251
980,-0.026016727
981,0.027842531
982,-0.0104212845
983,-0.020233586
984,-0.016347958
985,-0.013750475
986,-0.038137127
987,-0.021890331
988,-0.025708338
989,-0.05904185
990,-0.032667894
991,-0.15421022
992,-0.014856771
993,-0.030880347
994,-0.053368833
995,0.011241851
996,0.027745415
997,0.03341823
998,0.008744606
999,-0.04777624
1000,0.010669095
1001,0.034103844
1002,-0.0856635
1003,0.0004907369
1004,0.021241544
1005,-0.001744057
1006,0.07233888
1007,-0.08920776
1008,-0.0130995745
1009,0.036005434
1010,-0.039120853
1011,0.06114108
1012,-0.013064792
1013,0.039981827
1014,0.015472752
1015,-0.014410485
1016,0.030844597
1017,0.019041203
1018,-0.008812924
1019,0.011700722
1020,-0.13537918
1021,-0.19100565
1022,-0.14129046
1023,0.04968652
1024,0.013259544
1025,0.040103253
1026,0.07550974
1027,-0.025230382
1028,-0.041977625
1029,0.0023158663
1030,-0.1111844
1031,-0.07397668
1032,0.09015171
1033,0.04899952
1034,-0.12516509
1035,-0.041970186
1036,-0.0643505
1037,-0.09605532
1038,-0.06504853
1039,-0.05506963
1040,-0.10901708
1041,0.020746797
1042,-0.08750131
1043,-0.070660636
1044,-0.062497627
1045,0.010546939
1046,-0.010762889
1047,-0.047710706
1048,-0.18252479
1049,0.22355202
1050,0.06733619
1051,-0.07771586
1052,-0.07278618
1053,-0.02686436
1054,-0.035146922
1055,-0.16075239
1056,-0.05682378
1057,-0.008035661
1058,-0.0055543208
1059,-0.011184021
1060,-0.14246431
1061,-0.045156844
1062,-0.039174292
1063,-0.053454444
1064,-0.054610502
1065,0.012421003
1066,-0.037036575
1067,0.026414104
1068,0.066117175
1069,-0.028185427
1070,-0.07345686
1071,-0.3908654
1072,0.037706647
1073,0.00087218476
1074,-0.0026091046
1075,-0.038883016
1076,-0.0200634
1077,-0.095704995
1078,-0.0129570495
1079,0.026213579
1080,0.06028205
1081,-0.00052869803
1082,0.121779926
1083,-0.03534383
1084,-0.0047341795
1085,0.015848115
1086,-0.19710727
1087,-0.024827095
1088,-0.20563112
1089,-0.008613655
1090,0.045867063
1091,-0.12447231
1092,-0.0045628473
1093,-0.14426138
1094,0.09111884
1095,-0.08503838
1096,-0.06364585
1097,-0.19558282
1098,0.047769234
1099,-0.011228788
1100,-0.09760619
1101,0.0015197805
1102,-0.0018435833
1103,-0.10245226
1104,-0.050806608
1105,-0.067186914
1106,-0.19376558
1107,-0.114643045
1108,-0.039768964
1109,-0.08135746
1110,-0.05283436
1111,-0.118245
1112,0.030224847
1113,-0.07765199
1114,-0.01308477
1115,-0.01598367
1116,-0.08483109
1117,0.011996191
1118,-0.070627466
1119,-0.10882956
1120,-0.0033309474
1121,0.06727996
1122,-0.01574058
1123,0.17782272
1124,-0.09851486
1125,-0.0045600706
1126,-0.051265433
1127,-0.09699798
1128,-0.07310159
1129,-0.04828218
1130,-0.15734547
1131,-0.07910288
1132,-0.0068401117
1133,-0.010457943
1134,0.17740162
1135,0.06889373
1136,-0.0033327749
1137,-0.07737862
1138,-0.11272299
1139,-0.045233633
1140,-0.11453743
1141,-0.036090303
1142,-0.13019846
1143,-0.009484608
1144,-0.03880183
1145,-0.006873983
1146,-0.00867318
1147,-0.08839058
1148,0.117568366
1149,-0.2202049
1150,-0.11136765
1151,0.033996675
1152,-0.035649847
1153,-0.041425396
1154,-0.055835243
1155,-0.029691698
1156,-0.012274805
1157,-0.0475078
1158,-0.070870206
1159,-0.04858857
1160,0.022116298
1161,0.1040029
1162,-0.152937
1163,-0.02601096
1164,0.040146407
1165,-0.047229514
1166,-0.0050603375
1167,-0.0572374
1168,0.027974196
1169,-0.049910214
1170,-0.11126796
1171,-0.07540704
1172,-0.07972146
1173,-0.056888334
1174,0.0018055113
1175,0.042448234
1176,-0.0624066
1177,0.025589725
1178,-0.023806335
1179,-0.06335483
1180,-0.011094918
1181,0.004160522
1182,0.050254192
1183,-0.12390273
1184,-0.060700104
1185,-0.02958477
1186,-0.0070676394
1187,-0.007816978
1188,-0.042032856
1189,-0.019263892
1190,-0.012924363
1191,-0.057311453
1192,-0.072335884
1193,-0.01683012
1194,0.039308887
1195,-0.0095120985
1196,0.11188684
1197,-0.066604
1198,-0.07890024
1199,0.056468006
1200,-0.09297139
1201,0.08050174
1202,-0.006886464
1203,-0.0076301075
1204,0.14044276
1205,-0.03740693
1206,-0.023458695
1207,-0.01747325
1208,-0.09383701
1209,0.028051112
1210,0.08373795
1211,-0.0071232533
1212,-0.0059885206
1213,-0.049857724
1214,-0.11243923
1215,-0.0036557596
1216,-0.093153596
1217,0.011146638
1218,0.082183145
1219,-0.0992518
1220,0.00060666696
1221,-0.09306563
1222,0.0343038
1223,-0.09805719
1224,-0.1357904
1225,-0.10920514
1226,0.084365286
1227,-0.043343097
1228,-0.061856437
1229,-0.055773333
1230,-0.0012079079
1231,-0.11868135
1232,-0.021481788
1233,0.0005471349
1234,-0.030158272
1235,-0.095364414
1236,-0.052496467
1237,0.005444386
1238,0.030813875
1239,-0.0039098803
1240,-0.012692157
1241,-0.061300132
1242,-0.11560915
1243,-0.051350277
1244,-0.0672263
1245,-0.008713219
1246,-0.049411546
1247,0.045493644
1248,-0.006512979
1249,-0.0071414355
1250,-0.029636173
1251,0.095680326
1252,-0.023705306
1253,-0.03184465
1254,-0.064250655
1255,-0.12985818
1256,-0.0049200966
1257,0.07483444
1258,-0.035934895
1259,-0.044103377
1260,0.040428102
1261,-0.03608479
1262,-0.018123563
1263,0.03809922
1264,-0.007327337
1265,-0.005140272
1266,-0.09726788
1267,0.0029809508
1268,-0.12211794
1269,0.120169155
1270,-0.03887983
1271,-0.020393154
1272,-0.04414199
1273,-0.038602512
1274,-0.057618834
1275,0.037449423
1276,0.066579185
1277,-0.1325677
1278,-0.04978679
1279,0.0129720885
1280,0.019715948
1281,-0.0002599749
1282,0.11772524
1283,0.033716787
1284,0.0638048
1285,-0.2632851
1286,0.09599748
1287,-0.12069853
1288,0.4658618
1289,0.4156501
1290,-0.0152876815
1291,-0.076329544
1292,0.11609035
1293,-0.21737006
1294,-0.14304672
1295,-0.067979604
1296,-0.16235882
1297,-0.10655501
1298,-0.21223073
1299,-0.13740315
1300,-0.052811425
1301,0.00520707
1302,0.041170884
1303,-0.13541666
1304,-0.21559496
1305,0.29971325
1306,0.5401773
1307,-0.14515154
1308,-0.056066822
1309,0.117088065
1310,-0.046147168
1311,-0.03640163
1312,-0.010758842
1313,-0.12808898
1314,-0.024160588
1315,0.107698895
1316,-0.09702491
1317,-0.068867326
1318,-0.12636812
1319,-0.10962578
1320,-0.02438076
1321,-0.1584103
1322,-0.16820407
1323,0.14905512
1324,0.1160716
1325,-0.18831739
1326,-0.08291115
1327,-0.027630433
1328,-0.082480684
1329,0.032447852
1330,0.003320739
1331,-0.044501282
1332,0.16933575
1333,0.1017565
1334,-0.046715043
1335,0.091903955
1336,-0.07966357
1337,0.054719858
1338,0.5266076
1339,0.11282632
1340,-0.054598156
1341,-0.0350459
1342,-0.14730641
1343,0.091009006
1344,0.0069518313
1345,-0.0102398265
1346,-0.023807306
1347,-0.033057366
1348,-0.087877184
1349,-0.03306998
1350,0.04711815
1351,-0.00016030952
1352,0.066008165
1353,-0.069627814
1354,0.039869506
1355,0.0719184
1356,-0.11640278
1357,0.034450725
1358,0.055663902
1359,-0.03014199
1360,0.05742643
1361,-0.18712021
1362,-0.08840333
1363,0.061183386
1364,-0.009386091
1365,-0.095140785
1366,0.056783877
1367,0.15716009
1368,0.058179997
1369,-0.020401517
1370,-0.095288016
1371,0.009674723
1372,-0.036703758
1373,0.11613443
1374,-0.052591383
1375,-0.07917049
1376,0.036516704
1377,0.17655528
1378,0.08959745
1379,0.4183983
1380,-0.15348399
1381,-0.15076233
1382,-0.10583816
1383,-0.026228761
1384,-0.15285297
1385,0.109287895
1386,-0.25371277
1387,-0.09590026
1388,-0.071111515
1389,0.020169633
1390,-0.029169897
1391,0.06558464
1392,-0.013259695
1393,-0.20825265
1394,-0.14404546
1395,-0.11302364
1396,-0.016239021
1397,0.10308863
1398,-0.008952529
1399,0.063855216
1400,-0.144843
1401,-0.07898764
1402,0.11924354
1403,-0.009182951
1404,0.048483178
1405,-0.091252945
1406,0.04363386
1407,-0.025895298
1408,-0.0014626731
1409,-0.10000338
1410,-0.007997175
1411,-0.0428166
1412,-0.0010659908
1413,-0.018599568
1414,-0.09398681
1415,-0.004957334
1416,0.05370913
1417,-0.007847663
1418,0.04229352
1419,-0.02357959
1420,0.010490094
1421,0.050693814
1422,0.051264644
1423,0.0096146
1424,0.049853995
1425,0.0003043303
1426,-0.005377483
1427,0.041797657
1428,-0.017446674
1429,0.0057947626
1430,-0.012174594
1431,-0.016766418
1432,0.016893294
1433,-0.008841906
1434,0.02879663
1435,-0.08412284
1436,-0.06666005
1437,-0.047099553
1438,-0.023008186
1439,0.017090566
1440,-0.009521164
1441,0.062735386
1442,-0.01243118
1443,-0.016386466
1444,0.06908899
1445,-0.023134077
1446,0.05157109
1447,0.033631787
1448,-0.0007538577
1449,0.028761122
1450,0.06224852
1451,-0.053379446
1452,-0.0033319043
1453,-0.030680273
1454,0.027601613
1455,-0.19408019
1456,0.0027179096
1457,-0.046067014
1458,-0.0006145104
1459,-0.03808966
1460,-0.019120416
1461,-0.04011747
1462,0.054723278
1463,-0.062444318
1464,0.023734821
1465,0.004058879
1466,0.01340068
1467,-0.06774422
1468,-0.01755549
1469,0.0071761967
1470,0.039231163
1471,-0.04617676
1472,-0.017643461
1473,-0.01770229
1474,0.031021483
1475,0.023812018
1476,0.039147012
1477,0.002394126
1478,-0.006236162
1479,-0.020819796
1480,-0.027887905
1481,-0.15973148
1482,0.0033882647
1483,-0.05316619
1484,-0.00055552105
1485,0.00016602314
1486,-0.01995062
1487,0.01854469
1488,-0.024508443
1489,0.0120902555
1490,0.029550003
1491,-0.042488776
1492,0.020689318
1493,0.070652284
1494,-0.024686674
1495,-0.09052768
1496,0.008360707
1497,0.04924841
1498,-0.05259856
1499,0.0025578944
1500,-0.021190831
1501,-0.085272044
1502,0.008482347
1503,-0.16427466
1504,-0.019064896
1505,0.007218248
1506,-0.05175041
1507,0.070869625
1508,0.071230456
1509,0.068748645
1510,0.03569082
1511,0.001269082
1512,0.06102856
1513,-0.0699826
1514,-0.016686022
1515,0.015417718
1516,0.0070403176
1517,0.046022125
1518,-0.008273387
1519,-0.029346617
1520,0.011410804
1521,0.05132481
1522,0.023207365
1523,0.057920553
1524,-0.001348125
1525,-0.08142436
1526,0.0071228063
1527,-0.019498823
1528,0.03428783
1529,0.07549172
1530,-0.06632762
1531,-0.006533564
1532,0.02066218
1533,-0.16354395
1534,-0.021448674
1535,0.03482875
1536,0.0008159007
1537,-0.051918816
1538,-0.03816417
1539,0.053414263
1540,-0.005029846
1541,-0.18815304
1542,0.007026772
1543,-0.011143699
1544,0.0045703086
1545,0.009519944
1546,-0.016354457
1547,-0.0257334
1548,-0.052959308
1549,0.016772224
1550,0.0046420675
1551,-0.01770723
1552,-0.035237003
1553,-0.045558747
1554,-0.229663
1555,0.034038726
1556,-0.043739658
1557,-0.01983042
1558,0.008777516
1559,-0.06005252
1560,-0.0030460274
1561,0.07889952
1562,0.17617755
1563,-0.07451131
1564,-0.13836657
1565,0.087714046
1566,-0.051044315
1567,-0.010024804
1568,-0.0075016255
1569,-0.026391353
1570,0.0018257829
1571,0.08829518
1572,-0.081585325
1573,-0.029435385
1574,0.010736003
1575,-0.110115536
1576,-0.013796322
1577,0.049794808
1578,0.014183649
1579,0.064672686
1580,0.10186154
1581,-0.22512881
1582,-0.076083735
1583,-0.08219476
1584,-0.13086031
1585,0.04781639
1586,0.0011323327
1587,-0.0022320412
1588,0.13374186
1589,0.0010136716
1590,-0.021597067
1591,-0.09130777
1592,-0.07121624
1593,0.06698184
1594,0.17985444
1595,0.00060828874
1596,-0.021912798
1597,-0.07495786
1598,0.0021785088
1599,0.09397972
1600,-0.0795077
1601,-0.011309153
1602,-0.015032512
1603,-0.014043074
1604,-0.1162111
1605,-0.041257873
1606,-0.078904286
1607,-0.05775111
1608,-0.08679112
1609,-0.012829269
1610,0.045436814
1611,0.03619494
1612,-0.060134448
1613,-0.011407806
1614,0.0131199
1615,0.013461338
1616,0.03146945
1617,-0.07722743
1618,0.054029256
1619,0.0058261887
1620,-0.033273403
1621,0.021288343
1622,0.04338761
1623,0.03809624
1624,-0.0066503305
1625,-0.056560423
1626,-0.09267581
1627,0.004928463
1628,-0.035871662
1629,-0.005821262
1630,-0.23808712
1631,-0.038291406
1632,-0.0017834259
1633,-0.0065945787
1634,0.03942471
1635,0.05724298
1636,-0.06836202
1637,0.031538695
1638,-0.02287602
1639,-0.069027595
1640,-0.0040279417
1641,0.08335597
1642,0.00039739514
1643,-0.031510048
1644,0.04089736
1645,-0.042380475
1646,0.06398817
1647,0.023093933
1648,0.009502561
1649,-0.004754617
1650,-0.035949465
1651,-0.0015098732
1652,-0.031139439
1653,0.059031602
1654,0.024113696
1655,-0.02360412
1656,0.030906908
1657,0.011848826
1658,0.06402973
1659,-0.013251068
1660,-0.026960196
1661,-0.032759465
1662,0.011835534
1663,0.026197305
1664,-0.016987402
1665,-0.048120942
1666,-0.15676865
1667,0.008230926
1668,-0.03362085
1669,-0.053707413
1670,-0.023380643
1671,-0.06357832
1672,-0.022241589
1673,0.017364033
1674,-0.097498186
1675,-0.121337555
1676,0.07841759
1677,-0.056949694
1678,-0.016528357
1679,-0.05138
1680,-0.026220692
1681,-0.011461991
1682,-0.1031365
1683,0.019818643
1684,-0.04117646
1685,0.0052043316
1686,-0.054465953
1687,-0.02406458
1688,0.020480322
1689,-0.094243474
1690,0.027976818
1691,-0.020838398
1692,-0.068463735
1693,0.013506259
1694,-0.032601032
1695,0.012243768
1696,-0.04784977
1697,0.00021325497
1698,-0.017404873
1699,0.009254289
1700,0.0010369038
1701,-0.067517914
1702,0.0012871454
1703,-1.8161358e-05
1704,-0.06276668
1705,-0.044028886
1706,-0.008206391
1707,0.029079195
1708,0.019601017
1709,-0.063132726
1710,-0.1364203
1711,-0.07838251
1712,-0.07375541
1713,-0.008945049
1714,-0.020710664
1715,-0.0023383861
1716,0.090177365
1717,-0.05119754
1718,-0.09313277
1719,-0.04267693
1720,-0.06758305
1721,-0.023617674
1722,0.08899414
1723,-0.1032846
1724,-0.026455125
1725,-0.021213695
1726,0.0788746
1727,-0.010454762
1728,-0.06940119
1729,-0.011130677
1730,0.024803465
1731,-0.02852262
1732,-0.032298032
1733,-0.027364863
1734,-0.05155517
1735,-0.06229962
1736,-0.14687026
1737,-0.026017357
1738,-0.0755508
1739,0.029914144
1740,0.019294575
1741,-0.03180388
1742,-0.038961586
1743,0.012300626
1744,-0.02836862
1745,-0.0010627985
1746,0.06817212
1747,0.010144741
1748,-0.04860925
1749,-0.0060420674
1750,0.046582688
1751,-0.040286645
1752,-0.012854254
1753,-0.063195325
1754,-0.0369065
1755,-0.041047454
1756,-0.05960842
1757,-0.039519787
1758,-0.025748866
1759,-0.053778943
1760,-0.041919254
1761,-0.0151755735
1762,-0.04381092
1763,0.006080654
1764,-0.005708832
1765,-0.011819693
1766,-0.006037431
1767,-0.051994476
1768,-0.04914639
1769,-0.01471844
1770,-0.058354422
1771,-0.026472045
1772,-0.00911025
1773,-0.00048623385
1774,0.105976045
1775,-0.05961297
1776,0.0068056937
1777,-0.0452873
1778,-0.05498339
1779,0.045388427
1780,-0.04912379
1781,-0.016677318
1782,0.023693418
1783,-0.021028545
1784,0.009851721
1785,-0.07131871
1786,0.0050305114
1787,-0.055442102
1788,-0.15123537
1789,-0.05477486
1790,-0.050869122
1791,0.042572826
1792,0.04174153
1793,-0.042362
1794,-0.039246857
1795,-0.021430684
1796,0.037612785
1797,-0.05833495
1798,-0.065771066
1799,0.031597536
1800,-0.047682974
1801,-0.048534613
1802,0.07901965
1803,0.0110520385
1804,-0.017555943
1805,0.014883372
1806,-0.0056655165
1807,-0.019528799
1808,0.0017875804
1809,-0.016490137
1810,-0.03281348
1811,0.019090487
1812,0.016065482
1813,0.007668022
1814,0.030308174
1815,0.0030991011
1816,-0.049138196
1817,-0.10329024
1818,0.023657471
1819,-0.06879314
1820,0.0036373206
1821,0.066931084
1822,0.015430694
1823,-0.012370525
1824,-0.013716904
1825,0.005102101
1826,0.009055704
1827,0.026295433
1828,-0.003325435
1829,-0.021113602
1830,-0.005201662
1831,0.016663108
1832,0.024559373
1833,0.026382275
1834,-0.020498255
1835,0.019592755
1836,0.031229695
1837,-0.026595881
1838,-0.039202146
1839,-0.13285619
1840,0.046081286
1841,-0.0652232
1842,0.022422396
1843,0.0010788654
1844,-0.10307584
1845,0.011988976
1846,0.017426023
1847,-0.12682246
1848,0.04992895
1849,0.03873484
1850,-0.06803275
1851,-0.050493535
1852,-0.016121207
1853,-0.027069641
1854,0.022662118
1855,0.032281138
1856,0.013980046
1857,-0.008388312
1858,-0.039151564
1859,0.004325664
1860,0.015266582
1861,0.0018579891
1862,0.025992278
1863,0.0031949107
1864,0.035270613
1865,-0.038075544
1866,-0.049087334
1867,-0.1269232
1868,0.013647007
1869,0.0119628245
1870,0.12469826
1871,0.0787756
1872,-0.08635163
1873,-0.012974424
1874,0.012510843
1875,0.11132193
1876,0.023524277
1877,-0.00054607005
1878,-0.00021861866
1879,-0.020679776
1880,0.02537549
1881,-0.01064859
1882,0.009890016
1883,0.01150064
1884,-0.030017575
1885,-0.14605005
1886,0.045766436
1887,-0.041463114
1888,0.059904266
1889,-0.04834882
1890,-0.116015635
1891,-0.039460517
1892,0.023194775
1893,-0.0013295031
1894,0.021847278
1895,0.0009847855
1896,0.009109551
1897,-0.070467874
1898,-0.09974557
1899,0.030093424
1900,0.04778122
1901,0.036674358
1902,-0.018584266
1903,-0.042779233
1904,0.0047585005
1905,0.026156299
1906,0.032517288
1907,-0.0017773833
1908,0.0026320117
1909,0.0076160138
1910,0.051028524
1911,0.0114322975
1912,-7.666816e-05
1913,0.038151626
1914,-0.012697826
1915,0.02086707
1916,-0.14870948
1917,-0.040141907
1918,-0.028062405
1919,-0.07314013
1920,-0.04553132
1921,-0.038210504
1922,-0.10656123
1923,-0.0775306
1924,-0.023199078
1925,0.032837942
1926,-0.12122194
1927,0.010069666
1928,-0.007132907
1929,0.0076815253
1930,-0.07785515
1931,-0.1114695
1932,0.004724104
1933,-0.0062267114
1934,0.05526887
1935,-0.08555855
1936,0.054031625
1937,-9.194511e-06
1938,0.031280946
1939,0.029501785
1940,-0.074762754
1941,-0.04389118
1942,-0.04104736
1943,-0.022058165
1944,0.045475397
1945,0.009531119
1946,-0.056814436
1947,-0.16440088
1948,-0.18405762
1949,-0.04227496
1950,-0.018421326
1951,0.0033759398
1952,-0.05678239
1953,0.054028276
1954,-0.013715526
1955,-0.059160944
1956,0.074073404
1957,-0.10714648
1958,0.035365693
1959,0.060642853
1960,-0.09323724
1961,0.01514443
1962,0.069198094
1963,-0.059530437
1964,0.00033241283
1965,0.022560399
1966,0.039035413
1967,-0.07776986
1968,-0.116389826
1969,0.00033244392
1970,0.0054369536
1971,-0.004961796
1972,0.062433988
1973,-0.07979399
1974,0.021664886
1975,-0.020448396
1976,-0.0032235745
1977,0.002717803
1978,0.0074783666
1979,-0.17103492
1980,-0.019682394
1981,0.022108018
1982,0.036018368
1983,-0.06934911
1984,-0.031669304
1985,-0.0034428567
1986,0.07505196
1987,-0.001017433
1988,0.021104861
1989,0.0059481035
1990,0.0018018261
1991,-0.08319877
1992,-0.02395535
1993,-0.15083577
1994,-0.014075887
1995,0.038390443
1996,0.005521633
1997,-0.05762879
1998,-0.042442754
1999,0.032550555
2000,-0.025192052
2001,0.0157125
2002,0.041014988
2003,-0.056925654
2004,-0.0065765656
2005,0.0605701
2006,-0.0015902254
2007,-0.13173392
2008,-0.031929534
2009,-0.03198201
2010,-0.115894385
2011,-0.031708106
2012,-0.07976605
2013,-0.06529182
2014,0.012612747
2015,-0.16970503
2016,-0.029042011
2017,-0.028864685
2018,-0.09461946
2019,0.064080335
2020,0.07554501
2021,0.0746526
2022,0.037360337
2023,-0.024586821
2024,0.049700093
2025,0.0017778188
2026,-0.074656285
2027,0.025471749
2028,0.08210128
2029,-0.022388047
2030,-0.004085433
2031,-0.09382168
2032,-0.0013234589
2033,0.028153012
2034,-0.023328612
2035,0.068791084
2036,-0.024669817
2037,-0.0076825735
2038,0.00798026
2039,-0.015188784
2040,0.034010474
2041,0.057479266
2042,-0.11495318
2043,-0.02279548
2044,0.0809328
2045,-0.20127167
2046,-0.051810335
2047,0.09834152
2048,-0.027886532
2049,-0.01109699
2050,0.11572095
2051,-0.021451516
2052,0.012504071
2053,-0.039395757
2054,0.06756743
2055,-0.016232375
2056,0.026925262
2057,0.1572489
2058,0.063758604
2059,-0.013259
2060,0.05351888
2061,-0.089576975
2062,-0.08307919
2063,-0.09162584
2064,0.017032374
2065,-0.06339838
2066,0.02912291
2067,-0.09093535
2068,-0.017128956
2069,-0.07873507
2070,0.021531543
2071,0.0074218726
2072,-0.040976763
2073,0.17435515
2074,0.0071473266
2075,0.05364587
2076,-0.012055592
2077,0.08382819
2078,0.0055777435
2079,-0.06920993
2080,0.023934184
2081,0.017233295
2082,0.020850128
2083,0.11225336
2084,0.031863634
2085,-0.08799163
2086,-0.032400373
2087,-0.027183637
2088,-0.05442945
2089,-0.008165529
2090,-0.033353772
2091,0.12960018
2092,0.011553169
2093,0.034695823
2094,-0.04729411
2095,0.015717188
2096,0.02830491
2097,0.040885706
2098,0.01079791
2099,0.08435307
2100,0.03322227
2101,0.07999366
2102,-0.046631016
2103,-0.113800876
2104,-0.03520492
2105,0.101572044
2106,0.12196006
2107,0.059707414
2108,-0.003728765
2109,-0.109631106
2110,-0.076744765
2111,0.10795179
2112,0.05341207
2113,0.0057665682
2114,-0.027247796
2115,-0.0365341
2116,0.011924568
2117,-0.019591747
2118,0.16444468
2119,-0.07394209
2120,-0.048823386
2121,0.0050559775
2122,-0.13166328
2123,0.009581579
2124,-0.034093224
2125,0.00087411737
2126,-0.007760938
2127,-0.0101397475
2128,0.087626934
2129,0.028867643
2130,-0.07347892
2131,-0.09701175
2132,-0.029567486
2133,0.030766085
2134,0.07457413
2135,0.062082786
2136,-0.01749205
2137,-0.06660861
2138,0.049983937
2139,0.019549394
2140,-0.079082325
2141,0.04612317
2142,0.085575424
2143,0.076847374
2144,-0.019608187
2145,0.13069616
2146,0.03895057
2147,0.11993405
2148,0.025860287
2149,-0.05131294
2150,-0.04560361
2151,-0.04057995
2152,-0.07156927
2153,-0.026008422
2154,-0.07896711
2155,-0.033456985
2156,-0.058772393
2157,-0.012482958
2158,-0.03160262
2159,0.05810939
2160,0.0045493566
2161,-0.066714905
2162,0.07930969
2163,-0.06896595
2164,0.0002630992
2165,-0.025606995
2166,-0.10937905
2167,0.037976585
2168,-0.054880213
2169,-0.06693696
2170,0.066284895
2171,0.00043878352
2172,-0.19145305
2173,0.11275286
2174,0.0583936
2175,-0.03720753
2176,0.01353046
2177,-0.06103875
2178,-0.12547435
2179,0.01983688
2180,0.0016906341
2181,0.017525574
2182,-0.011136899
2183,-0.018584384
2184,0.03569006
2185,-0.01647918
2186,0.0032320272
2187,-0.09636848
2188,-0.03315846
2189,-0.060223468
2190,-0.043775402
2191,0.027498713
2192,-0.040494323
2193,-0.015580184
2194,-0.06742208
2195,-0.0035681897
2196,-0.04784687
2197,-0.013497446
2198,0.015848788
2199,0.020818971
2200,-0.019424662
2201,-0.09631144
2202,-0.018527243
2203,0.030193139
2204,0.035617273
2205,0.11206239
2206,0.054891456
2207,-0.067013055
2208,-0.013573252
2209,-0.017027674
2210,0.002052157
2211,0.063501865
2212,-0.04912263
2213,-0.013438635
2214,-0.06225398
2215,-0.038811162
2216,-0.07997954
2217,-0.18083918
2218,0.009339848
2219,0.040511962
2220,0.05841734
2221,0.019188035
2222,-0.128748
2223,0.005530309
2224,0.03674704
2225,0.028649177
2226,0.006961042
2227,-0.04448888
2228,-0.005589248
2229,0.03417205
2230,-0.09079808
2231,-0.14900768
2232,0.036313757
2233,0.07028527
2234,-0.017033752
2235,0.021199055
2236,-0.013829421
2237,-0.12764847
2238,-0.0009626617
2239,0.046716083
2240,-0.05498663
2241,-0.005454117
2242,-0.019768635
2243,-0.044013254
2244,-0.07248107
2245,-0.108873844
2246,0.03683555
2247,-0.05522579
2248,0.008940105
2249,-0.11352537
2250,0.00039426156
2251,-0.073502325
2252,-0.058473043
2253,-0.009091605
2254,-0.006737058
2255,0.013715971
2256,0.053392034
2257,-0.018970015
2258,0.05610764
2259,0.025651481
2260,-0.031542253
2261,-0.05413393
2262,0.027550392
2263,0.075004324
2264,-0.003917413
2265,-0.014828228
2266,0.0039496273
2267,-0.0033980254
2268,-0.030442206
2269,-0.06265792
2270,-0.10523445
2271,0.021460123
2272,-0.015706355
2273,0.014693354
2274,-0.038973417
2275,0.055766363
2276,-0.0361091
2277,-0.0028800794
2278,-0.068177365
2279,-0.05641032
2280,-0.04723391
2281,0.06395505
2282,-0.02842647
2283,-0.01536315
2284,0.044989634
2285,-0.016667858
2286,0.0035993613
2287,-0.007620628
2288,-0.013253014
2289,-0.052011628
2290,-0.26871842
2291,0.007909618
2292,-0.057941396
2293,0.09953453
2294,0.043706592
2295,0.011703829
2296,-0.04718513
2297,-0.024130426
2298,0.031501204
2299,0.05604027
2300,-0.12714829
2301,-0.16244723
2302,-0.04054386
2303,0.07511236
2304,0.027591158
2305,-0.02761213
2306,-0.0036879177
2307,-0.020246604
2308,0.0011922093
2309,-0.0074374694
2310,0.07391927
2311,-0.012264774
2312,0.07766713
2313,0.039980274
2314,0.0367531
2315,-0.08460543
2316,0.013881043
2317,-0.038723614
2318,0.0052325805
2319,-0.064506546
2320,-0.026459347
2321,-0.040268335
2322,-0.09312356
2323,-0.06518509
2324,-0.05961966
2325,-0.027311446
2326,0.009889722
2327,0.031066284
2328,-0.123370185
2329,0.045516778
2330,0.0871356
2331,0.03751549
2332,0.013615462
2333,0.13667159
2334,-0.008320548
2335,-0.11702951
2336,0.033222467
2337,-0.031246157
2338,-0.017003898
2339,0.087429374
2340,0.040193573
2341,-0.047342677
2342,0.0069207614
2343,-0.042947248
2344,-0.015050607
2345,-0.07222783
2346,-0.019715643
2347,0.12746015
2348,0.051211674
2349,0.020285033
2350,-0.06681915
2351,0.047629792
2352,-0.05922023
2353,0.05180118
2354,0.0059485584
2355,0.089727364
2356,0.09160134
2357,0.083931185
2358,-0.058521334
2359,-0.13343786
2360,-0.021672705
2361,0.10056465
2362,0.11900654
2363,0.085869625
2364,-0.024721134
2365,-0.05756197
2366,0.021402158
2367,0.10775489
2368,-0.010797534
2369,-0.019700404
2370,0.04511955
2371,-0.059452623
2372,-0.10176671
2373,-0.089748435
2374,0.025127688
2375,-0.05923836
2376,-0.008901711
2377,-0.030504527
2378,0.026367394
2379,0.002821319
2380,-0.03808123
2381,-0.011805941
2382,-0.00095227634
2383,0.0067374096
2384,0.020439643
2385,0.06189624
2386,-0.03142996
2387,-0.017897014
2388,-0.025408331
2389,0.0045214174
2390,0.11281806
2391,0.09735567
2392,0.012055329
2393,-0.07217273
2394,0.010478377
2395,0.005090778
2396,-0.07085475
2397,-0.031848107
2398,-0.009779638
2399,0.049564745
2400,0.0332432
2401,-0.026639502
2402,0.039372403
2403,0.10125585
2404,0.009985502
2405,0.031035205
2406,0.02973094
2407,-0.022678692
2408,-0.04211941
2409,0.07710874
2410,-0.29513526
2411,-0.01571353
2412,0.09140892
2413,-0.033824597
2414,0.078199685
2415,0.045005925
2416,0.008279313
2417,-0.060211264
2418,-0.019244932
2419,-0.007512823
2420,-0.044379644
2421,0.07569746
2422,0.017028462
2423,0.0034756116
2424,-0.0070374752
2425,0.027373422
2426,-0.0012240907
2427,0.028500052
2428,-0.24979952
2429,0.023817964
2430,0.037775125
2431,0.017496457
2432,0.029983724
2433,-0.0013282821
2434,0.04216164
2435,-0.04194337
2436,-0.025672685
2437,-0.01127701
2438,0.005688955
2439,-0.014049162
2440,0.09767717
2441,0.17960978
2442,-0.0018752362
2443,-0.09868206
2444,-0.011751528
2445,0.013964508
2446,-0.010466674
2447,-0.03764578
2448,-0.05302358
2449,-0.013899846
2450,-0.06668894
2451,0.04779854
2452,0.0048424928
2453,0.001714987
2454,-0.04635907
2455,0.028645812
2456,-0.031061685
2457,-0.02298174
2458,0.007849294
2459,-0.02952168
2460,-0.031621184
2461,0.047375932
2462,0.02144614
2463,-0.054981526
2464,-0.028284816
2465,-0.043564737
2466,0.0041301223
2467,0.02963997
2468,-0.07574752
2469,-0.05319369
2470,-0.050842937
2471,0.0061018206
2472,-0.016666789
2473,0.035462193
2474,-0.063415915
2475,0.009897513
2476,0.21875606
2477,-0.027862802
2478,-0.103923716
2479,-0.23554355
2480,0.06664137
2481,0.028231414
2482,0.013922294
2483,-0.043050356
2484,-0.22218733
2485,0.041347776
2486,-0.044004567
2487,0.053581815
2488,0.11453355
2489,0.099952035
2490,-0.057907917
2491,0.08091038
2492,-0.015119947
2493,-0.06571051
2494,-0.049400736
2495,0.045524888
2496,0.06749829
2497,0.002634012
2498,-0.024911486
2499,-0.0388007
2500,-0.046508335
2501,-0.04190794
2502,0.02579815
2503,-0.07226701
2504,0.013749795
2505,-0.15071519
2506,-0.046080384
2507,0.09316879
2508,-0.028548883
2509,-0.031667035
2510,-0.05172168
2511,0.07996424
2512,-0.021546904
2513,-0.071540065
2514,0.018225476
2515,-0.017213866
2516,-0.027389126
2517,-0.022296892
2518,0.14454958
2519,0.033204176
2520,0.040448494
2521,-0.046858255
2522,0.0261326
2523,-0.00752935
2524,-0.06908757
2525,0.14707781
2526,-0.13481991
2527,-0.040328834
2528,0.00039488444
2529,-0.03553182
2530,0.11152512
2531,0.14541857
2532,-0.012661441
2533,-0.008753647
2534,-0.020370692
2535,-0.072624676
2536,-0.08091888
2537,0.10957552
2538,0.029832816
2539,-0.0031468812
2540,0.03959348
2541,-0.043548282
2542,0.07349401
2543,-0.0042290115
2544,-0.008041752
2545,-0.034980047
2546,-0.06567306
2547,-0.055211205
2548,-0.045690324
2549,0.08887605
2550,0.10207603
2551,-0.011932762
2552,-0.051422775
2553,0.0777203
2554,-0.02325395
2555,0.04859829
2556,0.21315807
2557,-0.16723938
2558,-0.097250625
2559,0.05554417
2560,0.016595632
2561,-0.021656971
2562,-0.012894469
2563,0.0605906
2564,0.020067401
2565,0.019829785
2566,0.03428424
2567,0.06172017
2568,0.11340232
2569,-0.0674129
2570,-0.06126592
2571,-0.04287464
2572,-0.058289446
2573,0.06360503
2574,0.004869531
2575,-0.002290255
2576,-0.039887212
2577,-0.026284132
2578,-0.011901144
2579,-0.015002135
2580,-0.030205935
2581,0.011360697
2582,0.024821227
2583,-0.009988168
2584,0.012155849
2585,0.103517
2586,0.10836036
2587,0.019016553
2588,-0.0075464905
2589,0.104618415
2590,0.047424212
2591,0.021592487
2592,-0.020960514
2593,-0.04335245
2594,-0.02173667
2595,0.13810164
2596,-0.053008176
2597,-0.009547583
2598,-0.018010275
2599,-0.029136261
2600,-0.0046931556
2601,-0.07888421
2602,0.016942998
2603,0.13835852
2604,0.12070502
2605,0.029849505
2606,-0.030095775
2607,-0.13558705
2608,0.01149432
2609,0.08505187
2610,-0.00021537881
2611,-0.09098946
2612,-0.013599499
2613,0.121400155
2614,0.02286129
2615,-0.03635353
2616,0.06926989
2617,0.07717975
2618,0.21482395
2619,0.019167248
2620,-0.029605102
2621,-0.07013554
2622,0.026642501
2623,0.12148207
2624,-0.013624657
2625,-0.0056639863
2626,-0.046291057
2627,-0.0103506
2628,-0.022959942
2629,-0.023142168
2630,0.04824962
2631,-0.05980735
2632,-0.04553585
2633,-0.05465257
2634,0.04989135
2635,-0.015608338
2636,0.04689086
2637,0.0019976664
2638,0.015168755
2639,-0.06834855
2640,0.06704298
2641,0.02350504
2642,0.024403004
2643,0.036275383
2644,-0.032078028
2645,0.033283204
2646,0.13709529
2647,0.051994465
2648,-0.01204661
2649,-0.029302394
2650,0.013042657
2651,0.0034897982
2652,-0.027884502
2653,0.020815693
2654,-0.09642255
2655,-0.13682349
2656,-0.0054943343
2657,-0.08107793
2658,0.021190146
2659,0.16207825
2660,-0.020391922
2661,0.004381025
2662,0.0072073825
2663,-0.05124405
2664,0.017026657
2665,0.10897263
2666,0.18388596
2667,0.036992382
2668,-0.057322543
2669,-0.057797153
2670,0.038021423
2671,0.021245375
2672,-0.014918335
2673,-0.011870624
2674,-0.13913162
2675,-0.021807311
2676,0.007957306
2677,0.11210942
2678,-0.049947247
2679,0.017905626
2680,0.0004929562
2681,0.024448229
2682,0.08506581
2683,0.06833837
2684,-0.13755484
2685,-0.045418642
2686,-0.013505121
2687,0.029268563
2688,-0.020149352
2689,-0.014396888
2690,0.1269574
2691,0.028880542
2692,0.012640478
2693,-0.081702754
2694,0.024139572
2695,-0.1384979
2696,-0.1990645
2697,-0.003602549
2698,-0.05390669
2699,-0.14436784
2700,-0.07782444
2701,-0.19663873
2702,-0.07698424
2703,0.018381273
2704,-0.17998809
2705,-0.018614618
2706,-0.30226126
2707,0.033505313
2708,0.02834706
2709,0.0055442974
2710,-0.004426681
2711,0.07475535
2712,-0.039831042
2713,-0.0036701204
2714,-0.06955175
2715,-0.08260963
2716,-0.14237233
2717,-0.0695802
2718,-0.044204675
2719,0.04319983
2720,0.0012648483
2721,-0.049840637
2722,-0.01659499
2723,-0.066108994
2724,-0.14698087
2725,0.00035955166
2726,-0.19929916
2727,-0.17021763
2728,-0.011270041
2729,-0.0769935
2730,-0.0343141
2731,-0.03683431
2732,-0.01147971
2733,-0.16531117
2734,0.05881728
2735,-0.008512813
2736,0.04389402
2737,-0.01917132
2738,-0.008959208
2739,-0.022962352
2740,0.061922822
2741,-0.03791803
2742,-0.01160285
2743,0.11081851
2744,-0.08915697
2745,0.0122674
2746,-0.0043611145
2747,0.017290298
2748,0.00028909527
2749,-0.012739369
2750,0.01358408
2751,-0.07076843
2752,-0.09382683
2753,0.0010817758
2754,-0.0038191802
2755,0.021461334
2756,-0.198724
2757,0.03418571
2758,0.015244288
2759,0.019816196
2760,-0.045386318
2761,0.00014177414
2762,-0.037687715
2763,0.15969981
2764,-0.21035935
2765,0.0062578637
2766,-0.112099856
2767,-0.010407035
2768,-0.045466203
2769,-0.19524607
2770,0.008171486
2771,-0.07041118
2772,0.01945811
2773,-0.030682886
2774,-0.07178022
2775,-0.002328307
2776,0.005379474
2777,0.020868734
2778,0.05281255
2779,-0.0117828045
2780,0.027934153
2781,0.14967401
2782,-0.25296682
2783,0.09516589
2784,-0.05678968
2785,0.10407256
2786,0.13979918
2787,-0.02019863
2788,-0.14911182
2789,-0.051114354
2790,-0.14867796
2791,0.020921579
2792,-0.11839154
2793,-0.063129425
2794,-0.068371184
2795,-0.16780442
2796,-0.042331606
2797,-0.029714372
2798,0.021383319
2799,0.0375942
2800,0.0041901227
2801,-0.107863836
2802,-0.13971423
2803,-0.009723945
2804,0.018797439
2805,-0.0034477022
2806,0.009148095
2807,0.04058404
2808,-0.15745935
2809,-0.1623347
2810,-0.0010366032
2811,-0.013623671
2812,0.26842535
2813,-0.012703477
2814,-0.040441096
2815,0.01768575
2816,0.021779783
2817,-0.12219727
2818,0.044859983
2819,0.009458386
2820,-0.016355835
2821,-0.087551214
2822,0.047976073
2823,-0.065669715
2824,0.09479397
2825,0.108566254
2826,-0.082022764
2827,-0.029195743
2828,0.0009637042
2829,-0.04029638
2830,-0.043406345
2831,-0.054434527
2832,-0.06864376
2833,-0.06005543
2834,-0.09016571
2835,0.034572437
2836,-0.04888677
2837,-0.07877705
2838,-0.017295653
2839,0.026216408
2840,-0.043974012
2841,0.06618455
2842,0.092017904
2843,-0.022380222
2844,0.038386703
2845,0.07338633
2846,0.039956056
2847,-0.07730738
2848,-0.012619315
2849,-0.069727205
2850,-0.013524861
2851,0.072370484
2852,-0.054478806
2853,-0.020967105
2854,-0.061044134
2855,-0.031919576
2856,-0.010776122
2857,-0.06345779
2858,-0.054958314
2859,0.07540411
2860,0.1301723
2861,-0.05340279
2862,-0.25663465
2863,0.020703467
2864,-0.060503148
2865,0.079547115
2866,-0.01507714
2867,0.0015769381
2868,0.05385982
2869,0.050488416
2870,-0.041015163
2871,-0.07678638
2872,0.0028547475
2873,0.07634231
2874,0.036644943
2875,0.023444025
2876,0.03351583
2877,-0.029237024
2878,-0.0864791
2879,0.021650204
2880,-0.053286728
2881,0.002908988
2882,-0.050223548
2883,-0.06782521
2884,-0.03718031
2885,-0.10376222
2886,0.11512943
2887,-0.05874082
2888,0.08563321
2889,-0.04084532
2890,0.10174328
2891,-0.04044106
2892,-0.09603904
2893,-0.041238964
2894,0.0129735125
2895,0.018486425
2896,0.0992112
2897,-0.0063640415
2898,-0.035456542
2899,-0.056587446
2900,-0.006774444
2901,0.0027783115
2902,0.020510083
2903,0.0822206
2904,-0.025024014
2905,0.0027018096
2906,-0.08032097
2907,-0.05296901
2908,-0.07469739
2909,-0.011432539
2910,-0.07034517
2911,0.073896214
2912,-0.01175472
2913,0.09716481
2914,-0.0253126
2915,0.08572803
2916,-0.040704932
2917,-0.048045713
2918,-0.055451952
2919,-0.045715526
2920,-0.062453184
2921,0.16487594
2922,0.00075513805
2923,-0.07607924
2924,-0.03051243
2925,-0.017735476
2926,0.077583194
2927,0.013264916
2928,-0.0016277861
2929,-0.05005473
2930,-0.09720105
2931,-0.068190396
2932,-0.08439986
2933,0.1499035
2934,0.033266272
2935,-0.01752157
2936,-0.048276696
2937,0.01865384
2938,-0.012373417
2939,0.04004871
2940,-0.08307202
2941,-0.047939546
2942,-0.02360047
2943,-0.0036997027
2944,0.009771078
2945,-0.07582496
2946,0.026363812
2947,-0.08293402
2948,0.0027450752
2949,-0.02474229
2950,0.0016997982
2951,0.024187649
2952,-0.045960825
2953,0.016073653
2954,0.054559417
2955,0.036709256
2956,-0.0879967
2957,-0.019794889
2958,0.008945671
2959,-0.024074364
2960,0.016217066
2961,-0.030283486
2962,0.0032443523
2963,0.052260883
2964,-0.021015324
2965,0.02759971
2966,-0.01693672
2967,-0.0499723
2968,0.035432678
2969,-0.017843658
2970,-0.011304124
2971,-0.19295062
2972,-0.18796122
2973,0.027511174
2974,-0.094864875
2975,-0.009064486
2976,-0.022379154
2977,0.015146062
2978,-0.015940519
2979,0.053684384
2980,0.0354164
2981,-0.014375448
2982,0.0070750467
2983,0.031407364
2984,0.0029141225
2985,0.035024546
2986,0.0086156335
2987,0.008329121
2988,-0.020709904
2989,-0.046102118
2990,-0.051002286
2991,-0.09686615
2992,-0.064802274
2993,0.0034448972
2994,0.016184447
2995,0.008264202
2996,0.021243457
2997,-0.025565866
2998,0.022755634
2999,-0.037659213
3000,-0.05085872
3001,-0.04873329
3002,0.015156249
3003,-0.140216
3004,-0.040194824
3005,-0.028733565
3006,-0.016529132
3007,0.03475113
3008,0.016850367
3009,0.0011568689
3010,0.01766103
3011,0.0049160644
3012,0.039029907
3013,0.011620954
3014,-0.037831485
3015,0.0052808374
3016,-0.0416489
3017,-0.08143551
3018,-0.17985119
3019,0.032628875
3020,0.027132368
3021,-0.045146573
3022,-0.038827736
3023,0.042055093
3024,0.001272324
3025,-0.026721982
3026,0.040490843
3027,-0.011585573
3028,0.0044614403
3029,0.05158728
3030,0.018160965
3031,-0.027650015
3032,-0.01024196
3033,0.006992899
3034,-0.035431884
3035,-0.009526072
3036,-0.027743839
3037,-0.073137246
3038,0.0373071
3039,-0.04206938
3040,-0.002443891
3041,-0.020456932
3042,-0.11247075
3043,-0.015374143
3044,0.019602498
3045,-0.005385455
3046,0.014281921
3047,-0.0062385956
3048,0.023304136
3049,-0.034463186
3050,-0.026010599
3051,0.016685043
3052,0.03534338
3053,0.029056747
3054,-0.017659532
3055,-0.10936064
3056,0.008479728
3057,0.031092543
3058,0.04675367
3059,0.022376595
3060,-0.014702082
3061,-0.023259776
3062,0.028104313
3063,-0.0055887834
3064,0.017530449
3065,0.01793208
3066,-0.039149564
3067,0.0009016007
3068,-0.10126265
3069,-0.12419071
3070,0.04809023
3071,0.04103799
3072,0.01900374
3073,-0.085238464
3074,0.08265988
3075,-0.022185862
3076,-0.018501507
3077,-0.09789917
3078,0.06383221
3079,-0.032543536
3080,0.088540904
3081,0.0056322543
3082,0.066846825
3083,-0.05517149
3084,-0.04037705
3085,-0.05647804
3086,-0.02368271
3087,-0.0142384535
3088,-0.023484226
3089,-0.09463229
3090,-0.011321168
3091,0.023465214
3092,-0.039186835
3093,-0.07693794
3094,-0.0064855223
3095,-0.067172855
3096,-0.019154629
3097,0.008212021
3098,0.14683615
3099,-0.14339815
3100,-0.16982268
3101,0.08510907
3102,-0.009808821
3103,-0.025450803
3104,-0.018148614
3105,-0.02172271
3106,0.013387549
3107,0.09497372
3108,-0.039773814
3109,-0.016935216
3110,-0.043619033
3111,-0.008698605
3112,-0.06918262
3113,0.022012502
3114,0.0079844305
3115,0.05708532
3116,0.12343821
3117,-0.12998855
3118,-0.048389997
3119,-0.12190227
3120,-0.044860937
3121,0.016620865
3122,0.017259382
3123,0.02019224
3124,0.029681642
3125,0.030156475
3126,-0.07208454
3127,-0.077789865
3128,-0.0397989
3129,0.086608194
3130,0.11813009
3131,-0.046723433
3132,-0.017995946
3133,-0.05387295
3134,-0.03365663
3135,0.10056243
3136,0.017767226
3137,-0.0069083115
3138,-0.07105219
3139,-0.043773696
3140,-0.019840617
3141,-0.055285476
3142,0.079762176
3143,-0.0119568715
3144,-0.05925713
3145,-0.02402775
3146,-0.09049504
3147,0.046640284
3148,-0.05314931
3149,-0.044275638
3150,0.013866045
3151,0.024292424
3152,0.0056434944
3153,-0.09307708
3154,0.0029895809
3155,0.025540495
3156,0.01492815
3157,-0.03223904
3158,0.06841888
3159,0.045397647
3160,-0.026374305
3161,0.0194159
3162,-0.0076444377
3163,-0.031141099
3164,-0.036174707
3165,-0.015271901
3166,0.007482936
3167,-0.033620413
3168,0.0041265325
3169,0.09759908
3170,-0.0161178
3171,0.073268205
3172,0.0022878526
3173,0.008133466
3174,-0.042504296
3175,-0.014028214
3176,-0.038687445
3177,0.0904076
3178,-0.020562747
3179,-0.023846459
3180,0.01371474
3181,-0.0030443906
3182,0.009561317
3183,-0.0052974736
3184,-0.025629755
3185,0.0036072682
3186,-0.01106088
3187,0.008247146
3188,-0.07321275
3189,0.08373787
3190,0.029773017
3191,-0.037137855
3192,-0.05185601
3193,-0.020232383
3194,0.015456611
3195,0.045346983
3196,-0.09666604
3197,-0.040537104
3198,0.020482864
3199,-0.007510325
3200,-0.028247163
3201,-0.09990666
3202,-0.054615617
3203,-0.002745154
3204,-0.050854206
3205,-0.114913076
3206,-0.06621624
3207,0.04015145
3208,0.055218462
3209,0.020574398
3210,0.054273788
3211,0.032114528
3212,-0.076017916
3213,0.07410673
3214,0.010309943
3215,0.008478763
3216,0.03185837
3217,0.019555973
3218,0.009174357
3219,-0.09071391
3220,-0.0063802735
3221,-0.012617963
3222,0.004360779
3223,-0.012382829
3224,0.04593454
3225,0.03274215
3226,0.018362457
3227,-0.084069945
3228,-0.06001572
3229,-0.16184534
3230,-0.14936037
3231,-0.022848563
3232,-0.029224029
3233,-0.018372381
3234,0.005825317
3235,-0.044482853
3236,0.023238506
3237,0.023102535
3238,0.056856144
3239,0.040406447
3240,0.058923412
3241,0.063620105
3242,-0.027288185
3243,-0.08111115
3244,-0.12599635
3245,-0.08637313
3246,-0.012518642
3247,-0.09962514
3248,-0.047387272
3249,-0.076013565
3250,0.065111235
3251,0.015299204
3252,-0.07526782
3253,-0.103414185
3254,0.024008788
3255,-0.042092964
3256,-0.054414526
3257,-0.10700293
3258,0.04384
3259,-0.11036349
3260,0.008088326
3261,-0.0016126783
3262,0.056421008
3263,-0.03498092
3264,0.0071766684
3265,0.0020954986
3266,0.012188373
3267,-0.022078019
3268,0.057811517
3269,-0.029666703
3270,-0.11686468
3271,0.004819023
3272,-0.15846631
3273,-0.1318423
3274,0.006939564
3275,-0.010718491
3276,0.032451984
3277,-0.023844209
3278,-0.081630036
3279,0.024687294
3280,-0.07701229
3281,-0.007938924
3282,0.024366248
3283,-0.023275252
3284,0.023986131
3285,0.028350059
3286,0.007220437
3287,-0.07462091
3288,-0.0030785317
3289,-0.0016165533
3290,-0.019808207
3291,-0.013796771
3292,-0.0077586556
3293,-0.097493105
3294,0.116962224
3295,-0.11788842
3296,0.061553463
3297,-0.045170087
3298,-0.018305276
3299,0.054951005
3300,0.04137064
3301,-0.02178168
3302,0.029512502
3303,-0.01926094
3304,0.040669516
3305,-0.16538037
3306,-0.07309577
3307,0.03961623
3308,0.045060676
3309,0.0375455
3310,0.03325983
3311,-0.011700941
3312,-0.0029305296
3313,0.032310415
3314,0.04152451
3315,0.006686023
3316,-0.050818514
3317,-0.13993937
3318,-0.025732424
3319,0.006589835
3320,0.04517497
3321,0.039838128
3322,-0.01054929
3323,-0.12025714
3324,-0.113855235
3325,-0.18730569
3326,-0.08787624
3327,-0.0063696983
3328,0.021090332
3329,0.028884089
3330,-0.11715172
3331,0.052006483
3332,0.024113802
3333,-0.22997661
3334,-0.03867232
3335,-0.0011380765
3336,-0.0017390643
3337,0.025516523
3338,0.007046392
3339,0.00951774
3340,0.031674962
3341,0.009593281
3342,-0.03610193
3343,0.028759029
3344,-0.02153285
3345,0.016307637
3346,-0.24518846
3347,0.02195324
3348,0.03195093
3349,-0.012021682
3350,0.0024233032
3351,-0.039307408
3352,0.035444807
3353,0.03677454
3354,0.06022783
3355,-0.10422004
3356,-0.11589796
3357,0.0056154253
3358,-0.038530625
3359,0.038197957
3360,0.039264236
3361,-0.0063586035
3362,-0.01809661
3363,0.03390194
3364,-0.043326296
3365,0.014622016
3366,0.013711972
3367,-0.028579725
3368,0.018747494
3369,-0.048433192
3370,-0.025485663
3371,0.023570634
3372,0.023148308
3373,-0.24521223
3374,-0.116546534
3375,-0.06809036
3376,0.03301197
3377,0.017371412
3378,-0.007812665
3379,-0.023119098
3380,-0.029735621
3381,-0.028477233
3382,-0.0037968748
3383,-0.008026527
3384,-0.043731723
3385,0.031258628
3386,0.010988954
3387,-0.08099063
3388,0.00038512447
3389,-0.02942425
3390,-0.09050159
3391,0.03386465
3392,0.037572876
3393,0.0037946517
3394,0.013289106
3395,0.037659097
3396,-0.06170557
3397,0.036739293
3398,-0.08802856
3399,0.03821991
3400,-0.015525019
3401,-0.07186903
3402,-0.014351554
3403,0.0035200433
3404,-0.019681573
3405,0.0011115166
3406,-0.037177175
3407,0.053779863
3408,0.041656543
3409,-0.13095686
3410,0.0017073554
3411,-0.05096347
3412,0.03841396
3413,0.017119043
3414,-0.0011793447
3415,-0.017436828
3416,0.015496128
3417,0.051329605
3418,-0.01839581
3419,0.011451157
3420,0.051964715
3421,-0.057396475
3422,-0.048267126
3423,-0.13761586
3424,-0.007820445
3425,-0.068278685
3426,-0.04825894
3427,0.049144037
3428,-0.026581828
3429,-0.03491923
3430,-0.017797878
3431,0.021026172
3432,-0.0072261314
3433,0.043577068
3434,0.008895554
3435,0.008817582
3436,0.0206788
3437,-0.018386541
3438,-0.008872337
3439,-0.058227457
3440,0.0053053005
3441,-0.023533214
3442,-0.0026942976
3443,-0.049446564
3444,0.016130079
3445,0.017822038
3446,0.029075159
3447,0.03608218
3448,0.02848656
3449,-0.05456451
3450,0.026790952
3451,-0.02753944
3452,-0.0313116
3453,-0.095357545
3454,0.010121321
3455,0.014995223
3456,0.048492204
3457,-0.049671028
3458,0.010335995
3459,0.066214055
3460,-0.040461954
3461,0.04013359
3462,0.11451436
3463,-0.066297814
3464,0.004835188
3465,-0.008695176
3466,0.039567605
3467,-0.0828393
3468,0.03209653
3469,-0.013169353
3470,-0.06740004
3471,-0.0065364763
3472,-0.0123606175
3473,0.012202256
3474,-0.036559243
3475,0.05461919
3476,0.01260338
3477,-0.019548269
3478,-0.011058859
3479,0.04693448
3480,-0.070858344
3481,-0.025633788
3482,-0.018616935
3483,0.016482184
3484,-0.01735744
3485,0.08028859
3486,0.06902055
3487,0.008623047
3488,-0.027558578
3489,-0.021136835
3490,-0.013661382
3491,0.12193077
3492,0.034547687
3493,0.020500373
3494,-0.06427385
3495,-0.07363096
3496,-0.000101219135
3497,-0.09642742
3498,-0.05262174
3499,0.100680746
3500,0.09770563
3501,0.014842939
3502,-0.008139978
3503,0.035754804
3504,0.006608661
3505,0.07875992
3506,0.0003714409
3507,0.02179099
3508,0.010683292
3509,0.09104681
3510,0.014086578
3511,-0.033342127
3512,-0.003945097
3513,0.052392382
3514,-0.0031427857
3515,0.053687546
3516,-0.031302184
3517,-0.014210307
3518,-0.05078359
3519,0.14978924
3520,0.0056090453
3521,-0.014669753
3522,-0.027641948
3523,0.02924396
3524,-0.04897689
3525,0.016088372
3526,0.082650565
3527,-0.033440914
3528,-0.0008027182
3529,-0.027460342
3530,-0.0071508316
3531,-0.0032568942
3532,-0.06181315
3533,-0.050910424
3534,-0.010560582
3535,0.04375983
3536,0.101823516
3537,0.022638889
3538,-0.08924292
3539,-0.0020086716
3540,0.017454162
3541,0.007966371
3542,0.035050545
3543,0.09460681
3544,0.027591173
3545,-0.029147994
3546,0.041015945
3547,-0.0055553596
3548,-0.012438847
3549,0.02382174
3550,0.018936219
3551,0.07735901
3552,-0.01630774
3553,-0.02409479
3554,0.02820562
3555,-0.038444143
3556,-0.022467038
3557,-0.013499688
3558,-0.01937305
3559,0.021850387
3560,-0.06857865
3561,0.12461084
3562,0.11198142
3563,-0.052684553
3564,-0.044979833
3565,0.027748097
3566,-0.011911299
3567,0.04406372
3568,-0.0073625306
3569,-0.055106763
3570,-0.047798045
3571,-0.06343705
3572,0.020269247
3573,0.10628999
3574,-0.011952357
3575,-0.018707102
3576,-0.041231845
3577,-0.0336197
3578,0.10257833
3579,0.07357711
3580,-0.11524808
3581,-0.0053060935
3582,-0.011085524
3583,-0.036395527
3584,-0.07916158
3585,-0.060173593
3586,-0.06594745
3587,-0.018321058
3588,0.00834965
3589,-0.12472668
3590,-0.025289621
3591,0.039018195
3592,0.005414285
3593,-0.0019477605
3594,0.09425701
3595,0.08747475
3596,-0.15647231
3597,0.05896498
3598,-0.0043460564
3599,-0.0011524624
3600,-0.047281295
3601,0.021674993
3602,-0.056198698
3603,-0.20983107
3604,-0.03751522
3605,-0.014692364
3606,-0.00092264696
3607,-0.05682738
3608,0.03448523
3609,0.024620028
3610,0.04561102
3611,-0.13238485
3612,-0.0661927
3613,-0.1444965
3614,-0.1533428
3615,-0.064977154
3616,-0.02094836
3617,0.0056803143
3618,-0.0009975381
3619,-0.084701374
3620,-0.03377051
3621,0.0032444263
3622,-0.012672465
3623,-0.012611186
3624,0.01631393
3625,0.043863054
3626,-0.0014120953
3627,-0.09631041
3628,-0.23164356
3629,-0.119451694
3630,-0.034171455
3631,-0.24703884
3632,-0.03179747
3633,-0.07774015
3634,0.026182733
3635,-0.045086704
3636,0.007154939
3637,-0.13952719
3638,0.0041309805
3639,-0.04324002
3640,0.06255339
3641,-0.20549795
3642,0.051660042
3643,-0.10319967
3644,-0.04112016
3645,-0.0119613325
3646,-0.010807757
3647,-0.08519818
3648,0.00039429983
3649,-0.0006176305
3650,0.030402277
3651,-0.08005747
3652,0.010938032
3653,-0.0807074
3654,-0.09727381
3655,-0.078752786
3656,-0.16566996
3657,-0.029521246
3658,-0.020664325
3659,-0.12722015
3660,0.01196882
3661,-0.0004599494
3662,0.13824604
3663,0.097262174
3664,-0.04248765
3665,-0.12951458
3666,0.11600278
3667,0.086905755
3668,-0.03330248
3669,0.026624562
3670,-0.030802382
3671,-0.080621816
3672,-0.005595681
3673,-0.057122122
3674,-0.015562617
3675,-0.0336427
3676,0.0039425003
3677,-0.099835776
3678,-0.0258007
3679,-0.063381635
3680,0.014738947
3681,-0.036450922
3682,-0.05230885
3683,-0.012621225
3684,-0.045721512
3685,0.0123695675
3686,-0.020441867
3687,-0.074116684
3688,0.0033602396
3689,-0.111088604
3690,-0.12228917
3691,0.024319107
3692,0.09577719
3693,0.025799723
3694,0.06407436
3695,0.056058098
3696,0.005482317
3697,-0.0215641
3698,-0.014019105
3699,-0.033680305
3700,-0.09594088
3701,-0.26997408
3702,0.08049264
3703,-0.015370287
3704,-0.043308254
3705,0.025025671
3706,0.011297984
3707,-0.29239267
3708,-0.103415705
3709,-0.08198443
3710,-0.10952733
3711,0.024234409
3712,0.026675237
3713,-0.011847044
3714,-0.081841774
3715,-0.04593144
3716,-0.022008963
3717,-0.052026838
3718,-0.039819054
3719,0.033026412
3720,0.00858379
3721,0.018783363
3722,-0.029425086
3723,-0.06470919
3724,-0.056296617
3725,0.035415385
3726,0.0042375587
3727,-0.0067925127
3728,0.0025459013
3729,-0.015400908
3730,-0.06953302
3731,0.045713417
3732,-0.019626282
3733,-0.004846347
3734,-0.016757196
3735,-0.06068925
3736,0.03984238
3737,0.07635189
3738,-0.0069444664
3739,-0.12382245
3740,-0.06415267
3741,0.025476007
3742,-0.03720112
3743,-0.001963346
3744,0.0063958354
3745,-0.042154927
3746,-0.008706385
3747,0.0769998
3748,-0.024138428
3749,-0.021816608
3750,0.039065458
3751,-0.042943772
3752,-0.02795729
3753,-0.049294464
3754,-0.008557567
3755,0.059039876
3756,0.022554819
3757,-0.08177431
3758,-0.022174655
3759,-0.17909397
3760,-0.039461628
3761,0.042951148
3762,0.020524858
3763,-0.033035878
3764,0.00550572
3765,0.0072358516
3766,0.003950433
3767,-0.042028442
3768,-0.00902213
3769,0.017631188
3770,0.07692973
3771,-0.022651955
3772,0.018732382
3773,-0.093077235
3774,-0.010026298
3775,0.05329234
3776,-0.023050072
3777,-0.0043283985
3778,-0.04046382
3779,0.0122150695
3780,-0.042098198
3781,-0.015929502
3782,-0.04334455
3783,0.010637921
3784,-0.019589769
3785,-0.17821011
3786,0.011340379
3787,-0.032068316
3788,0.026293902
3789,0.018873323
3790,0.015277157
3791,-0.0069497153
3792,0.056402583
3793,-0.02897465
3794,0.035545796
3795,0.019748148
3796,0.008482043
3797,0.043356907
3798,0.004486005
3799,-0.015793227
3800,0.026780128
3801,0.053448007
3802,-0.043649595
3803,-0.030025622
3804,-0.0055220486
3805,-0.06713588
3806,-0.07393897
3807,-0.21336408
3808,-0.011774526
3809,-0.029470406
3810,-0.05568552
3811,0.067234665
3812,0.005794796
3813,0.010705225
3814,-0.021982575
3815,0.00064511894
3816,0.023471301
3817,0.023961218
3818,-0.0035241952
3819,0.010621816
3820,0.011222225
3821,-0.016864376
3822,-0.016379857
3823,-0.06745779
3824,-0.016157556
3825,-0.04366868
3826,-0.19260734
3827,-0.04157767
3828,-0.013819777
3829,0.037433315
3830,0.0059057483
3831,-0.020156944
3832,0.05852679
3833,0.008664973
3834,-0.016352728
3835,0.009737872
3836,-0.21075921
3837,-0.19726652
3838,0.005855692
3839,0.04333948
3840,-0.038995
3841,0.10861462
3842,0.04035751
3843,0.12296077
3844,-0.030131003
3845,-0.074531294
3846,0.13218845
3847,0.019524569
3848,0.036234785
3849,0.03669897
3850,0.0011508095
3851,0.04125075
3852,-0.039063346
3853,-0.009061341
3854,0.020663425
3855,-0.053472936
3856,0.0029103162
3857,0.014867691
3858,-0.033132236
3859,-0.074719556
3860,-0.039488997
3861,-0.021899726
3862,-0.04527646
3863,-0.035157297
3864,0.044948667
3865,0.009354088
3866,0.027614456
3867,0.003331975
3868,-0.02944622
3869,-1.160652e-05
3870,-0.024210816
3871,-0.027621798
3872,-0.006596266
3873,0.016675116
3874,-0.024784872
3875,0.00024849654
3876,0.04612013
3877,-0.045491233
3878,0.008340627
3879,0.019104572
3880,0.009553033
3881,0.012118335
3882,-0.0036633117
3883,0.063482285
3884,0.04101001
3885,-0.04680272
3886,-0.011913535
3887,0.098285384
3888,-0.12969814
3889,0.08248564
3890,0.0013990143
3891,0.037410982
3892,0.006580831
3893,0.06314951
3894,-0.0041832
3895,0.01243877
3896,-0.055616982
3897,0.0371291
3898,0.06562658
3899,0.040324584
3900,0.07911493
3901,-0.026418928
3902,0.01762248
3903,0.0077539166
3904,0.05779027
3905,0.010008601
3906,0.016943347
3907,-0.036716696
3908,0.034085974
3909,-0.018730974
3910,-0.022609392
3911,-0.059431322
3912,-0.14289181
3913,-0.073215775
3914,-0.02492819
3915,-0.022655375
3916,0.012857984
3917,-0.017340677
3918,-0.036405813
3919,0.008687298
3920,0.104278974
3921,-0.0027279234
3922,0.03741168
3923,-0.03293953
3924,-0.06970326
3925,0.0036535293
3926,0.03924107
3927,0.04431451
3928,-0.029931784
3929,-0.034068774
3930,-0.06943088
3931,-0.02146536
3932,-0.06367107
3933,0.08602175
3934,0.007756525
3935,-0.10085978
3936,-0.010103864
3937,0.05104122
3938,0.100195386
3939,0.037283454
3940,0.027727826
3941,0.042252567
3942,0.015321765
3943,-0.07058649
3944,0.008618816
3945,0.025786737
3946,-0.043141097
3947,0.032851413
3948,0.03309852
3949,-0.010908054
3950,0.039855402
3951,0.1444887
3952,0.009949428
3953,0.013223134
3954,-0.0141974995
3955,0.059176233
3956,-0.021129742
3957,-0.007601673
3958,-0.07084118
3959,0.0121880835
3960,-0.008212343
3961,0.027208243
3962,0.13322821
3963,-0.035828203
3964,-0.035806224
3965,-0.16845348
3966,-0.0300532
3967,0.021282516
3968,-0.018412517
3969,-0.04800334
3970,0.044356145
3971,-0.07622992
3972,-0.0026551043
3973,-0.014463257
3974,0.04175077
3975,0.0019989847
3976,0.06407347
3977,0.07170045
3978,0.049797244
3979,-0.008446361
3980,0.010598436
3981,0.0060448977
3982,-0.023196118
3983,-0.005810754
3984,-0.00837818
3985,-0.025786273
3986,-0.0083947545
3987,0.016386304
3988,-0.05945627
3989,-0.05791544
3990,-0.0001348923
3991,-0.021670628
3992,0.01041479
3993,0.11093452
3994,0.06580601
3995,-0.17707475
3996,-0.077560045
3997,0.024074268
3998,0.010537478
3999,-0.09542931
4000,-0.044509914
4001,0.009514984
4002,-0.0070831007
4003,0.038791824
4004,-0.024254091
4005,-0.060278174
4006,-0.0009174086
4007,0.0003887395
4008,-0.005285004
4009,-0.008224994
4010,0.046748716
4011,0.012981122
4012,0.08828258
4013,-0.018197242
4014,-0.012837173
4015,-0.117560096
4016,-0.045081265
4017,0.054725796
4018,-0.0023844973
4019,0.013725365
4020,-0.041455895
4021,0.035492506
4022,0.008789725
4023,-0.028233679
4024,0.0051655755
4025,0.061583042
4026,0.056496155
4027,-0.057325225
4028,-0.006828814
4029,0.015059401
4030,-0.050899882
4031,0.04437403
4032,-0.021626951
4033,-0.0171135
4034,0.053905
4035,-0.0845185
4036,0.014359797
4037,-0.065006256
4038,0.033435088
4039,-0.07572768
4040,-0.095787674
4041,-0.0005330277
4042,-0.0929648
4043,0.039885662
4044,-0.010343341
4045,-0.011867388
4046,-0.07433615
4047,0.002439059
4048,-0.0048877667
4049,-0.024344105
4050,-0.082339466
4051,-0.05804199
4052,-0.056988742
4053,0.015396207
4054,-0.1085562
4055,-0.042155568
4056,-0.019233998
4057,-0.07931531
4058,-0.028045818
4059,-0.029456869
4060,-0.05083775
4061,-0.016211288
4062,-0.00021183302
4063,-0.09486594
4064,-0.030285602
4065,0.05423537
4066,-0.016701723
4067,0.10465398
4068,0.0064187995
4069,0.032984775
4070,0.014618749
4071,-0.052370913
4072,-0.016009338
4073,0.014130603
4074,-0.07437117
4075,-0.011925233
4076,-0.012931146
4077,0.015679518
4078,0.022140183
4079,0.015131837
4080,-0.023348568
4081,-0.0049103363
4082,0.018001838
4083,0.009927681
4084,-0.11024275
4085,-0.013607475
4086,-0.021766765
4087,-0.053833295
4088,0.01564612
4089,-0.00273569
4090,-0.011500526
4091,-0.018169576
4092,0.0558832
4093,-0.0374049
4094,-0.0038592026
4095,-0.04783371
4096,-0.06958617
4097,-0.10822595
4098,-0.1825246
4099,-0.038853437
4100,0.010725605
4101,-0.054327857
4102,-0.055462025
4103,-0.020180281
4104,0.029885795
4105,-0.08548246
4106,-0.07015526
4107,-0.042572454
4108,0.051726893
4109,-0.083119854
4110,-0.025206624
4111,-0.040712446
4112,-0.10008973
4113,-0.01526688
4114,-0.13171114
4115,-0.16520886
4116,-0.056403935
4117,-0.020656852
4118,0.003519913
4119,0.03910717
4120,-0.042816486
4121,-0.09726129
4122,0.037316483
4123,-0.04417669
4124,0.017569115
4125,0.014677395
4126,-0.09011387
4127,-0.08664954
4128,0.005941389
4129,-0.02779623
4130,-0.0018863762
4131,0.005264757
4132,-0.043745115
4133,0.011075835
4134,-0.013002689
4135,-0.032928504
4136,-0.0024578145
4137,0.022666892
4138,-0.0069034784
4139,0.007089119
4140,-0.061087627
4141,-0.0776956
4142,-0.094748095
4143,0.060575888
4144,-0.1201222
4145,-0.086529985
4146,0.02116348
4147,-0.032092568
4148,0.20566061
4149,-0.032542545
4150,-0.0767619
4151,-0.007314556
4152,-0.10827097
4153,-0.050580546
4154,0.117226124
4155,0.03124712
4156,0.015037757
4157,-0.01946408
4158,-0.055444695
4159,0.017293844
4160,-0.06800124
4161,-0.00746769
4162,0.037556984
4163,-0.05924148
4164,-0.044337608
4165,-0.026293589
4166,-0.086609
4167,-0.06548181
4168,-0.15424223
4169,-0.073644884
4170,0.03597257
4171,-0.069617964
4172,-0.02030047
4173,-0.011915875
4174,-0.020546746
4175,-0.09223078
4176,-0.11448484
4177,-0.01860308
4178,0.0038456756
4179,-0.0641762
4180,-0.011489777
4181,-0.055117656
4182,-0.13163248
4183,-0.017062675
4184,-0.0024818713
4185,-0.14012234
4186,-0.05714982
4187,-0.019545421
4188,-0.019755285
4189,-0.03210127
4190,-0.026110845
4191,0.02794132
4192,-0.006301174
4193,-0.10601816
4194,-0.02597364
4195,-0.013048711
4196,-0.0819586
4197,-0.08156131
4198,-0.017379759
4199,-0.018524623
4200,-0.06781994
4201,-0.0039342185
4202,-0.31636453
4203,-0.019003022
4204,-0.0029253569
4205,-0.049470615
4206,-0.0011840427
4207,-0.05232376
4208,0.0050005717
4209,-0.096265346
4210,-0.06381997
4211,-0.08130183
4212,-0.0986458
4213,-0.027705224
4214,-0.011851093
4215,-0.042945642
4216,-0.06950455
4217,-0.08215559
4218,0.0073559643
4219,-0.10129879
4220,-0.104176685
4221,-0.08544516
4222,-0.023093065
4223,0.02142958
4224,0.016085733
4225,-0.0048299623
4226,-0.053392954
4227,-0.025657052
4228,0.021771556
4229,0.023860252
4230,-0.035747465
4231,0.055848498
4232,0.073907
4233,0.009984006
4234,0.06879062
4235,-0.009240841
4236,0.0038967794
4237,0.036055107
4238,0.036984626
4239,-0.11168465
4240,0.108597115
4241,-0.028952911
4242,-0.018326856
4243,-0.080730595
4244,-0.028168714
4245,-0.048630595
4246,0.016176783
4247,0.015738752
4248,-0.101941176
4249,0.08074354
4250,0.0971218
4251,0.06527011
4252,0.022731543
4253,0.06705485
4254,-0.059686944
4255,-0.096116826
4256,0.01655458
4257,0.028700443
4258,-0.019712262
4259,0.08127363
4260,0.11865477
4261,-0.06895121
4262,0.03879459
4263,-0.024203647
4264,-0.08754213
4265,-0.11255998
4266,0.06116672
4267,0.084474266
4268,0.033965833
4269,0.03663337
4270,0.024728753
4271,0.06305629
4272,-0.06247682
4273,0.040044867
4274,-0.011120685
4275,0.060393833
4276,0.19330284
4277,2.790388e-06
4278,0.00020825048
4279,-0.1339226
4280,-0.06628544
4281,0.04967159
4282,0.18570991
4283,0.048910283
4284,-0.00663346
4285,-0.093913496
4286,0.05445106
4287,0.07844824
4288,0.060784407
4289,0.005884883
4290,0.038185004
4291,-0.052452173
4292,0.006489898
4293,-0.07725993
4294,-0.041296255
4295,-0.09453016
4296,-0.00054025213
4297,-0.011453208
4298,0.04109097
4299,-0.02868157
4300,0.045298547
4301,-0.0003356742
4302,0.0014349435
4303,0.008076041
4304,0.020778356
4305,0.07524793
4306,-0.010140494
4307,-0.09072235
4308,-0.08221123
4309,0.020407304
4310,0.101669095
4311,0.0444708
4312,0.035455726
4313,-0.0878828
4314,0.01954456
4315,0.016001433
4316,-0.08965319
4317,-0.020793542
4318,0.03311632
4319,0.028790113
4320,-0.0023712646
4321,-0.075588144
4322,0.045347784
4323,0.09226327
4324,0.11354594
4325,0.022543581
4326,0.045859586
4327,-0.042855013
4328,0.06468175
4329,0.028744169
4330,-0.17295706
4331,0.031175751
4332,0.03485159
4333,-0.016139189
4334,0.058342166
4335,0.041685525
4336,-0.019297123
4337,0.064029776
4338,-0.0013735893
4339,0.009661926
4340,-0.037607472
4341,0.04856319
4342,0.007591198
4343,0.013840767
4344,0.043907274
4345,0.05792526
4346,0.010897222
4347,-0.038024947
4348,-0.1499333
4349,0.060367193
4350,0.03760346
4351,0.041426644
4352,0.048505045
4353,-0.00061880087
4354,-0.004447296
4355,0.029429493
4356,-0.0018707312
4357,-0.026628569
4358,0.0063636703
4359,-0.01264403
4360,0.01256872
4361,0.031073652
4362,-0.14684899
4363,-0.022377405
4364,0.03314022
4365,-0.051734574
4366,-0.029273532
4367,-0.013200533
4368,0.012215092
4369,-0.0039207935
4370,-0.13004655
4371,-0.044418346
4372,0.020907626
4373,0.013745477
4374,0.0057338686
4375,0.03176302
4376,-0.009503334
4377,-0.04685508
4378,-0.001019296
4379,-0.0003188442
4380,-0.023736868
4381,0.030329138
4382,-0.004217777
4383,-0.005697995
4384,0.013384672
4385,0.005962744
4386,-0.008007608
4387,-0.003822074
4388,-0.02188775
4389,-0.019336326
4390,-0.006844309
4391,-0.063948855
4392,-0.040455963
4393,-0.05001341
4394,0.026849182
4395,0.010834207
4396,0.038903214
4397,-0.008443787
4398,-0.081950195
4399,-0.012561252
4400,0.003021883
4401,0.04486524
4402,-0.0047172634
4403,0.01674801
4404,-0.01196942
4405,-0.033253003
4406,0.012869907
4407,0.0056365277
4408,0.1569913
4409,0.039073434
4410,0.012908473
4411,-0.032564715
4412,-0.010358931
4413,-0.011389509
4414,-0.06375897
4415,0.0005932749
4416,-0.068696104
4417,-0.0008803991
4418,0.04582955
4419,-0.014751668
4420,-0.008280837
4421,0.015681522
4422,0.03374528
4423,-0.011398249
4424,0.018528031
4425,0.016591536
4426,0.09558042
4427,-0.038724504
4428,-0.0732005
4429,0.0051295073
4430,-0.031950235
4431,-0.030552479
4432,0.04207041
4433,0.008036035
4434,0.006163876
4435,-0.060632546
4436,0.0015487846
4437,-0.03062886
4438,0.028043648
4439,0.04007426
4440,0.0033810576
4441,-0.006495235
4442,0.008935471
4443,-0.00014028446
4444,0.0031225109
4445,-0.00620123
4446,-0.07126638
4447,-0.005035827
4448,0.0009919343
4449,0.013169683
4450,-0.04391011
4451,0.017600229
4452,-0.02836284
4453,-0.010353566
4454,-0.0659696
4455,-0.0003329351
4456,-0.009402966
4457,0.07453103
4458,-0.0031291926
4459,-0.046015013
4460,0.04185191
4461,-0.008590418
4462,0.0013449726
4463,0.049256742
4464,-0.0011623717
4465,-0.015812464
4466,-0.09462736
4467,0.036439713
4468,0.00853398
4469,0.048285343
4470,0.012953725
4471,-0.014131525
4472,-0.031796828
4473,-0.025967253
4474,0.043847322
4475,0.00832959
4476,0.0380493
4477,0.0020373354
4478,0.0039298898
4479,0.041539866
4480,0.039068468
4481,-0.0664452
4482,-0.1748056
4483,-0.0751404
4484,-0.01825776
4485,-0.00425151
4486,0.08028954
4487,-0.010215523
4488,-0.024877634
4489,-0.010752753
4490,-0.07657759
4491,-0.057110056
4492,-0.06335598
4493,-0.011288628
4494,-0.004312623
4495,-0.03656292
4496,-0.016233413
4497,-0.008939049
4498,-0.013234225
4499,0.04549134
4500,-0.021086287
4501,-0.012908964
4502,-0.024723826
4503,0.03370897
4504,-0.009238027
4505,-0.02699738
4506,-0.04880297
4507,-0.06755777
4508,-0.033239815
4509,0.029817857
4510,0.005207431
4511,0.0036010367
4512,-0.012909976
4513,0.026452458
4514,0.01262105
4515,0.048255477
4516,0.034722876
4517,-0.0285682
4518,-0.0033427035
4519,0.0057498226
4520,0.016871935
4521,-0.015710393
4522,-0.011035999
4523,0.03280664
4524,0.03154053
4525,-0.0066174665
4526,-0.06232805
4527,0.016264616
4528,-0.019967055
4529,0.042398956
4530,-0.027330212
4531,0.017920855
4532,-0.016493853
4533,0.033685848
4534,0.014560222
4535,-0.050163276
4536,-0.059270814
4537,0.0016944914
4538,-0.056492426
4539,-0.0033692257
4540,-0.00053398625
4541,-0.004530255
4542,0.02869936
4543,0.069286965
4544,-0.056595
4545,-0.0168748
4546,0.027865496
4547,-0.00088473386
4548,0.0056997705
4549,-0.02030775
4550,-0.019124754
4551,-0.022222538
4552,0.004309119
4553,-0.09478395
4554,0.0048827166
4555,-0.052417733
4556,-0.012904984
4557,-0.0029544525
4558,-0.04546955
4559,0.019449772
4560,0.03308316
4561,0.0009811475
4562,0.007947226
4563,-0.04962741
4564,-0.011982469
4565,-0.003362992
4566,-0.06666975
4567,0.108858295
4568,-0.022574537
4569,0.014226
4570,-0.011682902
4571,-0.02487671
4572,-0.030625831
4573,-0.12442567
4574,-0.042854164
4575,-0.020668292
4576,0.0017981306
4577,-0.054414265
4578,-0.047294617
4579,-0.051995054
4580,-0.0131513355
4581,0.039081108
4582,0.025240082
4583,-0.008464889
4584,-0.02322595
4585,0.06890298
4586,-0.13507047
4587,0.001610628
4588,-0.05180978
4589,0.0007942248
4590,-0.009059811
4591,-0.03945356
4592,-0.000784209
4593,-0.017509172
4594,-0.100188226
4595,0.016556833
4596,0.014246623
4597,0.07915395
4598,-0.013643046
4599,-0.023666773
4600,0.013363816
4601,0.02099835
4602,0.02234386
4603,0.0155325085
4604,0.025193213
4605,-0.0985907
4606,0.015379738
4607,0.009513525
4608,0.0031567272
4609,-0.041022524
4610,-0.09035546
4611,0.022474067
4612,-0.015157363
4613,0.10087334
4614,-0.1048004
4615,0.06205926
4616,-0.1252001
4617,-0.26536334
4618,0.015772685
4619,0.060556795
4620,0.0039101318
4621,0.0936662
4622,0.05788917
4623,0.037668437
4624,0.08957967
4625,0.054827042
4626,0.06461253
4627,0.011353802
4628,0.044942923
4629,0.033489138
4630,0.024842404
4631,0.017727178
4632,0.06430192
4633,-0.12523057
4634,-0.06078055
4635,0.078715235
4636,0.03059722
4637,-0.04251688
4638,0.058514766
4639,0.021059668
4640,0.0098901205
4641,0.10212558
4642,-0.013633357
4643,-0.0656696
4644,0.120003775
4645,0.040642988
4646,0.028149623
4647,0.075670265
4648,0.09570965
4649,-0.08900626
4650,0.054534204
4651,-0.097080335
4652,-0.2113581
4653,0.099861525
4654,0.12143713
4655,-0.027342055
4656,0.04813572
4657,-0.08977838
4658,0.010985454
4659,-0.03523751
4660,-0.12747589
4661,-0.08112987
4662,0.120052844
4663,-0.043077722
4664,0.065002955
4665,-0.08781142
4666,-0.21632782
4667,-0.014698298
4668,-0.029545756
4669,0.027727334
4670,0.12500626
4671,-0.008225071
4672,-0.007720032
4673,0.0052504786
4674,0.064168386
4675,0.028121695
4676,0.04939336
4677,0.002486794
4678,-0.059290364
4679,0.024959292
4680,0.13111633
4681,0.03680338
4682,0.042732693
4683,-0.24469489
4684,0.040922854
4685,0.0329469
4686,0.03233435
4687,0.05064228
4688,-0.030337311
4689,0.05065117
4690,0.032311045
4691,-0.0021061106
4692,0.03369376
4693,0.09517889
4694,-0.1448697
4695,-0.042632177
4696,-0.013355023
4697,0.05687226
4698,0.015830562
4699,0.0035782442
4700,0.03795078
4701,-0.11281176
4702,0.078071035
4703,0.049144775
4704,0.013168985
4705,-0.10325217
4706,-0.046201367
4707,-0.23371282
4708,0.0899391
4709,0.09135376
4710,0.04959198
4711,0.02971769
4712,0.118456446
4713,-0.08658421
4714,-0.060544424
4715,0.0590677
4716,-0.030314049
4717,0.036486033
4718,-0.15106079
4719,0.011428446
4720,-0.01533518
4721,0.12381369
4722,-0.07372181
4723,0.11556763
4724,0.029740393
4725,-0.08587299
4726,-0.086498566
4727,0.002049772
4728,0.04320518
4729,0.10760546
4730,-0.039584905
4731,0.06849657
4732,-0.09583461
4733,0.00918207
4734,0.022822155
4735,-0.01871966
4736,-0.027749512
4737,-0.057243112
4738,-0.15462384
4739,-0.05379128
4740,-0.0059197163
4741,-0.030378727
4742,-0.060414772
4743,-0.035658617
4744,0.07181062
4745,0.032661837
4746,-0.10631433
4747,-0.07089817
4748,0.012687009
4749,-0.041644603
4750,-0.040582363
4751,-0.03730891
4752,-0.09168299
4753,-0.030221267
4754,-0.038301446
4755,-0.08041545
4756,-0.07502134
4757,-0.052407444
4758,-0.018285466
4759,0.056709725
4760,-0.02962333
4761,0.06492202
4762,0.072439134
4763,-0.040088426
4764,0.038987517
4765,-0.043029934
4766,-0.069907
4767,-0.10965121
4768,-0.06469542
4769,-0.09726678
4770,-0.011646081
4771,0.0091502415
4772,-0.0694737
4773,-0.019447397
4774,-0.016005382
4775,-0.090354934
4776,-0.043625664
4777,0.039777596
4778,-0.03743595
4779,-0.02367967
4780,-0.049257264
4781,-0.06643639
4782,-0.15005659
4783,0.052726828
4784,-0.077387854
4785,-0.036717553
4786,-0.011691094
4787,-0.033931106
4788,0.15688327
4789,-0.032259922
4790,-0.07797292
4791,-0.03346353
4792,-0.17510019
4793,-0.06863122
4794,0.13332276
4795,-0.005861419
4796,-0.017722892
4797,-0.069633305
4798,0.015889993
4799,0.016399447
4800,-0.12905277
4801,0.001536463
4802,0.039564077
4803,-0.0835591
4804,-0.07003447
4805,-0.08354736
4806,-0.15094839
4807,-0.083527505
4808,-0.10066412
4809,-0.04072547
4810,0.004562948
4811,-0.02917771
4812,-0.038762283
4813,-0.023267979
4814,-0.009381842
4815,-0.09667925
4816,-0.025643792
4817,0.0064073247
4818,0.01911112
4819,-0.025381207
4820,-0.035188086
4821,0.0027841062
4822,-0.12224232
4823,-0.021580616
4824,-0.03155527
4825,-0.07835913
4826,-0.07738256
4827,-0.034849584
4828,-0.053070873
4829,-0.048189223
4830,-0.057753634
4831,0.058144066
4832,-0.035375245
4833,-0.06825224
4834,-0.018140633
4835,0.039247062
4836,-0.115004
4837,-0.054603007
4838,-0.030102901
4839,-0.10640535
4840,-0.08081474
4841,-0.026853448
4842,-0.035740256
4843,-0.008193196
4844,-0.020512411
4845,-0.04545464
4846,0.056756232
4847,-0.070924215
4848,-0.020861745
4849,-0.08174883
4850,-0.08314011
4851,-0.0013873742
4852,-0.08266686
4853,-0.022385322
4854,0.023466332
4855,-0.017305726
4856,-0.03138228
4857,-0.05722136
4858,-0.027638147
4859,-0.037178017
4860,-0.13652162
4861,-0.07535672
4862,-0.048570726
4863,0.048208285
4864,0.013761318
4865,0.010642188
4866,-0.1277545
4867,-0.016982758
4868,0.016689543
4869,-0.21531823
4870,-0.030578526
4871,-0.024967529
4872,-0.10632194
4873,-0.005223794
4874,-0.015799921
4875,-0.026070954
4876,0.07497142
4877,0.023143705
4878,-0.023106296
4879,-0.04823007
4880,0.009965897
4881,-0.055426333
4882,-0.19206065
4883,0.03954415
4884,-0.015615347
4885,-0.02336678
4886,-0.0035924253
4887,-0.06064763
4888,0.0021000938
4889,0.0446123
4890,-0.053900804
4891,-0.17097919
4892,-0.17834546
4893,-0.037795834
4894,0.0050605824
4895,0.0071388567
4896,0.0082504675
4897,-0.04504684
4898,-0.012461952
4899,-0.017727396
4900,-0.038599495
4901,-0.039317414
4902,0.028194413
4903,-0.019516075
4904,-0.034034386
4905,0.028543506
4906,0.016864248
4907,-0.058694042
4908,0.025114171
4909,-0.24341883
4910,0.045265365
4911,-0.13457046
4912,-0.033998847
4913,-0.047008913
4914,0.0049919793
4915,-0.0062647145
4916,-0.042859398
4917,0.002398572
4918,-0.0012197753
4919,-0.040632926
4920,-0.084404506
4921,-0.053581554
4922,-0.12320473
4923,-0.07455271
4924,0.00951839
4925,-0.01182572
4926,-0.060505096
4927,-0.026239367
4928,-0.025308816
4929,-0.0015138669
4930,0.0199302
4931,-0.005792649
4932,-0.030147506
4933,-0.02325965
4934,0.029246047
4935,-0.023178626
4936,-0.097047284
4937,-0.05378784
4938,0.03243638
4939,0.016866617
4940,-0.032884322
4941,-0.0039846697
4942,0.017131763
4943,-0.026741609
4944,-0.032821845
4945,-0.13618137
4946,0.015019452
4947,0.017137427
4948,-0.037345447
4949,0.024516027
4950,-0.11367053
4951,-0.02565436
4952,-0.007499997
4953,0.019792225
4954,-0.048085373
4955,-0.018026542
4956,-0.027114736
4957,-0.07307013
4958,-0.010551462
4959,-0.12046403
4960,-0.028780574
4961,-0.044042844
4962,-0.020212434
4963,0.015990559
4964,-0.008931881
4965,-0.017134981
4966,-0.04335611
4967,-0.034171194
4968,0.033787005
4969,-0.040878046
4970,-0.21500367
4971,-0.017170466
4972,0.025940957
4973,-0.005025922
4974,-0.10143428
4975,-0.030471407
4976,0.0009560587
4977,-0.013015733
4978,-0.07567368
4979,-0.04588923
4980,0.0058623957
4981,0.010763125
4982,0.009557138
4983,-0.008080819
4984,0.026997726
4985,-0.03911825
4986,0.0008981215
4987,0.033128172
4988,-0.10858004
4989,-0.06959229
4990,-0.03644274
4991,-0.015620644
4992,-0.093147814
4993,-0.03501784
4994,-0.07161309
4995,-0.01888965
4996,-0.0030380047
4997,-0.05118641
4998,-0.06393098
4999,-0.034497384
5000,-0.01631664
5001,-0.31901482
5002,-0.054480176
5003,-0.044087898
5004,-0.06801274
5005,-0.11820602
5006,-0.023043731
5007,-0.03258955
5008,-0.024138723
5009,-0.041338645
5010,-0.09133352
5011,-0.29778326
5012,-0.021320276
5013,-0.013193633
5014,-0.01219796
5015,-0.05908977
5016,0.10525216
5017,0.2991121
5018,-0.08029128
5019,-0.1369588
5020,-0.068606734
5021,-0.06178283
5022,0.07935322
5023,-0.016231962
5024,-0.0019335751
5025,-0.022165257
5026,-0.011574671
5027,0.046110533
5028,0.0010105502
5029,-0.012654376
5030,-0.04128072
5031,-0.010170727
5032,-0.03047002
5033,-0.11775967
5034,0.0083408635
5035,-0.010346242
5036,-0.14988804
5037,-0.09543733
5038,0.0009795709
5039,0.02800075
5040,-0.039606784
5041,-0.10748578
5042,-0.016159303
5043,-0.014153879
5044,0.09047831
5045,-0.020447351
5046,-0.03413699
5047,0.012402561
5048,-0.051733997
5049,-0.099797845
5050,0.18397576
5051,-0.115105435
5052,0.014241076
5053,-0.019471804
5054,0.08437137
5055,0.05927982
5056,-0.0075937863
5057,-0.013951135
5058,0.048934978
5059,-0.010356927
5060,-0.011409677
5061,-0.0132004
5062,0.14330892
5063,-0.0034199709
5064,-0.2698874
5065,-0.02710065
5066,0.016513012
5067,-0.025071379
5068,-0.024144659
5069,-0.0044557955
5070,0.014092951
5071,-0.13834612
5072,-0.07066847
5073,-0.040871043
5074,0.05169256
5075,0.013060811
5076,-0.035671167
5077,-0.011122287
5078,0.047607947
5079,-0.33581784
5080,-0.010574501
5081,0.0039309706
5082,-0.015563862
5083,-0.028321147
5084,-0.029026367
5085,-0.012077475
5086,-0.19558775
5087,-0.03844537
5088,0.024749625
5089,-0.040840346
5090,-0.003925863
5091,0.11096645
5092,-0.011154301
5093,0.008113564
5094,-0.05762039
5095,-0.011066518
5096,-0.0061767544
5097,-0.21150747
5098,-0.13218956
5099,-0.00091830175
5100,-0.017189464
5101,-0.029795568
5102,0.16122153
5103,-0.023523457
5104,0.00999548
5105,-0.038402926
5106,-0.16106759
5107,0.0442543
5108,-0.03205776
5109,-0.20393586
5110,-0.035989195
5111,-0.03048729
5112,-0.034211442
5113,-0.018969601
5114,-0.047639865
5115,0.047397666
5116,-0.08558675
5117,-0.02151777
5118,-0.014911632
5119,0.05376413
5120,0.056881513
5121,-0.016680773
5122,-0.0663629
5123,-0.008096856
5124,-0.022760028
5125,-0.0039211763
5126,0.06986446
5127,-0.012870528
5128,0.022807172
5129,0.029493893
5130,0.0055920267
5131,-0.04651145
5132,-0.048171908
5133,-0.030449275
5134,-0.037939295
5135,-0.033170763
5136,0.015774224
5137,-0.04471058
5138,0.009466442
5139,0.0705281
5140,-0.012869062
5141,-0.0059022796
5142,-0.008338839
5143,-0.0046090195
5144,-0.059250385
5145,0.07985916
5146,0.044650506
5147,-0.11771464
5148,-0.011908951
5149,0.11086552
5150,0.0847236
5151,-0.024802128
5152,-0.0015878447
5153,-0.0073957676
5154,-0.007480384
5155,0.10659864
5156,0.002719325
5157,-0.0058338465
5158,0.008197368
5159,-0.013242735
5160,0.0022369307
5161,-0.011365317
5162,-0.09660648
5163,0.045288194
5164,0.07047571
5165,-0.033816043
5166,0.017444054
5167,0.04884167
5168,-0.06320565
5169,0.07311586
5170,0.0026948485
5171,-0.031044174
5172,0.02683956
5173,0.05688096
5174,0.01695317
5175,-0.03913183
5176,0.025329687
5177,0.07024116
5178,0.011546529
5179,0.019984677
5180,-0.016677026
5181,-0.06241286
5182,-0.06164303
5183,0.0799271
5184,-0.043300655
5185,-0.017562455
5186,-0.025340363
5187,-0.015733773
5188,-0.013036491
5189,-0.021597715
5190,0.04417868
5191,0.015506065
5192,0.089547314
5193,-0.09281303
5194,-0.0005057826
5195,0.0043011964
5196,-0.016783005
5197,-0.0016827686
5198,0.009919161
5199,0.060196564
5200,0.026791427
5201,-0.017045164
5202,-0.08572331
5203,0.006482299
5204,0.0038065016
5205,0.025967337
5206,0.0033854183
5207,0.06998798
5208,-0.028242085
5209,0.045167748
5210,-0.03283509
5211,-0.009485843
5212,-0.03697661
5213,-0.07644986
5214,-0.02938301
5215,0.015038574
5216,-0.0073925466
5217,0.014096099
5218,-0.032796413
5219,0.069467545
5220,-0.030870982
5221,0.0025714377
5222,0.0047836895
5223,-0.014946103
5224,-0.022501145
5225,0.08045517
5226,-0.025111565
5227,-0.055772245
5228,-0.03606498
5229,0.04537343
5230,0.014903498
5231,-0.061826035
5232,-0.0015498677
5233,-0.050730217
5234,-0.20180239
5235,-0.024270952
5236,-0.028113918
5237,0.0637234
5238,-0.033066824
5239,0.028613076
5240,0.016710522
5241,0.008349985
5242,0.01824941
5243,0.107864745
5244,-0.10563926
5245,-0.13419764
5246,-0.015519461
5247,-0.06524363
5248,0.04316761
5249,0.05276424
5250,0.012403969
5251,0.025878895
5252,0.010551904
5253,0.01626276
5254,0.08495307
5255,0.04429874
5256,-0.0076574218
5257,-0.042321455
5258,0.018668648
5259,-0.01533786
5260,-0.012079367
5261,0.078433774
5262,0.045790784
5263,0.040158264
5264,0.05158173
5265,0.061759092
5266,-0.11631324
5267,0.06094164
5268,0.03036215
5269,0.053181
5270,0.027052645
5271,0.040297724
5272,0.006985581
5273,-0.054344732
5274,-0.08943017
5275,-0.03201646
5276,0.021726646
5277,0.05259184
5278,0.07225082
5279,-0.00027397173
5280,0.046157554
5281,0.067067236
5282,0.0051356796
5283,0.058829788
5284,0.018392036
5285,0.05339974
5286,0.05668648
5287,0.020831252
5288,0.03672767
5289,-0.044185087
5290,0.038903873
5291,0.048927903
5292,0.05045686
5293,-0.0416746
5294,0.05205144
5295,-0.042373642
5296,0.02744759
5297,0.028598828
5298,-0.021320915
5299,0.039927065
5300,-0.14605689
5301,0.101471715
5302,0.07776102
5303,-0.022016283
5304,0.06425427
5305,0.05540276
5306,-0.21719964
5307,0.10880695
5308,-0.017530821
5309,0.07095772
5310,0.007814213
5311,0.020434493
5312,-0.0014388028
5313,-0.0019796027
5314,-0.030743986
5315,0.021856168
5316,0.011690495
5317,0.018303717
5318,0.0304748
5319,0.064644895
5320,0.0667323
5321,0.0055671413
5322,0.04268699
5323,0.081064165
5324,0.0453386
5325,0.04461904
5326,0.001149394
5327,-0.047337197
5328,0.02861297
5329,0.09859117
5330,-0.027885113
5331,-0.004843145
5332,0.057532277
5333,0.049698986
5334,-0.1479352
5335,0.078261815
5336,0.047413338
5337,0.08420269
5338,0.052140277
5339,0.039761797
5340,0.06453003
5341,-0.045332056
5342,0.008971455
5343,0.010285256
5344,0.042291187
5345,0.045715168
5346,-0.07186617
5347,-0.07818829
5348,0.03513989
5349,0.021248741
5350,0.023634361
5351,0.055179197
5352,0.08724732
5353,0.07009205
5354,-0.08094838
5355,0.038359407
5356,-0.012133679
5357,0.016359774
5358,-0.096836776
5359,-0.030327294
5360,-0.010025828
5361,0.050035607
5362,-0.0706209
5363,0.037875805
5364,0.010124965
5365,0.113741204
5366,-0.022623278
5367,0.012541512
5368,0.052005164
5369,0.03318658
5370,0.0058815368
5371,0.09220937
5372,-0.0070692836
5373,-0.026676904
5374,-0.04752544
5375,-0.042228498
5376,-0.07465264
5377,-0.111755125
5378,-0.033946723
5379,-0.03253034
5380,-0.041751
5381,-0.15031113
5382,-0.020360628
5383,-0.052148264
5384,-0.020024959
5385,0.025349807
5386,0.009836581
5387,-0.03822723
5388,-0.121394664
5389,-0.0029755142
5390,-0.04894467
5391,-0.045575477
5392,-0.03808172
5393,-0.03416601
5394,-0.1073735
5395,-0.08637236
5396,-0.021392338
5397,-0.041881096
5398,-0.05771458
5399,-0.010320244
5400,0.0026160919
5401,-0.07980827
5402,-0.09524135
5403,-0.16128814
5404,-0.11627618
5405,-0.022617085
5406,0.00979973
5407,-0.006694681
5408,0.008410286
5409,-0.04992615
5410,-0.013685594
5411,0.014687754
5412,-0.023159385
5413,-0.024784282
5414,-0.033418804
5415,-0.0076870588
5416,-0.019303989
5417,-0.067484364
5418,-0.04117199
5419,0.015902005
5420,0.034234956
5421,-0.189729
5422,-0.111171685
5423,-0.09932451
5424,-0.002723706
5425,-0.0625468
5426,0.03920022
5427,0.01190762
5428,0.023692135
5429,-0.04840489
5430,-0.05919778
5431,-0.030668423
5432,0.00845172
5433,0.0080007855
5434,0.037853584
5435,-0.049401253
5436,-0.0052407356
5437,-0.03009045
5438,0.00964631
5439,0.030634306
5440,-0.014732155
5441,0.0028467542
5442,-0.000563227
5443,-0.012703589
5444,0.00897154
5445,0.0092998855
5446,-0.026027951
5447,-0.011344575
5448,-0.050685264
5449,-0.09012465
5450,-0.055590484
5451,-0.056995578
5452,-0.03492484
5453,-0.036870856
5454,-0.014711299
5455,-0.02435851
5456,-0.03356072
5457,-0.06910779
5458,0.03419035
5459,-0.017924773
5460,-0.029538611
5461,0.01246699
5462,0.0957085
5463,-0.04702266
5464,-0.07565201
5465,-0.0212723
5466,-0.021076731
5467,-0.025662787
5468,-0.034742344
5469,-0.08431283
5470,0.0026368075
5471,-0.0523759
5472,-0.0052120886
5473,-0.0154620875
5474,-0.062096238
5475,-0.0566125
5476,-0.023604099
5477,-0.016106205
5478,-0.03941643
5479,-0.03730186
5480,-0.077582024
5481,-0.014123232
5482,-0.062177055
5483,-0.05809098
5484,0.02232562
5485,-0.035508025
5486,0.007508166
5487,-0.021675935
5488,-0.008593599
5489,-0.04415381
5490,-0.023703437
5491,-0.015600795
5492,-0.017264185
5493,-0.0059558367
5494,0.04553663
5495,-0.034560278
5496,-0.057711106
5497,-0.017041206
5498,-0.02610408
5499,0.010009041
5500,-0.08697192
5501,-0.13165125
5502,-0.055920254
5503,0.060597435
5504,0.0041218367
5505,-0.0012848614
5506,-0.17990057
5507,-0.05936924
5508,-0.01965352
5509,0.028395206
5510,-0.020011814
5511,-0.013801153
5512,-0.059251852
5513,-0.20031182
5514,-0.0066824416
5515,-0.008792921
5516,0.029326417
5517,-0.04085471
5518,-0.041069258
5519,-0.026001422
5520,-0.056785557
5521,-0.031228233
5522,0.068112664
5523,0.031461198
5524,-0.02036928
5525,0.0037816989
5526,-0.0037618922
5527,-0.066788435
5528,0.008126918
5529,0.087139904
5530,-0.039389268
5531,-0.22994347
5532,-0.116980515
5533,0.027776534
5534,-0.01554393
5535,-0.015500544
5536,-0.025660794
5537,-0.07975272
5538,-0.0051706894
5539,0.19928786
5540,-0.008451482
5541,-0.025468428
5542,-0.08612166
5543,-0.07766796
5544,-0.010080959
5545,-0.086854875
5546,-0.029431062
5547,0.1583396
5548,0.018007994
5549,0.038573597
5550,-0.02430864
5551,-0.07126992
5552,-0.039300863
5553,0.0874595
5554,-0.011202755
5555,-0.01664635
5556,0.06358278
5557,0.07641393
5558,-0.01900754
5559,0.012837357
5560,-0.080524035
5561,0.026656622
5562,0.060895354
5563,-0.14909734
5564,0.014738789
5565,-0.056488223
5566,0.011242518
5567,0.140873
5568,-0.0076416493
5569,0.002406851
5570,0.0038237893
5571,0.0030461417
5572,-0.051449697
5573,-0.0014687049
5574,0.065346226
5575,-0.029298255
5576,-0.006630811
5577,-0.0920046
5578,-0.028452512
5579,0.0011834339
5580,-0.033964325
5581,-0.025674442
5582,0.012645254
5583,0.036984645
5584,0.08950295
5585,0.04141986
5586,0.0090475045
5587,-0.06337655
5588,0.034518555
5589,-0.007234342
5590,0.0013562136
5591,-0.0027680087
5592,-0.011911343
5593,-0.012699713
5594,-0.07527698
5595,0.0062771454
5596,-0.014958169
5597,-0.04465168
5598,-0.059612554
5599,-0.069563985
5600,-0.0053293835
5601,-0.016840776
5602,-0.03918891
5603,-0.06199037
5604,-0.020003745
5605,-0.024331298
5606,-0.03275842
5607,-0.005182416
5608,-0.072626054
5609,0.094875865
5610,-0.0068890187
5611,-0.0383161
5612,-0.00078259787
5613,-0.057920057
5614,-0.008900992
5615,-0.043462735
5616,0.008695825
5617,-0.06193373
5618,-0.10901048
5619,-0.058557976
5620,-0.04787126
5621,0.046697006
5622,0.05728804
5623,-0.020294864
5624,-0.081963934
5625,-0.00272635
5626,-0.021583997
5627,-0.034169022
5628,-0.098495625
5629,-0.12572107
5630,-0.018248746
5631,0.033151448
5632,-0.023576401
5633,0.023816561
5634,-0.061922297
5635,0.049318913
5636,0.0342054
5637,0.040004525
5638,-0.077291414
5639,0.05893252
5640,-0.024754824
5641,-0.017244386
5642,-0.0013731763
5643,-0.052287877
5644,-0.008280219
5645,0.015466386
5646,0.015123988
5647,0.048193503
5648,0.026793769
5649,0.049290493
5650,0.021180363
5651,-0.030490404
5652,0.04104255
5653,0.063370496
5654,0.033203688
5655,0.052619554
5656,0.0370971
5657,-0.047304556
5658,-0.14715116
5659,0.04796051
5660,0.048146736
5661,0.011162737
5662,0.05493214
5663,0.013255121
5664,0.06543354
5665,0.037448455
5666,-0.0042620543
5667,-0.06037956
5668,-0.00136706
5669,0.068645455
5670,0.04183186
5671,0.015666647
5672,0.07196988
5673,0.054881606
5674,0.018501446
5675,-0.013198193
5676,-0.0007099544
5677,0.01888918
5678,-0.020841038
5679,0.014070433
5680,0.055573303
5681,0.005826033
5682,0.01153056
5683,0.025248135
5684,-0.050816942
5685,-0.004199804
5686,0.06509243
5687,-0.045147035
5688,0.007793376
5689,0.065400824
5690,-0.15210117
5691,0.02397249
5692,-0.021079697
5693,0.055197965
5694,-0.005065932
5695,-0.09738307
5696,0.009819021
5697,-0.008613056
5698,-0.03211513
5699,0.05671819
5700,0.013794248
5701,0.037773784
5702,0.0018440067
5703,0.05921894
5704,0.070437916
5705,0.04414756
5706,0.033089094
5707,-0.012007867
5708,0.05811269
5709,0.06043657
5710,0.011500586
5711,-0.016690752
5712,0.074193805
5713,0.054689232
5714,-0.018574787
5715,-0.06496369
5716,0.03572494
5717,0.010318974
5718,-0.06357874
5719,-0.007945479
5720,0.015158714
5721,0.110033564
5722,0.03538338
5723,0.05177548
5724,0.07374252
5725,-0.032704826
5726,0.012349221
5727,0.03709916
5728,0.035008486
5729,0.06164245
5730,-0.06872505
5731,-0.09249735
5732,0.019988358
5733,0.051868655
5734,0.020462388
5735,0.067083254
5736,0.042162962
5737,-0.016582191
5738,-0.07257661
5739,0.050665963
5740,0.037277814
5741,-0.046107113
5742,-0.0868345
5743,-0.08791782
5744,0.0067939633
5745,0.027903873
5746,-0.015038248
5747,0.0053176745
5748,0.04617599
5749,0.04272674
5750,0.010204349
5751,0.03364027
5752,0.012139072
5753,0.0377071
5754,0.00815195
5755,0.067281775
5756,0.07423476
5757,0.04541963
5758,0.0034030462
5759,-0.0009938725
5760,0.01716703
5761,-0.023517512
5762,-0.005881155
5763,-0.022768065
5764,0.037650116
5765,0.016876705
5766,-0.023099627
5767,0.017319327
5768,-0.080690086
5769,0.07890102
5770,-0.013270717
5771,-0.099166796
5772,-0.02409835
5773,-0.007422941
5774,0.049427554
5775,-0.007337347
5776,0.058353506
5777,-0.017736953
5778,0.047318652
5779,0.04135283
5780,0.021031458
5781,-0.030397337
5782,0.012530964
5783,0.023512205
5784,-0.008320842
5785,0.014528121
5786,-0.112476155
5787,0.021547424
5788,-0.059883054
5789,-0.028600525
5790,-0.037771046
5791,0.032063417
5792,-0.0047899364
5793,0.022026727
5794,-0.022044422
5795,-0.02117958
5796,0.07865844
5797,-0.034637813
5798,0.03505252
5799,0.040763054
5800,-0.010944209
5801,0.017930672
5802,0.0021299375
5803,-0.0036671013
5804,0.004221431
5805,0.03421738
5806,0.050069634
5807,0.0043471763
5808,0.023543641
5809,0.017479703
5810,0.022279374
5811,0.007964765
5812,-0.035830986
5813,-0.08400697
5814,-0.030499049
5815,-0.055266876
5816,-0.0051051737
5817,-0.029647151
5818,-0.04612923
5819,-0.21925558
5820,-0.02385092
5821,0.017508356
5822,0.0010809896
5823,-0.022097683
5824,-0.04655217
5825,-0.02234749
5826,0.028250495
5827,0.03970864
5828,0.014054738
5829,0.053024877
5830,-0.06925245
5831,-0.09931781
5832,-0.017272227
5833,0.0024075615
5834,0.00044699313
5835,-0.017769404
5836,0.0004310891
5837,-0.05861229
5838,0.032321885
5839,0.026676256
5840,0.028876463
5841,-0.033605486
5842,0.029112572
5843,0.0056701275
5844,-0.033925973
5845,0.012411414
5846,0.10121116
5847,-0.0480112
