Sno,Weight
0,0.019144148
1,-0.058432005
2,-0.056958962
3,0.008884911
4,-0.046537258
5,0.04410664
6,0.034434874
7,0.032760493
8,-0.0043624165
9,-0.043068312
10,0.11835655
11,-0.054332066
12,0.063563175
13,0.0138261225
14,-0.075520165
15,-0.054853253
16,-0.071110226
17,0.03768031
18,0.049551655
19,-0.051896896
20,0.07309317
21,-0.052378546
22,0.06040172
23,0.013905457
24,0.057482265
25,-0.04937074
26,0.015136709
27,0.04238406
28,-0.07635376
29,-0.014329943
30,-0.08272423
31,-0.008314522
32,0.08494276
33,0.024423987
34,0.008230131
35,0.03339968
36,-0.088263065
37,0.04182705
38,-0.03553809
39,-0.06208576
40,-0.01549183
41,0.013086762
42,0.0109831225
43,0.01169519
44,-0.041269526
45,-0.05233272
46,-0.004802367
47,-0.008715945
48,-0.01915769
49,-0.018092638
50,0.038032357
51,0.01340579
52,-0.049434315
53,-0.006231354
54,0.009391444
55,-0.0108974865
56,0.031257074
57,-0.010214683
58,0.054036308
59,0.073399685
60,-0.047042638
61,0.034841433
62,0.0012242066
63,-0.0010404929
64,0.04172127
65,0.051903833
66,0.022690471
67,-0.005565876
68,-0.06548453
69,-0.011648435
70,0.029742835
71,-0.010015948
72,-0.04064775
73,-0.07257676
74,-0.0054417383
75,-0.04182255
76,0.010789827
77,0.0086292615
78,0.025555955
79,0.077632934
80,0.01067646
81,-0.057641428
82,0.014926449
83,0.008243257
84,0.039012875
85,0.022027967
86,0.011788273
87,-0.0008876368
88,0.021892764
89,-0.042930398
90,0.030339684
91,-0.087989286
92,-0.027000582
93,0.017682606
94,0.06512665
95,-0.08623966
96,-0.026761696
97,0.027544308
98,0.017283427
99,0.010527627
100,-0.073044986
101,0.019046554
102,-0.008056318
103,0.053218935
104,0.042460572
105,-0.015312025
106,-0.057042044
107,-0.036922712
108,-0.054025687
109,-0.034233008
110,0.023679283
111,-0.0052036303
112,-0.03055079
113,-0.045639057
114,0.018112132
115,0.028123947
116,-0.05322467
117,-0.030250764
118,-0.10477279
119,-0.041837227
120,-0.050888117
121,-0.029747572
122,-0.06602252
123,-0.014959912
124,-0.007683144
125,-0.05356791
126,0.025230577
127,-0.037976474
128,0.018762527
129,0.058203295
130,-0.011637073
131,0.026164621
132,0.054272067
133,0.026361167
134,0.016974505
135,0.036274143
136,-0.0757271
137,0.041130673
138,-0.06971917
139,0.04422316
140,0.020425757
141,0.042507276
142,0.05367182
143,0.050956026
144,-0.07091592
145,0.03928652
146,0.029324153
147,0.07226008
148,-0.06749628
149,0.018272817
150,-0.08692048
151,0.039295316
152,0.045707144
153,0.056197885
154,0.020727256
155,0.004621141
156,0.037635207
157,0.016514637
158,0.045853727
159,-0.06780369
160,0.0015296575
161,-0.017276596
162,0.032525633
163,0.020921744
164,-0.08833202
165,-0.0055247657
166,0.012812804
167,-0.09258675
168,0.023730692
169,0.022175191
170,0.05558738
171,-0.066423155
172,0.059259195
173,0.05551619
174,0.05917154
175,0.034795202
176,0.04123643
177,0.04031118
178,-0.009487731
179,0.059667796
180,0.04322739
181,0.04638681
182,-0.06999027
183,0.04751062
184,0.0068665543
185,0.014722983
186,-0.056963433
187,-0.0678183
188,0.04517665
189,-0.0075520338
190,0.03596522
191,0.045976903
192,0.007231533
193,-0.073811874
194,-0.049457546
195,0.026568556
196,0.021465976
197,0.038829204
198,0.02333155
199,-0.04327282
200,0.020954337
201,0.0053843036
202,0.04471457
203,-0.041992154
204,-0.026305778
205,0.07576873
206,0.027984388
207,-0.0693572
208,0.035016943
209,0.012532887
210,0.030251687
211,0.0103890095
212,0.025395695
213,-0.067239925
214,0.051669564
215,0.072419696
216,0.025057958
217,0.033013456
218,0.03968067
219,0.05360425
220,0.025644517
221,0.046627317
222,0.009167855
223,0.0012127784
224,-0.042842418
225,0.036341805
226,0.01805492
227,-0.0750422
228,-0.07329078
229,0.021327546
230,-0.08313758
231,0.017533436
232,0.023723397
233,0.030142602
234,0.06626876
235,0.029420003
236,0.023393085
237,0.043971963
238,0.01457356
239,0.005972681
240,0.016568514
241,-0.045634218
242,-0.0038004438
243,-0.033977106
244,0.070362575
245,0.052830726
246,0.10965237
247,0.05900729
248,0.013087517
249,-0.08592341
250,-0.07011323
251,0.076429896
252,-0.03641007
253,0.051516812
254,0.035361797
255,-0.03791146
256,0.03143439
257,-0.05862912
258,0.063258745
259,0.021482779
260,0.041113693
261,0.027129868
262,0.04085579
263,0.046913408
264,-0.0803862
265,-0.0391018
266,-0.06074234
267,0.052146677
268,0.064300984
269,0.02367331
270,-0.0056663607
271,0.02703986
272,-0.07119735
273,-0.03141828
274,0.014852123
275,-0.061964758
276,0.05740986
277,0.014593324
278,0.0687593
279,0.0312749
280,-0.050814353
281,0.007738453
282,0.046739712
283,0.0053196587
284,0.034842085
285,0.052357085
286,0.038127128
287,-0.06781532
288,-0.012838353
289,0.050370906
290,-0.041028466
291,0.0047472185
292,-0.06730229
293,-0.0034057922
294,0.07217021
295,-0.09265025
296,0.04671536
297,0.03673468
298,-0.03304251
299,0.05254998
300,0.029225389
301,0.026680525
302,0.0232955
303,0.051926766
304,-0.060590334
305,0.046669073
306,0.02899204
307,-0.060740676
308,0.059348136
309,0.0081643285
310,-0.07007057
311,0.029717835
312,-0.062015235
313,0.05700545
314,0.03137779
315,-0.07775017
316,0.063988075
317,0.042786896
318,0.058576744
319,0.043881964
320,-0.013824714
321,0.013659285
322,-0.0026214859
323,0.047948502
324,0.05748709
325,-0.059684094
326,0.000812623
327,0.06750409
328,0.048073854
329,0.04489199
330,0.02898112
331,0.04920438
332,-0.07203672
333,-0.069239266
334,0.007082546
335,0.027468834
336,0.036495794
337,-0.008844905
338,-0.0459019
339,0.02223709
340,0.047564752
341,-0.040044624
342,0.049997702
343,-0.06308301
344,0.056017537
345,0.069493465
346,-0.004328238
347,0.023734348
348,0.049990013
349,0.012701118
350,-0.017949
351,0.01388844
352,0.019189173
353,0.019969644
354,0.0381621
355,0.07793741
356,0.07043329
357,0.03305597
358,-0.083172195
359,0.052380476
360,0.019189956
361,0.024528915
362,0.02864425
363,-0.014579771
364,0.04209488
365,-0.065129034
366,-0.05369952
367,0.03678633
368,0.03267533
369,0.03303553
370,-0.0038992607
371,0.020804243
372,-0.001738898
373,-0.060569305
374,0.047407128
375,0.048510313
376,-0.006735812
377,-0.086156964
378,-0.070436195
379,-0.098515145
380,0.042775944
381,0.00023333573
382,0.023346119
383,-0.018146913
384,0.020670196
385,-0.056281723
386,-0.02206218
387,-0.03354439
388,-0.012452549
389,-0.007040698
390,0.0024586814
391,0.00586714
392,0.060820404
393,0.052176286
394,-0.051655497
395,0.029127048
396,-0.03829472
397,-0.04323578
398,-0.022299314
399,0.019976769
400,-0.07064162
401,-0.046562117
402,-0.012500264
403,-0.061447002
404,0.029591782
405,0.015886335
406,-0.086946286
407,0.005402384
408,-0.07384379
409,-0.027487326
410,-0.037788637
411,0.023962809
412,0.0058442224
413,0.021473024
414,-0.027467418
415,0.045479633
416,-0.061617512
417,0.018731616
418,0.039170478
419,0.020628326
420,0.11645814
421,-0.04769485
422,-0.01254303
423,0.044572446
424,0.05076329
425,0.024157122
426,-0.03367009
427,0.055075046
428,0.0019095276
429,0.027762376
430,0.022389663
431,-0.0770767
432,0.06882778
433,0.03706189
434,-0.022534909
435,-0.05997158
436,-0.04950453
437,0.027113505
438,0.05144344
439,0.019591061
440,0.007788479
441,-0.0771725
442,-0.034337725
443,0.007842291
444,-0.018224608
445,-0.026807139
446,-0.04140302
447,0.043998525
448,-0.013182519
449,0.035282828
450,-0.034074217
451,0.020239115
452,0.039041877
453,0.07199041
454,-0.06092673
455,0.05406322
456,0.043309126
457,0.036321193
458,0.0076450384
459,0.039066065
460,0.054723114
461,-0.06990506
462,-0.046538778
463,0.040368717
464,-0.0017574903
465,0.06457883
466,0.05590254
467,0.021654984
468,-0.029422931
469,0.015090253
470,0.045782585
471,-0.063508
472,-0.03692609
473,-0.071066976
474,0.0055432916
475,-0.095175974
476,0.004381741
477,0.0101340925
478,0.0055496376
479,-0.0116430875
480,0.07221157
481,0.008207793
482,0.015384103
483,-0.07518811
484,-0.0732015
485,0.01206598
486,0.06791142
487,-0.06169392
488,-0.041570347
489,0.03976587
490,0.018703274
491,-0.115167074
492,0.0197311
493,0.06870638
494,0.0466247
495,-0.006840342
496,0.03834483
497,0.0500183
498,0.024113383
499,0.04296237
500,0.0006951628
501,-0.060838252
502,-0.10852465
503,0.04113793
504,0.00054273044
505,-0.053122014
506,0.04379042
507,0.029620444
508,0.026328664
509,0.00017349444
510,-0.040945727
511,-0.017608339
512,-0.027327126
513,0.07444301
514,-0.04532188
515,0.06641251
516,0.019135186
517,0.021829622
518,-0.0011038692
519,-0.024032848
520,0.071772136
521,0.016640676
522,-0.09113715
523,0.048003864
524,-0.037579544
525,-0.09036512
526,-0.076073915
527,0.024520885
528,0.05421264
529,0.00863859
530,-0.047435243
531,-0.06140662
532,-0.067471094
533,0.063573845
534,0.059922643
535,-0.04388705
536,0.053676974
537,-0.07421909
538,-0.030142065
539,-0.038788904
540,0.023601532
541,-0.0526154
542,0.00636455
543,0.045299932
544,0.00063523
545,-0.042244695
546,0.0077687395
547,0.00490031
548,0.053430524
549,-0.024696866
550,-0.039069254
551,-0.09241333
552,-0.058244336
553,-0.0037374673
554,0.0117643215
555,-0.066792816
556,-0.011392426
557,0.01749135
558,-0.06759697
559,-0.07708357
560,-0.04127504
561,-0.014591939
562,-0.00035674308
563,-0.054503165
564,0.04239422
565,-0.005420207
566,0.06383263
567,-0.029815627
568,-0.05857694
569,-0.056681953
570,0.036919575
571,0.041399643
572,-0.002550875
573,-0.026699908
574,0.0058855223
575,0.009563232
576,-0.045412544
577,-0.07386273
578,0.016384885
579,-0.03901555
580,0.015105763
581,-0.03743677
582,-0.06030855
583,-0.04377002
584,-0.037567973
585,0.007784221
586,0.048516028
587,-0.0037058583
588,0.0036162615
589,-0.068830766
590,0.015629604
591,-0.07024281
592,-0.02288839
593,0.0050032395
594,-0.026892621
595,0.005058136
596,0.003921887
597,-0.031536877
598,0.009259347
599,-0.05310971
600,-0.017341882
601,0.04872721
602,-0.021815455
603,0.043055728
604,0.016295565
605,-0.05868854
606,-0.0060608676
607,-0.03201725
608,0.026364109
609,-0.010213107
610,-0.036620695
611,-0.036556568
612,0.036847055
613,0.008764722
614,-0.08326797
615,-0.061784845
616,-0.0068073007
617,0.020873126
618,0.07376159
619,-0.09007244
620,-0.00092348317
621,-0.065062486
622,-0.022345802
623,0.0111264065
624,-0.030545402
625,0.044477444
626,0.006247178
627,0.018776832
628,0.004140656
629,0.058461983
630,-0.05043969
631,-0.007203978
632,-0.015475979
633,0.054219414
634,0.039943006
635,-0.004566703
636,0.025370957
637,0.027960334
638,0.021257104
639,-0.015919395
640,-0.03911121
641,-0.031892963
642,0.032876182
643,0.025347082
644,-0.016964827
645,-0.0024479015
646,-0.00522711
647,-0.016465371
648,-0.08053084
649,-0.061805766
650,0.005595678
651,0.019460993
652,-0.024357596
653,0.018056951
654,0.0787807
655,0.0010704495
656,0.06968269
657,-0.049176082
658,-0.06151775
659,-0.009215901
660,-0.06752555
661,-0.004563939
662,-0.07440556
663,0.051633302
664,0.045080446
665,0.0015962963
666,0.003628335
667,-0.02618737
668,0.028249959
669,-0.06619632
670,-0.049881447
671,0.03987185
672,-0.0003387882
673,-0.016798908
674,-0.054294415
675,-0.001667767
676,0.0016277664
677,-0.047795013
678,-0.05931425
679,-0.09242153
680,-0.057793275
681,-0.023337321
682,-0.10042011
683,-0.066468455
684,-0.041533533
685,-0.051170066
686,0.058264013
687,0.05860551
688,-0.06055045
689,0.025017826
690,-0.0007305234
691,-0.06301978
692,-0.009206731
693,-0.0513144
694,-0.06988676
695,-0.02547967
696,-0.061300576
697,-0.07713688
698,-0.04522789
699,0.042927086
700,-0.047552414
701,0.011444269
702,-0.018758627
703,-0.033217918
704,-0.027145814
705,-0.073442265
706,0.030406076
707,-0.03933053
708,0.019085178
709,-0.034260914
710,0.020841708
711,-0.04375046
712,-0.037607457
713,0.011373541
714,1.1700249e-05
715,-0.041877776
716,0.06355475
717,-0.04587166
718,0.0838022
719,-0.06994889
720,-0.017629782
721,0.07866986
722,-0.014022811
723,0.0024163339
724,0.03116464
725,-0.059571657
726,0.01803668
727,-0.06360366
728,0.0013890517
729,-0.047382843
730,0.0021597557
731,-0.07948027
732,-0.041377913
733,-0.057862744
734,-0.037277494
735,0.008180937
736,-0.062663406
737,-0.004656671
738,-0.03729788
739,0.06695389
740,0.027221905
741,-0.036581602
742,0.062400706
743,0.04993198
744,-0.01399002
745,0.04474174
746,0.09601518
747,0.0065410538
748,0.005449476
749,-0.01636161
750,-0.015601138
751,-0.041464332
752,-0.028073303
753,0.053484134
754,-0.061021842
755,-0.034121405
756,0.022445139
757,-0.038787093
758,-0.03256154
759,0.015881753
760,0.058304157
761,-0.08582437
762,0.038832173
763,-0.030648641
764,-1.0594391e-05
765,-0.0011015327
766,-0.014402675
767,0.08392782
768,-0.03168591
769,-0.033208042
770,-0.056969352
771,-0.00026533045
772,0.026867196
773,-0.0046803243
774,-0.0068450733
775,-0.015409304
776,-0.080319524
777,-0.061894882
778,-0.08861646
779,-0.049113274
780,-0.030150294
781,0.00872822
782,-2.1498505e-05
783,-0.052287363
784,-0.06314525
785,-0.039817717
786,-0.061261814
787,-0.02013626
788,-0.06752572
789,-0.0069113923
790,-0.03451696
791,-0.049962524
792,-0.055391118
793,-0.13003322
794,0.019813001
795,-0.038991325
796,0.101766795
797,-0.04058479
798,0.06976169
799,-0.05761634
800,-0.038674902
801,-0.017464401
802,-0.05229894
803,-0.059252385
804,0.07711048
805,-0.047606006
806,-0.04329686
807,-0.09241724
808,-0.032531038
809,-0.041801464
810,-0.048825994
811,-0.06646502
812,-0.041522842
813,-0.06791541
814,0.036909655
815,-0.023019956
816,-0.060546525
817,-0.03124543
818,-0.02526302
819,0.105978146
820,-0.04955876
821,-0.051420826
822,-0.0052226996
823,-0.029955335
824,-0.05070743
825,-0.028660707
826,-0.051655564
827,-0.012809536
828,-0.007206994
829,-0.026975425
830,0.04357647
831,-0.0012218332
832,-0.010508272
833,-0.069404095
834,-0.03208873
835,-0.0033401654
836,0.01585749
837,-0.059500873
838,-0.060827397
839,0.028875565
840,-0.024589146
841,0.013996803
842,0.016593061
843,-0.041826475
844,-0.04713973
845,-0.03432998
846,0.045819364
847,-0.07030696
848,0.006863899
849,-0.020303203
850,-0.0009140431
851,0.012374726
852,-0.023589382
853,-0.06849365
854,-0.023784965
855,-0.0631127
856,-0.0055189165
857,-0.05307632
858,-0.038031876
859,-0.012356923
860,0.012722957
861,-0.036676913
862,-0.033173915
863,-0.018019753
864,-0.06786199
865,-0.05532424
866,-0.037346613
867,-0.027848879
868,-0.021719722
869,0.03945047
870,-0.027718792
871,-0.050635993
872,0.078124255
873,-0.0058078305
874,-0.02009213
875,0.01533922
876,-0.007677621
877,-0.009553834
878,0.0051590377
879,-0.02032997
880,-0.02280053
881,0.055291798
882,0.07589483
883,-0.02855639
884,0.0051496746
885,-0.05629615
886,0.02409359
887,-0.03957995
888,0.09176467
889,-0.08603666
890,-0.06899966
891,-0.03417936
892,-0.004094647
893,0.032667153
894,-0.0053007663
895,-0.018197143
896,-0.015233675
897,-0.03284237
898,0.026681846
899,-0.043001376
900,0.0056351637
901,-0.012429636
902,0.0060720043
903,-0.020218194
904,-0.07966714
905,-0.06183342
906,-0.042740587
907,0.013455353
908,-0.035910755
909,0.006101027
910,-0.088535465
911,-0.051189553
912,-0.071211055
913,-0.05841478
914,-0.0026188216
915,0.046390623
916,-0.06749248
917,-0.029155033
918,-0.07429301
919,-0.05120358
920,-0.056386333
921,0.085012674
922,-0.0010505673
923,-0.038521033
924,-0.032365166
925,-0.06696114
926,-0.06836873
927,-0.067726344
928,0.028876834
929,-0.018634733
930,-0.052635062
931,-0.0010864515
932,0.027067173
933,-0.04768401
934,-0.0059445733
935,-0.030810684
936,-0.031345412
937,-0.009898678
938,0.033166226
939,-0.066459216
940,-0.041502785
941,-0.0371167
942,-0.067610435
943,-0.019703826
944,-0.06057173
945,0.030088648
946,-0.027534585
947,-0.07900103
948,-0.011308835
949,-0.031681206
950,-0.023489319
951,-0.030808993
952,-0.050043277
953,-0.05153555
954,0.038680892
955,-0.07766961
956,-0.038417686
957,-0.026870025
958,-0.020545846
959,-0.014469227
960,-0.09574034
961,-0.033559468
962,-0.049057543
963,-0.039243404
964,-0.005588456
965,-0.059707016
966,-0.060246367
967,-0.03763624
968,-0.03773651
969,0.00049399654
970,0.025050968
971,-0.042085666
972,0.065271765
973,-0.053575538
974,0.07051357
975,-0.070196256
976,-0.0063121226
977,-0.05791696
978,0.018691959
979,0.015042604
980,-0.018754365
981,-0.03908722
982,0.010243443
983,-0.046242766
984,0.042462703
985,-0.04512989
986,-0.038692914
987,-0.02377066
988,-0.032068852
989,-0.057987053
990,0.034586925
991,0.005462247
992,-0.03588234
993,0.09434034
994,-0.037083533
995,-0.038993374
996,-0.022248963
997,-0.0064243097
998,-0.08319239
999,-0.062104307
1000,-0.02027062
1001,-0.005772711
1002,-0.07162597
1003,0.025171908
1004,0.0014417949
1005,-0.06514025
1006,0.008186638
1007,0.030188648
1008,-0.024908843
1009,0.054753833
1010,0.08337289
1011,-0.022355404
1012,0.08791612
1013,-0.02653276
1014,0.04348942
1015,-0.034538984
1016,-0.027681775
1017,-0.037146803
1018,-0.07044425
1019,-0.023051009
1020,0.0046042684
1021,-0.06761974
1022,-0.03728049
1023,-0.037946705
1024,-0.03998375
1025,-0.031189613
1026,-0.038677137
1027,-0.0117379045
1028,-0.039616983
1029,-0.03155957
1030,0.0006315503
1031,-0.018910266
1032,-0.055764135
1033,-0.062197935
1034,-0.013228355
1035,-0.01018378
1036,-0.03851522
1037,0.0041671055
1038,0.080673106
1039,-0.003465398
1040,-0.071149915
1041,-0.016137926
1042,-0.049137354
1043,-0.0009304162
1044,-0.06705991
1045,0.05834459
1046,-0.039061323
1047,-0.050797753
1048,-0.056840993
1049,0.051831845
1050,0.035085034
1051,-0.03844037
1052,0.08022431
1053,-0.06730576
1054,-0.08256157
1055,-0.067465395
1056,0.040200185
1057,-0.014788645
1058,-0.039472044
1059,0.03935061
1060,0.050659757
1061,-0.04715274
1062,-0.03676099
1063,-0.033198193
1064,-0.030008024
1065,-0.0047341874
1066,0.016055496
1067,-0.06651596
1068,-0.041510142
1069,-0.05873045
1070,-0.05509445
1071,-0.04639956
1072,-0.06054332
1073,0.011109684
1074,0.020314949
1075,-0.038927607
1076,-0.049516775
1077,-0.044625208
1078,-0.070115045
1079,-0.03049039
1080,-0.09922533
1081,-0.009557519
1082,-0.058794722
1083,-0.07742732
1084,-0.018624377
1085,-0.026078373
1086,-0.028025042
1087,-0.0105097005
1088,0.004295989
1089,-0.0569875
1090,0.00040123868
1091,-0.04046047
1092,-0.09646113
1093,-0.059605144
1094,-0.06080662
1095,-0.043688618
1096,-0.037876993
1097,0.049314238
1098,0.026146857
1099,-0.042108096
1100,0.004486693
1101,0.027492223
1102,-0.007240193
1103,-0.070083566
1104,-0.009853665
1105,0.00016504622
1106,0.026989521
1107,0.013858017
1108,-0.046259962
1109,0.015672931
1110,-0.0028673098
1111,-0.021913989
1112,0.013954214
1113,-0.034141243
1114,-0.038214557
1115,0.0034686765
1116,-0.025311861
1117,0.13641773
1118,0.00048690886
1119,0.009654508
1120,-0.0012161972
1121,-0.014916288
1122,-0.00584674
1123,-0.025766475
1124,-0.024765728
1125,-0.045092985
1126,-0.0831868
1127,-0.061628684
1128,-0.03335725
1129,-0.0042123985
1130,0.025868246
1131,-0.0064127184
1132,-0.0053892727
1133,-0.05956575
1134,-6.604308e-05
1135,0.07439628
1136,-0.015236663
1137,0.08114727
1138,0.04414159
1139,-0.03390168
1140,-0.03264166
1141,-0.03815453
1142,0.030616831
1143,-0.05008077
1144,-0.054882467
1145,-0.033594504
1146,-0.051140502
1147,0.046653036
1148,-0.0011248563
1149,-0.03123308
1150,-0.01205105
1151,-0.037956204
1152,-0.042265967
1153,-0.030916655
1154,0.023616806
1155,0.006545615
1156,-0.0052265497
1157,-0.019805303
1158,-0.016576733
1159,-0.041311838
1160,-0.06566817
1161,-0.06196356
1162,-0.03690596
1163,0.0038570696
1164,-0.064961396
1165,-0.041741494
1166,0.06312765
1167,-0.033861008
1168,-0.053554475
1169,0.047027107
1170,-0.030950096
1171,-0.00842894
1172,-0.06785155
1173,-0.027467903
1174,-0.03372247
1175,-0.044961512
1176,-0.04449346
1177,0.0385166
1178,-0.009517511
1179,-0.038002454
1180,0.044013347
1181,-0.06700458
1182,-0.04237905
1183,-0.06780251
1184,0.06898412
1185,-0.03793139
1186,-0.03835548
1187,-0.006854423
1188,0.0056936527
1189,-0.002895107
1190,-0.041955262
1191,-0.022345584
1192,-0.036336076
1193,-0.0026641523
1194,0.0597439
1195,-0.041432153
1196,-0.041181523
1197,-0.06698005
1198,-0.022108708
1199,-0.047930818
1200,-0.040746033
1201,0.057425126
1202,0.040273394
1203,-0.019085437
1204,-0.049466338
1205,-0.03783752
1206,-0.07005956
1207,-0.029600339
1208,0.011693589
1209,-0.021248687
1210,-0.0006894056
1211,-0.07779117
1212,-0.017014716
1213,0.026661115
1214,0.034260895
1215,0.03202921
1216,0.041980032
1217,-0.051853716
1218,-0.049395673
1219,-0.022887917
1220,0.031345148
1221,-0.039463874
1222,-0.030681534
1223,-0.04370572
1224,-0.022114957
1225,-0.025699764
1226,-0.0040653087
1227,-0.04194138
1228,-0.02354931
1229,0.034600254
1230,-0.046672486
1231,-0.035045955
1232,-0.041700397
1233,-0.008858039
1234,0.011118015
1235,-0.041819327
1236,-0.006677023
1237,0.0030532735
1238,0.026282083
1239,-0.021096293
1240,-0.00081136543
1241,-0.045285895
1242,-0.02807771
1243,0.048959095
1244,-0.04128759
1245,0.04308947
1246,0.0331238
1247,-0.0035374586
1248,0.032701913
1249,-0.05418151
1250,0.0017214051
1251,-0.019607106
1252,-0.03244126
1253,-0.041475095
1254,-0.060126394
1255,-0.062023446
1256,-0.041721623
1257,-0.0047639203
1258,0.055030853
1259,-0.08138729
1260,-0.011225432
1261,-0.046424784
1262,-0.03540985
1263,-0.043537837
1264,-0.0051780823
1265,-0.018428825
1266,0.05141412
1267,0.032535736
1268,-0.000667731
1269,-0.037658617
1270,0.012579053
1271,-0.0009483431
1272,-0.021956893
1273,-0.028809048
1274,-0.06960526
1275,0.07688173
1276,-0.045704115
1277,-0.014068938
1278,-0.014085089
1279,-0.022266917
1280,-0.007123733
1281,-0.018589042
1282,0.030976858
1283,-0.012382161
1284,-0.041492954
1285,-0.0383389
1286,-0.010231781
1287,-0.03971663
1288,-0.055145875
1289,-0.06185835
1290,-0.025428176
1291,0.032649975
1292,0.0042796764
1293,-0.043572426
1294,0.021548029
1295,-0.017574511
1296,-0.038080588
1297,0.013609764
1298,0.011590139
1299,-0.005473939
1300,-0.028349979
1301,0.010914949
1302,-0.01991841
1303,-0.004440487
1304,-0.055627014
1305,0.019911755
1306,0.02397062
1307,-0.02669463
1308,0.030363725
1309,-0.06680984
1310,-0.041745324
1311,-0.06741997
1312,-0.021257265
1313,-0.028929153
1314,-0.018023966
1315,0.0034363656
1316,-0.007363306
1317,0.0113425115
1318,-0.044995915
1319,-0.04576444
1320,-0.035198584
1321,-0.02440256
1322,0.07149221
1323,-0.046753436
1324,-0.025296608
1325,0.039690867
1326,0.0036356014
1327,-0.036091838
1328,-0.029476874
1329,0.021006715
1330,0.02440941
1331,-0.0030523797
1332,-0.031212676
1333,-0.035550594
1334,-0.055296417
1335,-0.011401746
1336,0.01956089
1337,-0.0019776167
1338,-0.0034678893
1339,-0.046908088
1340,-0.01571524
1341,0.034784347
1342,0.014457284
1343,0.044773236
1344,-0.018571977
1345,-0.045460988
1346,-0.005826998
1347,-0.015511326
1348,0.012214265
1349,-0.029291106
1350,-0.034031786
1351,-0.031128393
1352,-0.038021624
1353,-0.0014049012
1354,0.00799882
1355,-0.041924514
1356,0.041893113
1357,0.0433808
1358,-0.022740614
1359,-0.024553059
1360,-0.012341187
1361,0.010782497
1362,0.00798335
1363,-0.028893342
1364,-0.0029424317
1365,0.033348814
1366,0.0044345353
1367,0.001573736
1368,-0.0060402593
1369,-0.051873993
1370,-0.03826483
1371,0.050163634
1372,-0.040276684
1373,0.061533842
1374,0.030048158
1375,-0.008927115
1376,0.026522601
1377,-0.028226651
1378,-0.007439568
1379,-0.034339257
1380,-0.032925937
1381,-0.040183578
1382,-0.038386986
1383,-0.024733286
1384,-0.042607144
1385,0.012037662
1386,0.023829175
1387,-0.028270785
1388,-0.012156772
1389,-0.022646483
1390,-0.005916922
1391,0.0042143445
1392,0.004785987
1393,-0.038474765
1394,0.04649136
1395,0.011058744
1396,-0.007566973
1397,-0.038002145
1398,0.03048147
1399,0.043319833
1400,-0.009706359
1401,-0.028048247
1402,-0.06963111
1403,0.03697906
1404,-0.031741038
1405,0.00028761415
1406,-0.0026631001
1407,-0.032512065
1408,-0.000332554
1409,-0.018812368
1410,0.010539052
1411,0.008474921
1412,-0.00014184372
1413,-0.002216014
1414,0.004648794
1415,0.009255863
1416,0.00073619286
1417,0.008852366
1418,-0.01983562
1419,0.0022456401
1420,0.0014008861
1421,0.0030269865
1422,0.0011146076
1423,0.008767342
1424,0.0026610333
1425,-0.003190759
1426,-0.019949906
1427,-0.0020103005
1428,0.00845819
1429,-0.02140243
1430,-0.0125533715
1431,0.007900188
1432,-0.00077857316
1433,0.019063428
1434,0.005747267
1435,-0.015998952
1436,0.005761866
1437,-0.004619772
1438,-0.015960246
1439,-0.012228218
1440,0.0078061447
1441,0.0062036607
1442,-0.014543854
1443,0.012914878
1444,-0.018254917
1445,0.017794313
1446,-0.0024872269
1447,-0.0029353248
1448,-0.010223989
1449,0.007492372
1450,0.012992147
1451,-0.011444645
1452,-2.9073162e-05
1453,0.017448913
1454,-0.0030145026
1455,0.002928388
1456,0.0074791685
1457,0.02341323
1458,0.008009267
1459,-0.0027245386
1460,-0.019171871
1461,-0.0205272
1462,-0.009525809
1463,-0.0033529047
1464,0.015243826
1465,0.0065105204
1466,-0.010728906
1467,0.013785543
1468,0.0014286087
1469,-0.0041139796
1470,-0.0017044492
1471,0.013718971
1472,-0.0057393606
1473,-0.0071811653
1474,0.007583124
1475,-0.0050744363
1476,-0.0010091504
1477,-0.006891081
1478,-0.015119315
1479,-0.012309327
1480,-0.009265609
1481,0.012511534
1482,-0.015637336
1483,0.0061759576
1484,0.0099693155
1485,-0.0018228164
1486,-0.01818417
1487,-0.009804459
1488,0.0003709984
1489,-0.0001456331
1490,0.012007875
1491,0.0083365
1492,0.0019004828
1493,0.00012651696
1494,0.000731617
1495,0.0020037044
1496,-0.007966529
1497,-0.0025587573
1498,0.0014101752
1499,0.0036443693
1500,0.0067937863
1501,0.0034911616
1502,-0.005851856
1503,0.0016813477
1504,0.02152538
1505,0.012626571
1506,-0.005705299
1507,0.00161053
1508,-0.0067300024
1509,0.0010271595
1510,-0.003204848
1511,0.001964843
1512,-0.00018660213
1513,-0.020168712
1514,0.010174196
1515,0.008716274
1516,0.0013144184
1517,-0.013463748
1518,-0.013505524
1519,0.0033530057
1520,0.0034334483
1521,-0.0015051966
1522,-0.011767585
1523,0.0053100707
1524,-0.0021667527
1525,-0.0111359
1526,-0.0017718044
1527,0.009978634
1528,-0.0029060342
1529,-0.006257088
1530,-0.0006924575
1531,-0.009276626
1532,-0.0037771135
1533,0.0057086893
1534,-0.0054697087
1535,0.008558529
1536,-0.0051475368
1537,0.015486467
1538,-0.0043107555
1539,0.003684043
1540,0.0036681774
1541,0.0063558733
1542,0.0019490928
1543,-0.0054695285
1544,0.012249301
1545,-0.0011326965
1546,0.0046398146
1547,0.007919966
1548,-0.0007144702
1549,-0.017343229
1550,0.008085225
1551,-0.0036104622
1552,-0.013737319
1553,-0.003642463
1554,0.012726284
1555,0.018047385
1556,0.0034874307
1557,0.010430788
1558,-0.0063612126
1559,0.0061579114
1560,-0.004973611
1561,0.0025244306
1562,0.0013516374
1563,-0.0069291973
1564,0.00128227
1565,0.0010701346
1566,-0.010987828
1567,-0.004196833
1568,0.0075635957
1569,-0.005717241
1570,0.0035170843
1571,0.00649307
1572,0.005245912
1573,-0.004097643
1574,-0.008879483
1575,0.009183087
1576,-0.0077788704
1577,-0.007551226
1578,0.011806198
1579,0.0059627057
1580,-0.014587267
1581,-0.0067592077
1582,0.005850513
1583,-0.014447398
1584,0.009947734
1585,-0.0027587016
1586,-0.007273406
1587,-0.0041304273
1588,0.007873324
1589,-0.008160735
1590,-0.0036902078
1591,-0.0014097383
1592,-0.0019543217
1593,0.012116297
1594,0.0066641
1595,-0.007801292
1596,0.0026052988
1597,0.0019879774
1598,0.010481095
1599,0.0037474232
1600,0.0064503453
1601,0.006468682
1602,-0.00066286913
1603,0.0021220148
1604,-0.0065531866
1605,-0.005912161
1606,-0.008673842
1607,0.01190061
1608,-0.0051278276
1609,-0.0045694485
1610,-0.017709836
1611,-0.018964337
1612,0.0018975635
1613,0.0016180333
1614,0.007355243
1615,-0.0023712122
1616,-0.004814426
1617,-0.0020259612
1618,0.003106968
1619,0.011227306
1620,0.0015964032
1621,-0.016302189
1622,-0.012144748
1623,-0.0012223112
1624,-0.008459456
1625,-0.0023910014
1626,-0.0028791141
1627,0.00068375416
1628,0.0065987236
1629,0.012037965
1630,0.00854235
1631,0.0044611604
1632,-0.015422506
1633,-0.008143405
1634,0.0085217655
1635,0.0020710335
1636,-0.0095431525
1637,5.952181e-05
1638,-0.0027296906
1639,0.011608798
1640,0.0056161033
1641,0.006072328
1642,0.017934708
1643,-0.013182928
1644,-0.0040297154
1645,-0.0026828873
1646,-0.012305226
1647,-0.013695912
1648,-0.014391301
1649,-0.0056087556
1650,0.012483324
1651,0.0043629105
1652,0.012654731
1653,0.0010005314
1654,-0.00041923113
1655,-0.0075590867
1656,0.0050623296
1657,0.0023327235
1658,-0.004862072
1659,-0.0088942945
1660,0.0020081212
1661,-0.009764252
1662,0.0062974063
1663,0.0050438703
1664,0.0038820137
1665,-0.0047583864
1666,0.0016325176
1667,-0.0032540758
1668,0.004314051
1669,-0.00020030902
1670,-0.01303638
1671,-0.0011996703
1672,0.002900685
1673,0.007790926
1674,0.00033588873
1675,-0.01079922
1676,0.010178166
1677,0.009024292
1678,0.00204897
1679,0.005964935
1680,0.0073127365
1681,-0.009864054
1682,-0.0050868634
1683,-0.0027735797
1684,-0.0124351615
1685,-0.0054740906
1686,0.0015247278
1687,-0.015152984
1688,-0.00911769
1689,-0.0113504995
1690,0.007879193
1691,0.0077591185
1692,0.011203762
1693,0.0058565917
1694,-0.0048993723
1695,-0.0057109
1696,-0.0015679845
1697,0.004537356
1698,0.005976247
1699,-0.0071365903
1700,-0.01384733
1701,0.0024634907
1702,-0.003616355
1703,0.0010429021
1704,-0.008115822
1705,0.008336508
1706,-0.000571792
1707,-0.0038152414
1708,-0.005132565
1709,0.007843754
1710,0.008045973
1711,-0.0077401195
1712,0.00823819
1713,0.0111487685
1714,0.004973519
1715,0.008468703
1716,0.0024414326
1717,0.003529827
1718,-0.008356065
1719,0.0018709191
1720,0.0014577585
1721,0.012320446
1722,0.0069479886
1723,-0.0044593248
1724,-0.007665607
1725,0.009560772
1726,-0.0070846644
1727,0.0066245487
1728,0.006053549
1729,-0.002819581
1730,-0.008069877
1731,-0.0132730855
1732,-0.0062187174
1733,-0.009582803
1734,0.019370427
1735,-0.0010578126
1736,-0.0130811725
1737,-0.00086969376
1738,0.0032398405
1739,-0.004985913
1740,0.015436574
1741,-0.011333482
1742,-0.014749812
1743,0.0094673615
1744,0.015835892
1745,0.008195697
1746,0.006485226
1747,-0.0022338135
1748,0.002676255
1749,0.0124755185
1750,0.0047170487
1751,0.003465853
1752,0.004640152
1753,-0.0041353256
1754,-0.006611173
1755,-0.0012467891
1756,-0.015717318
1757,0.009804775
1758,-0.015860645
1759,-0.008470194
1760,0.012659071
1761,0.007117942
1762,0.0025622887
1763,-0.001269443
1764,-0.008418062
1765,-0.009174548
1766,-0.0011061376
1767,0.0038947153
1768,0.0017159227
1769,0.0021867587
1770,-0.0068355864
1771,0.004330604
1772,-0.0056559895
1773,-0.009296
1774,-0.010488984
1775,-0.013381602
1776,0.0016232791
1777,0.014751661
1778,-0.008742734
1779,0.0018862801
1780,-0.0021393374
1781,-0.016939614
1782,-0.00011596254
1783,0.0058093243
1784,0.0028614989
1785,0.0017248531
1786,-0.0072108856
1787,-0.00016340433
1788,0.0046178633
1789,0.00207379
1790,-0.0096891755
1791,-0.012745001
1792,0.012811144
1793,-0.013869874
1794,-0.0019389931
1795,-0.0027915242
1796,0.0086411415
1797,0.0008763629
1798,-3.5714285e-05
1799,-0.00046315687
1800,-0.0060846475
1801,0.009549085
1802,0.0052718865
1803,0.004211174
1804,0.0029709488
1805,-0.00039206646
1806,-0.0023672841
1807,-0.010030203
1808,0.012255534
1809,0.001297277
1810,-0.0023013086
1811,-0.0013424074
1812,0.0026436725
1813,0.009148574
1814,0.0061572283
1815,0.0017704737
1816,0.00089801964
1817,-0.015647845
1818,-0.0072198743
1819,0.015625598
1820,0.003263533
1821,-0.012974033
1822,0.010320239
1823,-0.004636855
1824,-0.009363735
1825,-0.002350583
1826,-0.009722614
1827,0.0075475266
1828,-0.0041786237
1829,-0.0050525116
1830,0.008578593
1831,0.004663937
1832,-0.009785875
1833,0.013290952
1834,0.00081794336
1835,-0.0007197347
1836,0.005991104
1837,-0.0039375047
1838,0.0072887735
1839,-0.0050918465
1840,0.009111036
1841,0.011349963
1842,0.015561321
1843,0.0030973512
1844,-0.0005452761
1845,-0.005723172
1846,-0.0071685403
1847,0.0100685535
1848,0.0031558594
1849,-0.012624849
1850,-0.012779819
1851,-0.004199905
1852,-0.009749053
1853,-0.012675096
1854,0.008407806
1855,0.0100585995
1856,-0.003989733
1857,0.0020122458
1858,-0.008061625
1859,0.000153559
1860,0.0017963282
1861,-0.002646028
1862,-0.0043022516
1863,0.0072661587
1864,-0.0106708715
1865,-0.00034314368
1866,0.003449645
1867,-0.005244117
1868,0.004252321
1869,-0.014545863
1870,-0.0042115455
1871,-0.004192849
1872,-0.004635619
1873,-0.0031922995
1874,-0.018466186
1875,-0.0013285929
1876,-0.007975156
1877,0.005623686
1878,0.003427662
1879,0.0024442575
1880,-0.005197351
1881,0.0015544138
1882,0.0031104875
1883,0.0035944886
1884,-0.008606213
1885,-0.004773259
1886,-0.003919545
1887,0.010754475
1888,0.015442651
1889,-0.002833474
1890,-0.0057730936
1891,0.0004522835
1892,-0.006446739
1893,0.002413774
1894,0.0043163425
1895,0.009871632
1896,-0.00021317757
1897,0.005000583
1898,-0.017946098
1899,-0.012461764
1900,0.006931903
1901,-0.0011808603
1902,-0.008587158
1903,0.00030203973
1904,0.0061244518
1905,-8.106268e-05
1906,0.018216
1907,0.0058416543
1908,0.0025923676
1909,-0.005866223
1910,0.009511335
1911,0.0061805653
1912,-0.003979872
1913,-0.015517967
1914,0.0048771473
1915,-0.0019505256
1916,-0.00013519618
1917,0.009905422
1918,-0.009277152
1919,0.0008651993
1920,-0.008099699
1921,0.0018506104
1922,0.008414644
1923,0.005135905
1924,-0.0066820066
1925,0.0101738935
1926,-0.0066107726
1927,-0.009823276
1928,0.00455267
1929,0.004618867
1930,0.0109875165
1931,0.0076417476
1932,0.007955208
1933,0.010968084
1934,0.006474985
1935,0.0010429681
1936,0.004538026
1937,0.0024492359
1938,-0.01733943
1939,-0.003242056
1940,0.013360083
1941,0.0041772113
1942,-0.013833304
1943,-0.004000957
1944,0.003799883
1945,-0.015587098
1946,-0.009374368
1947,-0.010086527
1948,0.014694046
1949,-0.0019317908
1950,-0.0005452408
1951,0.01254047
1952,0.004182725
1953,0.0019106617
1954,0.0064582834
1955,0.0065233433
1956,-0.010237626
1957,-0.009155836
1958,-0.013870231
1959,0.0063971486
1960,0.0051935217
1961,0.0152572105
1962,0.01373885
1963,0.003254861
1964,-0.0190673
1965,0.0065254066
1966,-0.0031860007
1967,0.006040859
1968,0.002750889
1969,-0.005701346
1970,0.0012250551
1971,-0.0014426373
1972,-0.0060214596
1973,0.008178342
1974,-0.011165076
1975,0.012930364
1976,0.004597761
1977,-0.0042482098
1978,-0.010887542
1979,0.0035909885
1980,-0.00019473018
1981,-0.00010605712
1982,0.011988019
1983,-0.017000657
1984,0.0020708346
1985,0.00012148808
1986,-0.0031904848
1987,-0.008240676
1988,0.0012805102
1989,0.012726675
1990,-0.011158813
1991,0.003006168
1992,0.0013271774
1993,0.00648532
1994,-0.0013332937
1995,0.010454158
1996,0.0124368835
1997,-0.0006490151
1998,0.009032449
1999,-0.005891555
2000,-0.016283913
2001,-0.016879966
2002,0.0063211494
2003,-0.003830583
2004,0.011171949
2005,-0.015874667
2006,-0.004349183
2007,-0.012809656
2008,0.00038623708
2009,0.01096557
2010,-0.0013235913
2011,0.0054514175
2012,-0.006301142
2013,0.015356128
2014,-0.010670305
2015,-0.0058053546
2016,0.0064199767
2017,-0.007756217
2018,0.0064405855
2019,-0.009245063
2020,-0.0034323633
2021,-0.005113438
2022,-0.0019930897
2023,-9.3954586e-05
2024,0.0022412078
2025,-0.018941872
2026,0.012713672
2027,-0.006431208
2028,0.007162336
2029,0.0028053038
2030,-0.008091475
2031,0.01075935
2032,-0.0036504206
2033,0.008575603
2034,0.0017478684
2035,-0.019613627
2036,0.019584395
2037,-0.010638204
2038,-0.0057216794
2039,0.0066373753
2040,-0.0010611479
2041,-0.011515421
2042,-0.006090452
2043,0.013630571
2044,-0.015967492
2045,0.013385915
2046,0.003767562
2047,-0.017032297
2048,0.028460452
2049,0.0031970036
2050,-0.004661893
2051,0.03246894
2052,0.00035491126
2053,0.044716932
2054,0.03926139
2055,0.017526528
2056,-0.0016285523
2057,-0.017574286
2058,-0.12048793
2059,-0.011975601
2060,-0.066076815
2061,-0.00077717967
2062,2.0383093e-05
2063,-0.01003722
2064,0.018116925
2065,0.039445862
2066,-0.052408747
2067,0.04540733
2068,-0.067186266
2069,0.051728837
2070,-0.061010756
2071,-0.0059874533
2072,-0.058553208
2073,-0.052875422
2074,0.02014952
2075,0.02175456
2076,0.07522087
2077,-0.037181344
2078,-0.038655967
2079,-0.012265991
2080,0.06120743
2081,-0.015085757
2082,-0.0009714514
2083,0.02277089
2084,0.022809472
2085,8.820284e-05
2086,0.008563029
2087,-0.03138806
2088,-0.05177529
2089,-0.002578329
2090,-0.013230456
2091,-0.014222432
2092,-0.002411212
2093,0.0005999589
2094,-0.0009522432
2095,-0.05946281
2096,0.00034521343
2097,0.028754704
2098,0.021990985
2099,0.012626242
2100,0.008228392
2101,-0.028278876
2102,-0.015920274
2103,0.024990773
2104,-0.011665096
2105,-0.012724221
2106,0.028773503
2107,-0.076323636
2108,0.029681588
2109,0.019085106
2110,0.007539094
2111,0.01250615
2112,-0.016406097
2113,-0.05325473
2114,0.007348785
2115,0.027404165
2116,0.012302017
2117,-0.024999412
2118,-0.030803615
2119,0.030352801
2120,0.03710177
2121,0.024301842
2122,0.03655774
2123,0.017864332
2124,0.025303954
2125,0.009850262
2126,0.038980626
2127,-0.078752786
2128,0.04150473
2129,0.027155025
2130,0.022723282
2131,0.039401952
2132,0.045081194
2133,-0.020724136
2134,0.019838234
2135,-0.0006685196
2136,0.04251586
2137,0.004313599
2138,-0.006323807
2139,-0.044091918
2140,0.0036113414
2141,0.016956575
2142,0.057630513
2143,-0.015889
2144,0.025466846
2145,0.0149547355
2146,0.018232772
2147,-0.012613706
2148,0.02373929
2149,0.018474625
2150,-0.02031028
2151,-0.05519203
2152,0.03760794
2153,0.004625624
2154,0.05368313
2155,-0.006726376
2156,0.05315897
2157,-0.0054852804
2158,0.037222847
2159,0.021729182
2160,0.021684006
2161,0.045279425
2162,0.051437832
2163,0.033743218
2164,0.05253422
2165,-0.013390849
2166,-0.04786768
2167,0.012458763
2168,0.05191616
2169,-0.027708938
2170,-0.0027818838
2171,0.013653382
2172,-0.038036417
2173,-0.0006823976
2174,0.034434948
2175,0.03733087
2176,0.03963929
2177,0.05793393
2178,0.031386275
2179,0.030210825
2180,0.020064246
2181,0.05082294
2182,0.05792661
2183,0.038387638
2184,-0.07259753
2185,0.03731825
2186,-0.03217488
2187,0.053662755
2188,0.06379886
2189,-0.005415813
2190,-0.006853999
2191,0.037110135
2192,-0.07092777
2193,0.034352865
2194,0.03867206
2195,0.059977416
2196,-0.07384856
2197,-0.034740806
2198,-0.070191525
2199,-0.008741694
2200,0.072780974
2201,-0.08546735
2202,0.0027366602
2203,0.035286058
2204,-0.045662317
2205,0.03631148
2206,0.02845999
2207,-0.04946336
2208,-0.027024413
2209,0.062005993
2210,0.039122872
2211,0.012847461
2212,0.08780934
2213,0.0023806794
2214,0.008559541
2215,-0.046937086
2216,0.028692605
2217,0.053815335
2218,0.03472972
2219,-0.055695128
2220,-0.022129845
2221,0.025358222
2222,0.03305813
2223,0.046311338
2224,0.05946761
2225,0.054721903
2226,-0.00069288653
2227,0.054071557
2228,0.04189025
2229,0.01776764
2230,-0.06478469
2231,0.008708303
2232,0.049565285
2233,0.023224821
2234,-0.054244865
2235,-0.0758501
2236,0.04495137
2237,-0.003685977
2238,0.041118823
2239,0.061497126
2240,0.011051565
2241,-0.038149204
2242,0.04817061
2243,0.038296234
2244,0.063242964
2245,0.0583656
2246,0.008133954
2247,-0.068980895
2248,0.020563522
2249,0.071940415
2250,0.011617686
2251,-0.050241683
2252,-0.065479055
2253,0.063082404
2254,0.010530235
2255,-0.078320704
2256,0.050803505
2257,0.057033192
2258,0.036452122
2259,0.055251908
2260,0.018664872
2261,-0.035249025
2262,0.05672225
2263,0.062061816
2264,0.039413203
2265,0.041565217
2266,0.028032469
2267,-0.008935467
2268,0.023932703
2269,0.026184212
2270,0.0018507902
2271,-0.010695711
2272,-0.050208393
2273,0.05315592
2274,0.020437842
2275,-0.079493836
2276,-0.07208098
2277,0.040355455
2278,-0.026193595
2279,0.050185
2280,0.034113277
2281,0.04827559
2282,-0.076565646
2283,-0.014730264
2284,0.033066984
2285,0.053209513
2286,0.051244065
2287,0.039944723
2288,0.0056566987
2289,-0.058668476
2290,-0.06735716
2291,-0.043272495
2292,-0.0058316546
2293,0.059921645
2294,-0.1098244
2295,0.021127917
2296,-0.01693285
2297,0.019792076
2298,-0.04756471
2299,-0.07687398
2300,0.054161187
2301,0.04594552
2302,0.032233052
2303,0.014129256
2304,-0.0003322398
2305,-0.07482571
2306,-0.06344239
2307,-0.009658919
2308,0.03792344
2309,0.010477036
2310,0.04907203
2311,0.017728737
2312,-0.06993668
2313,-0.053377867
2314,0.010380912
2315,0.016816676
2316,0.027744351
2317,0.040951073
2318,0.017022267
2319,0.05080662
2320,-0.070562065
2321,-0.039805505
2322,0.037240665
2323,-0.07274752
2324,0.06375466
2325,-0.067305274
2326,0.08589911
2327,0.03640929
2328,-0.058306932
2329,-0.040135432
2330,0.02871771
2331,0.017981516
2332,-0.034086633
2333,0.035529677
2334,0.05889507
2335,-0.049319804
2336,0.007757704
2337,0.011561202
2338,-0.041142035
2339,-0.008852571
2340,0.064845964
2341,0.043973565
2342,-0.07265609
2343,-0.046548557
2344,0.056341518
2345,0.009653474
2346,0.034497917
2347,0.06541024
2348,0.041043296
2349,0.0584187
2350,0.039545033
2351,0.07623877
2352,-0.07043884
2353,0.062205464
2354,0.0045972583
2355,-0.060897786
2356,0.04873721
2357,0.050915767
2358,-0.0648788
2359,0.024025457
2360,-0.021804852
2361,0.071924746
2362,0.02303755
2363,-0.047042843
2364,0.015613513
2365,-0.043955725
2366,-0.005059596
2367,0.06562224
2368,0.04921745
2369,0.07205697
2370,0.016623806
2371,-0.0016832547
2372,-0.016259097
2373,-0.07336432
2374,0.05595398
2375,0.040734198
2376,0.003061515
2377,-0.0452384
2378,0.053782202
2379,0.018490471
2380,0.06781576
2381,-0.07907822
2382,0.0031818997
2383,0.068556495
2384,-0.011335799
2385,0.008259399
2386,-0.057272293
2387,-0.0074480223
2388,-0.0065803053
2389,0.04851119
2390,0.048254985
2391,-0.0733605
2392,0.022765545
2393,0.060579967
2394,0.036551364
2395,0.056292895
2396,0.018149383
2397,0.019691728
2398,-0.038959228
2399,0.085883155
2400,-0.019524569
2401,0.010850847
2402,-0.005464591
2403,0.074365035
2404,0.07250689
2405,-0.03963442
2406,-0.069310755
2407,0.058623347
2408,0.03971215
2409,0.05681533
2410,-0.030917719
2411,0.021858167
2412,-0.02200712
2413,-0.0698928
2414,-0.049645726
2415,0.015409073
2416,0.02022499
2417,-0.057698533
2418,0.0025390598
2419,0.0115242
2420,-0.07595521
2421,-0.059539918
2422,-0.05132694
2423,0.066770025
2424,-0.05975025
2425,0.0016995117
2426,-0.04841926
2427,0.095911674
2428,0.04557958
2429,0.034593012
2430,0.0393663
2431,-0.08606213
2432,-0.031925723
2433,-0.07484043
2434,0.056435566
2435,0.041347336
2436,0.026966717
2437,-0.044334
2438,-0.02336611
2439,0.007056043
2440,0.07389933
2441,0.03580466
2442,-0.012801441
2443,0.04895469
2444,-0.06611659
2445,0.09375805
2446,0.06287055
2447,0.049450118
2448,-0.07036861
2449,-0.03944627
2450,0.058179226
2451,-0.073140725
2452,0.066734426
2453,-0.06724941
2454,-0.070525
2455,-0.0002062649
2456,-0.058326874
2457,-0.003088814
2458,-0.05120572
2459,-0.008128398
2460,-0.051626433
2461,0.06673266
2462,0.052198548
2463,0.05320575
2464,-0.0071032085
2465,0.011041857
2466,0.0024652688
2467,0.06084011
2468,-0.116944194
2469,-0.021784445
2470,0.038936358
2471,0.09146018
2472,0.029889831
2473,-0.018857889
2474,-0.03764557
2475,0.053573202
2476,0.038687725
2477,0.0338708
2478,0.041935172
2479,-0.05947967
2480,0.039194036
2481,-0.039771575
2482,-0.016444784
2483,-0.10656651
2484,-0.06049894
2485,0.029966868
2486,0.06920254
2487,-0.005821664
2488,0.031197818
2489,-0.05963421
2490,-0.05424972
2491,0.06180153
2492,-0.064849146
2493,-0.014005323
2494,-0.019467957
2495,0.009490791
2496,0.00063835975
2497,0.055369202
2498,-0.030808143
2499,0.0008155439
2500,-0.04251544
2501,0.03209109
2502,-0.0365751
2503,0.035363488
2504,0.0038930501
2505,-0.016437732
2506,0.040112775
2507,0.041477352
2508,0.07087243
2509,-0.042815518
2510,0.04366876
2511,0.055160902
2512,-0.038986597
2513,-0.07022355
2514,0.0039062914
2515,-0.022742232
2516,-0.0048460127
2517,-0.022515196
2518,0.060208462
2519,-0.07324234
2520,-0.056742735
2521,-0.073244706
2522,0.032655403
2523,0.09507773
2524,0.025423685
2525,0.0031917577
2526,-0.021536294
2527,-0.02618588
2528,-0.052783273
2529,-0.0051076496
2530,0.036201105
2531,-0.07947796
2532,-0.07215598
2533,-0.010191618
2534,0.08183601
2535,-0.055144228
2536,-0.027836023
2537,-0.045529425
2538,-0.015770704
2539,0.114870064
2540,-0.023266966
2541,0.06320253
2542,0.012755919
2543,-0.024118766
2544,-0.019882105
2545,-0.05884304
2546,0.020108173
2547,-0.043497954
2548,-0.08870847
2549,-0.05940007
2550,0.11078111
2551,0.034488387
2552,-0.09225755
2553,-0.055480722
2554,0.053940855
2555,-0.028948376
2556,-0.016295176
2557,-0.052060716
2558,-0.041697897
2559,-0.04869881
2560,-0.033356663
2561,0.030565497
2562,0.035959646
2563,-0.0669173
2564,-0.026732186
2565,-0.04465126
2566,-0.027956042
2567,-0.016147524
2568,0.063799754
2569,0.06127709
2570,-0.0027057196
2571,0.04739936
2572,-0.062397193
2573,-0.030094538
2574,0.077578194
2575,-0.0029609345
2576,0.06971878
2577,7.398062e-05
2578,-0.016600015
2579,-0.073170505
2580,-0.03322997
2581,-0.018968323
2582,0.07303752
2583,0.04243158
2584,0.053238664
2585,0.080951005
2586,-0.05501102
2587,-0.0431328
2588,-0.009481622
2589,-0.02253188
2590,0.041656412
2591,0.06548572
2592,-0.006573441
2593,-0.0475596
2594,0.05195152
2595,-0.0067174756
2596,-0.049139466
2597,0.0029515522
2598,0.05932854
2599,-0.047344383
2600,-0.052003954
2601,0.0017269416
2602,-0.021613324
2603,-0.05569269
2604,0.021988507
2605,-0.007205052
2606,0.06707778
2607,-0.059251178
2608,-0.05019118
2609,0.017319148
2610,-0.033531025
2611,-0.106813096
2612,0.0031738835
2613,0.0053165
2614,0.06812324
2615,-0.05061657
2616,-0.010647126
2617,-0.059683222
2618,0.009516937
2619,0.06743395
2620,-0.06463171
2621,0.02506327
2622,0.018916762
2623,-0.0038714577
2624,-0.009527045
2625,-0.036974356
2626,0.0033488604
2627,-0.027689742
2628,-0.057773754
2629,-0.07359159
2630,-0.032588724
2631,-0.06867847
2632,-0.049112383
2633,-0.049631108
2634,-0.04859055
2635,-0.039231583
2636,0.0043246485
2637,-0.07001339
2638,-0.015885357
2639,-0.04247421
2640,-0.04621636
2641,-0.003308737
2642,-0.057007983
2643,-0.026770499
2644,-0.0046774354
2645,-0.016015898
2646,-0.008814365
2647,-0.07331819
2648,-0.03680688
2649,0.042897865
2650,0.015320775
2651,-0.054304503
2652,0.04116945
2653,0.05673564
2654,-0.01729675
2655,-0.025609218
2656,-0.011341863
2657,-0.01540788
2658,-0.040451214
2659,-0.07967034
2660,0.020433757
2661,0.04111278
2662,-0.069305874
2663,-0.055180557
2664,-0.052526485
2665,-0.02041559
2666,-0.040658724
2667,-0.03666849
2668,-0.04308306
2669,-0.06980788
2670,-0.037417997
2671,-0.009518624
2672,-0.039511956
2673,-0.03335791
2674,0.0313206
2675,-0.017956633
2676,-0.08483713
2677,0.036539745
2678,0.07464931
2679,0.030698827
2680,-0.07118548
2681,0.08491822
2682,0.06762371
2683,0.017415497
2684,-0.03529388
2685,0.013884947
2686,-0.012915718
2687,-0.085974775
2688,-0.03380691
2689,-0.07495816
2690,-0.031796936
2691,-0.024810804
2692,0.0140226595
2693,0.0041860007
2694,-0.041541982
2695,0.013471478
2696,-0.07269264
2697,-0.05346352
2698,0.09109821
2699,0.0026858114
2700,-0.06604911
2701,-0.01747996
2702,-0.08096122
2703,0.036489133
2704,0.0512819
2705,-0.038474534
2706,-0.018129127
2707,-0.034480564
2708,-0.03689667
2709,-0.055057324
2710,-0.070632964
2711,-0.052347206
2712,0.042714424
2713,-0.016018188
2714,-0.05375979
2715,-0.044138357
2716,-0.017853685
2717,0.008868227
2718,-0.0044471407
2719,0.041625086
2720,0.0018846868
2721,-0.05253743
2722,-0.041471303
2723,-0.041986827
2724,-0.0065546436
2725,0.0053678765
2726,0.0057292734
2727,-0.047069713
2728,-0.051794402
2729,-0.03801082
2730,0.11323283
2731,-0.055748105
2732,0.01700632
2733,0.035216894
2734,-0.059965733
2735,0.017212868
2736,-0.07056191
2737,-0.02728343
2738,-0.026397767
2739,-0.071423724
2740,-0.060841046
2741,-0.027748998
2742,-0.06485485
2743,-0.029859446
2744,-0.035665277
2745,-0.059956033
2746,-0.054255806
2747,0.07555105
2748,-0.06463194
2749,-0.01067021
2750,0.020202346
2751,0.029987402
2752,-0.028295597
2753,-0.05325226
2754,-0.030050216
2755,-0.04448336
2756,-0.017221171
2757,-0.073477514
2758,0.056540683
2759,-0.06874099
2760,-0.049110815
2761,-0.049658395
2762,-0.0011342015
2763,-0.04942944
2764,-0.065359466
2765,-0.06078698
2766,-0.08412651
2767,-0.05044828
2768,-0.046748757
2769,-0.078966424
2770,-0.05684474
2771,-0.03310409
2772,-0.03211461
2773,-0.02060878
2774,-0.02138013
2775,-0.006328948
2776,-0.05683149
2777,-0.049642324
2778,-0.019419238
2779,0.07320589
2780,-0.050376523
2781,0.0029475293
2782,0.03824489
2783,-0.029660407
2784,0.0687015
2785,0.016824314
2786,-0.014244515
2787,0.025453852
2788,-0.018941993
2789,-0.03920569
2790,0.08194334
2791,0.041073464
2792,-0.07275991
2793,-0.045338795
2794,-0.0955779
2795,-0.009737109
2796,-0.042993013
2797,-0.02197983
2798,-0.04994029
2799,0.02221221
2800,-0.039643712
2801,-0.028093198
2802,0.0631573
2803,-0.009084035
2804,-0.06906066
2805,-0.059482772
2806,0.059330992
2807,0.029712724
2808,0.015568533
2809,0.020572307
2810,0.023781031
2811,-0.060045496
2812,-0.007849563
2813,0.053038597
2814,-0.03909115
2815,0.016769974
2816,-0.033522166
2817,-0.0748331
2818,-0.03313923
2819,-0.018741233
2820,-0.022874206
2821,-0.045835312
2822,-0.041883674
2823,-0.015088915
2824,-0.07245955
2825,-0.05285802
2826,0.010353515
2827,0.04498718
2828,-0.029069154
2829,-0.04795537
2830,-0.0070995567
2831,0.025861617
2832,-0.07036892
2833,-0.047671996
2834,-0.0519698
2835,-0.029767543
2836,-0.020959333
2837,-0.066984236
2838,0.0045189043
2839,0.049903248
2840,-0.009726696
2841,0.13959022
2842,-0.05391597
2843,-0.043013744
2844,-0.09547256
2845,0.010655564
2846,0.08208143
2847,-0.049057685
2848,-0.0003533727
2849,-0.011245005
2850,-0.041822374
2851,-0.03887164
2852,-0.07719348
2853,0.02056953
2854,-0.016883748
2855,-0.046951707
2856,-0.027840089
2857,-0.021395722
2858,0.069805935
2859,-0.05566058
2860,-0.004542795
2861,0.066114075
2862,-0.035324425
2863,-0.0590828
2864,-0.046475016
2865,0.029016748
2866,0.008794053
2867,0.12119796
2868,-0.06049574
2869,-0.0058684107
2870,-0.023013072
2871,-0.035062533
2872,-0.034304395
2873,-0.0602801
2874,-0.05405585
2875,-0.075800195
2876,-0.06466571
2877,-0.029315116
2878,-0.044319883
2879,0.0032795765
2880,-0.045240067
2881,-0.007951229
2882,0.0022696403
2883,-0.04977406
2884,-0.005883972
2885,-0.03293461
2886,-0.032100208
2887,-0.045601908
2888,-0.04883996
2889,-0.046499725
2890,-0.018935304
2891,-0.04965986
2892,-0.06479423
2893,-0.0406457
2894,-0.050170235
2895,-0.02499781
2896,-0.038501967
2897,0.020288322
2898,-0.057001363
2899,-0.031814035
2900,-0.049501155
2901,-0.017333824
2902,0.022551889
2903,-0.06865506
2904,-0.031026507
2905,-0.07312233
2906,-0.04067795
2907,0.015799318
2908,-0.046337564
2909,0.013519299
2910,0.017438356
2911,-0.029047064
2912,-0.04076851
2913,-0.0031294152
2914,-0.041448787
2915,-0.042903513
2916,-0.07181407
2917,-0.03578114
2918,-0.003049969
2919,-0.05474321
2920,0.021400275
2921,0.005276088
2922,0.02487898
2923,-0.03615234
2924,-0.042934168
2925,-0.069664575
2926,-0.0492165
2927,-0.046044916
2928,-0.039538532
2929,-0.04853941
2930,-0.08369628
2931,-0.043325793
2932,-0.07604499
2933,-0.059624147
2934,-0.026411114
2935,0.039748345
2936,0.05381584
2937,-0.055265475
2938,-0.047511853
2939,0.017883508
2940,0.0061819367
2941,-0.019180581
2942,-0.037340425
2943,-0.08629229
2944,-0.03381197
2945,-0.065624
2946,-0.022965482
2947,-0.056031696
2948,-0.0035509886
2949,-0.045614775
2950,-0.020678809
2951,-0.045305002
2952,-0.07230263
2953,-0.05355273
2954,0.020941392
2955,-0.05226057
2956,0.002934612
2957,-0.048516586
2958,0.09169807
2959,-0.051528428
2960,-0.045436297
2961,0.05685135
2962,-0.013779954
2963,0.043625116
2964,0.023525994
2965,-0.06524608
2966,-0.070435755
2967,-0.03029056
2968,0.017519556
2969,-0.08373828
2970,-0.052500296
2971,-0.042852547
2972,0.03494517
2973,-0.053289466
2974,-0.06997246
2975,-0.049203984
2976,-0.035006993
2977,0.014646411
2978,-0.040659692
2979,-0.033016134
2980,-0.030460803
2981,-0.029616108
2982,-0.030058889
2983,-0.04696899
2984,-0.015056009
2985,-0.03703262
2986,-0.030155594
2987,-0.05561591
2988,-0.056966696
2989,0.03638487
2990,-0.059629425
2991,-0.03398214
2992,-0.06633019
2993,-0.031575117
2994,-0.041565664
2995,-0.104581825
2996,-0.035499573
2997,-0.047323637
2998,-0.06466289
2999,-0.04981995
3000,0.01944769
3001,-0.05925056
3002,0.0894849
3003,-0.008036279
3004,-0.06454482
3005,-0.04451729
3006,0.011986486
3007,-0.0077278586
3008,0.09427283
3009,0.010166335
3010,0.01267794
3011,-0.049742825
3012,0.008464219
3013,-0.066373475
3014,-0.015248584
3015,-0.06867704
3016,-0.048891135
3017,-0.03709762
3018,-0.028132632
3019,0.0046582227
3020,-0.06443483
3021,-0.079745576
3022,-0.06944404
3023,-0.0034183066
3024,-0.049266074
3025,0.00079298206
3026,-0.05589592
3027,-0.03225532
3028,-0.05026777
3029,-0.026966421
3030,-0.009052369
3031,0.0047484734
3032,-0.046673577
3033,-0.0731053
3034,-0.04118924
3035,0.03044507
3036,-0.050185505
3037,0.042895786
3038,-0.04649001
3039,-0.03049425
3040,-0.0006792905
3041,-0.095065325
3042,-0.040256355
3043,-0.047973655
3044,-0.03483271
3045,-0.039392605
3046,-0.06877758
3047,-0.012261355
3048,-0.014437852
3049,-0.029065527
3050,0.07058497
3051,-0.037001714
3052,-0.042771507
3053,-0.062041916
3054,-0.048579574
3055,-0.030719906
3056,-0.039226633
3057,-0.05246687
3058,-0.08281869
3059,-0.04329048
3060,0.03675467
3061,-0.053281903
3062,0.09945762
3063,0.037195142
3064,-0.08859873
3065,-0.05559848
3066,-0.04869454
3067,0.021462874
3068,-0.0058578807
3069,0.066422716
3070,-0.0411204
3071,-0.08623956
3072,-0.033377748
3073,-0.074802905
3074,0.037320655
3075,-0.026267085
3076,0.03937089
3077,-0.045521792
3078,-0.041834395
3079,-0.047230195
3080,-0.04739892
3081,-0.04172789
3082,0.066744775
3083,0.008587105
3084,0.010092115
3085,-0.048202094
3086,-0.08186821
3087,-0.051076613
3088,-0.056697983
3089,0.013004138
3090,0.047393844
3091,-0.046285983
3092,0.0003551427
3093,0.038242098
3094,-0.016866602
3095,-0.042441953
3096,0.0014207584
3097,-0.052951716
3098,-0.052941892
3099,0.011952042
3100,-0.08075183
3101,-0.039991967
3102,-0.06558209
3103,-0.04934642
3104,-0.048696168
3105,-0.018364025
3106,-0.04213378
3107,-0.04219542
3108,-0.04946482
3109,-0.04200567
3110,-0.022174641
3111,-0.0126458835
3112,-0.036123876
3113,-0.037628118
3114,-0.016625043
3115,-0.055468652
3116,-0.059989415
3117,-0.0051002395
3118,-0.043431986
3119,-0.04468167
3120,-0.04214912
3121,-0.012817614
3122,-0.037824456
3123,-0.08302048
3124,-0.060437217
3125,-0.0297782
3126,-0.06494985
3127,-0.05054746
3128,0.09901766
3129,-0.06017901
3130,-0.04220716
3131,0.006324868
3132,-0.064221375
3133,-0.040579334
3134,0.027690375
3135,-0.05344319
3136,-0.004696512
3137,0.005692138
3138,-0.0010291702
3139,-0.03920393
3140,0.095951945
3141,-0.03767018
3142,-0.009620517
3143,-0.068782106
3144,-0.049136467
3145,0.03669165
3146,-0.046874993
3147,-0.033700112
3148,-0.0068402044
3149,-0.0319077
3150,-0.0016737361
3151,-0.007420224
3152,-0.04836535
3153,-0.004853966
3154,-0.03958856
3155,-0.031412996
3156,-0.050199736
3157,-0.022016367
3158,-0.052617524
3159,-0.0018376618
3160,-0.01581928
3161,-0.07162963
3162,0.012945238
3163,-0.006545773
3164,-0.050116867
3165,-0.13706024
3166,-0.055476148
3167,-0.029956063
3168,-0.031857137
3169,0.013164025
3170,-0.039841466
3171,-0.079557024
3172,-0.07201305
3173,-0.039544437
3174,-0.042474903
3175,-0.018529857
3176,-0.029214753
3177,-0.041805085
3178,-0.028209949
3179,-0.03741637
3180,-0.043129794
3181,-0.06530071
3182,-0.004091749
3183,-0.074513786
3184,-0.034417298
3185,-0.08779297
3186,-0.0443367
3187,-0.018818134
3188,-0.08855735
3189,-0.059548277
3190,0.09396415
3191,0.04843464
3192,-0.07537874
3193,-0.019859323
3194,-0.04744163
3195,-0.04688496
3196,-0.019711714
3197,0.029831156
3198,-0.040960208
3199,-0.03830497
3200,-0.033475388
3201,-0.05862275
3202,-0.018197607
3203,-0.03970983
3204,0.046043545
3205,-0.045490492
3206,-0.02668278
3207,-0.024196165
3208,0.009932839
3209,-0.043112222
3210,0.056910764
3211,0.0048858235
3212,0.0037538218
3213,-0.048305623
3214,-0.05656472
3215,-0.051460024
3216,-0.024107594
3217,0.016214805
3218,0.026845347
3219,-0.04555419
3220,0.004823988
3221,-0.023806917
3222,0.0004815276
3223,-0.046739288
3224,-0.022325609
3225,-0.054293215
3226,-0.03225227
3227,0.0031676574
3228,0.024531083
3229,-0.042635947
3230,-0.05481131
3231,-0.030415198
3232,-0.023888161
3233,-0.035685383
3234,-0.010030873
3235,-0.032615565
3236,0.0030919162
3237,-0.042640924
3238,-0.050577942
3239,-0.024661042
3240,-0.04973027
3241,-0.036796764
3242,-0.024647018
3243,-0.039097268
3244,-0.05053978
3245,0.04156904
3246,-0.03930037
3247,-0.044408116
3248,-0.040575687
3249,0.022569137
3250,-0.019133396
3251,-0.024802133
3252,-0.04704741
3253,-0.04750424
3254,-0.01902285
3255,-0.049958628
3256,0.006859776
3257,-0.04119887
3258,0.003939745
3259,0.009988455
3260,-0.046895433
3261,0.0069461535
3262,-0.016157284
3263,-0.047513448
3264,0.029790115
3265,-0.012043227
3266,0.0035508769
3267,-0.049328264
3268,0.061982997
3269,-0.019328637
3270,-0.01081039
3271,-0.051488545
3272,-0.042320028
3273,-0.036196753
3274,0.0084375385
3275,-0.040521353
3276,-0.009744839
3277,0.021809557
3278,-0.013016518
3279,-0.01433446
3280,-0.045133814
3281,0.012703801
3282,-0.0039430307
3283,0.0063572954
3284,-0.048250105
3285,-0.025905136
3286,-0.031162584
3287,0.041336272
3288,-0.023126522
3289,-0.050380696
3290,0.017837847
3291,0.008215447
3292,-0.027092116
3293,-0.023554187
3294,-0.01860605
3295,-0.025797399
3296,0.020319926
3297,-0.014206851
3298,-0.04127786
3299,-0.025608383
3300,-0.03462481
3301,-0.028687663
3302,-0.023872538
3303,-0.01946039
3304,-0.01300359
3305,-0.027898181
3306,0.05400091
3307,-0.036702245
3308,-0.042949118
3309,-0.04606193
3310,0.036253553
3311,0.0040359893
3312,-0.03551605
3313,0.010310863
3314,-0.021321462
3315,-0.01580923
3316,-0.06503085
3317,-0.04630058
3318,-0.013286923
3319,0.008024106
3320,-0.031381596
3321,-0.012075934
3322,-0.045767874
3323,0.019684365
3324,-0.029477382
3325,-0.025209205
3326,-0.039127856
3327,-0.008189355
3328,-0.022549214
3329,-0.020129042
3330,0.017035898
3331,-0.016304782
3332,0.028655494
3333,-0.044407167
3334,-0.0279986
3335,-0.02173363
3336,0.00016347815
3337,-0.041156333
3338,0.0112660015
3339,0.010753809
3340,-0.002982675
3341,-0.024659477
3342,-0.033270728
3343,0.010950756
3344,0.013317938
3345,0.01588827
3346,-0.01202721
3347,-0.023722427
3348,-0.0006118475
3349,-0.019378703
3350,0.0078169955
3351,-0.026998375
3352,-0.021850513
3353,-0.0055762506
3354,-0.009504134
3355,-0.009753656
3356,0.013457122
3357,-0.010544435
3358,-0.046930257
3359,-0.0109213
3360,-0.024918525
3361,0.004350206
3362,-0.008668914
3363,-0.03340563
3364,0.007911351
3365,-0.003468402
3366,-0.026191004
3367,-0.0025072792
3368,-0.03996533
3369,-0.023402695
3370,-0.021094548
3371,-0.025056534
3372,-0.0070927492
3373,0.010425738
3374,-0.015786963
3375,-0.04440001
3376,-0.012844093
3377,0.026598437
3378,-0.0043685725
3379,-0.0043877414
3380,-0.046425562
3381,-0.046676647
3382,0.0015666432
3383,-0.030766811
3384,-0.014359115
3385,-0.023894764
3386,0.018721554
3387,0.022952545
3388,-0.026245905
3389,-0.008441891
3390,-0.0057230005
3391,0.0137919625
3392,-0.013841246
3393,0.013596971
3394,0.027302815
3395,-0.016798928
3396,0.017767837
3397,0.005071823
3398,-0.013174883
3399,-0.011187935
3400,-0.019739551
3401,-0.011415519
3402,0.0058322367
3403,-0.02757974
3404,-0.013025718
3405,0.014976948
3406,0.012069862
3407,-0.0006167514
3408,-0.019365469
3409,0.00025897764
3410,0.006688872
3411,0.015090546
3412,-0.023520643
3413,-0.011845454
3414,0.014461855
3415,-0.009120841
3416,-0.026908949
3417,-0.044001754
3418,-0.018122923
3419,-0.0054107895
3420,-0.025885593
3421,-0.020439953
3422,-0.031369217
3423,-0.022708224
3424,-0.011076758
3425,-0.0014239841
3426,-0.027580457
3427,-0.022611996
3428,-0.018112456
3429,-0.023914482
3430,0.014936843
3431,-0.026801037
3432,0.0077110785
3433,0.01072766
3434,0.040504683
3435,0.0005598797
3436,-0.04217041
3437,-0.02444472
3438,0.010297344
3439,0.004298569
3440,-0.01163465
3441,0.00288167
3442,-0.020427482
3443,0.0009707327
3444,-0.027668951
3445,-0.02754847
3446,0.0012862427
3447,0.0062842597
3448,-0.009379649
3449,0.0059503987
3450,0.014526811
3451,0.028758753
3452,0.008143928
3453,0.00023749929
3454,-0.03659518
3455,0.0036514471
3456,-0.013791366
3457,-0.008359399
3458,-0.015035404
3459,0.008199027
3460,-0.003139792
3461,-0.0063939183
3462,-0.00050497963
3463,0.001766399
3464,-0.009322455
3465,-0.0025742163
3466,-0.012231685
3467,0.010078277
3468,-0.0122432355
3469,-0.005125635
3470,-0.003760657
3471,0.0004256357
3472,0.00688082
3473,-0.003232704
3474,-0.013119716
3475,0.0012061433
3476,0.010971991
3477,-0.0055549354
3478,0.00035783806
3479,0.0039986824
3480,0.0016772487
3481,0.00971949
3482,0.006195935
3483,-0.014753483
3484,-0.003176604
3485,0.013603745
3486,-0.008933437
3487,-0.0024396572
3488,-0.012800103
3489,0.0044984934
3490,0.0031992123
3491,0.0100679295
3492,0.0049316227
3493,0.0024146868
3494,0.007000221
3495,-0.003867821
3496,-0.009163575
3497,0.002458986
3498,-0.008095618
3499,-0.0074176122
3500,-0.013775415
3501,-0.0143524725
3502,-0.010251341
3503,-0.0044148345
3504,-0.0070269057
3505,-0.016085869
3506,-0.0023882536
3507,0.0040182807
3508,0.002521216
3509,0.0059134657
3510,0.00069025694
3511,0.008990128
3512,-0.0032908665
3513,0.0041710422
3514,-0.0020354122
3515,0.0032137963
3516,0.0008826619
3517,0.017172467
3518,-0.012688394
3519,0.0089292545
3520,0.004015686
3521,0.010110289
3522,-0.009482071
3523,-0.0097146835
3524,-0.0050958786
3525,0.008328488
3526,0.00474029
3527,-0.012081608
3528,-0.0018596787
3529,-0.011126469
3530,-0.009706612
3531,-0.01635426
3532,0.0022839045
3533,-0.012792901
3534,0.009477199
3535,-0.0034054788
3536,0.011121943
3537,-0.008151988
3538,0.006541418
3539,-0.0017948879
3540,0.0020920732
3541,0.0039500007
3542,-0.004434715
3543,0.0032138813
3544,0.0009726737
3545,-0.0016656094
3546,0.0041462565
3547,-0.01551102
3548,-0.009356097
3549,0.002558098
3550,0.0053022057
3551,0.015297885
3552,0.010573239
3553,-0.011691699
3554,-0.004308837
3555,0.0012450211
3556,-0.019171191
3557,0.012872311
3558,0.005870328
3559,-0.0018840572
3560,-0.0002627111
3561,-0.0013263486
3562,0.011961755
3563,-0.0029144667
3564,-0.009566403
3565,-0.006704874
3566,-0.012014918
3567,-0.0011633778
3568,-0.005395574
3569,-0.012847366
3570,-0.005512067
3571,0.0062521915
3572,-0.014015705
3573,0.013858785
3574,0.0018151464
3575,-0.01888822
3576,-0.013275553
3577,0.00094591273
3578,-0.008384369
3579,-0.008851409
3580,0.014971692
3581,0.019346714
3582,0.0058131963
3583,-0.0059814802
3584,-0.00030787286
3585,-0.009622216
3586,-0.0029548022
3587,-0.00791355
3588,0.0039677103
3589,-0.012843822
3590,-0.006661794
3591,0.004298035
3592,-0.009441896
3593,-0.008038275
3594,-0.013268275
3595,0.0045789434
3596,0.007111161
3597,-0.0059613064
3598,0.0030469361
3599,-0.014050093
3600,-0.00032334914
3601,0.0008879762
3602,0.013551664
3603,-0.011815268
3604,0.008073815
3605,0.0057637244
3606,0.0020550282
3607,-0.008207549
3608,-0.018605422
3609,-0.0029256428
3610,0.019275865
3611,0.009136282
3612,0.0074779256
3613,-0.006548233
3614,-0.0043829205
3615,0.008634266
3616,-0.0019215721
3617,0.005540406
3618,-0.0026620696
3619,0.003040879
3620,0.009484463
3621,-0.013197241
3622,0.018572474
3623,-0.007166112
3624,0.0021676132
3625,0.009905235
3626,0.005092809
3627,-0.0007673061
3628,-0.005269219
3629,-0.006685141
3630,0.010692841
3631,0.0047045797
3632,0.0047222576
3633,0.0037010934
3634,-0.0140913045
3635,-0.015168596
3636,0.018432414
3637,0.013219399
3638,0.004905907
3639,0.009089062
3640,0.0070513627
3641,0.010074664
3642,0.016959986
3643,-0.004366065
3644,0.0046728146
3645,0.0065944204
3646,-0.0059839883
3647,-0.0011883143
3648,0.00010776154
3649,-0.003513017
3650,-0.00834705
3651,-0.0026270826
3652,-0.012662927
3653,-0.018729025
3654,-0.0009979303
3655,0.004019346
3656,-0.006780795
3657,0.006280218
3658,-0.007330529
3659,-0.0073605585
3660,0.01713572
3661,0.001435177
3662,-0.0041785785
3663,0.00942825
3664,0.007147942
3665,-0.005912247
3666,0.0005537346
3667,-0.01507512
3668,0.008032367
3669,-0.00073852664
3670,0.011331291
3671,0.00011536274
3672,0.009268645
3673,0.010148164
3674,0.002077671
3675,-0.0029743805
3676,-0.0055422387
3677,0.011842269
3678,-0.009132381
3679,8.304444e-06
3680,-0.004117908
3681,-0.019064926
3682,-0.0067582345
3683,0.008655505
3684,-0.0036527393
3685,0.006803841
3686,-0.011394586
3687,-0.005610052
3688,-0.001772002
3689,0.009398861
3690,-0.00095531513
3691,-0.002640664
3692,-0.010804413
3693,-0.0031420572
3694,0.0024066854
3695,0.0046380362
3696,0.017011605
3697,-0.0018539256
3698,-0.0082165925
3699,-0.00021966202
3700,0.014301204
3701,0.0068488526
3702,0.001472879
3703,0.0047941054
3704,0.0068534636
3705,-0.0036267645
3706,0.00861208
3707,-0.013891528
3708,0.009402673
3709,-0.0064450046
3710,0.008752337
3711,-0.009884198
3712,-0.0041800425
3713,0.0002684836
3714,0.0025884437
3715,-0.001318869
3716,-0.008208499
3717,0.011882231
3718,0.0033651877
3719,0.011130686
3720,0.00010382672
3721,0.0007194838
3722,0.011736666
3723,-0.005736909
3724,-0.0107096555
3725,0.0031798491
3726,0.0067111403
3727,0.00020978512
3728,-0.0032428962
3729,0.007689957
3730,-0.015857743
3731,-0.0031039687
3732,0.008380703
3733,-0.008326605
3734,-0.0027441608
3735,0.0035028546
3736,-0.0018739837
3737,-0.009251794
3738,-0.00840255
3739,-0.00095910154
3740,-0.001856742
3741,0.006122062
3742,0.003993228
3743,-0.008206183
3744,-0.017107679
3745,-0.004787337
3746,-0.011514059
3747,-0.006363856
3748,0.01595221
3749,0.012234615
3750,0.009488166
3751,-0.014401136
3752,-0.0021239624
3753,0.0031739054
3754,0.006764132
3755,0.003820044
3756,-0.0070896437
3757,0.0032969129
3758,-0.01628654
3759,0.0019905097
3760,0.0077570323
3761,0.0064363023
3762,-0.000508732
3763,-0.014485248
3764,7.6846074e-05
3765,0.017688904
3766,0.00092923595
3767,0.0071844
3768,-0.001059841
3769,-0.003297504
3770,-0.0023459527
3771,0.015034076
3772,0.0002751694
3773,0.0017210713
3774,0.017621329
3775,0.014070853
3776,0.0048492914
3777,0.0027098113
3778,0.015196444
3779,-0.0049100867
3780,-0.004418418
3781,-0.0054905475
3782,0.006472211
3783,-0.00090278126
3784,-0.00014598225
3785,0.0075456416
3786,0.002318889
3787,0.004179797
3788,-0.0024970002
3789,0.0033627804
3790,0.0020553572
3791,0.0052718
3792,-0.0074918433
3793,0.0026039805
3794,-0.016305637
3795,-0.006695057
3796,0.0042312057
3797,-0.009952211
3798,-0.005000195
3799,-0.010039306
3800,0.015423056
3801,0.00751568
3802,-0.014542947
3803,-0.0130632995
3804,0.007063672
3805,0.011919404
3806,-0.0054208366
3807,-0.00090219517
3808,0.015119443
3809,-0.0149802705
3810,-0.011058392
3811,0.019437054
3812,-0.0082665235
3813,0.005049938
3814,0.016931921
3815,0.005805412
3816,0.010172748
3817,-0.016160881
3818,0.00044004692
3819,0.009953535
3820,-0.0032869412
3821,0.009299598
3822,-0.016120695
3823,0.013344046
3824,-0.008917599
3825,-0.005177305
3826,-0.008688608
3827,0.008867838
3828,-0.010461323
3829,-0.0004200597
3830,-0.0043247333
3831,-0.006301099
3832,0.009010372
3833,0.018036658
3834,0.002261143
3835,-0.01299897
3836,-0.0008441827
3837,-0.009763217
3838,0.0021375865
3839,0.012213396
3840,-0.019681232
3841,-0.0023761657
3842,-0.0063613346
3843,0.0048256475
3844,0.015643422
3845,0.001865858
3846,0.015625175
3847,-0.009437451
3848,0.00737152
3849,0.00067169894
3850,-0.012335522
3851,0.013683536
3852,0.007245404
3853,0.00097214634
3854,-0.0010675151
3855,-0.013741375
3856,-0.0047977692
3857,0.018000709
3858,0.0028570595
3859,-0.0010564465
3860,-0.01299924
3861,-0.0013994788
3862,0.005425008
3863,-0.013513962
3864,0.006131588
3865,-0.0012793597
3866,-0.013661134
3867,-0.0013544076
3868,-0.009456192
3869,-0.004786013
3870,0.004606934
3871,0.00932718
3872,0.008999874
3873,0.00027508612
3874,0.006617638
3875,-0.002985824
3876,-0.013654777
3877,-0.002500481
3878,-0.005336245
3879,-0.0070194807
3880,0.004161437
3881,-0.0010447117
3882,0.013257995
3883,0.009641242
3884,0.0051593273
3885,0.008472244
3886,0.0014641372
3887,0.005196598
3888,-0.0067004794
3889,0.004821007
3890,-0.011213173
3891,-0.0068135783
3892,-0.00052465283
3893,0.0024338136
3894,0.007934102
3895,-0.011260616
3896,0.0078059905
3897,0.005278698
3898,1.2744368e-05
3899,0.0096456045
3900,-0.005355782
3901,-0.0012437832
3902,0.012300119
3903,-0.016028816
3904,0.0024626867
3905,0.006828264
3906,0.0007784336
3907,0.0073417965
3908,0.0008306504
3909,0.00024623814
3910,-0.008492934
3911,0.018343078
3912,0.009118795
3913,-0.010586825
3914,-0.0074982177
3915,-0.0025070482
3916,-0.004556592
3917,0.002416341
3918,0.007745092
3919,0.00450755
3920,0.0034568524
3921,0.00881032
3922,-0.0069633094
3923,-0.008576812
3924,-0.01249774
3925,-0.00978657
3926,0.0019385442
3927,-0.014082687
3928,-0.0022565306
3929,-0.015335172
3930,0.008121009
3931,0.011371825
3932,0.002028419
3933,0.0033023744
3934,-0.005907559
3935,0.018195061
3936,0.0035951722
3937,-0.0010562129
3938,0.0072922674
3939,-0.0006687223
3940,0.007678635
3941,0.014954643
3942,0.004923037
3943,-0.0071740095
3944,-0.0058565238
3945,0.006177912
3946,0.012763305
3947,0.016236415
3948,0.0127059445
3949,0.01908856
3950,-0.0041824696
3951,-0.0038757145
3952,0.0004640351
3953,0.0076896385
3954,0.002173711
3955,-0.0114718275
3956,0.0068778447
3957,-0.0022373649
3958,-0.0027963447
3959,0.0012897833
3960,0.008394104
3961,-0.010411554
3962,-0.0013944093
3963,0.008767268
3964,-0.011152552
3965,0.0064409487
3966,0.0024494496
3967,-0.008069794
3968,-0.008684912
3969,0.009610136
3970,-0.001433821
3971,-0.017960517
3972,-0.0033020326
3973,-0.0100915115
3974,0.012679228
3975,-0.013528009
3976,0.01861116
3977,0.00817603
3978,0.012488527
3979,0.008651677
3980,0.0056054597
3981,0.009031234
3982,0.001120703
3983,-0.01892144
3984,0.0039469674
3985,-0.00818721
3986,-0.009224195
3987,-0.0033124667
3988,-0.0070103332
3989,0.004831477
3990,-0.004381213
3991,0.001816034
3992,-0.014431448
3993,-0.0016925511
3994,-0.0052527557
3995,-0.00061040296
3996,-0.0023341475
3997,0.0036220916
3998,0.010498353
3999,0.011296106
4000,0.0003939922
4001,-0.0024568331
4002,0.001648032
4003,0.017324673
4004,-0.005502112
4005,-0.001996899
4006,-0.0072279517
4007,-0.00051125046
4008,0.00038686613
4009,-0.007443289
4010,-0.01665176
4011,-0.008254002
4012,0.009108144
4013,-0.011945414
4014,0.00696019
4015,-0.012416691
4016,0.008302554
4017,0.010239492
4018,-0.0042394307
4019,-0.013490648
4020,-0.0043157605
4021,-0.01246496
4022,-0.010975227
4023,-0.0015264569
4024,-0.006912921
4025,3.7064456e-05
4026,-0.008525405
4027,0.007076653
4028,-0.005284463
4029,0.011125787
4030,0.005321107
4031,-0.0017052682
4032,-0.0037216824
4033,0.0041990983
4034,0.005483894
4035,0.005790138
4036,0.002667418
4037,0.0049633854
4038,0.0059324545
4039,-0.0059819547
4040,0.004816739
4041,-0.011187368
4042,-0.0019265403
4043,-0.0014772916
4044,0.0022558456
4045,0.006217712
4046,0.000103588325
4047,-0.015048475
4048,-0.00044724034
4049,-0.012905248
4050,0.009577832
4051,-0.0023008846
4052,0.011821202
4053,0.0023433114
4054,-0.0140183205
4055,-0.0037729808
4056,-0.0116777755
4057,-0.01809732
4058,0.0007355648
4059,0.0064207334
4060,0.017821787
4061,-0.008686602
4062,-0.0066437856
4063,-9.956965e-06
4064,0.015715785
4065,0.013463552
4066,-0.006806745
4067,-0.013959531
4068,-0.004199525
4069,-0.012423737
4070,-0.003574282
4071,0.013346827
4072,-0.0066822264
4073,-0.0082272515
4074,0.0018744293
4075,0.008753489
4076,0.0077548204
4077,-0.018564008
4078,0.0026156432
4079,-0.012437831
4080,-0.009806379
4081,0.0041079107
4082,0.01048209
4083,-0.00053566863
4084,-0.011305383
4085,-0.0057574706
4086,-0.015813053
4087,0.0053080427
4088,-0.0025375423
4089,-0.01735772
4090,0.0112901805
4091,0.005457589
4092,0.0009368848
4093,0.013146285
4094,-0.011462464
4095,-0.008416077
