Sno,Weight
0,0.031575322
1,0.06416346
2,-0.079582885
3,0.0060242666
4,0.018134288
5,0.01641968
6,-0.009508932
7,-0.02019114
8,0.008230474
9,0.046797328
10,-0.012476928
11,0.041091472
12,-0.0020960625
13,-0.050489508
14,-0.010126983
15,0.040386975
16,-0.015422234
17,0.0082963435
18,-0.016716981
19,-0.020538513
20,0.002949122
21,0.021218698
22,-0.05242103
23,0.012383273
24,-0.0005341817
25,0.0056040944
26,0.012070563
27,-0.02065719
28,0.04721406
29,0.03233892
30,-0.069458686
31,0.010237602
32,0.04222313
33,-0.040655214
34,-0.00053784356
35,-0.06467321
36,-0.10598705
37,-0.0057177134
38,0.07340394
39,-0.065128446
40,-0.072078444
41,-0.0737663
42,0.025820186
43,0.030519359
44,-0.07636418
45,0.015207909
46,0.029521085
47,0.0069413874
48,-0.036770407
49,0.04538613
50,-0.0061203646
51,-0.0038786533
52,0.0038578103
53,-0.09914876
54,0.004828758
55,0.021652397
56,0.015244569
57,-0.02017258
58,-0.0068456833
59,-0.05165478
60,0.017145017
61,0.02533615
62,-0.0334333
63,-0.0029140506
64,0.04038442
65,0.033366002
66,0.0060229218
67,0.04327875
68,0.027455196
69,-0.010629752
70,-0.09531032
71,0.045214575
72,-0.045896553
73,0.059561096
74,0.03724889
75,0.022403026
76,0.041529357
77,-0.04733796
78,0.04109493
79,-0.078125246
80,0.041696984
81,-0.05275285
82,0.006380203
83,-0.017023968
84,0.04095988
85,-0.059557635
86,0.041085355
87,-0.028831806
88,0.015849005
89,-0.060180385
90,-0.12253758
91,0.032677244
92,-0.06672072
93,0.023840604
94,0.02271409
95,0.033601202
96,0.025667295
97,-0.015406388
98,-0.03017734
99,-0.07848634
100,-0.030029489
101,0.020116536
102,0.018988764
103,-0.021519128
104,0.04066483
105,0.04574455
106,0.0013888247
107,0.017762724
108,-0.018282577
109,-0.05905376
110,-0.03722269
111,0.011173052
112,0.012221832
113,0.011202443
114,0.025987819
115,-0.010299729
116,0.020719767
117,0.025393113
118,0.03768255
119,-0.07740096
120,0.028869899
121,0.029611422
122,0.013239707
123,0.034506395
124,-0.06217831
125,0.028498666
126,0.008899793
127,0.035127323
128,0.032854926
129,0.04829276
130,0.055121064
131,0.042273372
132,-0.061628293
133,0.045582876
134,0.057930287
135,-0.002820749
136,-0.0766721
137,0.017703114
138,-0.08783928
139,0.050105847
140,0.04580231
141,0.05857132
142,0.044383995
143,0.009229374
144,0.047656283
145,0.027369168
146,-0.07391289
147,0.03277244
148,-0.008530597
149,0.05870802
150,0.020232366
151,0.03351942
152,0.051370755
153,0.04816499
154,0.015185428
155,0.03245911
156,-0.09884636
157,0.0166055
158,0.056502152
159,0.002747362
160,-0.08604462
161,-0.07106799
162,-0.0071227145
163,0.020083828
164,0.08252452
165,0.051521253
166,0.023015361
167,0.08578319
168,0.028246798
169,-0.025551595
170,0.049703255
171,-0.0031523874
172,-0.0072492324
173,0.041486192
174,0.0035692083
175,0.031898245
176,0.034672517
177,0.04173908
178,0.04840743
179,-0.009720799
180,0.056560155
181,0.019903634
182,0.049374778
183,0.022034042
184,0.04127045
185,0.044438362
186,0.063229255
187,0.036808632
188,0.05367353
189,0.054931644
190,-0.063929506
191,0.047083117
192,0.03267492
193,0.03390371
194,-0.11095163
195,-0.06608551
196,0.019318474
197,0.06116102
198,-0.095594674
199,0.035326425
200,-0.065157816
201,0.027837606
202,0.04495286
203,0.029002147
204,0.029864179
205,0.020815501
206,0.03931407
207,0.031768437
208,0.025242575
209,0.03761138
210,-0.070384175
211,0.04545847
212,0.054360736
213,-0.05963287
214,0.06005605
215,0.011693666
216,0.044105534
217,-0.060159117
218,-0.048493247
219,0.01891785
220,-0.06677235
221,0.04297855
222,0.030838374
223,0.03200093
224,-1.139853e-05
225,0.021996144
226,0.039790947
227,0.067140676
228,-0.06081332
229,0.053634576
230,0.037838742
231,-0.070364214
232,0.05209541
233,0.05047229
234,0.046746116
235,0.028936198
236,-0.03392228
237,0.0051148576
238,0.033498865
239,0.02506952
240,0.04283842
241,0.03882154
242,0.03129798
243,0.05663425
244,0.0421987
245,0.04021763
246,0.031917565
247,-0.029350873
248,0.028054645
249,0.016426163
250,0.023917273
251,0.03612347
252,0.069656126
253,0.00923559
254,0.02431797
255,0.010617225
256,0.010490796
257,-0.091661215
258,-0.024671404
259,0.037977878
260,0.057247397
261,0.020142654
262,0.050440263
263,0.022991773
264,0.07076404
265,-0.06639116
266,-0.08821691
267,0.040726777
268,0.04761933
269,0.062468596
270,0.024557434
271,0.028071845
272,-0.059957054
273,0.010657217
274,-0.07431062
275,0.031035911
276,-0.0021525456
277,0.050650947
278,0.043445334
279,0.0143630775
280,0.020435644
281,-0.05803034
282,0.036908418
283,0.04590939
284,-0.08657705
285,0.016627373
286,-0.06941391
287,-0.04758543
288,-0.086075865
289,-0.07098047
290,-0.0022799638
291,0.046288785
292,-0.0015689465
293,-0.06246766
294,0.0027002809
295,-0.02939357
296,0.061110657
297,-0.07381998
298,-0.05744257
299,0.01995195
300,0.009030791
301,0.05136534
302,0.06614685
303,0.027251992
304,0.047005426
305,0.0317047
306,0.0056183226
307,0.050215952
308,0.010191832
309,-0.005977316
310,-0.07372207
311,0.039995607
312,0.024831576
313,0.020727368
314,-0.066278584
315,0.033601414
316,0.03442022
317,-0.06376951
318,0.0687875
319,0.031525273
320,0.018578418
321,-0.071926646
322,0.07431937
323,-0.06616056
324,0.04553584
325,0.046555944
326,0.03563462
327,-0.020315886
328,0.054025955
329,-0.0115333125
330,0.03552233
331,0.010494487
332,0.02403113
333,-0.06462625
334,0.0025816616
335,0.04816335
336,0.042218994
337,0.055061903
338,0.05296542
339,-0.060220845
340,-0.06615405
341,0.06080835
342,0.051300846
343,-0.029193576
344,0.008247083
345,-0.07791835
346,-0.14194138
347,0.013317637
348,0.04985573
349,0.047362994
350,0.043572795
351,-0.008799454
352,-0.009412007
353,0.03494046
354,0.041295663
355,0.053126153
356,0.015064159
357,-0.060893305
358,0.0021622493
359,0.07885581
360,0.004985687
361,-0.02804764
362,0.01689846
363,0.026737342
364,-0.02250847
365,-0.05918095
366,0.044964265
367,0.012815515
368,0.028713865
369,0.008879886
370,0.019450277
371,0.0044702496
372,0.03521554
373,0.042695336
374,-0.018584242
375,0.0773766
376,-0.036208294
377,0.026101802
378,-0.03195614
379,0.03139017
380,-0.062199295
381,0.04464684
382,0.04428929
383,-0.01046237
384,-0.011181894
385,-0.090868354
386,0.04839929
387,0.03585535
388,0.05131348
389,0.0069203693
390,0.051516365
391,0.057979956
392,0.096260704
393,0.008633688
394,-0.08812398
395,0.031092653
396,-0.06399413
397,-0.044256326
398,0.0041257185
399,-0.036477927
400,-0.017781874
401,-0.07349769
402,0.07641539
403,0.044687416
404,-0.011322315
405,-0.04964456
406,0.0318936
407,-0.055643328
408,-0.05259373
409,0.076813206
410,-0.04743061
411,0.04925374
412,0.0011289257
413,0.010010652
414,0.053547904
415,-0.042567413
416,0.007207098
417,0.08349835
418,-0.0048301676
419,0.061987862
420,-0.105722666
421,0.024271317
422,-0.016694997
423,-0.05248427
424,0.04922196
425,0.105373986
426,0.0070691477
427,0.0016666977
428,-0.076636665
429,-0.0401518
430,0.010440884
431,-0.007945463
432,0.045544006
433,0.034953028
434,-0.049387917
435,0.056035686
436,-0.03268654
437,-0.0054794787
438,0.05315287
439,0.010417471
440,0.0045600766
441,-0.042781353
442,-0.003439981
443,0.006681005
444,-0.0092814
445,-0.008651318
446,-0.06384662
447,0.020950317
448,-0.01985685
449,-0.035451934
450,-0.111317724
451,0.03228654
452,-0.029116806
453,-0.05726559
454,0.006556868
455,-0.004739759
456,0.064850114
457,-0.045374777
458,0.023230202
459,-0.039435696
460,-0.017902413
461,-0.06453471
462,-0.04795321
463,0.025228895
464,-0.04197146
465,0.03018268
466,0.056285523
467,0.032045685
468,-0.0026685402
469,0.08043185
470,0.038527705
471,0.014588073
472,0.02010127
473,-0.077885814
474,0.09127353
475,-0.040415425
476,0.048182435
477,-0.013505558
478,-0.04173847
479,-0.05105878
480,0.008685856
481,0.04986
482,0.048051316
483,0.026865246
484,0.005649737
485,0.043750033
486,-0.042582534
487,-0.07009149
488,-0.06645573
489,-0.018519958
490,0.0032160496
491,0.023437828
492,-0.03786782
493,-0.059299853
494,0.044892885
495,0.0069850637
496,-0.001743935
497,0.01926784
498,0.065721326
499,-0.09184473
500,0.008880539
501,0.021143952
502,-0.006085303
503,0.03523762
504,0.00084056356
505,0.013821238
506,-0.0506473
507,-0.04734269
508,0.03362591
509,0.016448757
510,0.028837431
511,-0.07293277
512,-0.0023099019
513,-0.071453564
514,-0.04318882
515,-0.0025446736
516,-0.022095941
517,-0.012288345
518,-0.012921853
519,-0.029321821
520,-0.07648354
521,0.023720127
522,-0.08774747
523,-0.054481145
524,-0.06399421
525,-0.050360307
526,-0.04537994
527,-0.036558792
528,0.022486554
529,0.014558247
530,0.059371904
531,-0.03426651
532,-0.07875935
533,-0.049214635
534,0.04290899
535,0.0013370229
536,0.044088956
537,-0.036676373
538,-0.060248893
539,-0.05995315
540,-0.099100664
541,-0.051184043
542,-0.06962404
543,0.045104302
544,0.006485761
545,0.06984971
546,-0.0013280014
547,0.065890506
548,-0.051599707
549,0.056314327
550,-0.037743103
551,-0.06285786
552,0.06982716
553,0.008704542
554,-0.022429286
555,-0.0027054593
556,0.043406375
557,0.016461525
558,0.05039241
559,0.0031431834
560,-0.053704824
561,0.0040767305
562,-0.04941682
563,0.01765842
564,0.01381446
565,-0.10994393
566,-0.07378852
567,-0.011387317
568,-0.036202025
569,0.050458927
570,0.01193463
571,-0.051553104
572,0.0028731578
573,0.016694391
574,0.048369728
575,0.02955337
576,-0.01781937
577,-0.07200228
578,-0.11095447
579,0.033236932
580,-0.022130193
581,-0.05720854
582,0.10567447
583,0.009417624
584,0.026536386
585,0.016724214
586,0.01845766
587,0.0027675289
588,0.0058244043
589,0.05823775
590,0.009896837
591,-0.07812998
592,-0.060175996
593,-0.052827243
594,0.029950118
595,0.05134487
596,0.014616057
597,0.047501966
598,-0.0026026927
599,0.060815375
600,-0.047959697
601,0.08194621
602,0.15319082
603,-0.025956834
604,-0.03076562
605,-0.05801567
606,0.0034647295
607,0.0044014347
608,0.024436625
609,-0.034398165
610,-0.04661683
611,0.045035668
612,0.0060901456
613,-0.061202765
614,-0.02551695
615,0.04926275
616,0.010967761
617,-0.0016204893
618,0.022285167
619,0.009213474
620,0.015929237
621,-0.0027568098
622,-0.04756415
623,0.004187937
624,-0.053655364
625,-0.0013366488
626,-0.049489375
627,-0.00020930466
628,-0.054021303
629,0.008447817
630,-0.018769888
631,0.04687799
632,-0.03620951
633,-0.03880268
634,0.02887893
635,-0.046822183
636,0.025060948
637,-0.0009291703
638,-0.04472726
639,-0.011198805
640,0.006504423
641,-0.082996584
642,-0.035139337
643,0.00065989885
644,-0.06162875
645,-0.009737518
646,-0.015242267
647,-0.027399944
648,0.047917377
649,-0.06617783
650,0.07850834
651,-0.05495862
652,-0.064026624
653,-0.05042765
654,0.044272352
655,-0.03620745
656,0.047347095
657,0.008068018
658,0.030535322
659,0.053943284
660,-0.039685357
661,0.008308166
662,-0.038684037
663,-0.049098868
664,-0.052006703
665,-0.053180065
666,-0.060503777
667,0.031963073
668,-0.041294597
669,-0.0519035
670,-0.05180569
671,-0.04736504
672,-0.08597187
673,0.07136863
674,-0.0018535401
675,0.03964533
676,0.0046504573
677,-0.062251296
678,-0.03762195
679,-0.058416586
680,-0.016161006
681,-0.019447807
682,-0.006912179
683,-0.027183838
684,-0.03535115
685,0.04885563
686,0.04422469
687,-0.035672
688,-0.05431079
689,-0.007244632
690,-0.024770623
691,-0.04750071
692,0.022637
693,0.079639085
694,-0.059414823
695,0.002852578
696,-0.008169159
697,-0.04077526
698,0.04414666
699,-0.01934314
700,0.0038530824
701,-0.0353441
702,0.060850292
703,-0.001704301
704,-0.0053383824
705,0.040565882
706,-0.11105634
707,-0.06591783
708,0.0019480808
709,0.065896675
710,-0.073418
711,-0.06584272
712,0.021789541
713,-0.045979194
714,-0.011979585
715,-0.04590726
716,-0.0026376606
717,-0.064642236
718,0.010488092
719,0.037635054
720,-0.059961017
721,-0.0528572
722,-0.055436768
723,-0.04620806
724,-0.039280046
725,-0.04885343
726,0.0018015506
727,-0.02882766
728,0.034478627
729,-0.07779988
730,0.030406632
731,-0.005851853
732,0.038116127
733,-0.0064205728
734,0.014101781
735,-0.05139179
736,0.0074216467
737,-0.05273017
738,-0.009000923
739,-0.07844075
740,-0.031181376
741,-0.06100747
742,0.006355197
743,-0.06860048
744,-0.05025563
745,-0.013543408
746,-0.040582485
747,-0.028793339
748,-0.023047332
749,0.06601182
750,-0.047834393
751,0.015617388
752,-0.053806156
753,-0.040001303
754,-0.049625758
755,-0.0740965
756,-0.041861095
757,-0.0060064476
758,-0.0069523877
759,0.033301838
760,-0.036572415
761,-0.018119948
762,-0.05081538
763,-0.047131803
764,0.002122136
765,-0.026045047
766,0.052960336
767,-0.06414603
768,-0.0022985647
769,-0.07821451
770,0.02344315
771,0.0030714397
772,-0.041094914
773,-0.014117751
774,-0.014332967
775,-0.029504573
776,-0.041852016
777,-0.052020844
778,-0.08761155
779,0.04349259
780,-0.06414589
781,-0.050378516
782,-0.030775461
783,-0.036581844
784,-0.05966803
785,0.019993884
786,-0.070400715
787,-0.03890139
788,0.0664258
789,-0.00545333
790,-0.051975645
791,-0.054628916
792,-0.049840756
793,-0.013259387
794,0.024089703
795,-0.020390773
796,-0.026860755
797,0.052424267
798,-0.0049966136
799,-0.040075712
800,-0.05754247
801,-0.07072491
802,-0.01747884
803,0.04348043
804,0.04518371
805,-0.05815524
806,-0.03808347
807,-0.021562522
808,-0.017108092
809,-0.058240555
810,-0.008010595
811,-0.036360428
812,-0.058441587
813,0.0405026
814,-0.054449823
815,-0.03541506
816,0.011098003
817,-0.016085584
818,0.051726174
819,-0.014615969
820,0.016032439
821,0.05431217
822,-0.058726847
823,0.0030826041
824,0.013816664
825,-0.027035374
826,-0.06640604
827,0.07665062
828,0.004518006
829,-0.023707516
830,-0.06385137
831,-0.004821296
832,-0.007973146
833,-0.063938126
834,-0.08240673
835,-0.06610324
836,-0.07031473
837,-0.051515277
838,0.02489325
839,-0.06596875
840,-0.065325774
841,-0.04569405
842,-0.04565256
843,0.033507053
844,-0.003393104
845,-0.064726345
846,0.015168424
847,-0.03961574
848,-0.043923747
849,-0.052474227
850,-0.038107276
851,-0.041256692
852,-0.036612675
853,-0.029708967
854,0.0043810126
855,-0.022882944
856,-0.048757017
857,0.073564276
858,0.027760247
859,-0.016041603
860,0.06900329
861,-0.030813366
862,0.002252545
863,-0.050117984
864,0.0066122334
865,-0.014655802
866,-0.04598553
867,-0.05577367
868,-0.009964885
869,-0.061107565
870,-0.03692917
871,-0.049756166
872,-0.040147204
873,-0.021035766
874,0.004210127
875,-0.028213764
876,-0.0226413
877,-0.0592104
878,-0.047479283
879,0.040155936
880,-0.053650208
881,-0.011125286
882,-0.03298449
883,-0.052712988
884,-0.009414156
885,-0.039572004
886,-0.0062482315
887,-0.044858508
888,0.03160753
889,-0.038643576
890,-0.05057158
891,0.040820356
892,0.028651904
893,-0.026215075
894,-0.048473652
895,-0.049553864
896,-0.040026654
897,0.06299175
898,-0.029766446
899,0.0018599327
900,-0.061630975
901,-0.012783692
902,-0.014124809
903,-0.029712658
904,-0.005896825
905,-0.06621612
906,-0.087930724
907,-0.055754326
908,-0.048841078
909,-0.050675556
910,-0.030776294
911,-0.036555283
912,-0.05997245
913,-0.022099953
914,-0.012395233
915,-0.054485545
916,-0.07868582
917,-0.049655076
918,-0.050827004
919,-0.05396839
920,-0.052722506
921,-0.058351845
922,-0.060268752
923,-0.03271106
924,-0.021056622
925,-0.05121512
926,-0.027414722
927,-0.01590325
928,-0.086314864
929,-0.07103075
930,-0.010326056
931,0.044486184
932,0.022734568
933,-0.05514163
934,-0.001623678
935,0.11380781
936,-0.07231438
937,0.04089305
938,0.005170329
939,-0.038468324
940,0.07570761
941,-0.0399813
942,0.02399256
943,-0.034964282
944,-0.05426777
945,-0.039508983
946,-0.047999773
947,-0.04688217
948,-0.04851175
949,-0.014257605
950,-0.05594808
951,-0.037638713
952,-0.034907527
953,-0.04305739
954,-0.06671378
955,-0.029324813
956,-0.03660821
957,-0.018077735
958,-0.06389968
959,-0.024310341
960,-0.044755474
961,-0.07180963
962,-0.042995498
963,0.017811788
964,0.011382651
965,-0.05008043
966,-0.05920224
967,-0.065984525
968,-0.05533968
969,-0.045903992
970,0.03469421
971,-0.045977306
972,-0.013061486
973,-0.05318103
974,0.015715195
975,-0.04997093
976,-0.024110585
977,-0.0010609952
978,-0.07034746
979,-0.059383098
980,-0.035071
981,-0.00057108374
982,-0.052405857
983,-0.022993676
984,-0.037615024
985,-0.06737434
986,0.054251794
987,-0.030779533
988,0.025632774
989,-0.03306944
990,-0.003402179
991,-0.050936002
992,0.012272076
993,0.029111246
994,-0.046732556
995,-0.056279637
996,0.05614314
997,-0.061034665
998,-0.011983964
999,-0.041091636
1000,-0.06646978
1001,-0.02854749
1002,-0.0075632953
1003,-0.032595154
1004,-0.022464195
1005,-0.053467203
1006,-0.047508374
1007,0.011916384
1008,-0.053746738
1009,-0.05354045
1010,-0.018783243
1011,-0.091857865
1012,-0.03281124
1013,-0.05103457
1014,-0.007436036
1015,-0.049964555
1016,-0.03591348
1017,-0.043030214
1018,-0.050847396
1019,-0.026075415
1020,-0.051037937
1021,0.030199284
1022,-0.045552514
1023,-0.053867236
1024,-0.040683206
1025,-0.043057777
1026,0.042206682
1027,-0.04486197
1028,-0.061536424
1029,0.005092105
1030,0.027402679
1031,0.022106085
1032,-0.03167439
1033,-0.026355509
1034,-0.0404816
1035,-0.053966995
1036,-0.043098424
1037,-0.0055019124
1038,-0.009078789
1039,-0.03634834
1040,-0.044976503
1041,-0.042387094
1042,-0.04399333
1043,-0.023266314
1044,-0.078874096
1045,-0.049218226
1046,-0.046678085
1047,-0.055810656
1048,-0.051900297
1049,-0.011821017
1050,-0.029655825
1051,0.011077044
1052,-0.07781282
1053,-0.050153147
1054,0.0033020868
1055,-0.02119563
1056,-0.050444756
1057,-0.054426797
1058,-0.01890324
1059,-0.018394593
1060,0.033818044
1061,-0.057487022
1062,-0.02251455
1063,-0.030196276
1064,-0.019063383
1065,0.03189805
1066,0.06351261
1067,-0.038406853
1068,0.11300485
1069,-0.03185452
1070,-0.052421495
1071,-0.038690757
1072,-0.025122402
1073,0.027133225
1074,-0.03855409
1075,-0.04706491
1076,-0.048088476
1077,0.068976186
1078,-0.06687615
1079,-0.037782308
1080,-0.036203086
1081,-0.038624674
1082,-0.06505817
1083,-0.051694825
1084,-0.048331603
1085,-0.020494556
1086,-0.06381721
1087,-0.023467919
1088,-0.044735428
1089,-0.07218312
1090,-0.045707088
1091,-0.06587895
1092,0.010957399
1093,-0.05157501
1094,-0.013585205
1095,-0.06580436
1096,-0.06271612
1097,-0.04548916
1098,-0.045563843
1099,-0.01667942
1100,-0.029768202
1101,0.026593585
1102,-0.09862023
1103,-0.05020251
1104,-0.00080656924
1105,0.021632027
1106,-0.02611542
1107,0.021016598
1108,-0.04459428
1109,-0.004603496
1110,-0.016109992
1111,-0.022455318
1112,-0.04367769
1113,-0.028347516
1114,0.06153767
1115,0.008260559
1116,0.05273059
1117,-0.027098846
1118,-0.031215096
1119,-0.05084312
1120,0.014947875
1121,0.016210848
1122,-0.046026062
1123,-0.054927513
1124,0.029864473
1125,-0.008586861
1126,-0.039704014
1127,-0.02509234
1128,-0.06484525
1129,-0.0011751705
1130,-0.04061808
1131,-0.027993083
1132,-0.02169029
1133,-0.041694257
1134,-0.047631763
1135,0.0139667755
1136,-0.053664606
1137,-0.04764085
1138,-0.049471095
1139,-0.07605054
1140,-0.053391952
1141,-0.051014844
1142,-0.050283708
1143,-0.043282703
1144,-0.03586724
1145,-0.045381453
1146,-0.05076187
1147,0.00740014
1148,-0.020675084
1149,-0.036391146
1150,-0.0035628544
1151,-0.07283972
1152,0.044615302
1153,-0.0012524844
1154,-0.0047336034
1155,-0.034135308
1156,-0.061436884
1157,0.022198744
1158,-0.0022528444
1159,-0.011438129
1160,-0.013421973
1161,-0.056085154
1162,-0.036450468
1163,-0.054738168
1164,-0.01597603
1165,0.015684016
1166,-0.016910251
1167,-0.0029582046
1168,-0.059123572
1169,-0.026773257
1170,-0.044312548
1171,-0.054595307
1172,-0.0788111
1173,-0.03557235
1174,-0.052231506
1175,-0.018646965
1176,-0.0524017
1177,0.009572519
1178,-0.049103137
1179,-0.02066552
1180,0.025239933
1181,-0.04586317
1182,0.02252064
1183,0.0137687735
1184,-0.020926217
1185,-0.07080568
1186,-0.00291306
1187,-0.011747166
1188,0.06950387
1189,-0.030540239
1190,0.013679455
1191,-0.013573096
1192,-0.018299157
1193,-0.030331528
1194,0.008820876
1195,-0.032377727
1196,0.05315879
1197,-0.035898644
1198,0.008507737
1199,-0.03520377
1200,-0.05255579
1201,-0.0273418
1202,-0.014749338
1203,-0.04707162
1204,-0.04813952
1205,0.030099258
1206,-0.026260227
1207,0.0026657693
1208,-0.036376506
1209,-0.03303195
1210,-0.066260904
1211,-0.051554304
1212,-0.033636466
1213,-0.06363948
1214,-0.06397939
1215,-0.041230112
1216,-0.04489366
1217,-0.05075626
1218,-0.01916455
1219,-0.02823399
1220,-0.062097803
1221,-0.05408315
1222,0.034572497
1223,-0.066051
1224,-0.04778007
1225,-0.04601851
1226,-0.04125768
1227,-0.041768473
1228,-0.045483127
1229,-0.05241772
1230,0.039953798
1231,-0.0491097
1232,-0.01213074
1233,-0.009143269
1234,-0.041393895
1235,-0.031070981
1236,-0.056141812
1237,-0.019829132
1238,-0.036184646
1239,-0.03390203
1240,0.00973244
1241,-0.022534627
1242,-0.048745975
1243,0.017059825
1244,-0.009896304
1245,-0.023255924
1246,-0.0259287
1247,-0.05137751
1248,-0.003917512
1249,-0.029299036
1250,-0.032029647
1251,-0.0783774
1252,-0.025658816
1253,-0.012510069
1254,-0.03967925
1255,-0.012684073
1256,-0.019426368
1257,-0.017194768
1258,-0.03323014
1259,-0.005377265
1260,0.038402937
1261,-0.035774093
1262,-0.015944911
1263,-0.06255666
1264,-0.0539833
1265,-0.048157845
1266,0.0033927478
1267,-0.07952214
1268,-0.015689222
1269,-0.034838203
1270,0.032352563
1271,-0.055071432
1272,-0.031262998
1273,-0.031472124
1274,-0.05085364
1275,-0.02481389
1276,-0.03351342
1277,-0.021259313
1278,0.0128525095
1279,-0.021127388
1280,0.04605047
1281,-0.014058732
1282,-0.0156543
1283,0.037918825
1284,-0.04807312
1285,0.051377118
1286,0.02137239
1287,0.023800068
1288,-0.015217135
1289,-0.03304208
1290,-0.024139958
1291,-0.0432924
1292,-0.013818911
1293,-0.019019486
1294,-0.027634164
1295,-0.0003436367
1296,-0.05319732
1297,-0.01964061
1298,-0.048565626
1299,-0.037820406
1300,-0.018579047
1301,0.020655552
1302,-0.051921073
1303,-0.025108492
1304,-0.039656263
1305,0.019449342
1306,-0.01230012
1307,-0.02477177
1308,-0.01195263
1309,-0.05137587
1310,-0.0026464835
1311,-0.048285346
1312,0.0006682137
1313,-0.06726856
1314,-0.0006775665
1315,-0.0004427437
1316,0.0028078447
1317,-0.027817665
1318,0.033334225
1319,-0.023891648
1320,-0.038931232
1321,0.004373874
1322,0.01419529
1323,-0.015718518
1324,-0.0043359366
1325,-0.02015024
1326,-0.011133587
1327,-0.034114815
1328,-0.04263134
1329,-0.012991305
1330,-0.03710389
1331,-0.03104295
1332,-0.00051012635
1333,-0.023230692
1334,-0.027061803
1335,-0.03762714
1336,-0.0025335082
1337,-0.04338005
1338,-0.024860261
1339,-0.025131138
1340,-0.029637735
1341,0.0077715474
1342,-0.054890133
1343,0.011663931
1344,-0.009468371
1345,-0.060525894
1346,-0.0016635573
1347,-0.02278928
1348,-0.010980383
1349,-0.051530052
1350,0.014496341
1351,-0.056013796
1352,-0.05658421
1353,-0.027682034
1354,0.043137655
1355,-0.02293957
1356,-0.023943827
1357,-0.014231689
1358,0.015623754
1359,-0.0698176
1360,-0.024818864
1361,-0.020934286
1362,-0.03412227
1363,-0.018390631
1364,-0.034805357
1365,-0.022919009
1366,0.01568151
1367,-0.026694812
1368,0.009815949
1369,-0.0076687466
1370,-0.039192706
1371,0.03917442
1372,-0.016439283
1373,-0.029270206
1374,0.01309196
1375,-0.024892
1376,0.018547645
1377,-0.025099887
1378,-0.04521049
1379,-0.07090167
1380,-0.0044490774
1381,-0.011010913
1382,-0.03549663
1383,-0.024827154
1384,-0.034952074
1385,0.02890672
1386,-0.0031454428
1387,-0.011917747
1388,0.035764985
1389,-0.020715144
1390,-0.042373188
1391,0.011283516
1392,-0.038252212
1393,-0.02569804
1394,0.026133671
1395,-0.019872291
1396,0.021858735
1397,-0.04236095
1398,0.017499333
1399,-0.068480685
1400,-0.006812667
1401,-0.010597525
1402,-0.006194648
1403,-0.01480978
1404,-0.03760941
1405,-0.01214376
1406,-0.009435164
1407,-0.017963005
1408,0.0009937851
1409,0.007058579
1410,0.0051153605
1411,0.016543409
1412,0.012120834
1413,0.020410968
1414,0.007119692
1415,-0.01814576
1416,-0.006411365
1417,-0.002470229
1418,-0.003828121
1419,-0.006605968
1420,-0.008265537
1421,0.0018768624
1422,0.0019390272
1423,-0.0061557875
1424,-0.0008922403
1425,0.0041851033
1426,0.005457826
1427,-0.008541246
1428,0.002897247
1429,0.0005820947
1430,0.0022016573
1431,0.0054944456
1432,-0.010424456
1433,-0.004592701
1434,-0.0019261095
1435,0.0077264193
1436,-0.007986651
1437,-0.012151132
1438,0.0062108818
1439,0.00705631
1440,-0.002146752
1441,-0.016031539
1442,-0.0004084048
1443,0.0026746339
1444,-0.004931868
1445,0.007121119
1446,0.018218867
1447,-0.015320823
1448,-0.0010745267
1449,-0.0017378038
1450,-0.0014438349
1451,-0.011801453
1452,0.0028556597
1453,-0.0020525109
1454,-0.007530637
1455,-0.0055296454
1456,-0.013244934
1457,-0.012664654
1458,0.002957786
1459,0.0019717473
1460,-0.008514526
1461,0.004679008
1462,-0.0054827523
1463,-0.01326161
1464,0.021669973
1465,-0.004487937
1466,-0.019669961
1467,0.00075675466
1468,-0.0072472524
1469,0.019961562
1470,-0.0031021317
1471,0.012191063
1472,0.011538259
1473,-0.014351593
1474,-0.009719429
1475,-0.0040748036
1476,0.004814806
1477,0.0051307436
1478,-0.008094322
1479,-0.018575063
1480,0.0021932544
1481,0.0021826946
1482,0.013294738
1483,-0.0011856041
1484,0.012083269
1485,-0.0037300764
1486,-0.013606189
1487,-0.0064879665
1488,-0.0008157495
1489,-0.008286053
1490,-0.002222362
1491,-0.014313111
1492,-0.0068095042
1493,0.013415081
1494,-0.006891058
1495,-0.0060106567
1496,0.024917705
1497,-0.017429605
1498,0.001528935
1499,0.015838
1500,0.0018701982
1501,0.020199982
1502,0.02529058
1503,-0.0112661645
1504,0.017252695
1505,-0.010022088
1506,-0.01110631
1507,-0.0022601944
1508,-0.002398538
1509,0.0012824852
1510,0.0078013907
1511,-0.011940791
1512,0.011545838
1513,-0.008208354
1514,0.0020495278
1515,0.009383051
1516,0.012315894
1517,0.0009903158
1518,-0.008809006
1519,0.011425627
1520,0.0023376893
1521,0.0014655055
1522,0.024876414
1523,-0.021351377
1524,0.009765054
1525,-0.0022612882
1526,0.011187382
1527,0.0028326176
1528,-0.00021209675
1529,-0.0013178614
1530,-0.019654272
1531,-0.0024736552
1532,0.0044425447
1533,0.0073587666
1534,-0.0024310388
1535,-0.019771293
1536,0.008992443
1537,0.008989049
1538,-0.00073267816
1539,-0.006977867
1540,-0.011138313
1541,-0.0054907757
1542,0.013824974
1543,-0.009471329
1544,-0.00525191
1545,-0.0062325774
1546,-0.01112098
1547,-0.019319799
1548,0.006656848
1549,-0.0045333193
1550,-0.0013879553
1551,0.0014961453
1552,-0.008246862
1553,0.005719749
1554,0.009615997
1555,0.008210465
1556,-0.0071596503
1557,0.008393806
1558,0.004402375
1559,0.013453165
1560,-0.0048849517
1561,-0.008193916
1562,-0.0065928376
1563,0.016758608
1564,0.009223465
1565,-0.0143209025
1566,0.013546221
1567,-0.0023889525
1568,0.011887606
1569,-0.010140688
1570,0.008289492
1571,-0.016815621
1572,-0.009121677
1573,-0.008532598
1574,-0.002405206
1575,-0.0021718699
1576,-0.00424943
1577,0.0061015305
1578,0.0021469814
1579,-0.00017403232
1580,-0.00700099
1581,-3.4450757e-06
1582,-0.0037694704
1583,0.01458405
1584,0.013381351
1585,0.0019045543
1586,-0.014412928
1587,-0.0042447844
1588,0.01838544
1589,-0.0075640986
1590,0.01568097
1591,-0.015348302
1592,-0.0013383676
1593,0.007536085
1594,-0.0018213796
1595,-0.0105750095
1596,-0.0015599097
1597,0.0038571511
1598,0.00869717
1599,0.019041589
1600,0.016010849
1601,-0.009676684
1602,0.0002529756
1603,0.00037617347
1604,0.012508257
1605,0.00203767
1606,0.0023358648
1607,-0.00016306563
1608,0.00033767667
1609,-0.0032570378
1610,-0.0040281573
1611,-0.013367742
1612,0.0081020305
1613,0.009237235
1614,-0.0071522784
1615,0.0032634302
1616,-0.004148415
1617,0.0019647505
1618,-0.006107887
1619,0.00088841136
1620,0.0075840377
1621,0.005550108
1622,0.009255883
1623,-0.002714517
1624,-0.009748666
1625,-0.012421554
1626,-0.019357612
1627,0.0048056263
1628,0.011481291
1629,-0.01508876
1630,0.0076632095
1631,-0.0053331307
1632,0.007177708
1633,0.0067629134
1634,-0.010149595
1635,0.00464838
1636,-0.0020037468
1637,-0.0035040455
1638,-0.009520844
1639,0.011276595
1640,-0.013975872
1641,-0.012105491
1642,-0.009169466
1643,-0.017598521
1644,0.0069829207
1645,-0.0016775526
1646,-0.0051267105
1647,0.0028801889
1648,-0.008539789
1649,-0.006246955
1650,0.0018897278
1651,-0.0067448216
1652,0.012988053
1653,-0.0079434635
1654,-9.685557e-05
1655,-0.012397879
1656,-0.0058221007
1657,0.0020318464
1658,0.00041621612
1659,0.0056156158
1660,-0.019872997
1661,-0.005380446
1662,-0.0008109439
1663,0.0024016916
1664,0.006013091
1665,-0.0040121595
1666,0.014922667
1667,0.00432862
1668,-0.007986211
1669,0.0112884855
1670,-0.00172598
1671,-0.00050628633
1672,0.019684488
1673,0.010117907
1674,-0.0027221516
1675,0.008889365
1676,-0.000648662
1677,-0.007825971
1678,-0.010257554
1679,0.010822266
1680,-0.017667675
1681,-0.011325046
1682,0.019677583
1683,-0.014425795
1684,0.006812742
1685,-0.0018766682
1686,0.010130496
1687,0.0040122075
1688,-0.006413742
1689,0.00016268864
1690,0.013962964
1691,-0.011452566
1692,0.0047451574
1693,-0.0007646033
1694,-0.010804657
1695,0.013907971
1696,-0.0055152685
1697,0.002202366
1698,-0.0075135636
1699,0.0022528463
1700,-0.015131133
1701,0.00064536213
1702,0.009557539
1703,0.013392275
1704,0.0020514964
1705,-0.016004581
1706,0.0001799918
1707,0.015988741
1708,0.0053621656
1709,-0.001840301
1710,-0.0019035948
1711,0.0013883482
1712,0.0012243083
1713,0.0082777925
1714,-0.009972309
1715,-0.013827021
1716,-0.014612647
1717,0.0007218918
1718,0.009594114
1719,-0.01459671
1720,0.0021347317
1721,0.0018511729
1722,0.0023278585
1723,-0.00038105506
1724,-0.017511038
1725,0.0052523175
1726,0.00053188036
1727,-0.014273269
1728,-0.016370973
1729,-0.007962768
1730,-0.0057073045
1731,0.0027366057
1732,-0.0033009325
1733,0.00019155224
1734,0.017130796
1735,-0.0089360755
1736,-0.009657041
1737,0.004604317
1738,-0.0069132117
1739,-0.010043732
1740,0.015387563
1741,0.0023379787
1742,0.0018689266
1743,0.01145075
1744,-0.0070578484
1745,0.006605545
1746,0.0016654256
1747,-0.012928929
1748,-0.009149603
1749,-0.004409761
1750,0.017275073
1751,-0.010620056
1752,-0.0027882797
1753,0.008889958
1754,-0.006533879
1755,0.0041837892
1756,0.015452225
1757,0.019965868
1758,-0.009290109
1759,-0.012721455
1760,-0.008143237
1761,-0.0039274013
1762,0.009704559
1763,0.0012776464
1764,-0.010813571
1765,-0.017111948
1766,-0.00481435
1767,-0.011412058
1768,0.00942008
1769,-0.003240878
1770,0.015965326
1771,-0.013996824
1772,-0.0009542044
1773,-0.005742866
1774,0.019506458
1775,-0.00065957045
1776,-0.008140825
1777,-0.0137708355
1778,0.011360728
1779,0.009100663
1780,-0.0041212025
1781,0.00551747
1782,-0.0062692044
1783,0.00017896364
1784,-0.015843565
1785,-0.006687789
1786,-0.0017392626
1787,0.010390452
1788,0.0016211173
1789,0.005836345
1790,0.0006979428
1791,0.007674627
1792,0.005527952
1793,0.017761998
1794,-0.0052409098
1795,-0.0037391593
1796,0.015653187
1797,-0.012188405
1798,0.0077699814
1799,-0.0031623372
1800,-0.0030784
1801,0.01055043
1802,0.018601634
1803,-0.019949596
1804,0.01368915
1805,-0.0017491888
1806,0.010029214
1807,-0.0008488641
1808,0.007472069
1809,-0.012996092
1810,-0.0049156016
1811,-0.013719009
1812,-0.0111073805
1813,-0.008889905
1814,0.00755063
1815,-0.019243343
1816,0.01176448
1817,0.0021221295
1818,-0.002031713
1819,-0.010103447
1820,0.012398047
1821,-0.0014267003
1822,-0.0050938013
1823,0.006784912
1824,-0.009432316
1825,-0.0071809986
1826,-0.009119225
1827,-0.0068835374
1828,0.010879648
1829,0.008183368
1830,0.012625023
1831,-0.0015336804
1832,0.0062024626
1833,0.015254244
1834,0.012700132
1835,-0.008152854
1836,0.013916946
1837,0.016007345
1838,0.0069528674
1839,0.0034754276
1840,0.0010218066
1841,-0.011572723
1842,0.016580638
1843,-0.0035523924
1844,0.002236403
1845,0.0022735281
1846,0.003271771
1847,-0.0015081827
1848,0.012844303
1849,0.005877898
1850,0.012543685
1851,-0.007160554
1852,0.0039564953
1853,0.017308492
1854,-0.009807369
1855,-0.009808572
1856,0.0018870131
1857,0.006831371
1858,-0.003334677
1859,0.016256051
1860,-0.0062524006
1861,0.012765108
1862,0.0057675247
1863,0.0023073177
1864,0.0037761687
1865,-0.006893372
1866,-0.015882203
1867,-0.010804725
1868,0.006634472
1869,-0.015868573
1870,-0.009761893
1871,0.008645738
1872,0.0014177752
1873,0.005000755
1874,-0.006102209
1875,-0.00012883006
1876,0.0057433397
1877,0.00047893665
1878,0.0007271195
1879,0.00911184
1880,-0.017158553
1881,0.016518272
1882,0.011928019
1883,-0.0029206034
1884,-0.00572737
1885,-0.016301615
1886,-0.0070995754
1887,-0.003909068
1888,0.0059102885
1889,0.013458782
1890,-0.0046641743
1891,0.0059577418
1892,0.0032186524
1893,0.016582178
1894,-0.015134013
1895,0.00043197203
1896,0.0034473757
1897,0.014351195
1898,0.0021830217
1899,-0.005591399
1900,0.016554622
1901,-0.019971749
1902,0.002140962
1903,0.0022698676
1904,0.0028380381
1905,0.0027466894
1906,0.0050019603
1907,0.011463985
1908,-0.0041503413
1909,0.0007076866
1910,-0.017264072
1911,0.015110589
1912,0.0116149075
1913,-0.0120848855
1914,-0.00020766945
1915,-0.003329547
1916,0.00012430374
1917,0.0074724713
1918,0.0016858102
1919,0.015173243
1920,0.0021430815
1921,-0.018418815
1922,0.011088875
1923,0.01243786
1924,0.019721175
1925,0.011059929
1926,-0.0071686036
1927,-0.0019095963
1928,-0.0076673143
1929,-0.0016593472
1930,-0.005968378
1931,-0.003432076
1932,0.0047752294
1933,-0.0027183641
1934,-0.00032282184
1935,0.002402566
1936,-0.0038560852
1937,-0.006662751
1938,-0.0031959729
1939,0.013469722
1940,-0.0025139921
1941,0.009074851
1942,0.008793252
1943,0.010141381
1944,0.003918389
1945,-0.009759312
1946,-0.0026326173
1947,0.0013266812
1948,-0.0020789644
1949,-0.008123554
1950,0.009157981
1951,0.00392181
1952,9.872078e-06
1953,-0.01323469
1954,-0.0006377658
1955,-0.0035888525
1956,-0.015933951
1957,0.0008123638
1958,-0.015983615
1959,-0.0049977195
1960,-0.018429631
1961,-0.0016605313
1962,0.016698977
1963,-0.00053054624
1964,-0.011474835
1965,0.00059145887
1966,0.015518721
1967,-0.0049720807
1968,-0.0058199954
1969,0.00039434308
1970,0.002078242
1971,0.003515375
1972,-0.014831634
1973,0.009883336
1974,-0.01882031
1975,-0.0023142188
1976,0.0041603227
1977,0.00689893
1978,-0.0034375777
1979,0.008141968
1980,-0.0065772748
1981,-0.0007838216
1982,-0.005727756
1983,0.001155185
1984,0.0033930677
1985,-0.016917793
1986,-0.010395818
1987,-0.009282729
1988,-0.0027487495
1989,0.010185677
1990,0.0027843304
1991,-0.0017998981
1992,-0.0027707608
1993,-0.018949647
1994,0.0007877395
1995,-0.0026287488
1996,0.011614531
1997,-0.007669566
1998,-0.0025223158
1999,0.009072202
2000,0.0026557855
2001,0.0018062263
2002,-0.0030003646
2003,-0.018943772
2004,-0.013313817
2005,-0.0030760136
2006,0.00056638895
2007,-0.0029336542
2008,0.0076415627
2009,-0.0102212345
2010,-0.010639785
2011,-0.009067481
2012,0.0054400065
2013,-0.0061998926
2014,-0.008790863
2015,0.0034679254
2016,0.002515854
2017,0.0101105925
2018,0.0038878846
2019,-0.016650302
2020,0.019546252
2021,0.013941037
2022,-0.005716747
2023,-0.012266594
2024,0.013111355
2025,-0.005497582
2026,0.0073609916
2027,-0.0016331705
2028,-0.014278578
2029,0.0005931484
2030,0.0062491745
2031,-0.0055326317
2032,-0.0019302595
2033,0.0058401595
2034,0.0038060741
2035,0.0020222366
2036,-0.016283669
2037,0.00019824172
2038,0.008345927
2039,-0.00067161233
2040,-0.0027265805
2041,-0.0059771864
2042,-0.0017586327
2043,0.010516818
2044,0.006275041
2045,0.014342845
2046,-0.0023739242
2047,0.00064093916
2048,0.036778472
2049,-0.0668224
2050,0.07794893
2051,-0.00964828
2052,-0.05995749
2053,0.020789126
2054,0.02159352
2055,0.019530056
2056,0.02342575
2057,-0.049315494
2058,-0.028587062
2059,-0.002410821
2060,-0.00069720147
2061,0.049274225
2062,-0.0064597186
2063,0.021371657
2064,-0.029147627
2065,0.03369831
2066,-0.077563986
2067,-0.051125817
2068,-0.028335413
2069,0.04246987
2070,-0.018591367
2071,-0.003859858
2072,-0.025833486
2073,-0.0066539017
2074,-0.039246824
2075,-0.026373839
2076,-0.048510876
2077,-0.003057003
2078,0.06887802
2079,-0.010926703
2080,0.010527375
2081,-0.004644389
2082,0.00015021958
2083,0.064023696
2084,-0.08762399
2085,0.0036720783
2086,-0.07406429
2087,0.061216254
2088,-0.07146985
2089,-0.10570862
2090,0.0379974
2091,0.025824932
2092,-0.05602942
2093,0.021084351
2094,0.027377307
2095,0.01594169
2096,-0.04472542
2097,0.045667976
2098,0.0036839205
2099,0.028513463
2100,-0.015892738
2101,-0.07900519
2102,-0.00071537733
2103,0.010150151
2104,0.0077226427
2105,0.013903854
2106,-0.0031516447
2107,-0.000110846246
2108,0.036618795
2109,-0.02942585
2110,0.002924615
2111,0.02835574
2112,0.03088441
2113,-0.012658156
2114,-0.013779574
2115,-0.04676253
2116,-0.046849314
2117,0.015197431
2118,-0.063877426
2119,-0.04824716
2120,-0.04611991
2121,-0.060864896
2122,0.028564235
2123,0.039228387
2124,0.02402561
2125,-0.059441946
2126,0.047838412
2127,-0.033958707
2128,-0.043275356
2129,0.051431168
2130,-0.049003955
2131,0.015567797
2132,-0.04316403
2133,0.046662536
2134,0.052000202
2135,-0.017833276
2136,0.017097332
2137,0.00045472308
2138,-0.15365754
2139,0.039533228
2140,0.06552536
2141,0.005418403
2142,0.026589159
2143,-0.037949987
2144,0.05253931
2145,-0.015008248
2146,0.00053781806
2147,-0.06739504
2148,-0.05647623
2149,-0.02220815
2150,0.016575472
2151,0.009833
2152,-0.04391731
2153,0.044431154
2154,0.039884664
2155,0.025358787
2156,-0.012516801
2157,-0.06617866
2158,0.0074143745
2159,0.034591
2160,-0.030869978
2161,0.021409916
2162,0.003827118
2163,-0.004917082
2164,-0.037266348
2165,0.025056764
2166,0.041052885
2167,-0.07802484
2168,0.035753787
2169,0.03515474
2170,-0.017134672
2171,0.042771015
2172,0.06137552
2173,0.014182058
2174,0.006700237
2175,0.009640236
2176,0.029618982
2177,0.08643837
2178,0.0066298214
2179,0.04880432
2180,-0.05989685
2181,0.0525756
2182,0.039226737
2183,0.015727963
2184,-0.086168386
2185,0.06474454
2186,-0.034934405
2187,0.052729473
2188,0.048402023
2189,0.03567072
2190,0.015943069
2191,0.03576233
2192,0.057492238
2193,0.0069854357
2194,-0.07753255
2195,0.05354112
2196,-0.013516056
2197,0.04885579
2198,0.04326806
2199,0.047395688
2200,0.043890454
2201,0.055721063
2202,0.042849228
2203,0.07581595
2204,-0.0030275553
2205,0.04301967
2206,0.045304183
2207,-0.011944238
2208,-0.011339459
2209,-0.08495428
2210,-0.0054242853
2211,0.051982634
2212,-0.08766601
2213,0.05460507
2214,0.035440158
2215,0.02411041
2216,0.07113376
2217,0.024898048
2218,0.05372683
2219,0.025140766
2220,-0.046335492
2221,0.03943807
2222,0.053919625
2223,0.019966064
2224,0.042515934
2225,0.05793072
2226,0.024012623
2227,0.012473902
2228,0.046966046
2229,-0.07539597
2230,0.06067493
2231,0.026488012
2232,0.017194912
2233,0.019695835
2234,0.06403433
2235,0.04925186
2236,0.046427116
2237,0.062315904
2238,-0.07195221
2239,0.03981072
2240,0.041293874
2241,-0.039863434
2242,-0.07652292
2243,-0.034165986
2244,0.03940863
2245,0.04373776
2246,0.09242861
2247,-0.025723906
2248,-0.06661867
2249,0.037568197
2250,0.039331257
2251,0.028697742
2252,0.04294269
2253,-0.0013474635
2254,0.03212346
2255,0.03947502
2256,0.042034645
2257,0.010665562
2258,-0.058698434
2259,0.058240455
2260,0.06420765
2261,-0.08140536
2262,0.04033804
2263,-0.026306562
2264,0.037522446
2265,-0.06964999
2266,0.053335026
2267,0.031763434
2268,-0.07024167
2269,-0.008353763
2270,0.02376048
2271,0.044151936
2272,-0.008902231
2273,0.03668554
2274,0.035761464
2275,0.055253502
2276,-0.056416083
2277,0.05988801
2278,-0.014420041
2279,-0.08170245
2280,0.06543379
2281,0.005785777
2282,0.014643655
2283,0.021477481
2284,-0.016204491
2285,-0.06623224
2286,0.0429815
2287,0.024589745
2288,0.0013833654
2289,-0.00889761
2290,0.048701216
2291,-0.058270037
2292,0.027111331
2293,0.049934573
2294,0.016949855
2295,0.07324028
2296,-0.012897088
2297,0.03823958
2298,0.048541453
2299,0.04637645
2300,0.045543544
2301,0.030034982
2302,0.03415232
2303,-0.0051189763
2304,0.038642023
2305,-0.026873983
2306,-0.056774974
2307,0.04768742
2308,0.05999141
2309,0.04859999
2310,0.045991275
2311,-0.013558896
2312,0.07578912
2313,-0.032704897
2314,-0.07947009
2315,0.03776309
2316,0.06252072
2317,0.030754939
2318,0.041297972
2319,0.0010347301
2320,-0.051774703
2321,-0.029445034
2322,0.0063107354
2323,0.00221512
2324,-0.021823255
2325,0.0122717675
2326,0.01518656
2327,0.044838466
2328,0.047371622
2329,-0.048081025
2330,0.0393631
2331,0.008976858
2332,-0.0055132336
2333,0.04005219
2334,-0.057377726
2335,0.040816136
2336,-0.02307644
2337,-0.08484581
2338,-0.013386924
2339,0.007327484
2340,0.017786024
2341,-0.058354747
2342,0.035073515
2343,-0.08603792
2344,0.05170345
2345,0.07118236
2346,-0.049810693
2347,-0.0024107082
2348,-0.018068774
2349,-0.0034202414
2350,0.014498889
2351,0.02912862
2352,0.04994482
2353,0.022374403
2354,0.04871984
2355,0.016083602
2356,0.034107625
2357,-0.037142355
2358,-0.059398804
2359,0.036718648
2360,0.031514306
2361,0.0070077553
2362,-0.06588026
2363,0.013461723
2364,0.047111843
2365,-0.057574317
2366,0.05449494
2367,0.023344608
2368,0.04307107
2369,0.07119957
2370,0.11022241
2371,-0.039388597
2372,0.015482092
2373,0.04880901
2374,-0.039133143
2375,0.06495985
2376,0.0632897
2377,0.043360133
2378,0.035419554
2379,0.02856896
2380,0.029527815
2381,-0.059262767
2382,0.007962556
2383,0.05537695
2384,0.058608077
2385,0.026715642
2386,0.06826874
2387,-0.052813772
2388,-0.05722983
2389,0.054439038
2390,0.048847422
2391,0.026357353
2392,0.03714292
2393,-0.08224104
2394,0.13968766
2395,-0.014536625
2396,-0.07111566
2397,0.0008900851
2398,0.025531985
2399,0.04686293
2400,-0.02778046
2401,0.047316607
2402,0.04327202
2403,0.055652328
2404,-0.0117852315
2405,-0.05558269
2406,0.03426251
2407,0.06608633
2408,0.04463076
2409,0.021059183
2410,0.02941426
2411,0.01452525
2412,-0.011939801
2413,-0.053012755
2414,0.04569062
2415,0.034823418
2416,0.053241782
2417,0.023839487
2418,-0.006217879
2419,0.007150649
2420,0.05141367
2421,0.03247687
2422,0.038443968
2423,-0.078209095
2424,-0.0015630632
2425,0.024512254
2426,0.022386959
2427,0.015900616
2428,-0.0705944
2429,-0.025432797
2430,0.03134563
2431,0.03314484
2432,-0.028338248
2433,-0.06586262
2434,0.018319787
2435,0.031536464
2436,0.053605672
2437,0.015265633
2438,0.043598242
2439,-0.008077688
2440,0.06835034
2441,0.02842861
2442,-0.07891436
2443,0.020655664
2444,-0.048655145
2445,-0.06329155
2446,0.008849433
2447,-0.016275514
2448,-0.010991537
2449,0.073306575
2450,0.06866335
2451,0.031011077
2452,0.0394928
2453,-0.060578592
2454,0.050354205
2455,-0.034706704
2456,-0.052471545
2457,0.034627274
2458,0.0094397385
2459,-0.01692391
2460,0.097945094
2461,0.016418135
2462,0.032635365
2463,-0.045509063
2464,0.084200524
2465,0.066346124
2466,-0.0004907916
2467,0.009296071
2468,0.10567562
2469,0.025462294
2470,0.029378386
2471,-0.11440017
2472,0.028544707
2473,-0.1058357
2474,0.02079441
2475,-0.010473481
2476,0.07634465
2477,-0.052706603
2478,-0.015168716
2479,0.031242432
2480,0.045797314
2481,0.0036552972
2482,-0.02482294
2483,0.046183214
2484,0.04099928
2485,-0.004612834
2486,0.07307164
2487,-0.012881987
2488,0.030334663
2489,-0.050699618
2490,0.0048619923
2491,0.009360897
2492,0.0036655685
2493,0.018859202
2494,-0.07186843
2495,0.04624238
2496,0.020231871
2497,0.042519715
2498,-0.008551595
2499,0.06484548
2500,0.019538568
2501,-0.06682872
2502,-0.0060126553
2503,0.05768291
2504,0.052080613
2505,-0.038558275
2506,0.0045786905
2507,-0.035232473
2508,0.029062288
2509,-0.040703855
2510,-0.037663274
2511,0.07790101
2512,-0.043200918
2513,0.01447445
2514,0.0661745
2515,0.0063638478
2516,0.03317353
2517,0.05749587
2518,0.02474727
2519,0.028074753
2520,0.02419629
2521,-0.0822511
2522,-0.09178345
2523,-0.03256477
2524,-0.0709799
2525,0.05746052
2526,0.041112136
2527,-0.011517301
2528,-0.02705853
2529,0.026649734
2530,0.02744785
2531,0.07810666
2532,-0.025268918
2533,0.057479993
2534,-0.007119395
2535,-0.081707545
2536,-0.05422672
2537,-0.015075002
2538,0.01805786
2539,-0.0025319436
2540,-0.016294971
2541,-0.048916053
2542,0.03686128
2543,-0.040445227
2544,0.05315586
2545,0.053464133
2546,0.0071310923
2547,0.09146988
2548,0.040488575
2549,0.0332684
2550,-0.008347801
2551,0.07485244
2552,-0.032131355
2553,-0.012983981
2554,-0.029629827
2555,-0.044454206
2556,0.0043803034
2557,-0.045849167
2558,3.279322e-05
2559,0.07274973
2560,-0.025209878
2561,-0.0664973
2562,-0.057354286
2563,0.04441808
2564,0.030811632
2565,0.007870877
2566,0.0132994
2567,-0.05933907
2568,-0.098318174
2569,0.050488453
2570,-0.07954008
2571,-0.04516798
2572,-0.04885738
2573,-0.06370188
2574,-0.047930717
2575,-0.04104744
2576,0.038261913
2577,-0.027609164
2578,0.0659139
2579,-0.05579692
2580,-0.06252576
2581,-0.048798893
2582,0.049672656
2583,0.0070666815
2584,0.038509075
2585,-0.078403786
2586,-0.03540779
2587,0.04983312
2588,-0.04838802
2589,-0.048418257
2590,-0.057543553
2591,0.045881394
2592,0.084501855
2593,0.069880545
2594,-0.011922741
2595,-0.007327179
2596,0.05155915
2597,0.060861103
2598,-0.074479155
2599,-0.07619158
2600,0.019994851
2601,-0.010559678
2602,-0.053890634
2603,-0.033585444
2604,-0.04347583
2605,0.018980129
2606,-0.050637096
2607,-0.0019347299
2608,-0.051182114
2609,0.0035957478
2610,-0.03954792
2611,0.013504
2612,-0.01389569
2613,0.10937061
2614,-0.05938674
2615,-0.0068988213
2616,-0.015430149
2617,0.04026186
2618,0.023069995
2619,-0.07726565
2620,-0.0048339376
2621,0.019148836
2622,0.05209377
2623,0.00014517896
2624,-0.041394737
2625,-0.04105822
2626,-0.067254715
2627,0.06305705
2628,0.00023864736
2629,-0.06657686
2630,-0.106033295
2631,0.048745364
2632,0.04098147
2633,0.032285832
2634,-0.0029267536
2635,-0.014884458
2636,-0.0122528
2637,0.06383003
2638,-0.01120232
2639,-0.052819036
2640,-0.043412723
2641,-0.03312062
2642,0.034475762
2643,0.016857587
2644,0.027320039
2645,0.028351294
2646,0.028037034
2647,0.020404134
2648,-0.044353142
2649,0.077550665
2650,0.0065966165
2651,-0.019294867
2652,-0.071303494
2653,0.0053689396
2654,-0.033839636
2655,0.042761285
2656,-0.00949282
2657,-0.05163449
2658,-0.048737623
2659,0.05537491
2660,-0.013550064
2661,-0.05635368
2662,-0.0069572637
2663,0.050145607
2664,0.034810726
2665,0.017938942
2666,0.023993053
2667,-0.009072587
2668,-0.033361387
2669,0.0038014797
2670,-0.047748268
2671,-0.038803294
2672,-0.041506622
2673,0.034372874
2674,0.049158834
2675,0.0016124444
2676,-0.043553278
2677,0.015089769
2678,-0.039279763
2679,0.044555224
2680,-0.034733176
2681,-0.03676492
2682,0.030674135
2683,-0.04597939
2684,-0.023343842
2685,-0.011105103
2686,-0.054049827
2687,-0.03555596
2688,-0.007864503
2689,-0.042404246
2690,-0.043557514
2691,-0.0021324416
2692,-0.037193008
2693,0.0062083597
2694,0.012226155
2695,-0.002993201
2696,0.04316804
2697,-0.039784815
2698,0.08669821
2699,-0.04799614
2700,-0.048642937
2701,-0.055775803
2702,0.0037093456
2703,-0.03305275
2704,0.045666747
2705,-0.018887775
2706,0.0437857
2707,0.03945147
2708,0.00067438243
2709,-0.0103558805
2710,-0.045099165
2711,-0.03470701
2712,-0.047826167
2713,-0.078160636
2714,-0.025226977
2715,-0.014391947
2716,-0.01376153
2717,-0.054066073
2718,-0.057480544
2719,-0.04579949
2720,-0.011565486
2721,0.06562819
2722,-0.017010808
2723,-0.067929134
2724,-0.029425431
2725,-0.0584036
2726,-0.0075979945
2727,-0.11419324
2728,-0.071042076
2729,-0.0011711717
2730,-0.043878075
2731,-0.033588428
2732,0.02847559
2733,0.02997338
2734,-0.046526853
2735,-0.00398809
2736,-0.05089982
2737,-0.0046176366
2738,-0.05244994
2739,-0.0574311
2740,-0.01699586
2741,-0.080764964
2742,-0.049744785
2743,-0.011759941
2744,-0.014398977
2745,-0.026478441
2746,0.04543777
2747,-0.06996713
2748,-0.005738732
2749,-0.029173533
2750,0.06285192
2751,-0.00015683775
2752,0.002960419
2753,0.049088616
2754,-0.07621805
2755,-0.046082564
2756,0.039236873
2757,0.049569294
2758,0.05593889
2759,-0.0033784078
2760,0.016608456
2761,0.009242137
2762,0.010582917
2763,-0.036239382
2764,-0.0066196215
2765,-0.05919111
2766,-0.015384977
2767,0.04780527
2768,-0.043189786
2769,-0.042973172
2770,-0.03931822
2771,-0.053065214
2772,-0.028575351
2773,-0.081177644
2774,-0.0047082976
2775,-0.06118455
2776,0.036390904
2777,-0.08231918
2778,-0.02491337
2779,0.00102383
2780,-0.07076545
2781,0.002891996
2782,-0.018695295
2783,-0.037429325
2784,-0.0071203513
2785,-0.051779978
2786,-0.048283048
2787,-0.028351773
2788,-0.0363049
2789,-0.055534463
2790,0.010936303
2791,-0.079443626
2792,-0.015705433
2793,0.014283705
2794,-0.02907043
2795,-0.037971795
2796,0.021435797
2797,0.05881208
2798,-0.047630135
2799,-0.040442903
2800,-0.045356862
2801,-0.023927575
2802,0.032582182
2803,-0.017978918
2804,-0.017449228
2805,-0.012349722
2806,-0.009000868
2807,0.03368958
2808,-0.036421686
2809,-0.038689204
2810,-0.023362473
2811,-0.04448952
2812,0.044938657
2813,0.023120532
2814,0.04679058
2815,-0.01210301
2816,-0.046058275
2817,-0.012339577
2818,-0.0568152
2819,-0.0022294684
2820,-0.059546873
2821,0.010470422
2822,0.013058743
2823,0.009261379
2824,-0.048218388
2825,-0.017870054
2826,-0.07943054
2827,0.051029168
2828,-0.049002346
2829,-0.063482
2830,-0.047085088
2831,-0.015751038
2832,-0.05011138
2833,-0.039098196
2834,-0.06286477
2835,-0.0382372
2836,0.078358866
2837,-0.027283447
2838,-0.045422904
2839,-0.009548228
2840,-0.05243885
2841,-0.03653566
2842,0.059256542
2843,0.036043376
2844,0.016867867
2845,0.04873145
2846,-0.05751572
2847,-0.04128147
2848,0.019802365
2849,-0.07520658
2850,-0.008184539
2851,-0.049851283
2852,-0.047392868
2853,-0.05686873
2854,-0.023576302
2855,-0.059438627
2856,-0.07148153
2857,0.034208585
2858,-0.02174263
2859,-0.032814637
2860,0.049154025
2861,0.031758886
2862,0.042908035
2863,-0.009482437
2864,0.00023883971
2865,0.007759083
2866,-0.052349616
2867,-0.05706097
2868,-0.020348482
2869,-0.06945736
2870,-0.012296756
2871,-0.0030736232
2872,0.020176789
2873,-0.05043294
2874,-0.04365652
2875,0.051135868
2876,-0.004258628
2877,-0.022053454
2878,-0.071969636
2879,-0.04797804
2880,0.007226377
2881,-0.041583758
2882,-0.07622842
2883,-0.037015248
2884,-0.014259328
2885,-0.06588447
2886,-0.023951752
2887,-0.012329939
2888,-0.038121693
2889,-0.021682594
2890,0.045435257
2891,0.04373792
2892,6.099717e-05
2893,-0.05293733
2894,-0.016865013
2895,-0.033015937
2896,-0.0109741
2897,-0.052280124
2898,-0.05871557
2899,-0.05254264
2900,-0.02857361
2901,-0.06416411
2902,-0.0035088293
2903,-0.021977488
2904,-0.04471594
2905,0.06704532
2906,-0.06189861
2907,-0.038477775
2908,0.030457933
2909,0.0056684767
2910,-0.01645298
2911,-0.0066999057
2912,-0.01274903
2913,-0.032827806
2914,-0.048579946
2915,-0.06732984
2916,-0.056487
2917,-0.05594172
2918,-0.03979765
2919,-0.039924014
2920,-0.0159594
2921,-0.012530735
2922,-0.023189884
2923,0.015242851
2924,-0.011804652
2925,0.015386816
2926,-0.0462293
2927,-0.040638283
2928,-0.045419
2929,-0.00030657448
2930,0.017307632
2931,-0.016126975
2932,0.0033315124
2933,-0.043509487
2934,-0.02965429
2935,-0.07796831
2936,-0.041226376
2937,-0.037156716
2938,-0.029511051
2939,0.025312217
2940,-0.051325835
2941,-0.033609338
2942,-0.054864913
2943,-0.010149044
2944,-0.0067225
2945,0.09019398
2946,-0.0560454
2947,-0.0024138973
2948,-0.023430636
2949,0.01251543
2950,0.01412955
2951,-0.025981782
2952,-0.04527678
2953,-0.049043134
2954,-0.061062556
2955,-0.053259365
2956,-0.04888232
2957,-0.06369432
2958,0.030668955
2959,-0.017977646
2960,-0.051481083
2961,-0.042166192
2962,-0.035409193
2963,-0.05435306
2964,-0.066602446
2965,-0.05753133
2966,-0.045508865
2967,-0.03471354
2968,-0.052287698
2969,-0.03735584
2970,-0.0419075
2971,-0.046914287
2972,0.02597484
2973,-0.054192312
2974,-0.05732829
2975,-0.046650648
2976,0.036769524
2977,-0.08479785
2978,-0.005393675
2979,-0.04635519
2980,-0.021944359
2981,-0.05834369
2982,0.001524696
2983,0.044045027
2984,-0.071541086
2985,-0.042199977
2986,-0.064107314
2987,-0.021781432
2988,-0.07607017
2989,-0.053017247
2990,-0.024176927
2991,-0.041728057
2992,-0.0508564
2993,-0.038193107
2994,-0.018726083
2995,-0.057556245
2996,-0.042632457
2997,0.014584922
2998,-0.047056444
2999,-0.040468115
3000,-0.016041763
3001,-0.051522188
3002,-0.065534495
3003,-0.066259824
3004,-0.018113656
3005,-0.0011810764
3006,-0.0628626
3007,0.004575478
3008,-0.020003067
3009,-0.040013425
3010,0.027368017
3011,0.03323882
3012,-0.015075052
3013,-0.0667318
3014,0.05800902
3015,0.016403576
3016,-0.066574216
3017,-0.05633651
3018,-0.03419899
3019,-0.036159437
3020,-0.011815235
3021,-0.016745744
3022,-0.016217824
3023,-0.036631305
3024,-0.011390443
3025,-0.002187572
3026,-0.05876104
3027,-0.05269674
3028,-0.0441435
3029,-0.052218184
3030,-0.0036920337
3031,-0.06102337
3032,-0.014133036
3033,-0.05881303
3034,-0.05390238
3035,-0.013018029
3036,-0.05285743
3037,0.02756136
3038,-0.005199651
3039,-0.010666029
3040,-0.025023557
3041,0.014117861
3042,-0.048576392
3043,-0.06764607
3044,0.06007354
3045,-0.0421962
3046,-0.048076123
3047,-0.04873099
3048,-0.052906886
3049,-0.008917947
3050,-0.022599822
3051,-0.025238084
3052,-0.009281263
3053,-0.035362035
3054,-0.03515902
3055,-0.017521827
3056,-0.04527014
3057,0.005984069
3058,0.023204092
3059,-0.049085215
3060,-0.04384248
3061,-0.04327618
3062,0.0054681688
3063,-0.078280084
3064,-0.041493215
3065,-0.03901752
3066,-0.029634748
3067,-0.0459997
3068,-0.070301175
3069,-0.03064391
3070,-0.05393787
3071,-0.0355825
3072,-0.027923496
3073,0.04215425
3074,-0.043646257
3075,-0.04697913
3076,-0.039850008
3077,-0.0051983357
3078,-0.034847073
3079,-0.02436059
3080,-0.057817187
3081,-0.00022101351
3082,-0.00840898
3083,-0.055406675
3084,-0.04864665
3085,0.0038364804
3086,-0.048099574
3087,0.00821323
3088,-0.049858563
3089,-0.039603524
3090,-0.032663766
3091,-0.034332726
3092,-0.066962786
3093,-0.05982117
3094,-0.045465477
3095,-0.034780014
3096,-0.024753407
3097,-0.013956131
3098,-0.040454928
3099,-0.051464926
3100,0.076461636
3101,-0.04863382
3102,-0.0163017
3103,-0.044062506
3104,0.049477603
3105,-0.08476011
3106,-0.0042639268
3107,-0.023544231
3108,0.049808517
3109,-0.056904152
3110,0.022172377
3111,-0.08382683
3112,-0.07152325
3113,0.05784755
3114,-0.0637322
3115,-0.03658531
3116,0.04175385
3117,-0.053297345
3118,-0.009053436
3119,-0.04108848
3120,-0.051506314
3121,-0.02750319
3122,0.037896372
3123,-0.05504777
3124,-0.039180443
3125,0.048394907
3126,-0.032413077
3127,-0.029658489
3128,-0.044670913
3129,-0.05149733
3130,-0.028916143
3131,-0.07731715
3132,-0.05426515
3133,0.015797948
3134,-0.061886396
3135,-0.038032472
3136,-0.041187998
3137,-0.0385166
3138,0.044837747
3139,-0.00046434527
3140,-0.046668343
3141,-0.066356994
3142,-0.035513274
3143,-0.02463184
3144,-0.06662208
3145,-0.009502898
3146,-0.04540245
3147,-0.036067195
3148,-0.0430608
3149,-0.030617664
3150,0.097988255
3151,-0.05328004
3152,-0.043388642
3153,-0.05638442
3154,-0.0425012
3155,-0.052848138
3156,0.033795405
3157,-0.05145737
3158,-0.060636964
3159,-0.060965504
3160,0.027582558
3161,-0.04019584
3162,0.048194353
3163,-0.009354391
3164,0.0077700564
3165,-0.048329588
3166,-0.044005226
3167,-0.03506911
3168,-0.026108552
3169,-0.019473668
3170,-0.04492133
3171,-0.06622285
3172,0.009238462
3173,-0.028504571
3174,-0.04805916
3175,-0.058004532
3176,-0.0068246895
3177,-0.0009587944
3178,-0.048469596
3179,-0.04033848
3180,-0.004609907
3181,-0.066185765
3182,-0.0474135
3183,-0.014870202
3184,-0.045399107
3185,-0.044225473
3186,-0.032701846
3187,-0.057609975
3188,-0.043397658
3189,-0.046206065
3190,0.04796175
3191,-0.052764695
3192,-0.04184683
3193,-0.040227447
3194,-0.010566169
3195,-0.044551995
3196,-0.036792036
3197,0.012767473
3198,-0.03895581
3199,-0.035692357
3200,-0.04456332
3201,-0.0079556145
3202,-0.0020988667
3203,-0.04391187
3204,-0.010190709
3205,0.049108543
3206,0.022844192
3207,0.011519324
3208,-0.041168094
3209,-0.046858303
3210,-0.02440591
3211,-0.05380761
3212,-0.04860403
3213,-0.021083666
3214,-0.02452768
3215,-0.019049454
3216,-0.050980307
3217,-0.035084456
3218,-0.06008833
3219,-0.0528331
3220,-0.06675425
3221,-0.007150794
3222,-0.04507805
3223,-0.034627598
3224,-0.052517574
3225,-0.02538925
3226,-0.0039532236
3227,-0.04974012
3228,-0.0274103
3229,-0.044573832
3230,-0.0019784134
3231,-0.034298223
3232,0.019481294
3233,-0.084970854
3234,-0.009414074
3235,-0.047383342
3236,0.031494733
3237,-0.02750948
3238,-0.017133655
3239,-0.056348875
3240,-0.07101821
3241,0.05365602
3242,-0.0086774705
3243,-0.035467163
3244,0.016458126
3245,-0.05287122
3246,0.05412295
3247,-0.03708421
3248,-0.029864348
3249,-0.041537803
3250,-0.009330412
3251,-0.0463947
3252,-0.039278816
3253,0.024934301
3254,-0.013429745
3255,-0.040235437
3256,-0.043333407
3257,-0.052655138
3258,-0.058624834
3259,-0.077017464
3260,-0.043578133
3261,0.015772257
3262,-0.04602207
3263,-0.043014787
3264,0.0008608091
3265,-0.03857625
3266,-0.0073407674
3267,-0.045175247
3268,0.037082456
3269,-0.0664978
3270,0.012914407
3271,-0.046613727
3272,-0.06548266
3273,-0.023820603
3274,-0.0454419
3275,-0.035846658
3276,-0.041890733
3277,0.05159976
3278,-0.041544657
3279,-0.036485802
3280,-0.013160749
3281,-0.055299293
3282,-0.045404393
3283,-0.04852721
3284,-0.009103592
3285,-0.05111624
3286,-0.04386185
3287,-0.03636319
3288,-0.014102694
3289,-0.032469384
3290,-0.0620046
3291,-0.010801931
3292,-0.053908326
3293,-0.0060475413
3294,-0.013041276
3295,-0.005933634
3296,-0.029228017
3297,-0.023958107
3298,-0.048323948
3299,-0.057457414
3300,-0.05649539
3301,-0.010690541
3302,-0.04726556
3303,-0.05295399
3304,-0.032448124
3305,-0.011255281
3306,0.0056904005
3307,-0.0361103
3308,-0.03937554
3309,-0.066142775
3310,-0.015739001
3311,0.06226707
3312,-0.044658262
3313,-0.039381225
3314,-0.025628032
3315,-0.043339986
3316,-0.003681799
3317,-0.046509746
3318,-0.03541825
3319,-0.048112493
3320,0.011395682
3321,-0.0303795
3322,-0.023759725
3323,-0.041324213
3324,-0.05108596
3325,0.013608579
3326,-0.023055496
3327,-0.03548746
3328,0.014799483
3329,-0.012606956
3330,0.02525697
3331,0.0342524
3332,-0.012387551
3333,-0.03235791
3334,0.06553147
3335,0.028878542
3336,-0.034757268
3337,-0.024849363
3338,-0.015759312
3339,-0.043972496
3340,-0.048503637
3341,-0.05238707
3342,-0.021088975
3343,-0.007704365
3344,-0.049177535
3345,-0.0064107156
3346,-0.032691177
3347,-0.045295864
3348,-0.016182294
3349,-0.023808653
3350,-0.04510797
3351,-0.026763314
3352,-0.05226215
3353,-0.020798502
3354,-0.021205828
3355,0.019913081
3356,0.03863218
3357,-0.05304617
3358,-0.047430824
3359,0.018031571
3360,-0.0142913675
3361,-0.043689404
3362,-0.017852241
3363,0.011490019
3364,0.010225201
3365,-0.05323085
3366,-0.013903807
3367,-0.023109075
3368,-0.04295913
3369,-0.023509657
3370,0.00038765636
3371,-0.010301681
3372,-0.010663006
3373,-0.019781735
3374,0.030685252
3375,-0.03526223
3376,-0.038846046
3377,-0.04242452
3378,0.019977342
3379,-0.035369955
3380,-0.038737074
3381,0.0017022601
3382,-0.0035792415
3383,0.013737716
3384,-0.018653946
3385,-0.0514013
3386,-0.048548147
3387,-0.034323804
3388,-0.009947516
3389,-0.0307927
3390,-0.032035414
3391,0.022522697
3392,-0.02546237
3393,-0.019818433
3394,-0.0017535298
3395,-0.027773947
3396,0.06910073
3397,-0.040556226
3398,-0.034450237
3399,-0.021939356
3400,-0.044622555
3401,-0.03486657
3402,0.031981613
3403,-0.03469773
3404,0.040470883
3405,-0.03441289
3406,0.031814467
3407,-0.042336263
3408,-0.016807431
3409,-0.014806832
3410,-0.039426994
3411,-0.045240417
3412,-0.023595722
3413,-0.034690596
3414,0.0068775555
3415,-0.013532782
3416,0.014313032
3417,-0.00043455118
3418,-0.023973709
3419,0.03169619
3420,-0.049865935
3421,0.0035738358
3422,0.0009588924
3423,-0.02061894
3424,-0.020748017
3425,-0.04606337
3426,-0.048624862
3427,-0.06706946
3428,-0.02820598
3429,-0.018244274
3430,-0.03992731
3431,-0.022774652
3432,-0.030480012
3433,0.015221599
3434,-0.012138331
3435,-0.020636437
3436,0.05401551
3437,-0.019473176
3438,-0.04620456
3439,0.06572847
3440,-0.043977182
3441,-0.02823895
3442,-0.00045829118
3443,0.0059625944
3444,-0.0015654125
3445,-0.014020329
3446,0.02684729
3447,-0.03905714
3448,-0.011469723
3449,-0.01944434
3450,-0.02679101
3451,-0.019049233
3452,-0.036661603
3453,-0.0038578575
3454,-0.04169438
3455,0.019708911
3456,-0.008861185
3457,-0.011888447
3458,0.015715964
3459,0.019029312
3460,-0.018966662
3461,0.0046009007
3462,0.0013281843
3463,-0.006592881
3464,0.00016183696
3465,-0.0053710532
3466,-0.01710503
3467,0.0053318935
3468,0.004696304
3469,-0.00910291
3470,0.0047233016
3471,-0.009798727
3472,0.007426832
3473,-0.0065070326
3474,0.0011619284
3475,0.0011961425
3476,0.00038386876
3477,-0.014569236
3478,-0.008730141
3479,-0.008872343
3480,-0.020359268
3481,-0.018994104
3482,-0.005028229
3483,-0.0019974501
3484,-0.018211324
3485,-0.016304241
3486,0.0006433246
3487,-0.006533752
3488,0.0011782708
3489,-0.0077291164
3490,-0.0051112813
3491,0.0015246187
3492,0.018379157
3493,0.010377525
3494,0.0008171386
3495,0.006467843
3496,-0.0018986141
3497,-0.000696254
3498,-0.017057963
3499,0.0022862386
3500,0.0102601815
3501,0.0024293766
3502,0.0042843334
3503,-0.004335374
3504,-0.01899514
3505,0.0044671237
3506,-0.015454535
3507,0.0001864093
3508,-0.0035595035
3509,0.005868119
3510,-0.0046610087
3511,0.011718514
3512,-0.00029253587
3513,-0.017544692
3514,-0.011244061
3515,-0.0029643273
3516,-0.0016681604
3517,-0.017268773
3518,-0.0034643565
3519,-0.007576283
3520,0.017801734
3521,-0.003331315
3522,0.008271488
3523,-0.0020568161
3524,0.00456602
3525,-0.010782212
3526,-0.0013247088
3527,-0.011345444
3528,-0.00015377332
3529,0.0070744785
3530,0.01781951
3531,-0.00910658
3532,0.008032888
3533,0.011461511
3534,0.004765849
3535,-0.0026101877
3536,0.016657889
3537,0.013597715
3538,-0.012610952
3539,0.013035462
3540,0.008624904
3541,-0.008624346
3542,0.0140350545
3543,0.0012595567
3544,-0.00070834754
3545,0.0029029567
3546,-0.0034853735
3547,0.012356291
3548,0.0010204216
3549,-0.0071287905
3550,-0.014154342
3551,0.00048423532
3552,0.0121739935
3553,0.0039202175
3554,0.00800696
3555,-0.011355447
3556,-6.8193214e-05
3557,0.005052911
3558,-0.0006732235
3559,-0.02037763
3560,-0.018132927
3561,0.01373862
3562,-0.0044559995
3563,-0.0052867993
3564,0.0044400017
3565,0.0068262084
3566,0.004660968
3567,0.018132875
3568,0.005286744
3569,0.018442975
3570,-0.0021759686
3571,-0.0038878995
3572,-0.0066299406
3573,-0.0014006586
3574,0.01600569
3575,0.006646118
3576,0.007471319
3577,-0.010879362
3578,0.0005720422
3579,0.019351356
3580,-0.001373764
3581,0.016846688
3582,0.022469006
3583,0.0074409363
3584,0.002580605
3585,-0.010110353
3586,0.0065260874
3587,-0.009804039
3588,0.0030366713
3589,0.0045281956
3590,-0.002170048
3591,0.009515705
3592,-0.0173075
3593,0.009433613
3594,-0.013352174
3595,-0.01678939
3596,-0.003012519
3597,0.01885894
3598,-0.0020681736
3599,0.0022757074
3600,-0.015001098
3601,-0.017126776
3602,-0.0028829419
3603,-0.0020821972
3604,-0.00023605206
3605,-0.008945452
3606,0.0056038206
3607,-0.0049340883
3608,-0.011602274
3609,0.019782782
3610,0.0064747958
3611,0.015188868
3612,0.0069403592
3613,0.004406085
3614,-0.0187795
3615,-0.010640515
3616,0.009387424
3617,0.0015454617
3618,0.006708934
3619,-0.00681288
3620,-0.0052429466
3621,-0.012766239
3622,0.003894611
3623,0.0053200494
3624,0.0069420827
3625,0.003756003
3626,-0.002913589
3627,-0.007027746
3628,-0.017230133
3629,0.0042766053
3630,0.007076141
3631,-0.00632631
3632,-0.009671643
3633,-7.678335e-05
3634,0.019547006
3635,-0.0042026998
3636,0.0019969055
3637,0.011246376
3638,0.0028328921
3639,-0.007959101
3640,-0.004540159
3641,-0.0015958406
3642,-0.013770525
3643,-0.008871986
3644,0.010165276
3645,-0.01898542
3646,-0.0024261952
3647,0.0020618492
3648,-0.0023509099
3649,-0.01029892
3650,-0.005856712
3651,-0.0038033822
3652,-0.0032955569
3653,0.016413385
3654,-0.0071485005
3655,0.0052098082
3656,0.0008290778
3657,0.0027163872
3658,0.003427574
3659,-0.013496109
3660,0.012261531
3661,0.0068077636
3662,0.014112971
3663,0.009512562
3664,-0.013266504
3665,-0.009576328
3666,-0.0052607385
3667,0.013163952
3668,-0.0015777315
3669,-0.00551194
3670,-0.0034997591
3671,-0.016730059
3672,-0.013197129
3673,-0.0042709913
3674,0.012154998
3675,0.007970232
3676,0.0012559795
3677,0.0060057417
3678,-0.0014894785
3679,-0.005998265
3680,-0.0058872956
3681,0.015037794
3682,-0.0034861725
3683,-0.019348087
3684,0.012961888
3685,-0.0063702953
3686,-0.013726792
3687,0.0008338069
3688,0.008309948
3689,-0.008101738
3690,-0.013467909
3691,0.0016173375
3692,-0.0005095318
3693,-0.009356486
3694,-0.012162478
3695,-0.006095588
3696,-0.008630543
3697,0.00998258
3698,-0.013576489
3699,-0.013622522
3700,0.01392935
3701,-0.014495889
3702,-0.005370469
3703,-0.01719238
3704,-0.0041901064
3705,-0.007976068
3706,0.0058332384
3707,0.0034811934
3708,0.008832756
3709,0.00081980415
3710,-0.009321676
3711,-0.014755037
3712,0.007818576
3713,-0.00605513
3714,0.0025869461
3715,-0.016030135
3716,-0.019399442
3717,0.013407788
3718,-0.0071547995
3719,0.0002117426
3720,-0.0031254017
3721,-0.00095937744
3722,-0.008007429
3723,0.006399988
3724,-0.0021988782
3725,-0.0043715006
3726,0.002497732
3727,0.009423122
3728,-0.005274913
3729,0.0016296975
3730,0.0017013154
3731,0.0016312045
3732,0.0021344852
3733,0.007007874
3734,-0.013284773
3735,-0.014772243
3736,0.0035275097
3737,0.0030225222
3738,-0.006231425
3739,-0.005798165
3740,0.0052098976
3741,-0.017727375
3742,-0.007114264
3743,0.008125584
3744,0.0035261395
3745,0.0056006745
3746,0.006187013
3747,-0.0076965373
3748,0.015369006
3749,-0.01225633
3750,0.0038503206
3751,0.00081458903
3752,-0.009168595
3753,-0.007953417
3754,-0.0023584128
3755,-0.0049607633
3756,0.001206255
3757,0.0053992537
3758,-0.00866042
3759,-0.011361187
3760,0.0005560843
3761,-0.0022425763
3762,0.0008674122
3763,-0.0038602597
3764,0.0031795327
3765,0.012575727
3766,0.012268812
3767,0.0036171526
3768,-0.0024708153
3769,0.00064941734
3770,0.004977444
3771,-0.0058230804
3772,0.002978223
3773,-0.0121411355
3774,0.006904701
3775,0.0030217962
3776,-0.0011882497
3777,-0.0064016036
3778,0.004679088
3779,0.008613948
3780,-0.0122198565
3781,0.009875277
3782,-0.006283855
3783,0.00876934
3784,-0.001754261
3785,0.0007263881
3786,0.008834285
3787,0.001788203
3788,-8.3892875e-05
3789,-0.0073495894
3790,-0.005130698
3791,-0.0061658
3792,0.001383914
3793,-0.009849887
3794,-0.006534111
3795,0.012649239
3796,0.0021134263
3797,0.00026602577
3798,0.0039598364
3799,-0.0010491462
3800,-0.0063523096
3801,-0.008061599
3802,-0.0008936391
3803,0.009443778
3804,-0.0054871505
3805,0.018847546
3806,-0.018649016
3807,0.0069260737
3808,0.01161113
3809,0.0017063258
3810,0.009019649
3811,-0.0020836235
3812,-0.005012221
3813,0.0019719414
3814,-0.004050789
3815,0.0055435384
3816,-0.0011809819
3817,-0.004338226
3818,0.0012782058
3819,0.0026372746
3820,0.0092439195
3821,0.007950197
3822,0.0011315166
3823,-0.019537415
3824,0.005633681
3825,0.0043797875
3826,0.008947014
3827,0.0035192892
3828,0.0030137198
3829,-0.010326344
3830,0.0009307675
3831,0.0054218196
3832,0.0025149104
3833,-0.004439771
3834,0.009514265
3835,0.0022378876
3836,0.0003497745
3837,-0.00960816
3838,-0.009166918
3839,0.007229136
3840,-0.001004951
3841,-0.0032102014
3842,-0.007305193
3843,0.016465772
3844,-0.005140232
3845,0.0072531365
3846,0.007668355
3847,-0.014591028
3848,0.00475988
3849,-0.00017766924
3850,0.0042137993
3851,-0.0053084963
3852,-0.008926304
3853,-0.008601933
3854,-0.006662921
3855,0.0005886418
3856,-0.004135468
3857,-0.009826674
3858,0.009648266
3859,-0.008581797
3860,0.0035635354
3861,0.001759023
3862,-0.0020287337
3863,0.0021701197
3864,0.012644889
3865,-0.001913159
3866,0.0010933869
3867,0.002261423
3868,-0.016636962
3869,0.008546888
3870,-0.00456522
3871,0.01129947
3872,0.010440478
3873,0.010253925
3874,-0.008280295
3875,0.0043240995
3876,0.016918581
3877,0.011685203
3878,0.0060576038
3879,-0.015379523
3880,-0.0046506445
3881,-0.003786126
3882,0.014684261
3883,-0.005131917
3884,0.007625016
3885,0.00086164597
3886,0.00043782985
3887,0.00012383716
3888,0.010114364
3889,-0.005307999
3890,-0.0023092448
3891,-0.005346965
3892,-0.0037006664
3893,0.011392014
3894,0.006883884
3895,-0.016363783
3896,-0.01565412
3897,0.0057049966
3898,-0.0016227379
3899,-0.0036502355
3900,0.00068208604
3901,-0.0019614666
3902,0.0068073133
3903,-0.0010732953
3904,0.0057626613
3905,0.004755647
3906,-0.00018737928
3907,0.012876939
3908,-0.00022393146
3909,-4.925645e-06
3910,-0.0060044336
3911,-0.009973997
3912,-0.009242818
3913,0.00097061164
3914,0.017359672
3915,0.007739691
3916,0.0050440747
3917,0.002448334
3918,0.0121531375
3919,0.017446635
3920,-0.012830143
3921,0.0069044344
3922,0.008881751
3923,0.012015221
3924,-0.0047084335
3925,0.005148492
3926,0.0129846055
3927,-0.008668774
3928,-0.006483781
3929,-0.010241949
3930,0.004719549
3931,-0.010726622
3932,-0.00679221
3933,0.01208545
3934,-0.009755913
3935,0.009744827
3936,-0.01365702
3937,0.00075501454
3938,0.0143107725
3939,0.010534517
3940,0.004299243
3941,0.011796696
3942,-0.001390269
3943,-0.009860259
3944,-0.008690954
3945,0.008432765
3946,-0.00718231
3947,-0.004879068
3948,0.005017053
3949,-0.0021856031
3950,0.0018284789
3951,-0.006462402
3952,-0.0056290906
3953,-0.0008975627
3954,0.0051304405
3955,-0.010295107
3956,0.003956146
3957,0.0054574315
3958,-0.0063918945
3959,0.00013661219
3960,0.0009464466
3961,-0.013493258
3962,0.00869653
3963,-0.0025022638
3964,0.00845475
3965,-0.016666781
3966,-0.005270675
3967,0.0041985074
3968,-0.008568584
3969,-0.009537527
3970,0.002880617
3971,-0.008008229
3972,0.008941018
3973,0.0104964385
3974,-0.004122457
3975,-0.00073572225
3976,0.0012658644
3977,-0.0030879762
3978,-0.0007609714
3979,0.012542577
3980,0.010473346
3981,-0.015132181
3982,0.0074313283
3983,-0.0027106225
3984,-0.0016951243
3985,9.208286e-05
3986,-0.005375116
3987,-0.0032619017
3988,-0.007386051
3989,4.6708723e-05
3990,0.012304052
3991,0.0046338285
3992,-0.01737533
3993,0.014294221
3994,-0.010519147
3995,0.001574247
3996,0.011536361
3997,0.003915627
3998,0.007291175
3999,-0.0032746776
4000,-0.015587294
4001,-0.0044758003
4002,0.0013438773
4003,-0.0029281431
4004,0.01688355
4005,-0.006092462
4006,-0.009762049
4007,-0.0088607725
4008,-0.0071604177
4009,0.008403679
4010,0.014436267
4011,-0.0052435026
4012,-0.008716413
4013,0.012661074
4014,0.008504941
4015,-0.010246392
4016,0.0005593773
4017,0.0070879194
4018,0.00710972
4019,0.006739099
4020,0.008056348
4021,-0.0059996606
4022,-0.002959888
4023,-0.0035296394
4024,0.0128359115
4025,-0.0034930771
4026,0.0067911637
4027,0.002689364
4028,-0.009308681
4029,0.011858177
4030,0.007052799
4031,0.012950546
4032,0.0062920335
4033,0.0075470833
4034,-0.0006382679
4035,-0.004322233
4036,0.019048654
4037,-0.01756127
4038,0.0138113415
4039,-0.011283489
4040,0.005860381
4041,0.0022157126
4042,-0.013501531
4043,0.004926013
4044,-0.0053643677
4045,0.01345296
4046,-0.0052979444
4047,0.0003909834
4048,-0.0077168974
4049,-0.004311107
4050,-0.004038378
4051,-0.009445046
4052,-0.01656883
4053,-0.002547677
4054,-0.006688023
4055,-0.00888068
4056,0.012281398
4057,0.013642853
4058,0.011257721
4059,-0.0035200268
4060,0.00835605
4061,-0.0070244796
4062,0.006471426
4063,0.0009242517
4064,0.014486477
4065,0.003904893
4066,0.012697054
4067,-0.00044156885
4068,0.0021423032
4069,0.01108348
4070,0.014882911
4071,0.013378247
4072,0.00034676204
4073,-0.006943674
4074,0.0026864605
4075,-0.0097577255
4076,0.0031746184
4077,-0.008187288
4078,-0.0064500105
4079,0.001404464
4080,-0.0106408475
4081,-0.014054765
4082,0.014119439
4083,0.005693381
4084,0.01095822
4085,0.0070008826
4086,-0.004604601
4087,-0.0048829094
4088,-0.0061570536
4089,-0.007608033
4090,0.002946795
4091,-0.008100403
4092,-0.0020066055
4093,0.017687254
4094,0.0073479987
4095,0.0026684469
