Sno,Weight
0,0.0050209854
1,0.006862149
2,0.051553678
3,-0.011892706
4,-0.14957206
5,-0.09513682
6,0.031786114
7,-0.12731977
8,-0.053723183
9,-0.081839
10,0.014275652
11,-0.0093064755
12,0.008697613
13,-0.049875688
14,0.060942795
15,-0.041557394
16,0.03415726
17,-0.015418537
18,-0.06411553
19,-0.044314217
20,-0.11140663
21,-0.1068755
22,-0.21188791
23,-0.048822835
24,0.101464696
25,-0.08886571
26,-0.048568685
27,-0.06449961
28,-0.06399101
29,0.0041025635
30,-0.026840748
31,-0.09015881
32,-0.1480776
33,0.045621794
34,-0.005893541
35,-0.017972419
36,-0.14398256
37,-0.03926572
38,-0.035197236
39,-0.009564943
40,-0.10025215
41,-0.0034025002
42,0.009638742
43,0.027115993
44,-0.018857809
45,-0.20716962
46,-0.01121018
47,0.032159712
48,-0.21792382
49,-0.051234484
50,0.040237024
51,0.017097285
52,0.01581087
53,-0.068398416
54,0.046782948
55,-0.058061678
56,-0.14167817
57,0.0022240833
58,-0.10144012
59,0.007399849
60,-0.014285521
61,0.015311708
62,-0.030913226
63,-0.04722436
64,-0.06196803
65,-0.15119207
66,0.06176751
67,-0.048321363
68,-0.04843836
69,-0.02417205
70,0.04433399
71,-0.117910996
72,0.02550207
73,0.0076311296
74,-0.0029041911
75,-0.017675605
76,-0.010229475
77,0.012175623
78,-0.10128472
79,-0.24423589
80,-0.017481832
81,-0.040936064
82,0.033513524
83,-0.04260826
84,-0.09226635
85,-0.089665614
86,-0.016196843
87,-0.017017644
88,-0.1784546
89,-0.0047660894
90,-0.017619152
91,-0.01749701
92,-0.0033759226
93,0.0055549415
94,-0.0500708
95,0.011600479
96,0.02026972
97,-0.3225021
98,-0.15174912
99,0.010471157
100,-0.07357963
101,0.03308165
102,-0.006393171
103,0.060084786
104,0.03167199
105,-0.0072027096
106,-0.04347602
107,0.04575481
108,-0.15239266
109,-0.091935724
110,-0.26825795
111,-0.2004401
112,-0.0493591
113,-0.0325189
114,-0.00056400424
115,-0.11567378
116,-0.09423436
117,0.026073659
118,-0.06751732
119,-0.0037102553
120,-0.0138110425
121,-0.0016610003
122,-0.022383463
123,-0.20729099
124,0.034346096
125,0.0083614085
126,-0.03891282
127,-0.043253653
128,0.05712964
129,0.0149586825
130,0.035973616
131,0.037993662
132,-0.038498145
133,-0.13857622
134,0.014458808
135,0.011231092
136,-0.02216588
137,0.015449645
138,0.016303662
139,-0.03661325
140,0.0027589153
141,0.031060662
142,0.04169354
143,0.041887276
144,0.06537185
145,-0.09005032
146,0.004476952
147,-0.0018907419
148,-0.020689365
149,-0.055083703
150,-0.057230853
151,0.043662935
152,0.020993052
153,-0.002991845
154,-0.09753684
155,-0.08082582
156,-0.051773515
157,-0.0022593038
158,-0.15738823
159,0.091727845
160,0.0056141885
161,-0.018016918
162,0.00062890863
163,-0.049234927
164,-0.044083424
165,0.022804873
166,0.036692303
167,-0.074544884
168,0.029928925
169,0.035881873
170,-0.01232425
171,0.03900765
172,-0.0040151943
173,-0.005829012
174,0.040794734
175,-0.003910721
176,-0.062264092
177,0.008954073
178,-0.012819323
179,-0.03330828
180,-0.00010821573
181,0.017753212
182,0.051460616
183,-0.10150623
184,0.020150712
185,-0.054180894
186,0.029498018
187,0.04502407
188,0.022310367
189,0.010352911
190,-0.0017744871
191,-0.052581333
192,0.041204657
193,-0.00026100283
194,0.0004154967
195,0.02801381
196,0.015342056
197,-0.07124111
198,-0.004597882
199,0.08210521
200,0.06300763
201,-0.024351185
202,-0.04200735
203,-0.043257415
204,-0.062445264
205,-0.003780769
206,-0.07237527
207,-0.019445533
208,-0.12331648
209,-0.13494708
210,-0.011551369
211,-0.054541375
212,-0.12085496
213,0.04628003
214,-0.026061304
215,0.025086038
216,-0.06487697
217,-0.077465795
218,-0.007310273
219,-0.0021415756
220,-0.055924334
221,-0.05639994
222,-0.08355951
223,-0.03163513
224,-0.07287023
225,0.028420957
226,-0.11298432
227,-0.05769083
228,0.018237375
229,0.034227632
230,0.023053702
231,-0.116664365
232,0.029241709
233,-0.019896915
234,-0.0033380627
235,-0.01846099
236,0.044726998
237,0.034101836
238,0.029580485
239,-0.02477407
240,-0.06884306
241,-0.003972913
242,-0.04700564
243,-0.06327598
244,-0.14183106
245,-0.047156315
246,-0.0019336602
247,-0.05684738
248,-0.08218417
249,0.002137196
250,-0.038552143
251,0.021267278
252,0.042664103
253,0.025703605
254,-0.0033203675
255,-0.053928226
256,0.05592022
257,0.049725592
258,-0.083796315
259,0.04571322
260,0.06838778
261,-0.0057529723
262,0.014210365
263,-0.028008131
264,-0.0027526265
265,0.004693346
266,0.036818605
267,-0.0057919174
268,-0.004576568
269,0.027460303
270,0.067843676
271,0.041762244
272,0.073607005
273,0.017102536
274,0.030847836
275,0.026426664
276,0.04136532
277,-0.14337942
278,0.032455403
279,-0.0860554
280,0.018022288
281,0.008578096
282,-0.25638458
283,-0.014052701
284,0.017431853
285,-0.024026612
286,-0.013949246
287,0.007432633
288,0.09994242
289,0.0056727673
290,0.06568431
291,-0.0047004595
292,-0.062481247
293,-0.012476245
294,0.010218542
295,-0.050227754
296,-0.066878386
297,0.046810023
298,0.00016438532
299,0.029091936
300,-0.02361477
301,0.047126323
302,0.0023359538
303,-0.004835007
304,-0.0019982464
305,-0.017835964
306,-0.013211051
307,-0.014555183
308,0.00872617
309,-0.044988103
310,0.06575575
311,0.012127037
312,0.006450954
313,0.040143438
314,0.013264804
315,0.024743
316,0.02959208
317,0.014405313
318,0.05417698
319,0.0023648918
320,0.013622643
321,0.081288666
322,0.040137406
323,0.026963342
324,0.048643984
325,-0.048148565
326,0.013773759
327,0.0020961287
328,0.038090922
329,0.048373185
330,-0.027216176
331,-0.1714527
332,-0.04032326
333,-0.01954645
334,-0.012172408
335,0.023661856
336,-0.0004656971
337,-0.025200963
338,-0.0037785089
339,-0.039990988
340,-0.0043651317
341,0.053454492
342,-0.004253086
343,-1.510042e-06
344,-0.020335292
345,-0.02471755
346,-0.0057110596
347,0.0077726175
348,-0.055833604
349,0.013514533
350,-0.058255337
351,-0.011491332
352,-0.050394546
353,0.07499489
354,0.04439099
355,-0.015311795
356,-0.023806728
357,0.03906662
358,-0.0039582807
359,-0.01458432
360,0.023728881
361,0.004688693
362,0.057660688
363,0.0120276995
364,-0.02502749
365,-0.004776144
366,0.056181684
367,0.03845129
368,0.0041753976
369,0.011386701
370,0.049845457
371,-0.0076539144
372,-0.02841989
373,-0.109798945
374,-0.056135666
375,0.03331815
376,-0.015584089
377,-0.0060505816
378,-0.0015082211
379,0.07288729
380,-0.057040878
381,-0.00498501
382,0.0028360288
383,-0.012067718
384,-0.016295126
385,0.07499802
386,-0.17823426
387,0.011945598
388,-0.016632529
389,-0.032437835
390,-0.022132846
391,-0.17924985
392,-0.026723647
393,0.005382794
394,-0.07987649
395,0.031138133
396,-0.0099147465
397,0.02903304
398,-0.1435224
399,0.071586706
400,-0.08612317
401,-0.041684307
402,0.0132166045
403,-0.0112589365
404,-0.046851255
405,0.18472517
406,-0.025517061
407,-0.14681108
408,-0.022319565
409,-0.071264625
410,0.077992134
411,-0.06881213
412,0.14597176
413,-0.01105562
414,-0.025636407
415,-0.016666047
416,-0.05327859
417,-0.03530069
418,-0.034009147
419,0.014448394
420,-0.028465573
421,0.057207324
422,0.03318711
423,0.23274161
424,-0.19016673
425,-0.008051665
426,-0.004262335
427,-0.040529277
428,-0.014220545
429,0.055737894
430,0.026566237
431,-0.0053731548
432,-0.036014166
433,-0.010564746
434,0.009643767
435,-0.046075072
436,-0.012746648
437,0.10895037
438,-0.09352266
439,0.14774762
440,-0.00034835126
441,0.009743906
442,0.0051640975
443,-0.050663985
444,-0.018248294
445,0.010673205
446,-0.08597413
447,0.1430655
448,-0.011809749
449,0.012682674
450,-0.07531562
451,-0.10711539
452,0.14456782
453,0.12999803
454,0.04321267
455,0.073245525
456,-0.041298702
457,-0.15976022
458,0.06933751
459,0.09345173
460,0.11636122
461,-0.01582199
462,-0.12784871
463,0.26888224
464,0.12891278
465,-0.071052805
466,-0.19068906
467,0.028327238
468,-0.038264446
469,0.0034337319
470,0.020874504
471,0.023439547
472,0.11100706
473,0.07875409
474,0.0021691695
475,0.007398364
476,-0.0064973044
477,-0.03946973
478,0.096677296
479,0.059164155
480,-0.008707161
481,-0.07590288
482,-0.018252194
483,-0.011495918
484,-0.051231083
485,-0.04026904
486,0.016883302
487,-0.050511494
488,-0.13676393
489,0.019040354
490,0.12121289
491,0.018640915
492,0.016708817
493,0.03639765
494,0.00032664678
495,-0.056329586
496,-0.0036080917
497,0.116156064
498,0.05401283
499,-0.026857255
500,-0.0014238851
501,-0.049225885
502,0.016770126
503,-0.016081091
504,0.027575303
505,-0.0076510715
506,-0.026500337
507,-0.033351153
508,-0.1885556
509,0.043508694
510,-0.011686506
511,0.014121672
512,0.0038174638
513,-0.008859686
514,0.052826516
515,0.042125084
516,-0.13828145
517,-0.018781858
518,0.07224346
519,-0.101242036
520,-0.003286122
521,-0.016521385
522,0.004130455
523,-0.013439945
524,0.004783323
525,0.01732638
526,0.056532912
527,-0.069483034
528,0.0603447
529,-0.059901368
530,-0.024435876
531,0.056826416
532,-0.042298786
533,-0.012755361
534,-0.08227428
535,0.0025390603
536,-0.06451063
537,-0.07267853
538,-0.041143652
539,0.024251662
540,-0.064576365
541,0.0026060396
542,-0.019716114
543,-0.03506201
544,-0.020306787
545,0.032695413
546,-0.014663111
547,-0.021908773
548,0.024525981
549,-0.021960318
550,-0.042500407
551,-0.034157436
552,0.028105166
553,-0.0121769495
554,-0.00804716
555,0.007188422
556,-0.004733737
557,-0.03641985
558,-0.010467208
559,0.002445748
560,-0.013286369
561,-0.003059514
562,0.014883073
563,0.00990686
564,-0.017269976
565,-0.016480604
566,0.0424222
567,-0.03133858
568,0.021053176
569,0.00311296
570,0.011460589
571,0.048316482
572,-0.06345663
573,0.0339416
574,-0.026876368
575,0.008427664
576,-0.0056807245
577,-0.022372138
578,0.007630351
579,0.022237564
580,-0.045720834
581,-0.030400954
582,0.021940276
583,0.021508107
584,0.020183295
585,0.039065935
586,-0.0047656833
587,-0.043316353
588,0.0029447356
589,-0.022011781
590,-0.019883236
591,-0.046794295
592,-0.028787803
593,0.0075338674
594,0.015134321
595,-0.0094321165
596,-0.049004897
597,-0.020742523
598,0.03545391
599,0.0012595088
600,-0.013581306
601,-0.060083043
602,0.0004559114
603,-0.010129689
604,0.014965357
605,-0.043892607
606,-0.043481663
607,-0.018362183
608,-0.019586388
609,-0.084354036
610,-0.09736786
611,-0.019811302
612,0.15214951
613,0.048980355
614,0.006977078
615,-0.004910612
616,0.038780037
617,0.017003171
618,0.00034833004
619,0.043690946
620,-0.015318037
621,-0.026556088
622,-0.0328813
623,-0.009242821
624,0.0024551544
625,-0.016984921
626,-0.046527036
627,0.021576064
628,0.035956725
629,-0.011551673
630,-0.0031145061
631,0.010362755
632,-0.017618159
633,-0.0073209917
634,-0.0021152114
635,-0.13148636
636,0.06925309
637,0.0029017793
638,0.01535539
639,0.0059117405
640,-0.018502679
641,0.06874186
642,-0.03521612
643,-0.020538215
644,-0.07772569
645,-0.034888364
646,-0.06860483
647,-0.09741589
648,-0.017108181
649,-0.06554954
650,-0.030020239
651,-0.0096296
652,0.016210837
653,-0.040053967
654,0.0022761002
655,-0.03478983
656,0.0328055
657,0.061024155
658,-0.018886928
659,-0.018433966
660,-0.051377803
661,-0.019241031
662,-0.079568446
663,0.004752042
664,-0.020027164
665,-0.02800479
666,0.037240647
667,-0.039075658
668,0.013070338
669,0.006017945
670,-0.0535493
671,-0.14878029
672,-0.09902485
673,0.017965972
674,-0.027355282
675,-0.00621624
676,-0.08422472
677,-0.0141873155
678,0.017443668
679,-0.0018728576
680,-0.029645842
681,-0.00016500636
682,0.0014497712
683,-0.06304683
684,-0.011481437
685,0.047145788
686,-0.114946775
687,-0.013511295
688,-0.12311364
689,-0.0074911653
690,-0.009108354
691,-0.0058875377
692,-0.0019447693
693,0.0034356385
694,0.011814774
695,-0.020028342
696,-0.06174193
697,0.012919531
698,-0.014278375
699,0.015824737
700,-0.019051863
701,0.028669903
702,-0.025193863
703,-0.06211982
704,-0.0144867655
705,-0.05763724
706,-0.027244989
707,-0.023721153
708,0.018453084
709,0.01014655
710,-0.0064139743
711,0.004985013
712,0.053506535
713,-0.043584246
714,-0.0137287285
715,-0.0067615197
716,0.010293215
717,-0.012369712
718,-0.086678505
719,0.032504175
720,0.022554958
721,-0.02770011
722,-0.058247942
723,-0.008496094
724,-0.012005257
725,-0.09502925
726,-0.017162178
727,-0.04002212
728,-0.0068675107
729,0.05881367
730,-0.016565757
731,-0.008805562
732,-0.012959414
733,-0.008960477
734,0.008979456
735,-0.004413959
736,-0.02103969
737,-0.07791657
738,-0.004560275
739,-0.024922272
740,-0.13416852
741,-0.10317163
742,-0.011990566
743,0.019633291
744,-0.029505972
745,-0.004413322
746,-0.049001537
747,0.012960177
748,-0.12169623
749,-0.116295606
750,0.007152269
751,-0.12950572
752,-0.14890686
753,0.046364453
754,0.012860863
755,-0.09374315
756,0.0006217604
757,-0.10481361
758,0.004294366
759,-0.010777979
760,-0.05133977
761,-0.013977388
762,-0.011091782
763,-0.05305954
764,-0.087803066
765,-0.0062334007
766,0.0052538193
767,-0.010845874
768,-0.008084952
769,0.021605937
770,0.005749698
771,-0.0055333544
772,-0.04631808
773,-0.036768716
774,0.018539652
775,-0.113573216
776,-0.023296442
777,-0.021078177
778,0.011469163
779,-0.034490306
780,-0.020504607
781,-0.0050475197
782,-0.16724119
783,0.041570347
784,-0.038855556
785,-0.0070020645
786,0.018251354
787,-0.028345246
788,-0.03795653
789,0.08028157
790,0.004293814
791,-0.07999554
792,-0.008313549
793,-0.0023706376
794,-0.0071070683
795,-0.066419676
796,0.039547198
797,-0.008584653
798,-0.082536355
799,-0.0560135
800,-0.058869146
801,-0.05174932
802,-0.12130446
803,-0.013234692
804,0.013817741
805,0.043948885
806,-0.06489834
807,0.03522802
808,-0.067467526
809,-0.055775177
810,-0.017051237
811,-0.0008738673
812,-0.011310379
813,0.10722005
814,0.0056737307
815,-0.042568754
816,-0.05926639
817,-0.0632435
818,-0.019667178
819,-0.032589093
820,-0.015544005
821,0.039085798
822,-0.05301414
823,0.06150233
824,-0.01877686
825,-0.047373213
826,-0.043258093
827,0.0090531055
828,-0.035403267
829,-0.036957853
830,-0.068574734
831,0.053039655
832,-0.03581222
833,-0.028631022
834,0.005371278
835,-0.02993821
836,-0.037208095
837,-0.01415548
838,0.003307017
839,-0.022103816
840,0.0036251205
841,-0.2666321
842,0.010836071
843,-0.027162129
844,0.018853597
845,-0.022524916
846,-0.0702763
847,0.0395964
848,0.011276044
849,-0.027615394
850,0.038104687
851,-0.08903821
852,-0.020633154
853,0.026390398
854,0.008073226
855,-0.042822316
856,0.09617631
857,0.034551673
858,-0.028363422
859,-0.004820126
860,-0.012587056
861,-0.080679186
862,0.012288093
863,-0.05281092
864,-0.027401207
865,-0.09255651
866,0.018759456
867,-0.017001504
868,-0.066608034
869,0.0038802116
870,-0.01388153
871,-0.0363845
872,0.012019122
873,-0.00021271923
874,-0.08137812
875,0.011223794
876,-0.04020193
877,0.025667263
878,-0.06355514
879,-0.07703866
880,-0.009259188
881,-0.02345292
882,-0.0032661522
883,0.0360718
884,-0.04341547
885,-0.06558357
886,-0.05081327
887,-0.036267348
888,-0.036999103
889,0.012678973
890,-0.036509268
891,0.008086776
892,0.017634645
893,0.04733909
894,-0.07690558
895,-0.006311952
896,-0.05543482
897,-0.019045552
898,0.08771266
899,-0.029206479
900,-0.0294439
901,0.10913826
902,0.010865594
903,0.013459734
904,0.0018474999
905,-0.006997164
906,-0.009596714
907,0.017289048
908,0.00046841658
909,0.031973984
910,0.04732182
911,-0.03459496
912,0.09428136
913,0.077907614
914,-0.15553008
915,0.027313532
916,0.047234643
917,-0.15210858
918,0.069199525
919,-0.035761204
920,-0.016809566
921,0.015062177
922,-0.02218047
923,0.050763935
924,-0.026390098
925,0.017339177
926,0.06591835
927,-0.024390763
928,0.021392697
929,0.0030892252
930,0.0055505596
931,-0.0035161695
932,-0.02956902
933,0.019026004
934,-0.06382176
935,-0.15965782
936,0.04784503
937,-0.009716867
938,0.012883179
939,-0.027149402
940,-0.009709283
941,-0.002715078
942,0.017773196
943,-0.003144453
944,0.027219176
945,0.0056324
946,-0.006336054
947,-0.057219412
948,0.0057768496
949,-0.039694674
950,0.061161056
951,-0.19758885
952,0.02687227
953,-0.18624884
954,0.017661363
955,0.025905803
956,0.007577421
957,-0.01321413
958,-0.08343048
959,-0.12165049
960,-0.0044848844
961,0.041968517
962,-0.029478803
963,0.05776136
964,-0.03034194
965,-0.15952525
966,-0.010973729
967,0.075716235
968,0.04800477
969,-0.3588484
970,-0.001669338
971,-0.034878287
972,-0.017543117
973,-0.027274452
974,-0.08345819
975,-0.13892177
976,-0.13691789
977,0.08303644
978,0.060735688
979,-0.0015620735
980,0.0375593
981,0.028471904
982,-0.022973578
983,0.02087428
984,-0.055442788
985,-0.10265389
986,-0.005647207
987,-0.03647723
988,0.03886669
989,0.11843716
990,-0.09132706
991,0.0027046434
992,0.024194757
993,-0.037875693
994,0.019076489
995,-0.015800131
996,0.0069022877
997,-0.023839206
998,-0.00827038
999,0.031631295
1000,0.06979801
1001,0.00091027917
1002,0.031100549
1003,-0.0321122
1004,0.028083893
1005,-0.0060650874
1006,-0.07147622
1007,0.0127611365
1008,-0.11534157
1009,0.018118318
1010,0.01449943
1011,0.04975548
1012,0.084088184
1013,-0.03549235
1014,-0.0022391875
1015,-0.12125414
1016,0.012389257
1017,0.010666305
1018,-0.041060504
1019,-0.015536634
1020,0.050065387
1021,0.009861326
1022,-0.013210539
1023,-0.0075363587
1024,0.006268945
1025,-0.023597928
1026,0.09289207
1027,0.027910508
1028,-0.06471377
1029,-0.018867629
1030,0.06551785
1031,-0.039176308
1032,-0.0020728032
1033,-0.048520148
1034,0.10993318
1035,-0.015325476
1036,-0.0046829125
1037,0.041209094
1038,0.034408513
1039,0.06660355
1040,0.007052184
1041,-0.08179163
1042,-0.020785745
1043,-0.022999655
1044,-0.083612904
1045,-0.26584986
1046,-0.036028683
1047,-0.043157183
1048,0.1958457
1049,-0.09104889
1050,-0.030997168
1051,-0.035881612
1052,0.053139005
1053,0.0015028102
1054,-0.022555448
1055,-0.030131022
1056,-0.02943207
1057,0.0122733945
1058,-0.02197256
1059,0.009990664
1060,0.07323229
1061,-0.011997324
1062,-0.052867357
1063,0.024025666
1064,0.0016161541
1065,-0.01501723
1066,0.003469089
1067,0.11448941
1068,0.008468279
1069,-0.014918767
1070,-0.03934851
1071,-0.015175512
1072,0.051929213
1073,-0.011350196
1074,-0.014180636
1075,0.0060783024
1076,-0.020469228
1077,0.0063464465
1078,0.04717591
1079,0.037078783
1080,0.02534844
1081,-0.037981637
1082,0.008448447
1083,0.031967122
1084,-0.021916106
1085,0.024207182
1086,0.028721923
1087,-0.043638848
1088,-0.010707872
1089,-0.036415156
1090,0.21291086
1091,0.02938901
1092,-0.024586447
1093,0.029454697
1094,-0.022300838
1095,-0.03523868
1096,0.044478152
1097,-0.116021
1098,-0.014477492
1099,0.015136388
1100,0.033951677
1101,0.00032403204
1102,-0.042917337
1103,-0.15463573
1104,0.02211482
1105,-0.016693791
1106,0.104839146
1107,-0.003730713
1108,-0.07221252
1109,0.029931532
1110,-0.023258552
1111,-0.0026001816
1112,0.030116666
1113,-0.008686967
1114,-0.017961374
1115,-0.00739182
1116,-0.0061311205
1117,-4.976569e-05
1118,0.023410039
1119,-0.01911874
1120,-0.0032261482
1121,-0.06172681
1122,0.0035373636
1123,0.0045752143
1124,-0.030465446
1125,0.12717159
1126,0.0031425192
1127,-0.08253341
1128,-0.007785107
1129,-0.01892989
1130,0.014336269
1131,0.1840902
1132,-0.059006765
1133,-0.10818436
1134,-0.10126593
1135,-0.07413079
1136,0.007306753
1137,-0.0013268697
1138,0.012837943
1139,-0.02733088
1140,-0.004408046
1141,0.018243598
1142,-0.014869091
1143,-0.003568761
1144,-0.0074055316
1145,0.016447201
1146,0.0001137582
1147,-0.15258029
1148,0.08927538
1149,0.027760588
1150,-0.04807687
1151,0.011607278
1152,-0.009812911
1153,-0.0718416
1154,0.016498655
1155,-0.022269944
1156,0.0010649167
1157,0.026254334
1158,-0.01810116
1159,0.03835164
1160,-0.0413792
1161,-0.00015803825
1162,-0.01719243
1163,-0.038893133
1164,0.0032316756
1165,-0.047049187
1166,-0.2949025
1167,-0.11557367
1168,-0.2880527
1169,-0.04302715
1170,-0.08095376
1171,0.008796769
1172,0.03376446
1173,-0.025306486
1174,0.045607336
1175,0.09546543
1176,-0.00032503088
1177,0.0012739478
1178,-0.007423189
1179,0.019237425
1180,0.06106555
1181,0.004259753
1182,0.036969934
1183,0.057134252
1184,0.026386444
1185,0.011428868
1186,0.04210817
1187,-0.010796414
1188,-0.0036423022
1189,0.005430087
1190,-0.00058372016
1191,0.018895632
1192,0.04303494
1193,-0.012699412
1194,-0.0031912029
1195,-0.049849946
1196,-0.020904185
1197,-0.0774296
1198,0.0095268125
1199,-0.013878285
1200,0.01045658
1201,-0.041005947
1202,-0.029295811
1203,-0.009838854
1204,0.010706082
1205,-0.05631799
1206,-0.31927988
1207,-0.06342451
1208,0.021833172
1209,-0.09001855
1210,0.030424882
1211,-0.08012316
1212,-0.0014511041
1213,0.0045556235
1214,0.031131651
1215,-0.027873958
1216,0.04809112
1217,0.036617603
1218,-0.0026933607
1219,-0.0698208
1220,-0.061146542
1221,-0.017587353
1222,-0.0082129715
1223,-0.00708492
1224,-0.06280012
1225,-0.023621662
1226,-0.010773735
1227,0.012792407
1228,0.07545273
1229,-0.012959996
1230,-0.03464303
1231,-0.017485999
1232,-0.00016100341
1233,0.005607112
1234,-0.07505355
1235,0.010954696
1236,0.03432679
1237,-0.023835316
1238,0.0012689393
1239,0.009946514
1240,0.029694196
1241,-0.005372814
1242,-0.009439262
1243,-0.017450769
1244,-0.01452571
1245,0.04953371
1246,-0.004874192
1247,-0.035307392
1248,0.009339826
1249,0.038121484
1250,-0.016635062
1251,0.008210089
1252,-0.022424648
1253,-0.012808896
1254,-0.0009214428
1255,0.029763931
1256,-0.12172637
1257,-0.0036423113
1258,0.04323304
1259,-0.02419537
1260,0.041989014
1261,0.03230481
1262,0.035981163
1263,0.055743903
1264,-0.028358085
1265,0.07351052
1266,-0.049896356
1267,0.03789064
1268,0.030256854
1269,0.0027020327
1270,-0.019857945
1271,-0.06482952
1272,-0.019217558
1273,-0.015767766
1274,-0.019041933
1275,0.019601392
1276,-0.07125925
1277,-0.049801297
1278,-0.03931006
1279,-0.005642912
1280,-0.048989087
1281,0.027120784
1282,-0.04230894
1283,-0.0021080414
1284,0.036318455
1285,0.025146866
1286,0.034817453
1287,-0.032627836
1288,0.026959848
1289,-0.04712392
1290,-0.06552582
1291,0.035974335
1292,-0.0072575635
1293,0.02339128
1294,-0.10219609
1295,-0.11514293
1296,-0.057397198
1297,0.042359244
1298,-0.03832183
1299,-0.030435981
1300,0.03561391
1301,0.07028689
1302,0.08049232
1303,0.03991851
1304,0.005669254
1305,0.09753326
1306,0.05245533
1307,0.045328006
1308,-0.030957082
1309,-0.010041187
1310,0.06297362
1311,-0.026804507
1312,-0.0075203003
1313,-0.04295971
1314,-0.07055047
1315,0.015937865
1316,-0.14381349
1317,-0.042336654
1318,0.01687876
1319,0.044067845
1320,-0.065108664
1321,0.041758917
1322,-0.0033858987
1323,-0.007939483
1324,-0.004390915
1325,-0.09059095
1326,-0.15140142
1327,-0.013750474
1328,-0.00039151483
1329,-0.018723723
1330,0.0062953145
1331,-0.019254318
1332,-0.013400993
1333,0.072574385
1334,-0.104333155
1335,0.019106468
1336,-0.021523533
1337,0.013463992
1338,-0.022768086
1339,-0.0366446
1340,0.012955309
1341,0.057347916
1342,0.04553963
1343,0.0064331917
1344,-0.07515447
1345,-0.040893342
1346,-0.019909406
1347,-0.11258331
1348,-0.031596135
1349,0.049822845
1350,0.027373968
1351,0.051065173
1352,-0.015819227
1353,0.028776368
1354,-0.018446798
1355,-0.09894707
1356,0.08278372
1357,-0.0033342778
1358,0.015204972
1359,0.0064392
1360,0.0071192887
1361,0.06564152
1362,-0.10292144
1363,0.021075469
1364,0.08488202
1365,-0.03757346
1366,0.033646155
1367,-0.011686498
1368,0.008854821
1369,0.026895057
1370,0.04752886
1371,0.05062724
1372,0.025495095
1373,0.06195619
1374,0.013904041
1375,0.000962482
1376,0.025997374
1377,0.023513107
1378,0.0014341869
1379,-0.00441743
1380,0.042633917
1381,0.007988015
1382,-0.01998556
1383,0.06184129
1384,-0.033358514
1385,0.049490042
1386,0.024008602
1387,-0.032473847
1388,-0.03986376
1389,-0.06180072
1390,-0.11284419
1391,0.08311629
1392,-0.014461413
1393,-0.06061673
1394,0.04882289
1395,0.005531863
1396,0.044589974
1397,-0.092644565
1398,-0.012439756
1399,-0.02163154
1400,0.048475284
1401,0.005816574
1402,-0.004327073
1403,-0.045515
1404,0.00054582616
1405,-0.019780759
1406,0.12048916
1407,0.028356602
1408,-0.055921067
1409,-0.06278659
1410,0.0336193
1411,-0.066481285
1412,0.0759276
1413,0.07152063
1414,-0.06285278
1415,-0.0056761308
1416,-0.041899532
1417,-0.035040487
1418,-0.04387648
1419,-0.0073449844
1420,-0.00055349845
1421,0.12017732
1422,-0.20919307
1423,-0.05877275
1424,-0.2692627
1425,0.0474731
1426,0.07856522
1427,0.036988005
1428,0.07036704
1429,-0.00081794773
1430,0.104984574
1431,0.08997036
1432,0.002611833
1433,-0.08528981
1434,-0.15551369
1435,0.04304571
1436,0.015845783
1437,-0.017617356
1438,0.11413838
1439,-0.019427935
1440,-0.021757245
1441,0.012446342
1442,0.0043992917
1443,-0.0060377694
1444,-0.03890257
1445,-0.008288947
1446,-0.09085729
1447,0.09998792
1448,-0.05065994
1449,-0.005310221
1450,-0.007039989
1451,-0.044802766
1452,-0.0054074195
1453,-0.32833105
1454,-0.008793415
1455,0.013539315
1456,0.077649385
1457,0.056656737
1458,0.0084711285
1459,0.0008550649
1460,0.014698803
1461,-0.093222
1462,-0.2831397
1463,-0.13886072
1464,0.028667888
1465,0.002746463
1466,0.14464678
1467,-0.09884333
1468,0.00767641
1469,0.036448658
1470,0.102395646
1471,-0.09722235
1472,0.05624762
1473,0.0026440313
1474,-0.07356156
1475,-0.19845195
1476,-0.014262427
1477,0.07665157
1478,0.012467723
1479,0.048441853
1480,-0.055676904
1481,-0.04837947
1482,-0.0019810179
1483,0.009276338
1484,0.08623437
1485,-0.009899032
1486,-0.00502994
1487,-0.16233708
1488,0.00046191167
1489,0.05030045
1490,-0.09510529
1491,0.015650142
1492,0.039310474
1493,0.02487257
1494,-0.023840202
1495,0.029873874
1496,0.04702424
1497,0.023471415
1498,-0.013209962
1499,-0.024110857
1500,-0.013351186
1501,0.10297311
1502,0.030766675
1503,-0.0058262805
1504,0.05409228
1505,0.07382385
1506,0.0073011667
1507,0.032440826
1508,0.009673941
1509,-0.062407326
1510,-0.017233923
1511,0.010202911
1512,-0.27160972
1513,0.033878345
1514,0.02071866
1515,-0.04940128
1516,-0.04845669
1517,-0.035945088
1518,0.027463501
1519,0.08793836
1520,-0.013410128
1521,0.11552079
1522,0.036894638
1523,0.04157712
1524,0.094541624
1525,-0.03753706
1526,0.027919633
1527,0.031903874
1528,0.012964416
1529,0.014432839
1530,-0.00812408
1531,-0.03480839
1532,-0.076101646
1533,0.020228514
1534,0.11257256
1535,-0.006484802
1536,-0.034551535
1537,0.04544112
1538,-0.026192147
1539,-0.015397825
1540,-0.003970969
1541,0.0010962032
1542,0.01863268
1543,-0.050498974
1544,0.00028856235
1545,-0.001959378
1546,-0.061942052
1547,0.001872877
1548,0.00953431
1549,0.039148163
1550,0.03702741
1551,0.07688778
1552,0.03679544
1553,-0.004809177
1554,-0.01659862
1555,-0.020879712
1556,-0.0262838
1557,-0.012693056
1558,-0.0052444283
1559,-0.038058408
1560,0.02236898
1561,0.006575518
1562,0.082470335
1563,-0.009599406
1564,0.01720537
1565,0.00205636
1566,0.015257934
1567,0.0029812516
1568,-0.058723804
1569,-0.036841057
1570,-0.069772005
1571,0.02822041
1572,-0.024655003
1573,0.014496122
1574,-0.034638222
1575,0.015590188
1576,-0.031170543
1577,0.0148900915
1578,-0.0046288343
1579,-0.02188289
1580,0.008323205
1581,0.030153422
1582,-0.0054798713
1583,0.0064876005
1584,0.027296439
1585,-0.037285972
1586,-0.020849211
1587,-0.04790266
1588,-0.008344214
1589,0.0120211225
1590,0.029260537
1591,0.1180732
1592,0.003858107
1593,-0.06921247
1594,0.014463036
1595,0.0492894
1596,0.002538682
1597,0.028059077
1598,-0.03584882
1599,0.09120557
1600,-0.004661399
1601,-0.04730542
1602,-0.045631688
1603,-0.0036128617
1604,-0.042451166
1605,0.020859217
1606,-0.020363929
1607,0.03615432
1608,0.042674206
1609,-0.37521
1610,-0.030889317
1611,-0.03608682
1612,0.015177367
1613,-0.022182602
1614,-0.12348621
1615,0.071782455
1616,-0.024275541
1617,-6.94378e-05
1618,-0.02279226
1619,0.055820554
1620,0.05552431
1621,0.081340276
1622,-0.013527995
1623,-0.016250245
1624,0.009604279
1625,-0.0120269675
1626,-0.03484168
1627,0.0013359274
1628,0.0019210922
1629,-0.03561491
1630,0.03364497
1631,-0.05935975
1632,0.032773964
1633,-0.14177673
1634,-0.016919717
1635,0.028400077
1636,0.032199502
1637,-0.01415182
1638,0.017182086
1639,0.009866784
1640,0.019436691
1641,-0.00775528
1642,-0.04143227
1643,0.02556834
1644,0.017571345
1645,0.0064455844
1646,-0.025431165
1647,-0.09634942
1648,-0.11147372
1649,0.026661944
1650,-0.025307147
1651,0.031376954
1652,0.022178186
1653,-0.11458099
1654,0.006905178
1655,-0.066813834
1656,-0.060619693
1657,0.011588707
1658,-0.025856141
1659,-0.039956145
1660,-0.046567917
1661,0.06706533
1662,-0.021400968
1663,-0.006944487
1664,-0.013829744
1665,-0.0022209103
1666,-0.0097203255
1667,0.011369508
1668,0.020063316
1669,-0.010999059
1670,-0.04091837
1671,0.017975667
1672,-0.030156042
1673,0.02389142
1674,-0.029610278
1675,-0.07299131
1676,-0.00018467891
1677,-0.021107327
1678,0.014405933
1679,-0.04005268
1680,0.024034113
1681,0.03492927
1682,-0.07419576
1683,-0.022563566
1684,0.0010203385
1685,-0.059439003
1686,0.013070433
1687,-0.011472486
1688,0.010513639
1689,-0.04078249
1690,0.047464594
1691,-0.021492885
1692,0.03986108
1693,0.0012385319
1694,-0.016828597
1695,0.053796906
1696,0.002745795
1697,0.03984164
1698,-0.038061306
1699,-0.031772908
1700,-0.03869101
1701,0.022717414
1702,-0.008134835
1703,-0.049124423
1704,0.00040148775
1705,0.0024333443
1706,-0.0072362125
1707,-0.010449284
1708,0.009518333
1709,0.051629744
1710,0.07017048
1711,0.031880833
1712,-0.051174324
1713,0.012815616
1714,0.01682854
1715,-0.007775363
1716,0.008078594
1717,0.008090219
1718,0.025525983
1719,-0.019353196
1720,0.0274757
1721,-0.07641908
1722,-0.017467994
1723,0.042807844
1724,-0.013176282
1725,0.029549392
1726,0.033006642
1727,-0.015862174
1728,-0.020413343
1729,0.035335563
1730,0.0035756105
1731,0.029233783
1732,-0.06310516
1733,-0.04945942
1734,-0.020751946
1735,0.02092848
1736,-0.068168215
1737,0.016525209
1738,0.012921366
1739,-0.0577007
1740,0.054295905
1741,-0.0041642697
1742,-0.033218443
1743,-0.065028474
1744,-0.06704005
1745,-0.019985488
1746,0.008852973
1747,-0.06013901
1748,-0.035387777
1749,-0.0043882644
1750,-0.03493451
1751,0.04481007
1752,-0.047989793
1753,-0.0939278
1754,-0.02980488
1755,-0.0100474935
1756,-0.002473417
1757,-0.012428207
1758,-0.039293487
1759,0.013508847
1760,0.008933107
1761,0.022251284
1762,-0.008060543
1763,-0.018708572
1764,-0.00059252064
1765,-0.0075762495
1766,0.005656044
1767,0.055098787
1768,-0.0069804434
1769,-0.0056011938
1770,0.007501427
1771,-0.05406123
1772,0.028438702
1773,0.068764046
1774,0.013753652
1775,0.015012524
1776,-0.08465897
1777,-0.04407092
1778,-0.005607233
1779,-0.025646975
1780,-0.019283507
1781,-0.02900155
1782,0.016251717
1783,-0.05921504
1784,-0.10475752
1785,-0.008886626
1786,-0.027232759
1787,0.011630202
1788,0.0029843794
1789,0.027698781
1790,-0.012265916
1791,-0.038155954
1792,-0.0368179
1793,0.0035393273
1794,-0.022244858
1795,-0.018602423
1796,0.023874603
1797,-0.031196846
1798,-0.013301024
1799,-0.07087859
1800,-0.043249346
1801,0.012202513
1802,-0.020863114
1803,-0.007985385
1804,0.0029654133
1805,-0.08308929
1806,0.031099448
1807,-0.15923704
1808,0.0322472
1809,-0.02882081
1810,-0.0901071
1811,-0.013234044
1812,-0.07480776
1813,-0.050315738
1814,-0.08842356
1815,-0.02395529
1816,-0.025739655
1817,-0.08165624
1818,-0.11376049
1819,-0.04846225
1820,-0.06515952
1821,-0.011003399
1822,-0.07193259
1823,-0.0042700213
1824,-0.024118025
1825,-0.009733265
1826,-0.034955807
1827,0.028351557
1828,-0.07855828
1829,-0.049214706
1830,-0.00026347907
1831,-0.060131595
1832,-0.059438422
1833,-0.012936353
1834,1.9483949e-05
1835,-0.003294629
1836,0.0054854406
1837,0.011658862
1838,0.010034241
1839,-0.031113207
1840,-0.04218509
1841,-0.074546866
1842,-0.04000774
1843,-0.03176611
1844,-0.006854191
1845,0.02002896
1846,-0.00027168862
1847,-0.07518577
1848,0.019595427
1849,-0.068968564
1850,-0.062287875
1851,0.025053235
1852,-0.024723345
1853,-0.106518276
1854,-0.067445464
1855,-0.1127008
1856,-0.028877484
1857,0.017137539
1858,-0.04182624
1859,-0.044566844
1860,-0.1775824
1861,-0.09367135
1862,-0.0058619487
1863,-0.03463903
1864,0.030298794
1865,-0.01371545
1866,-0.021160416
1867,-0.025438592
1868,-0.000286863
1869,-0.01045228
1870,-0.09730838
1871,-0.06507593
1872,-0.10478789
1873,-0.043612525
1874,-0.015000337
1875,-0.042593073
1876,-0.0648789
1877,-0.17671515
1878,-0.0069428952
1879,-0.01619911
1880,-0.08108632
1881,-0.0107388785
1882,0.018402623
1883,0.01558168
1884,0.010256176
1885,-0.10243879
1886,-0.049221076
1887,-0.066272385
1888,-0.004379892
1889,-0.037478007
1890,-0.078328125
1891,0.00032988412
1892,-0.08312421
1893,-0.004635293
1894,-0.012400315
1895,-0.021073
1896,-0.005352694
1897,-0.008147996
1898,-0.066198975
1899,-0.040207624
1900,0.0025163665
1901,0.01481064
1902,0.005812395
1903,-0.031559385
1904,-0.00037455047
1905,-0.06851139
1906,-0.037483085
1907,0.012198786
1908,-0.03946486
1909,-0.034412067
1910,-0.021932757
1911,-0.081609644
1912,-0.008379719
1913,-0.0023435333
1914,-0.026581269
1915,0.0011863229
1916,-0.017831892
1917,-0.055321243
1918,0.0062451065
1919,0.02326875
1920,0.029955445
1921,0.153539
1922,0.018751362
1923,0.027302539
1924,0.012062294
1925,-0.076211385
1926,-0.01591044
1927,-0.18339773
1928,-0.03684675
1929,0.0032056526
1930,-0.0032762813
1931,-0.048405584
1932,0.0067035803
1933,0.032978106
1934,0.035704657
1935,0.017361717
1936,0.034656752
1937,-0.07260058
1938,-0.026608583
1939,-0.027409228
1940,-0.13605978
1941,-0.03115116
1942,-0.08440994
1943,0.089599386
1944,0.001985417
1945,-0.016511213
1946,-0.056263372
1947,-0.049071
1948,-0.06543665
1949,-0.003493133
1950,-0.02270893
1951,0.0011497918
1952,-0.066767395
1953,-0.08598208
1954,-0.13235623
1955,-0.0011862237
1956,0.10334508
1957,-0.0068028662
1958,0.013530465
1959,0.035540447
1960,0.007530571
1961,-0.012610569
1962,-0.0025316386
1963,0.0033485754
1964,-0.003615165
1965,-0.030266767
1966,0.009780758
1967,-0.003597609
1968,-0.008300745
1969,-0.005753256
1970,-0.0061297584
1971,-0.0036501456
1972,-0.013763408
1973,0.11207194
1974,0.050909486
1975,-0.0064733415
1976,-0.04373382
1977,-0.01743041
1978,-0.008622628
1979,-0.0129084
1980,-0.025086759
1981,0.038945798
1982,-0.15435235
1983,0.02805428
1984,-0.00090035074
1985,-0.06336251
1986,-0.033103496
1987,0.00671083
1988,-0.042113375
1989,0.03315822
1990,-0.013991957
1991,0.046786126
1992,0.013794148
1993,-0.47612637
1994,-0.0038182645
1995,-0.045243897
1996,0.0098353755
1997,-4.0290757e-05
1998,-0.039957315
1999,-0.17069899
2000,0.04585349
2001,-0.045792013
2002,0.0014064908
2003,-0.040045038
2004,-0.09568
2005,0.007461594
2006,0.042161968
2007,-0.07465452
2008,0.06525892
2009,0.078751326
2010,-0.012074229
2011,0.0272653
2012,-0.0278599
2013,-0.023980385
2014,0.047579117
2015,0.008525609
2016,-0.009631918
2017,-0.15859273
2018,-0.07319452
2019,0.0059811953
2020,0.025761746
2021,0.02986561
2022,0.0024948956
2023,-0.23337024
2024,0.020759057
2025,0.0173682
2026,-0.016327646
2027,0.06452856
2028,-0.037008394
2029,-0.023438636
2030,-0.103862934
2031,-0.18313344
2032,0.03471637
2033,0.019969817
2034,-0.060763527
2035,-0.017884215
2036,-0.0067565315
2037,-0.05177752
2038,0.0031090402
2039,0.030311262
2040,-0.08777432
2041,0.006237154
2042,-0.026341235
2043,0.03136611
2044,0.041463204
2045,0.035212193
2046,-0.013379798
2047,-0.021089705
2048,-0.008280824
2049,-0.009896729
2050,-0.18669267
2051,-0.04659606
2052,-0.05592506
2053,-0.018475937
2054,-0.04711099
2055,0.009148442
2056,-0.0397845
2057,-0.06869421
2058,-0.069930114
2059,-0.088075995
2060,-0.002629421
2061,-0.006597316
2062,-0.23755078
2063,-0.018750843
2064,-0.1063315
2065,-0.0557525
2066,-0.043889638
2067,-0.006109205
2068,-0.06664582
2069,0.12198375
2070,-0.018233351
2071,0.002831536
2072,-0.035743203
2073,0.03117462
2074,0.0012727501
2075,-0.010415751
2076,0.020000448
2077,-0.010303522
2078,-0.012586401
2079,-0.013779464
2080,0.012947162
2081,0.012541375
2082,0.042863805
2083,-0.08238137
2084,-0.05698569
2085,0.031060617
2086,0.0063640177
2087,-0.020787165
2088,-0.10351448
2089,-0.008433758
2090,-0.020430492
2091,-0.072698474
2092,0.0068762745
2093,0.08080756
2094,-0.03872687
2095,-0.024420645
2096,-0.02871675
2097,-0.01799465
2098,-0.038580433
2099,-0.012957638
2100,0.0024496017
2101,0.033724006
2102,-0.11519288
2103,-0.04316903
2104,-0.0081039155
2105,0.008483793
2106,-0.023415748
2107,-0.11875875
2108,0.00020053073
2109,0.01081228
2110,0.0077064517
2111,-0.07414709
2112,-0.014833522
2113,0.025425961
2114,-0.062842414
2115,-0.07275296
2116,-0.026222333
2117,-0.015358713
2118,-0.051634237
2119,0.040245887
2120,-0.050038725
2121,-0.02697016
2122,-0.038015433
2123,0.12453736
2124,-0.044801205
2125,-0.012682348
2126,-0.060176685
2127,-0.08104336
2128,-0.034131076
2129,-0.003402885
2130,-0.1518496
2131,-0.031073665
2132,-0.009824421
2133,0.031073323
2134,-0.08064724
2135,0.0017638461
2136,-0.015313869
2137,-0.024276547
2138,-0.09036588
2139,-0.11254028
2140,-0.03147481
2141,-0.0607399
2142,-0.004094614
2143,-0.06151343
2144,0.00063419854
2145,-0.011327603
2146,0.022759097
2147,-0.016286986
2148,0.017291585
2149,-0.10816292
2150,-0.0016021166
2151,-0.0023080292
2152,-0.1797083
2153,-0.044549733
2154,0.045167103
2155,-0.08790571
2156,-0.025656013
2157,-0.017575134
2158,-0.06540274
2159,-0.0071126623
2160,0.0046215933
2161,-0.08108901
2162,-0.01915549
2163,-0.0029520567
2164,-0.024687748
2165,0.009161674
2166,0.002925701
2167,-0.0095812315
2168,-0.12030751
2169,0.004520741
2170,-0.035073902
2171,-0.08994109
2172,-0.19622944
2173,0.016716413
2174,-0.027143713
2175,-0.0787812
2176,0.046557274
2177,0.09463257
2178,0.048967406
2179,0.0037071125
2180,-0.0729356
2181,0.007381865
2182,0.02752611
2183,-0.19027835
2184,-0.109450705
2185,-0.15424912
2186,-0.054496065
2187,-0.07870295
2188,-0.003059704
2189,0.08690964
2190,0.056688737
2191,0.0021410228
2192,0.051539317
2193,0.04404446
2194,-0.027667599
2195,-0.02716326
2196,-0.029044276
2197,0.09707587
2198,-0.06948045
2199,0.03160819
2200,-0.017249208
2201,-0.045235336
2202,0.012737583
2203,0.008813632
2204,-0.002075903
2205,-0.0106743
2206,-0.0045464193
2207,-0.04152057
2208,-0.13705753
2209,0.028130934
2210,-0.035268355
2211,-0.05537172
2212,0.032276295
2213,0.009460501
2214,-0.014878646
2215,0.04491881
2216,0.0023193737
2217,0.016397174
2218,-0.0011780739
2219,0.0029226555
2220,0.018794697
2221,-0.021949822
2222,-0.13462432
2223,-0.0028174692
2224,-0.022797903
2225,-0.012806001
2226,-0.012946958
2227,0.006036367
2228,0.015317449
2229,0.08167844
2230,0.06443282
2231,0.12964222
2232,-0.13504197
2233,-0.08503475
2234,0.07320195
2235,0.02728241
2236,-0.029890802
2237,-0.00035705583
2238,-0.049367208
2239,0.1588413
2240,-0.020460185
2241,-0.1506001
2242,-0.013766294
2243,0.02222119
2244,-0.030115183
2245,0.0072507276
2246,-0.076397195
2247,0.01303902
2248,0.026651287
2249,0.10427404
2250,-0.031478792
2251,-0.03938197
2252,-0.025836602
2253,0.0126900915
2254,0.11528707
2255,0.11775732
2256,0.027763493
2257,0.017175775
2258,0.030413039
2259,-0.038162787
2260,0.011306298
2261,0.09764149
2262,-0.07278483
2263,-0.107202195
2264,0.06307406
2265,0.09016095
2266,-0.07713319
2267,-0.098807864
2268,0.01319545
2269,-0.03892799
2270,0.0412395
2271,-0.01906264
2272,-0.0007416584
2273,-0.029340254
2274,-0.06615636
2275,0.03187813
2276,0.15172714
2277,-0.010469111
2278,0.0023158756
2279,0.038226087
2280,0.046201054
2281,-0.07625053
2282,-0.010274617
2283,0.0154641075
2284,-0.0923868
2285,-0.17861433
2286,-0.15794845
2287,-0.0049536056
2288,0.05974705
2289,0.013558635
2290,-0.05268207
2291,0.01779109
2292,0.06735913
2293,0.01655655
2294,-0.019084264
2295,-0.08226675
2296,-0.062081117
2297,0.0011968391
2298,-0.011679404
2299,-0.17465498
2300,0.04822601
2301,-0.047392115
2302,-0.029563902
2303,-0.10291889
2304,-0.0016707227
2305,0.0391346
2306,-0.07489387
2307,0.018246822
2308,0.03464146
2309,0.0012202495
2310,0.031049388
2311,0.06597694
2312,0.02780511
2313,0.062147927
2314,-0.040706098
2315,-0.004843339
2316,-0.015517563
2317,0.067681015
2318,0.02000141
2319,-0.081699945
2320,0.034346253
2321,-0.18491451
2322,-0.11074794
2323,-0.003733597
2324,-0.09784554
2325,-0.073692
2326,-0.020114208
2327,0.041489113
2328,-0.011896612
2329,0.009473251
2330,-0.035182383
2331,-0.013506094
2332,-0.017595844
2333,-0.0013768101
2334,-0.0026881658
2335,-0.061030425
2336,0.059823997
2337,0.034507774
2338,0.0013888379
2339,0.043177024
2340,-0.1119487
2341,-0.060489878
2342,-0.002712306
2343,-0.0542663
2344,-0.17256674
2345,-0.009272428
2346,-0.01052205
2347,0.015026158
2348,0.0020115287
2349,0.087865956
2350,0.033801563
2351,-0.008701419
2352,-0.052276928
2353,0.015258272
2354,-0.0075390264
2355,-0.059125796
2356,0.006671995
2357,0.0276129
2358,0.03780092
2359,-0.13158308
2360,0.030603498
2361,-0.14282002
2362,-0.0060188663
2363,0.056075267
2364,0.021971906
2365,-0.12657276
2366,-0.11219327
2367,-0.12540253
2368,-0.013458345
2369,0.01830794
2370,-0.010249408
2371,-0.026313288
2372,0.03125881
2373,-0.058189686
2374,0.035548806
2375,0.061802115
2376,0.04365539
2377,-0.18729192
2378,-0.0006741324
2379,0.06943879
2380,-0.07962404
2381,-0.027906895
2382,-0.06037947
2383,-0.19935793
2384,-0.06988937
2385,0.003444564
2386,-0.07988413
2387,-0.050381135
2388,-0.06149492
2389,0.050523773
2390,0.041413564
2391,0.025764415
2392,0.010854312
2393,-0.042722315
2394,0.03505775
2395,0.025729032
2396,-0.026411926
2397,0.018824684
2398,-0.03064432
2399,0.008710324
2400,-0.016588565
2401,-0.007950277
2402,-0.004898636
2403,-0.017648183
2404,-0.13953444
2405,0.046870325
2406,-0.028675219
2407,0.027073327
2408,0.021749811
2409,0.020628707
2410,-0.021776011
2411,0.056545842
2412,0.029475585
2413,0.033492178
2414,0.0032118547
2415,0.07513856
2416,0.012363066
2417,0.014880297
2418,0.041723594
2419,-0.0806421
2420,-0.013330022
2421,0.052512538
2422,-0.011780179
2423,-0.105409354
2424,0.025584161
2425,0.0040905126
2426,-0.07224371
2427,0.013349043
2428,-0.053360183
2429,0.042547584
2430,-0.013820501
2431,0.044388566
2432,-0.054531675
2433,-0.008349247
2434,-0.16313434
2435,0.0111043
2436,0.018057609
2437,0.06125816
2438,0.0076686535
2439,0.0072342716
2440,0.026050838
2441,-0.026507497
2442,-0.046137862
2443,0.019233618
2444,-0.002845396
2445,0.0744815
2446,-0.13446967
2447,-0.0380996
2448,-0.28422236
2449,-0.0019209727
2450,-0.15253729
2451,-0.0144559955
2452,0.044487853
2453,-0.07501973
2454,0.026079705
2455,-0.02951027
2456,0.025617508
2457,-0.02303681
2458,-0.105205975
2459,0.04739194
2460,-0.01814588
2461,-0.004922585
2462,-0.029943533
2463,-0.04365156
2464,-0.012372301
2465,0.022483021
2466,0.0022126238
2467,-0.02164313
2468,-0.009329119
2469,0.012894599
2470,-0.020195834
2471,-0.02725831
2472,-0.078307144
2473,0.003860316
2474,0.005048038
2475,-0.010052737
2476,-0.0027766584
2477,-0.14308642
2478,-0.036110714
2479,-0.0663383
2480,0.029529465
2481,-0.050193872
2482,-0.0361721
2483,-0.034542292
2484,-0.0052836738
2485,-0.061207745
2486,-0.27991113
2487,-0.04394757
2488,0.008453598
2489,-0.14344698
2490,-0.08864367
2491,-0.053581055
2492,0.009370105
2493,0.0029794483
2494,-0.002688052
2495,-0.04898957
2496,-0.044039574
2497,0.0069996743
2498,-0.04838165
2499,-0.024471771
2500,-0.09304966
2501,-0.046077076
2502,-0.016621035
2503,0.02353712
2504,0.067360446
2505,-0.033640187
2506,0.03005009
2507,-0.013073569
2508,0.06698024
2509,-0.020904094
2510,-0.1205443
2511,-0.07062618
2512,-0.035591878
2513,0.06355144
2514,-0.07751624
2515,-0.049423493
2516,-0.009787369
2517,-0.012374255
2518,0.003799058
2519,0.014336668
2520,-0.053920224
2521,-0.0146344565
2522,0.006260336
2523,0.0030567292
2524,-0.0068643703
2525,-0.01977967
2526,-0.034542274
2527,-0.037263017
2528,0.023513759
2529,0.027556872
2530,-0.054726392
2531,0.03000922
2532,-0.040019825
2533,-0.012505684
2534,0.0009637558
2535,0.06355318
2536,-0.058698997
2537,0.025989754
2538,-0.004851567
2539,-0.080384195
2540,-0.01832931
2541,-0.016047467
2542,-0.009329954
2543,0.026818618
2544,-0.021731691
2545,-0.022402693
2546,0.0692395
2547,-0.03953207
2548,-0.06785706
2549,0.0041781706
2550,-0.07846558
2551,-0.08462926
2552,0.008742765
2553,-0.0068609365
2554,-0.038775247
2555,-0.01711109
2556,-0.14199269
2557,0.0058448953
2558,0.17073867
2559,0.02562532
2560,-0.028175497
2561,0.07058639
2562,-0.14418252
2563,-0.02981
2564,-0.05816759
2565,0.0063541466
2566,-0.013390279
2567,-0.11018463
2568,-0.023161035
2569,-0.108965695
2570,-0.029907623
2571,-0.030211851
2572,-0.0017323259
2573,0.013160361
2574,-0.098594286
2575,0.039046165
2576,-0.07802302
2577,-0.002374318
2578,-0.036061864
2579,-0.016690392
2580,-0.040600307
2581,0.048574932
2582,-0.022563338
2583,-0.010466278
2584,0.0013573868
2585,0.0008749732
2586,0.099044845
2587,0.04345219
2588,-0.07879087
2589,-0.02220968
2590,-0.003316559
2591,-0.16369599
2592,-0.06553224
2593,0.010797682
2594,-0.04386091
2595,-0.048545897
2596,-0.17488962
2597,0.02460526
2598,-0.0046124263
2599,-0.038916904
2600,-0.116494305
2601,-0.006283118
2602,0.01484825
2603,-0.01536074
2604,-0.010434729
2605,0.07078615
2606,-0.09859116
2607,-0.023246264
2608,-0.058946684
2609,-0.014174265
2610,-0.004799974
2611,0.007872288
2612,-0.025788577
2613,0.068012245
2614,-0.05524971
2615,0.013960934
2616,-0.0416796
2617,0.048791684
2618,-0.003880318
2619,-0.11226676
2620,-0.0046298476
2621,0.052192308
2622,0.019595675
2623,0.05350689
2624,0.0145174945
2625,-0.06028148
2626,-0.046311107
2627,-0.06364525
2628,-0.032058645
2629,0.013285974
2630,-0.0027164286
2631,0.043663133
2632,-0.09082067
2633,-0.022175204
2634,-0.004372185
2635,-9.6023694e-05
2636,0.051552303
2637,-0.0019758241
2638,-0.057579685
2639,0.034269232
2640,0.047438696
2641,-0.005237531
2642,0.07239552
2643,-0.0111996895
2644,-0.042214923
2645,0.0004863743
2646,-0.06815002
2647,-0.055392373
2648,0.040748242
2649,0.019868685
2650,-0.0449058
2651,-0.050647154
2652,0.0024118773
2653,0.011718216
2654,0.020011326
2655,-0.025775028
2656,0.01061332
2657,-0.123321265
2658,-0.009414193
2659,-0.012247528
2660,-0.042474564
2661,-0.050603677
2662,0.006673254
2663,0.003657158
2664,-0.05488341
2665,-0.06553406
2666,-0.037885766
2667,-0.05387978
2668,-0.09902193
2669,-0.09181328
2670,-0.10458882
2671,-0.107553005
2672,-0.09215704
2673,-0.0659256
2674,-0.033410605
2675,-0.06267705
2676,-0.022533
2677,-0.070771895
2678,-0.027158065
2679,0.03936035
2680,-0.042209256
2681,0.0077785687
2682,-0.0072930045
2683,-0.105748095
2684,0.002110656
2685,0.017287187
2686,0.008424071
2687,-0.01917642
2688,-0.03014799
2689,-0.016966054
2690,-0.042799953
2691,-0.0022332368
2692,-0.02880264
2693,-0.073913775
2694,-0.05272449
2695,-0.06618329
2696,-0.048589148
2697,0.05601431
2698,-0.06652123
2699,-0.06322474
2700,0.003110804
2701,-0.01821331
2702,-0.05311693
2703,-0.0995719
2704,-0.04785599
2705,-0.017839506
2706,-0.01805534
2707,-0.02423881
2708,-0.09439802
2709,-0.015606491
2710,-0.09984991
2711,-0.13021901
2712,-0.015231787
2713,-0.05308724
2714,0.041426975
2715,-0.11257642
2716,-0.0023325349
2717,0.0048703887
2718,-0.063553
2719,0.078870766
2720,-0.021357834
2721,0.050534096
2722,-0.015756126
2723,-0.0056069796
2724,-0.022280976
2725,-0.033716135
2726,-0.04610941
2727,0.009037618
2728,-0.04325188
2729,-0.0029582067
2730,-0.019135416
2731,-0.020619258
2732,-0.01423885
2733,0.015641907
2734,0.09515081
2735,0.014931552
2736,-0.115487315
2737,-0.011088716
2738,-0.014369092
2739,-0.0075896564
2740,-0.006454157
2741,0.067173645
2742,-0.018386584
2743,-0.10465634
2744,-0.016386546
2745,0.015170137
2746,-0.031201635
2747,-0.025505317
2748,-0.0038443129
2749,0.014008718
2750,0.04032346
2751,-0.021011263
2752,-0.017939385
2753,0.0073412172
2754,-0.081287734
2755,-0.04749888
2756,-0.038654413
2757,0.011474941
2758,-0.027204959
2759,-0.0063363505
2760,0.0004082382
2761,-0.020527327
2762,0.002221767
2763,0.021327013
2764,0.03231558
2765,-0.0110858325
2766,-0.07309389
2767,-0.11993508
2768,0.03112438
2769,-0.070278525
2770,0.018153613
2771,-0.030071165
2772,-0.14939773
2773,0.008525003
2774,-0.047442213
2775,0.040753383
2776,0.021169193
2777,-0.01854267
2778,-0.025228864
2779,-0.009778869
2780,0.005267546
2781,-0.09178915
2782,0.0035399373
2783,0.005665513
2784,-0.013749486
2785,-0.115360886
2786,-0.01980684
2787,-0.010866272
2788,-0.06268862
2789,-0.006310095
2790,0.0029478285
2791,-0.08915724
2792,-0.0656816
2793,-0.037671216
2794,0.05916617
2795,-0.039311823
2796,0.07042095
2797,0.07192351
2798,-0.05180912
2799,-0.081241414
2800,-0.040740903
2801,-0.034691915
2802,-0.045840032
2803,-0.027696261
2804,-0.03070857
2805,0.021911774
2806,0.0060384804
2807,-0.028276129
2808,-0.062761985
2809,-0.001217478
2810,-0.0034114623
2811,-0.058732256
2812,0.022278367
2813,0.044655636
2814,0.02148057
2815,-0.027001962
2816,-0.0030260892
2817,0.05795646
2818,-0.011151351
2819,-0.06569105
2820,-0.05948359
2821,0.001782076
2822,-0.04110681
2823,0.004881912
2824,-0.056480493
2825,-0.05632437
2826,-0.02960067
2827,-0.0725885
2828,-0.0035542594
2829,0.036079723
2830,0.03559972
2831,0.064769536
2832,0.018064434
2833,-0.13874266
2834,0.0144982785
2835,-0.017431386
2836,0.01884441
2837,0.050971795
2838,-0.01286619
2839,0.07053193
2840,-0.0036135607
2841,0.0044782264
2842,-0.016166102
2843,-0.023587532
2844,0.032571733
2845,-0.010129462
2846,0.046007052
2847,-0.0022255953
2848,0.027902018
2849,-0.20282498
2850,-0.05089619
2851,-0.09258372
2852,0.032769635
2853,-0.019800726
2854,-0.019008838
2855,0.057680655
2856,-0.021064438
2857,0.0022482662
2858,0.015484353
2859,-0.059078097
2860,-0.006015134
2861,0.006945126
2862,-0.072653525
2863,-0.0058091325
2864,0.029743142
2865,-0.037837844
2866,-0.011157156
2867,-0.013463836
2868,-0.01980626
2869,0.060497086
2870,0.012996587
2871,-0.050009653
2872,-0.01036103
2873,0.015082468
2874,-0.008933797
2875,0.019664843
2876,-0.018426182
2877,-0.09288396
2878,-0.0474529
2879,-0.011915949
2880,-0.015353031
2881,-0.038516924
2882,-0.034045164
2883,-0.00469974
2884,-0.055983406
2885,0.049242895
2886,-0.034918375
2887,0.048237234
2888,-0.057920437
2889,-0.14629994
2890,-0.029187804
2891,0.01188523
2892,0.02569667
2893,-0.0048918123
2894,0.03996263
2895,0.052386645
2896,0.07032221
2897,-0.017184563
2898,-0.033101946
2899,-0.003553816
2900,0.010292406
2901,-0.0037182881
2902,-0.05769287
2903,-0.08682882
2904,0.055275556
2905,0.10756538
2906,-0.09820248
2907,-0.062791854
2908,-0.011206989
2909,0.0499802
2910,0.047212478
2911,0.0062541794
2912,-0.020900182
2913,0.014162021
2914,-0.0034618755
2915,-0.005301588
2916,0.033187892
2917,-0.1125716
2918,-0.0032279512
2919,0.00018654647
2920,-0.011502624
2921,-0.048412044
2922,-0.027950188
2923,-0.06108486
2924,-0.046428256
2925,-0.02830633
2926,0.039475415
2927,0.0219369
2928,0.0370795
2929,-0.030861294
2930,-0.053742807
2931,-0.016384684
2932,-0.017570602
2933,-0.0073489393
2934,0.01015469
2935,0.036842965
2936,-0.036511235
2937,0.0018400754
2938,-0.018615708
2939,0.0110416245
2940,-0.031104224
2941,-0.008946408
2942,0.02272357
2943,-0.09439338
2944,-0.004492988
2945,0.02672441
2946,0.036266048
2947,-0.01373366
2948,-0.0055921418
2949,-0.046314515
2950,-0.00925191
2951,-0.0043553403
2952,-0.018917223
2953,-0.10133496
2954,-0.0007481808
2955,-0.022045506
2956,0.011071158
2957,0.01862608
2958,0.03065327
2959,-0.061950263
2960,0.024039395
2961,0.050439324
2962,-0.024610454
2963,-0.0036904123
2964,-0.053701103
2965,-0.025280396
2966,0.015039953
2967,0.04850877
2968,-0.0148767615
2969,-0.092680715
2970,-0.03884891
2971,-0.06650053
2972,0.04056275
2973,-0.017479876
2974,0.022610959
2975,0.002095466
2976,-0.027163684
2977,0.015638053
2978,0.027689956
2979,-0.005513403
2980,0.032561842
2981,0.0022761067
2982,-0.0025059849
2983,0.043953303
2984,0.036496233
2985,0.004106428
2986,-0.00070046977
2987,-0.016944194
2988,-0.009210693
2989,-0.0095786555
2990,-0.033115238
2991,-0.01580889
2992,-0.018377481
2993,-0.0077503724
2994,-0.017409956
2995,-0.015114346
2996,0.0035014097
2997,0.011400281
2998,0.047920372
2999,-0.101835005
3000,-0.0046910816
3001,-0.007803652
3002,-0.020198727
3003,-0.0039534206
3004,-0.029269867
3005,0.031353172
3006,0.06511559
3007,-0.03927873
3008,-0.007751969
3009,0.01278861
3010,-0.031037975
3011,0.07802467
3012,-0.064864725
3013,0.043404054
3014,0.010534755
3015,0.058957096
3016,-0.07019983
3017,-0.041660912
3018,-0.012442447
3019,0.0034361868
3020,0.07707523
3021,0.008135363
3022,-0.01357656
3023,-0.19228625
3024,0.05924563
3025,-0.022121489
3026,0.0193098
3027,-0.0018056239
3028,-0.015589136
3029,0.03747836
3030,-0.02038145
3031,0.022586234
3032,-0.026290253
3033,0.023492785
3034,0.0019710164
3035,-0.001927998
3036,-0.0062396564
3037,0.0028214885
3038,0.03995991
3039,0.00073266734
3040,-0.01006217
3041,-0.015847258
3042,-0.0039053212
3043,-0.007311643
3044,-0.0034497753
3045,-0.008064067
3046,-0.015839042
3047,-0.11806854
3048,0.031675868
3049,0.0020361745
3050,0.034193937
3051,-0.049736172
3052,-0.058853
3053,-0.048197184
3054,-0.041000415
3055,-0.0032150792
3056,0.02896224
3057,-0.0015321892
3058,-0.020375023
3059,-0.02391284
3060,-0.020268736
3061,0.06264047
3062,0.007278999
3063,-0.00037063193
3064,-0.014213002
3065,0.010062492
3066,-0.007864419
3067,-0.09217994
3068,0.011013276
3069,0.013107572
3070,-0.018800104
3071,-0.017592965
3072,0.015927257
3073,0.08958674
3074,0.012702286
3075,-0.021383379
3076,-0.018161958
3077,-0.012027164
3078,-0.06915206
3079,-0.03175323
3080,-0.019279644
3081,-0.05207
3082,-0.050036352
3083,-0.02693673
3084,-0.001928913
3085,-0.017815843
3086,0.010875563
3087,-0.028848661
3088,0.048060603
3089,-0.010956457
3090,-0.009575542
3091,-0.03485579
3092,-0.06632432
3093,-0.029511292
3094,-0.017042683
3095,0.08456176
3096,-0.002236945
3097,-0.10352711
3098,0.066574514
3099,-0.038303193
3100,-0.13690218
3101,-0.007410598
3102,-0.031036938
3103,-0.0051173037
3104,-0.033130676
3105,-0.01816178
3106,-0.13772984
3107,-0.019143615
3108,0.10349031
3109,-0.050269116
3110,-0.04536618
3111,0.08029687
3112,0.027122244
3113,0.0053200386
3114,0.0144844
3115,-0.051646274
3116,0.012310937
3117,0.040422756
3118,-0.05962384
3119,-0.013760338
3120,0.027214373
3121,-0.0044204607
3122,0.0069720005
3123,0.0046367235
3124,-0.011459208
3125,0.029679952
3126,0.038891323
3127,-0.16941352
3128,-0.002914571
3129,-0.09157622
3130,-0.0065180617
3131,0.036165465
3132,0.0016784823
3133,-0.04256942
3134,0.042084437
3135,-0.07950395
3136,-0.00533004
3137,-0.032781232
3138,-0.04696908
3139,0.048081174
3140,-0.042249702
3141,0.07005102
3142,-0.017998988
3143,0.051809367
3144,0.041721236
3145,-0.04725563
3146,-0.012955362
3147,-0.07736282
3148,0.053677663
3149,0.013117846
3150,-0.026913343
3151,-0.029608732
3152,0.10027462
3153,-0.03969194
3154,-0.024335759
3155,-0.0050629205
3156,-0.13171181
3157,0.0073734354
3158,-0.020117145
3159,0.031387437
3160,0.018268194
3161,0.082110845
3162,-0.01774669
3163,-0.0014585961
3164,-0.031210443
3165,-0.0032543575
3166,0.088410735
3167,-0.0020280932
3168,-0.014323913
3169,-0.06983134
3170,0.0016248841
3171,-0.0054162554
3172,-0.06742876
3173,-0.025161961
3174,0.007871685
3175,-0.0605798
3176,0.010533645
3177,0.0048935106
3178,-0.09699468
3179,-0.09185562
3180,-0.046125997
3181,-0.096421406
3182,-0.043323785
3183,-0.08819767
3184,-0.049861148
3185,-0.06216212
3186,-0.040595815
3187,-0.030276334
3188,-0.0068318974
3189,-0.033217505
3190,-0.005241014
3191,-0.028856525
3192,-0.044207755
3193,0.0009084023
3194,-0.0007813029
3195,-0.10129137
3196,0.005859465
3197,-0.0036381301
3198,-0.047410846
3199,0.006303283
3200,-0.079244606
3201,-0.053069286
3202,-0.0080837915
3203,-0.023047118
3204,0.005461561
3205,-0.009385421
3206,-0.08287835
3207,0.06295332
3208,0.03077418
3209,0.018383011
3210,-0.055736978
3211,-0.013010896
3212,-0.0068784333
3213,0.0512087
3214,-0.09387285
3215,-0.027643502
3216,-0.14696658
3217,-0.09003446
3218,-0.08039495
3219,-0.012574407
3220,-0.025750874
3221,0.016119385
3222,-0.07633441
3223,0.052057423
3224,-0.0333742
3225,0.022925286
3226,0.02888125
3227,-0.037987046
3228,0.12754662
3229,0.009199729
3230,-0.01754501
3231,0.059138607
3232,0.023493279
3233,-0.013512517
3234,0.088903114
3235,-0.023831336
3236,-0.009049592
3237,-0.04889222
3238,-0.009400695
3239,0.076757856
3240,0.02601023
3241,-0.007852519
3242,-0.002104235
3243,-0.11024548
3244,0.00819341
3245,-0.07544053
3246,0.010359608
3247,-0.041568592
3248,0.002678313
3249,-0.03832629
3250,-0.015050493
3251,-0.003731129
3252,-0.00011316247
3253,-0.003116493
3254,-0.10324461
3255,0.054299794
3256,0.0060106255
3257,-0.016098456
3258,-0.006046116
3259,-0.14715129
3260,-0.03613642
3261,0.009287083
3262,0.07974663
3263,0.11354463
3264,-0.014640569
3265,-0.0054303687
3266,-0.022134097
3267,-0.011437837
3268,0.060256258
3269,0.050093304
3270,0.033384297
3271,0.035106815
3272,-0.09246188
3273,0.024272442
3274,-0.03013916
3275,0.05118144
3276,0.12026922
3277,0.0062997825
3278,0.0038818747
3279,0.05654449
3280,0.024375979
3281,-0.007093396
3282,-0.07954956
3283,0.0063244374
3284,-0.05605538
3285,0.05118997
3286,0.0061136996
3287,0.032898273
3288,0.035746332
3289,0.0012087831
3290,0.0041118665
3291,0.038990278
3292,-0.03215258
3293,0.022949744
3294,0.04712703
3295,-0.030071162
3296,-0.0100048855
3297,0.059407637
3298,-0.03538332
3299,-0.025399037
3300,0.065987
3301,-0.012709097
3302,-0.011735076
3303,-0.001625994
3304,-0.029433243
3305,0.033982553
3306,0.10899153
3307,0.020735426
3308,0.01716834
3309,0.010005398
3310,0.08329158
3311,0.051533893
3312,-0.0048179547
3313,0.086850755
3314,-0.024804424
3315,0.032431882
3316,-0.019337816
3317,0.044598445
3318,0.005726061
3319,0.01222283
3320,0.028979393
3321,0.0025333888
3322,-0.012679661
3323,0.035286248
3324,-0.106196
3325,-0.027446955
3326,0.0125896735
3327,0.007541636
3328,-0.007538736
3329,0.04460036
3330,-0.033659518
3331,-0.027336784
3332,-0.017236967
3333,0.035393715
3334,-0.023294557
3335,-0.03013153
3336,-0.03850892
3337,-0.04158849
3338,0.02360111
3339,-0.052362118
3340,-0.019707922
3341,0.020959528
3342,-0.0031529337
3343,-0.006591711
3344,0.0013463442
3345,0.072141334
3346,0.011636979
3347,-0.030596048
3348,0.12999193
3349,-0.3459685
3350,0.073746465
3351,0.03043424
3352,-0.008595385
3353,-0.07154959
3354,0.036943916
3355,-0.037952363
3356,0.16037935
3357,0.013037644
3358,0.10353161
3359,-0.04276186
3360,-0.028049557
3361,0.025404107
3362,-0.014481624
3363,-0.05492768
3364,0.061393723
3365,0.0180102
3366,-0.02375812
3367,0.044213157
3368,0.02239001
3369,-0.026622638
3370,-0.0074002133
3371,-0.0093103675
3372,0.0023434726
3373,-0.0737196
3374,-0.037493873
3375,-0.009896436
3376,-0.0037273543
3377,0.0007190016
3378,0.008414419
3379,-0.015916696
3380,0.0037346953
3381,-0.0010434062
3382,0.0067530475
3383,-0.039991695
3384,-0.016866433
3385,-0.066799976
3386,0.0050808084
3387,-0.02870886
3388,-0.025651531
3389,0.00072154164
3390,0.21263894
3391,-0.07085285
3392,-0.024495887
3393,-0.030638833
3394,0.030237267
3395,0.019794697
3396,-0.021917501
3397,0.049045328
3398,-0.030183937
3399,0.054093186
3400,-0.020798525
3401,-0.09067761
3402,-0.025029255
3403,-0.0055462588
3404,0.09065329
3405,-0.012735844
3406,0.012794917
3407,-0.18188204
3408,0.061124276
3409,-0.08136025
3410,-0.04462402
3411,-0.068402365
3412,0.09766008
3413,0.061086185
3414,-0.0129631525
3415,0.0069924295
3416,0.030996148
3417,0.033715807
3418,-0.028237063
3419,0.016799774
3420,-0.026835183
3421,0.09465893
3422,0.047651857
3423,-0.01977853
3424,-0.008222137
3425,0.097157955
3426,0.14882162
3427,-0.026244631
3428,0.02434042
3429,-0.027633747
3430,0.01682055
3431,-0.15172438
3432,-0.054800544
3433,0.0080116885
3434,0.08148035
3435,0.012076504
3436,-0.036271673
3437,-0.051159754
3438,-0.02776102
3439,0.12875658
3440,-0.018276261
3441,-0.055872403
3442,0.013962267
3443,-0.06709931
3444,0.04225085
3445,0.0454829
3446,-0.029609716
3447,-0.027988676
3448,-0.07945948
3449,-0.0048369304
3450,-0.0136111695
3451,-0.025167378
3452,-0.04498092
3453,0.004194166
3454,0.049477063
3455,-0.028824268
3456,-0.01747864
3457,0.023506738
3458,-0.048674572
3459,-0.002224279
3460,0.044786625
3461,-0.026178025
3462,0.014667506
3463,0.105183475
3464,0.06449852
3465,0.057921227
3466,-0.0133828465
3467,0.055979755
3468,-0.020071553
3469,0.04520201
3470,-0.008417807
3471,0.055185515
3472,0.053208232
3473,-0.031096876
3474,-0.07728591
3475,-0.027769567
3476,0.009996946
3477,0.004034077
3478,-0.02451355
3479,-0.06996694
3480,-0.018620271
3481,0.04555569
3482,0.017080551
3483,-0.039317288
3484,0.014184189
3485,-0.015056088
3486,-0.00034689123
3487,0.05736483
3488,0.049852803
3489,0.023457827
3490,0.08606317
3491,0.04054111
3492,-0.009419201
3493,0.02229547
3494,0.023589045
3495,-0.037963856
3496,-0.020155905
3497,-0.009595868
3498,-0.0044894754
3499,-0.012735195
3500,-0.0061809462
3501,0.037805617
3502,0.038242646
3503,-0.02403679
3504,-0.0057290723
3505,0.014030578
3506,-0.011892495
3507,-0.06972431
3508,-0.012074431
3509,0.020895293
3510,0.008250617
3511,-0.00711693
3512,0.05358382
3513,-0.05233012
3514,-0.012404554
3515,0.017132966
3516,-0.025615532
3517,0.021765802
3518,-0.04909277
3519,0.011739112
3520,-0.0055957567
3521,0.07764243
3522,-0.02826808
3523,0.022729635
3524,-0.040030148
3525,-0.08125856
3526,0.04110392
3527,0.023189517
3528,-0.014050683
3529,0.0041331197
3530,0.017323712
3531,0.04194006
3532,-0.05523251
3533,-0.029421575
3534,0.01211808
3535,0.025168246
3536,-0.13704519
3537,-0.05340264
3538,-0.09407909
3539,0.04847727
3540,-0.0031966926
3541,0.027493564
3542,0.04164848
3543,0.075610496
3544,-0.04458463
3545,-0.07764977
3546,0.05660067
3547,0.05237791
3548,-0.0060241045
3549,0.032288674
3550,-0.026378829
3551,-0.012964547
3552,-0.010592407
3553,0.09244856
3554,-0.01740839
3555,-0.019601317
3556,0.035653073
3557,0.050701607
3558,0.008961725
3559,-0.107625216
3560,0.0027849723
3561,0.044500567
3562,0.07791508
3563,0.0019924073
3564,0.0823178
3565,0.064183414
3566,0.07313592
3567,0.060674526
3568,-0.115179926
3569,0.001543247
3570,0.008070591
3571,0.02448006
3572,-0.043878864
3573,0.025108865
3574,-0.010054419
3575,-0.04620127
3576,0.058309466
3577,-0.0013480753
3578,-0.013175686
3579,0.03482463
3580,-0.108038284
3581,0.032542124
3582,-0.020137856
3583,0.04936242
3584,-0.005608666
3585,-0.065384604
3586,-0.2803818
3587,0.0149709135
3588,0.04170999
3589,-0.0007162843
3590,0.0030070182
3591,-0.16053116
3592,0.031692024
3593,-0.038959302
3594,-0.010953135
3595,-0.025879085
3596,-0.014826058
3597,0.13128355
3598,-0.14423308
3599,-0.017345842
3600,-0.26087847
3601,-0.107783966
3602,-0.033892486
3603,-0.04895116
3604,-0.0024374572
3605,-0.04107524
3606,-0.0045427456
3607,-0.13066258
3608,-0.0012103604
3609,-0.10444676
3610,0.061298206
3611,0.012228074
3612,-0.000849871
3613,-0.031465486
3614,-0.095811054
3615,-0.026529117
3616,-0.060554914
3617,0.04096119
3618,-0.033081852
3619,7.457737e-05
3620,-0.05256698
3621,0.010672248
3622,-0.053865902
3623,-0.025059728
3624,-0.31470072
3625,0.006019984
3626,-0.007725883
3627,-0.0029252688
3628,-0.019456252
3629,-0.07153828
3630,0.00906909
3631,-0.044155665
3632,0.03637004
3633,-0.065343305
3634,-0.028420225
3635,-0.015516015
3636,-0.013743523
3637,-0.13964255
3638,-0.27240428
3639,-0.12061259
3640,-0.03821209
3641,-0.004947301
3642,-0.013401032
3643,-0.054506045
3644,-0.00037702458
3645,0.02852619
3646,-0.029918253
3647,-0.057734422
3648,-0.04135948
3649,-0.12850267
3650,-0.07373985
3651,-0.1084661
3652,-0.028924277
3653,-0.032355126
3654,-0.0024157627
3655,0.07888416
3656,-0.07220777
3657,-0.10721185
3658,0.023042357
3659,-0.08056939
3660,0.06141691
3661,0.007759717
3662,-0.07543987
3663,-0.12821214
3664,-0.025409298
3665,0.010468726
3666,-0.009886353
3667,-0.009977894
3668,-0.017748298
3669,0.05796789
3670,-0.022733832
3671,-0.06687282
3672,0.032534063
3673,-0.009900959
3674,-0.018575093
3675,-0.0025932768
3676,-0.020124301
3677,-0.07575006
3678,-0.07289953
3679,-0.03815655
3680,-0.037336815
3681,-0.1477976
3682,-0.004435933
3683,0.0063711116
3684,0.02528581
3685,0.007604793
3686,-0.00829278
3687,0.015808042
3688,-0.11676144
3689,0.019010613
3690,-0.022844395
3691,-0.06752595
3692,-0.006726963
3693,-0.038999267
3694,-0.1815288
3695,-0.120619595
3696,0.021679686
3697,0.022892121
3698,0.038517077
3699,-0.009823477
3700,-0.13605088
3701,0.04201427
3702,-0.062917635
3703,0.025701141
3704,-0.05174312
3705,0.014245398
3706,-0.0087032765
3707,-0.093959264
3708,-0.13621698
3709,0.0062875305
3710,0.06977811
3711,-0.02730051
3712,-0.03813093
3713,-0.1793865
3714,0.053479955
3715,-0.032112036
3716,-0.0029098995
3717,-0.025512796
3718,0.008308045
3719,0.11416112
3720,-0.006946545
3721,0.009157764
3722,-0.06562538
3723,-0.036791112
3724,0.0048782057
3725,-0.11572147
3726,0.0326535
3727,-0.471285
3728,0.009071335
3729,-0.074222334
3730,-0.15507655
3731,-0.017671607
3732,-0.027024172
3733,-0.0051501216
3734,0.004464365
3735,0.026643556
3736,0.02319
3737,0.037715506
3738,0.027238369
3739,-0.056985993
3740,0.021309618
3741,-0.012004066
3742,0.010836697
3743,-0.032196518
3744,0.069712415
3745,0.027658423
3746,0.06952309
3747,-0.0011272397
3748,-0.025565472
3749,-0.058160476
3750,-0.049782123
3751,-0.030051092
3752,0.03212297
3753,-0.016811967
3754,0.006568807
3755,-0.09875516
3756,0.0018260641
3757,-0.05506361
3758,0.016662586
3759,-0.005825824
3760,-0.086719416
3761,0.0074378946
3762,-0.0063041598
3763,-0.03300003
3764,-0.018011812
3765,0.027175827
3766,0.05507405
3767,-0.23825409
3768,0.05777977
3769,-0.12035014
3770,-0.013113189
3771,-0.05041019
3772,0.012027809
3773,-0.0771289
3774,-0.11567734
3775,-0.2876402
3776,0.0016204122
3777,0.07444021
3778,-0.10475063
3779,-0.010648707
3780,-0.15499446
3781,-0.005229353
3782,-0.02337527
3783,-0.012627757
3784,-0.035790447
3785,-0.27781668
3786,-0.020675743
3787,0.030192127
3788,0.08909039
3789,-0.02133399
3790,0.03118965
3791,-0.067181
3792,-0.053851537
3793,-0.022710528
3794,-0.08412407
3795,-0.14524609
3796,-0.0023318029
3797,-0.07719424
3798,-0.004649026
3799,0.011103052
3800,-0.010419144
3801,-0.093453094
3802,-0.026063541
3803,-0.038906667
3804,-0.030415615
3805,0.051794626
3806,0.004304679
3807,-0.03416597
3808,-0.01615285
3809,0.01849455
3810,0.0444622
3811,0.0020239044
3812,-0.0960941
3813,-0.030781258
3814,-0.021224601
3815,-0.0481487
3816,-0.03619703
3817,-0.01857055
3818,0.07110934
3819,-0.07818313
3820,0.02980594
3821,0.029052489
3822,0.05321863
3823,0.08443433
3824,-0.16835149
3825,0.0013024821
3826,-0.04415763
3827,-0.09979322
3828,-0.024892665
3829,0.06776128
3830,-0.0085623795
3831,-0.09938972
3832,0.017147683
3833,-0.009077631
3834,-0.047467172
3835,0.040139057
3836,0.020995865
3837,-0.05063762
3838,-0.033211324
3839,0.021129804
3840,-0.0107578
3841,-0.0037192702
3842,0.022158429
3843,0.0020475776
3844,-0.07771756
3845,-0.016576467
3846,-0.040364094
3847,0.057592463
3848,-0.047221802
3849,-0.007311921
3850,-0.030412316
3851,-0.05577075
3852,-0.0052945754
3853,-0.005907172
3854,0.0480304
3855,0.031690225
3856,0.05143304
3857,-0.12222547
3858,-0.011084022
3859,-0.0054062284
3860,-0.027655408
3861,-0.02982803
3862,-0.085205466
3863,0.022389134
3864,-0.02941377
3865,0.024753843
3866,-0.031259254
3867,-0.048178885
3868,0.033836383
3869,-0.0051819813
3870,-0.017975945
3871,0.10977896
3872,0.049945287
3873,-0.030896148
3874,0.058085464
3875,-0.045726888
3876,0.03123177
3877,-0.017813288
3878,0.033731975
3879,0.023638776
3880,0.0144233825
3881,-0.009162892
3882,-0.0045660445
3883,-0.06973612
3884,0.00063073036
3885,0.014416134
3886,0.024713833
3887,0.00035995615
3888,-0.05359429
3889,-0.021336274
3890,-0.0019135866
3891,-0.0019037639
3892,-0.00050197233
3893,0.065616675
3894,0.04767787
3895,0.014939838
3896,0.032507867
3897,0.016642977
3898,-0.016668104
3899,0.04887109
3900,-0.01730291
3901,0.03519417
3902,0.019128393
3903,-0.006447945
3904,-7.8025114e-05
3905,0.04528011
3906,-0.021938836
3907,0.054162625
3908,0.049794503
3909,-0.0038539
3910,-0.031116351
3911,0.06442616
3912,0.04193181
3913,-0.0633149
3914,-0.002697652
3915,0.06318614
3916,0.0005941476
3917,0.0014320173
3918,-0.09286366
3919,0.025359536
3920,-0.01896488
3921,-0.023284346
3922,-0.011974527
3923,-0.007077949
3924,-0.04640809
3925,0.01671861
3926,-0.023775948
3927,0.020421188
3928,-0.009264558
3929,-0.005862024
3930,-0.056932375
3931,-0.04705559
3932,-0.0013040234
3933,0.0048704296
3934,-0.017866466
3935,-0.01262096
3936,-0.01902478
3937,0.084985845
3938,-0.094959006
3939,0.0045946334
3940,0.08374382
3941,-0.027490498
3942,-0.016929302
3943,-0.033495788
3944,0.029503167
3945,-0.014012222
3946,0.06328448
3947,0.015682874
3948,0.043550253
3949,0.02902849
3950,0.015354875
3951,0.0071789185
3952,0.013611828
3953,0.03210146
3954,-0.0424706
3955,-0.085835636
3956,-0.03055495
3957,0.04154843
3958,-0.00740358
3959,0.01113555
3960,-0.05355397
3961,0.0041144453
3962,0.0033333716
3963,-0.015432954
3964,0.009876182
3965,-0.031751696
3966,0.0007128479
3967,-0.04002311
3968,-0.011009249
3969,0.08414652
3970,-0.005902717
3971,-0.012270362
3972,-0.092712104
3973,0.004523137
3974,-0.0067010387
3975,-0.052451573
3976,-0.05291697
3977,-0.12117831
3978,-0.02219171
3979,-0.054931063
3980,-0.012745611
3981,0.09514253
3982,0.00602129
3983,-0.08169231
3984,-0.016416851
3985,0.09221644
3986,-0.05686422
3987,-0.01638491
3988,-0.022577137
3989,0.03906637
3990,-0.06015322
3991,0.023122491
3992,-0.062463168
3993,-0.031231651
3994,0.06312818
3995,-0.0065569943
3996,-0.1039499
3997,0.008763033
3998,-0.05583593
3999,-0.14013647
4000,-0.072055645
4001,-0.03672279
4002,0.0040058475
4003,-0.078335606
4004,-0.029813835
4005,-0.045186985
4006,-0.07705522
4007,0.06918149
4008,0.015196052
4009,-0.034801073
4010,-0.011481365
4011,-0.0007553035
4012,-0.021699362
4013,-0.036817618
4014,-0.15227182
4015,-0.010504011
4016,0.0148207005
4017,-0.04349385
4018,-0.029041797
4019,0.0026260174
4020,0.006829167
4021,0.05378415
4022,-0.0029277932
4023,0.046334427
4024,-0.056604836
4025,-0.100075856
4026,-0.013375014
4027,-0.0009552607
4028,-0.042456232
4029,0.024256323
4030,-0.04380827
4031,0.03430937
4032,-0.03451485
4033,-0.06890364
4034,-0.033830673
4035,0.015256265
4036,-0.101955
4037,0.043231808
4038,-0.10863876
4039,-0.046992242
4040,-0.01311228
4041,0.028767508
4042,-0.06093735
4043,-0.07584946
4044,0.06592634
4045,-0.00526139
4046,0.09919954
4047,0.089010894
4048,-0.0021727467
4049,0.013198374
4050,-0.077217184
4051,-0.018070707
4052,-0.014502164
4053,0.04924409
4054,-0.09058748
4055,-0.02402652
4056,0.06286969
4057,0.04417388
4058,-0.0926555
4059,-0.100549534
4060,-0.019880261
4061,-0.08838405
4062,0.050144564
4063,-0.008928547
4064,-0.046253286
4065,-0.06804957
4066,-0.09632639
4067,-0.013240491
4068,0.06740413
4069,-0.07184307
4070,0.0015728667
4071,-0.0030843804
4072,-0.014110777
4073,-0.08389806
4074,-0.06135345
4075,-0.030515244
4076,-0.11091391
4077,-0.15236983
4078,-0.07915174
4079,-0.119741574
4080,0.002994068
4081,-0.07522694
4082,0.007170443
4083,-0.048363406
4084,-0.008398104
4085,-0.07894476
4086,-0.02282057
4087,-0.05468782
4088,-0.06595811
4089,0.0058500064
4090,-0.023948822
4091,-0.08314376
4092,-0.07035457
4093,-0.01678141
4094,0.05602383
4095,-0.0558866
4096,0.04962913
4097,0.0027927118
4098,0.08071095
4099,0.0012149032
4100,0.036882848
4101,0.030619608
4102,-0.0026420525
4103,-0.1403256
4104,-0.038533337
4105,-0.09102632
4106,0.044407807
4107,-0.04109162
4108,-0.004941514
4109,-0.08895212
4110,0.09732525
4111,-0.13664936
4112,0.07174554
4113,0.035625696
4114,0.017732417
4115,-0.03335482
4116,-0.046415813
4117,-0.051524464
4118,-0.007743421
4119,-0.05115068
4120,0.055611093
4121,-0.02594695
4122,-0.03495966
4123,-0.08727951
4124,-0.104198016
4125,-0.010225363
4126,-0.028885802
4127,-0.15015982
4128,-0.12888722
4129,0.069238685
4130,-0.04378367
4131,-0.039461114
4132,-0.013323157
4133,-0.075899914
4134,0.032263044
4135,-0.058399104
4136,0.0035674754
4137,-0.0009310931
4138,0.0066183
4139,0.038753036
4140,-0.009213789
4141,-0.09117036
4142,-0.14903508
4143,0.02512361
4144,0.020874687
4145,-0.053786833
4146,0.004618161
4147,-0.0019523418
4148,-0.008510419
4149,-0.080788195
4150,0.078272805
4151,-0.014803989
4152,-0.07971516
4153,-0.06661056
4154,-0.03143226
4155,0.028637638
4156,-0.020490656
4157,0.03227422
4158,0.012726116
4159,-0.0007323335
4160,0.012611405
4161,-0.11236838
4162,0.05086027
4163,0.021782061
4164,-0.064621404
4165,-0.111811236
4166,-0.046721425
4167,-0.08125196
4168,0.017100649
4169,-0.019809023
4170,-0.039792746
4171,-0.17814246
4172,7.606413e-05
4173,-0.0072383946
4174,-0.020648656
4175,-0.05665784
4176,-0.08785613
4177,-0.03722056
4178,0.03910296
4179,-0.044331256
4180,-0.037717033
4181,-0.091671474
4182,-0.03883536
4183,-0.046832755
4184,-0.13976002
4185,-0.048864223
4186,-0.034955896
4187,-0.04586797
4188,-0.050242234
4189,0.006123347
4190,-0.14721285
4191,-0.0061685275
4192,-0.0148979835
4193,-0.047747817
4194,0.023475623
4195,-0.0059028487
4196,-0.1622062
4197,0.036429483
4198,0.009507822
4199,0.018740272
4200,0.040251832
4201,-0.068613194
4202,-0.056143243
4203,0.05259197
4204,-0.11802452
4205,-0.13465513
4206,-0.12580334
4207,-0.023961145
4208,-0.042353068
4209,-0.054871447
4210,0.035833478
4211,0.05999156
4212,-0.01969101
4213,-0.043832026
4214,-0.026290726
4215,-0.07174942
4216,-0.055667236
4217,-0.009574073
4218,-0.012857195
4219,-0.085208364
4220,0.055937473
4221,0.011056434
4222,-0.011356856
4223,-0.034125473
4224,-0.016682748
4225,-0.0031212023
4226,0.012889013
4227,-0.039897025
4228,-0.0047274916
4229,-0.05970576
4230,-0.013047981
4231,0.009465096
4232,-0.015786598
4233,0.03868061
4234,0.007361488
4235,-0.12567145
4236,-0.0031044902
4237,-0.005910008
4238,0.026619332
4239,-0.00738946
4240,0.025576133
4241,0.00010687424
4242,-0.086552404
4243,-0.01072825
4244,0.024553085
4245,-0.019678073
4246,-0.06638131
4247,0.022669576
4248,-0.081239074
4249,-0.011120047
4250,-0.0692059
4251,-0.032884393
4252,0.019885162
4253,0.00999378
4254,-0.047054335
4255,0.08515033
4256,0.01404763
4257,0.035521187
4258,0.038863648
4259,-0.089025564
4260,-0.0012682977
4261,0.0034587793
4262,0.0147826895
4263,-0.014189334
4264,0.025170838
4265,-0.020276126
4266,-0.00865132
4267,-0.010015516
4268,-0.0067684134
4269,-0.00021414208
4270,0.06449067
4271,-0.017732892
4272,-0.06948568
4273,-0.01788986
4274,-0.02239788
4275,-0.01719095
4276,0.017623456
4277,-0.038104624
4278,-0.0122857625
4279,-0.018086687
4280,0.019436471
4281,0.02378275
4282,-0.052111674
4283,-0.03165281
4284,-0.029019898
4285,0.015872005
4286,0.039516997
4287,-0.014747961
4288,-0.02798327
4289,0.017237557
4290,0.0036445335
4291,-0.002684145
4292,-0.060521852
4293,-0.04110878
4294,-0.026168607
4295,0.017897556
4296,-0.027448889
4297,0.010291925
4298,-0.070322365
4299,-0.021571703
4300,0.045927607
4301,-0.014271208
4302,-0.13113534
4303,-0.007672661
4304,-0.0184556
4305,-0.012502429
4306,0.024893826
4307,-0.07244623
4308,0.009636158
4309,-0.010077396
4310,-0.038516328
4311,0.027899945
4312,0.0046322136
4313,-0.020307675
4314,-0.042383913
4315,-0.014642403
4316,0.0052358955
4317,-0.024706671
4318,-0.012338578
4319,-0.021572957
4320,-0.011807848
4321,0.021238506
4322,-0.013508913
4323,-0.026670294
4324,-0.0058057555
4325,-0.029584214
4326,-0.008612251
4327,0.026720077
4328,0.0049595665
4329,-0.008074303
4330,0.023017252
4331,-0.0536273
4332,0.031142183
4333,0.06802536
4334,0.026172312
4335,-0.0097316485
4336,-0.0027693866
4337,-0.062870994
4338,-0.030848661
4339,-0.055212423
4340,-0.029879445
4341,-0.0054512355
4342,-0.011370645
4343,0.026005365
4344,-0.14490803
4345,0.0010476136
4346,-0.03154569
4347,0.011546564
4348,-0.020642212
4349,0.011742921
4350,-0.078869924
4351,-0.11396082
4352,0.008102183
4353,-0.0008260097
4354,0.015303155
4355,-0.031509846
4356,-0.014480063
4357,-0.001305857
4358,0.010971509
4359,-0.025544042
4360,-0.0528495
4361,0.01083095
4362,-0.06632406
4363,-0.023078982
4364,-0.012738905
4365,-0.07280624
4366,0.10092849
4367,-0.09922215
4368,0.07184284
4369,-0.045168445
4370,-0.13239706
4371,-0.022549191
4372,-0.06348075
4373,-0.30987102
4374,-0.049897768
4375,-0.041840333
4376,-0.0005524164
4377,0.012768307
4378,0.05952431
4379,-0.0054200073
4380,-0.0017414612
4381,0.0073344857
4382,-0.017010672
4383,-0.031057922
4384,-0.01864557
4385,0.013957134
4386,-0.01854069
4387,-0.008136739
4388,-0.051454768
4389,-0.022940885
4390,-0.03820721
4391,-0.14179486
4392,-0.003467693
4393,-0.011524409
4394,0.004764231
4395,-0.0075598033
4396,-0.013040532
4397,-0.031665172
4398,0.020858882
4399,0.057887185
4400,-0.09643217
4401,0.00010251746
4402,0.04068995
4403,-0.033858124
4404,-0.009604428
4405,-0.124961644
4406,0.09752765
4407,-0.061355114
4408,-0.018159902
4409,-0.10814782
4410,0.014632319
4411,0.0056812023
4412,-0.029979855
4413,-0.006392249
4414,-0.034245845
4415,-0.030872544
4416,-0.02599983
4417,0.036685985
4418,-0.026659044
4419,0.009797161
4420,-0.14926912
4421,-0.115390085
4422,-0.008348399
4423,-0.006442735
4424,0.005810213
4425,-0.02633777
4426,-0.008251235
4427,-0.07748646
4428,-0.016458033
4429,-0.013534336
4430,-0.099792674
4431,-0.11609555
4432,-0.15217
4433,-0.009295593
4434,-0.035075273
4435,-0.09770965
4436,0.0065237884
4437,-0.026387861
4438,-0.000544933
4439,-0.0044390927
4440,-0.10851116
4441,-0.11237792
4442,-0.0032385401
4443,-0.0005301644
4444,-0.0038033756
4445,-0.016432464
4446,-0.08347635
4447,-0.0014273563
4448,0.029606849
4449,-0.07937503
4450,-0.009789878
4451,0.007932918
4452,-0.019665703
4453,-0.012669458
4454,0.0041502616
4455,-0.036692366
4456,-0.01152739
4457,-0.015390389
4458,0.022520345
4459,-0.008754221
4460,-0.009056359
4461,-0.0029083386
4462,-0.071771525
4463,-0.04437056
4464,-0.13220531
4465,-0.023908423
4466,-0.01797553
4467,-0.033582818
4468,0.018574052
4469,-0.021533877
4470,-0.042971227
4471,-0.16009064
4472,-0.045274783
4473,-0.0013459205
4474,-0.037026964
4475,-0.038220022
4476,0.017197132
4477,0.04171859
4478,-0.01069298
4479,-0.001179307
4480,0.02110624
4481,-0.038186297
4482,0.0056258496
4483,-0.008332922
4484,-0.0035622711
4485,0.05277696
4486,-0.007968733
4487,-0.030176507
4488,-0.02682983
4489,-0.00609815
4490,0.02491324
4491,-0.0426813
4492,-0.015825354
4493,-0.35539412
4494,-0.030667357
4495,-0.16402645
4496,1.2341188e-06
4497,-0.038089342
4498,-0.061472103
4499,0.015576591
4500,0.09730224
4501,0.0090110935
4502,0.11355317
4503,0.029748179
4504,0.03894989
4505,-0.022803482
4506,-0.0077725146
4507,0.06372419
4508,-0.07669608
4509,0.0056493776
4510,0.110247605
4511,0.04590148
4512,0.032869708
4513,0.027847745
4514,0.026546331
4515,0.009516027
4516,-0.048653383
4517,-0.052256525
4518,0.032522283
4519,-0.024474846
4520,-0.021659045
4521,0.029587641
4522,0.0127088595
4523,0.055191014
4524,-0.019439127
4525,-0.020046229
4526,0.0108708395
4527,-0.074480236
4528,0.005249992
4529,-0.073017046
4530,-0.10815126
4531,-0.017660376
4532,0.008048761
4533,-0.03827129
4534,-0.023147168
4535,-0.20872252
4536,-0.018749522
4537,-0.06776556
4538,0.15599567
4539,-0.044354487
4540,0.042476017
4541,-0.033897214
4542,0.062284764
4543,-0.13069215
4544,0.022959318
4545,-0.012543073
4546,0.0267134
4547,-0.07509152
4548,-0.15924266
4549,0.005824716
4550,-0.022294397
4551,-0.04934219
4552,-0.023052098
4553,-0.128362
4554,-0.011591036
4555,0.019540237
4556,0.03346776
4557,-0.0052014776
4558,-0.05523147
4559,-0.061911467
4560,0.014138802
4561,0.058925632
4562,-0.09520577
4563,-0.0348163
4564,0.041897368
4565,-0.32925925
4566,-0.00817032
4567,-0.009506936
4568,-0.03265014
4569,-0.04045865
4570,-0.020151485
4571,-0.04239721
4572,0.0033504402
4573,0.17111966
4574,-0.030476457
4575,-0.10565714
4576,-0.024004169
4577,0.010364937
4578,-0.037835535
4579,-0.036789447
4580,-0.17092267
4581,-0.023107443
4582,0.0036584465
4583,0.10812443
4584,-0.016263068
4585,-0.050843604
4586,0.03191013
4587,-0.023558907
4588,0.0012491165
4589,-0.012331165
4590,-0.022049746
4591,0.019536646
4592,0.043255575
4593,0.12666075
4594,-0.06647892
4595,-0.026731988
4596,0.14231488
4597,-0.016278354
4598,0.0014385368
4599,-0.07666587
4600,-0.02135075
4601,-0.013099828
4602,-0.0371705
4603,0.01890108
4604,-0.07369389
4605,-0.21774445
4606,0.0010044021
4607,0.020793509
4608,-0.014186365
4609,-0.025233664
4610,-0.099104725
4611,-0.014889588
4612,-0.0143141365
4613,-0.019387946
4614,-0.081366755
4615,0.03677943
4616,-0.03290578
4617,-0.020204004
4618,-0.05266226
4619,-0.14206296
4620,-0.0054060197
4621,0.057079434
4622,-0.066578805
4623,0.047880013
4624,-0.08533752
4625,0.054306243
4626,0.032719962
4627,-0.014318823
4628,-0.04828269
4629,0.05242196
4630,-0.035455704
4631,-0.12817201
4632,-0.0060108225
4633,-0.003404173
4634,0.00591969
4635,-0.04533775
4636,0.054298896
4637,-0.0063809045
4638,-0.0069160536
4639,-0.0058561596
4640,-0.031153753
4641,-0.016993232
4642,-0.036734454
4643,-0.08623048
4644,-0.08881667
4645,0.03573651
4646,0.014105662
4647,-0.024567243
4648,-0.058762755
4649,-0.0038579288
4650,0.013353734
4651,-0.067015134
4652,-0.010192682
4653,0.021401186
4654,-0.0054846187
4655,-0.019308133
4656,-0.047668025
4657,-0.012764531
4658,-0.0056034997
4659,-0.018773379
4660,-0.002944966
4661,0.06069705
4662,-0.064329214
4663,0.11843046
4664,-0.026009131
4665,-0.0036413292
4666,-0.009574717
4667,-0.035052534
4668,-0.013996524
4669,0.016671117
4670,-0.012367678
4671,0.09225381
4672,-0.008736321
4673,0.030865744
4674,-0.015750168
4675,-0.052879244
4676,0.010433222
4677,-0.046495445
4678,-0.03537945
4679,-0.0043637007
4680,0.021122037
4681,-0.3096081
4682,-0.08988964
4683,0.009533382
4684,0.06307798
4685,-0.017747339
4686,-0.093204215
4687,-0.027386775
4688,-0.030167483
4689,-0.039329033
4690,0.007869348
4691,-0.040907796
4692,-0.10995184
4693,0.10715723
4694,-0.01844486
4695,-0.03069327
4696,-0.035731856
4697,0.0046742116
4698,-0.0514828
4699,-0.0051992657
4700,-0.012359544
4701,-0.03522485
4702,-0.029085442
4703,-0.02850253
4704,-0.025726056
4705,0.026884772
4706,-0.04915111
4707,-0.006077067
4708,0.045318615
4709,-0.014197829
4710,0.003622567
4711,-0.01891358
4712,-0.064328946
4713,-0.021469813
4714,0.020954745
4715,-0.021803452
4716,-0.026146447
4717,0.006428598
4718,-0.021198135
4719,-0.06724338
4720,-0.06452346
4721,0.045780834
4722,-0.044358965
4723,0.020995399
4724,-0.0057146926
4725,-0.021857794
4726,-0.0010155662
4727,-0.028643342
4728,-0.18298464
4729,0.000955394
4730,-0.04928447
4731,7.200189e-05
4732,0.019437911
4733,0.056786653
4734,-0.007969881
4735,-0.075333774
4736,-0.022412704
4737,0.058858033
4738,-0.038287353
4739,-0.00080579653
4740,0.0058164005
4741,-0.03485938
4742,-0.028795738
4743,-0.15430272
4744,-0.03381983
4745,0.038138773
4746,-0.03828704
4747,-0.04369022
4748,-0.015206558
4749,0.056991708
4750,0.013166413
4751,-0.060589213
4752,0.021249821
4753,0.016199486
4754,0.008196059
4755,-0.021392241
4756,-0.09413471
4757,-0.0013423176
4758,-0.0120610725
4759,0.010383158
4760,-0.012607599
4761,-0.033943575
4762,0.023601478
4763,-0.019619785
4764,-0.023241954
4765,-0.005412345
4766,-0.017694486
4767,0.044605058
4768,-0.059622366
4769,-0.051677503
4770,-0.021530768
4771,-0.006687087
4772,0.01635732
4773,0.022229688
4774,0.008227942
4775,0.022360528
4776,-0.03492609
4777,0.0023574186
4778,0.0005067694
4779,-0.009543512
4780,-0.019680526
4781,0.024960672
4782,0.07229311
4783,-0.00513595
4784,-0.0010124408
4785,-0.019968465
4786,0.012445622
4787,-0.013891845
4788,-0.0132153155
4789,0.060807995
4790,0.0030466956
4791,0.04300249
4792,-0.039357223
4793,-0.024424257
4794,-0.03223758
4795,0.018511832
4796,-0.018798133
4797,0.0016915802
4798,-0.01004338
4799,0.041743986
4800,-0.009399087
4801,-0.07085304
4802,-0.024620116
4803,0.026078876
4804,0.004156233
4805,0.006011486
4806,-0.02377326
4807,0.055296667
4808,-0.07023734
4809,0.040599827
4810,-0.010667388
4811,0.02256513
4812,0.045648966
4813,0.0088059725
4814,0.09020969
4815,0.023242848
4816,0.055615995
4817,-0.020653682
4818,-0.0019310786
4819,-0.026358267
4820,-0.08660375
4821,0.06086443
4822,-0.08980935
4823,0.0056299362
4824,0.031132372
4825,0.10049006
4826,-0.07615504
4827,-0.0040611112
4828,-0.002265884
4829,-0.040889855
4830,0.038332254
4831,0.0109244175
4832,-0.0061179353
4833,-0.13182223
4834,-0.03438862
4835,-0.014568211
4836,0.041161362
4837,-0.00029038507
4838,0.005537442
4839,-0.015676118
4840,0.00878987
4841,-0.06345373
4842,-0.04056058
4843,-0.06352699
4844,-0.0041781613
4845,0.048700847
4846,-0.059574056
4847,-0.21875633
4848,0.043858923
4849,-0.017649682
4850,-0.018217243
4851,-0.028719395
4852,-0.014875074
4853,-0.012376857
4854,-0.010468615
4855,0.0027044453
4856,-0.08828909
4857,0.017299933
4858,-0.017604092
4859,-0.015181192
4860,-0.0084193135
4861,-0.028560964
4862,0.00060295913
4863,-0.07620552
4864,0.023089476
4865,-0.03277501
4866,-0.025300184
4867,-0.015859166
4868,-0.009859338
4869,0.0118275285
4870,-0.03854858
4871,-0.031757955
4872,0.003246208
4873,-0.015282852
4874,-0.021307888
4875,0.023901416
4876,-0.0075883907
4877,-0.081886865
4878,0.0037894025
4879,-0.06580507
4880,0.025986873
4881,-0.027168207
4882,-0.17600651
4883,-0.038116146
4884,-0.036359213
4885,-0.09418475
4886,-0.0155362645
4887,-0.069724016
4888,0.0056398786
4889,-0.0507823
4890,0.097982936
4891,-0.037400242
4892,0.033442974
4893,0.0004929647
4894,-0.006492045
4895,-0.062089466
4896,-0.023528079
4897,0.012733258
4898,-0.004949818
4899,0.010692785
4900,-0.051031098
4901,0.039747205
4902,-0.011887928
4903,-0.04045916
4904,-0.032290824
4905,0.012592151
4906,-0.0059898105
4907,-0.033471193
4908,0.0019455004
4909,0.06190485
4910,-0.05151786
4911,-0.012213273
4912,0.122427985
4913,-0.01808905
4914,-0.017988699
4915,-0.069246955
4916,-0.015142592
4917,-0.13936289
4918,0.053413473
4919,-0.08008252
4920,-0.0117502
4921,-0.19034274
4922,0.004036259
4923,-0.00089211337
4924,-0.00221598
4925,-0.03760245
4926,-0.023610719
4927,-0.09085665
4928,-0.009768487
4929,-0.013185117
4930,-0.011762763
4931,0.0034972646
4932,-0.06096267
4933,-0.045806102
4934,-0.0050192373
4935,0.056648374
4936,-0.066278145
4937,-0.09191426
4938,-0.019025879
4939,0.04986761
4940,0.074026495
4941,-0.023739012
4942,-0.13276935
4943,-0.107451625
4944,-0.04954013
4945,-0.00860425
4946,-0.00045319542
4947,-0.0016411964
4948,-0.008928606
4949,-0.020341964
4950,-0.0051985616
4951,-0.017274247
4952,-0.026615148
4953,-0.068583794
4954,0.016742736
4955,-0.026504405
4956,-0.010938715
4957,-0.0381966
4958,-0.05365854
4959,-0.011319384
4960,-0.011798738
4961,-0.09905272
4962,-0.041697327
4963,-0.0028839346
4964,0.025634067
4965,-0.051681634
4966,-0.015753519
4967,0.029716782
4968,0.0043323
4969,-0.014213815
4970,-0.016461704
4971,-0.017019676
4972,-0.024143798
4973,-0.047037136
4974,-0.11423553
4975,-0.10745491
4976,0.014658524
4977,0.02143699
4978,-0.0077834744
4979,0.076361895
4980,0.0043638484
4981,0.028115388
4982,0.0120055545
4983,-0.10111718
4984,-0.00014531541
4985,-0.0022572936
4986,-0.019721366
4987,-0.047946885
4988,-0.025138902
4989,-0.039892014
4990,-0.055079207
4991,-0.011625743
4992,-0.023774814
4993,0.02145068
4994,-0.002470104
4995,-0.023426916
4996,-0.019131465
4997,0.009065203
4998,-0.037255846
4999,0.030676913
5000,-0.038392078
5001,-0.043268297
5002,-0.039873708
5003,-0.058736335
5004,-0.0073200166
5005,-0.030827018
5006,0.01275713
5007,-0.06385035
5008,0.037320048
5009,-0.04960328
5010,-0.051247824
5011,-0.0045191566
5012,-0.025665427
5013,-0.025035968
5014,-0.043263942
5015,0.018895265
5016,-0.01853102
5017,0.018648384
5018,0.0035521118
5019,-0.027893486
5020,0.009851918
5021,0.009988353
5022,-0.029749373
5023,0.07489572
5024,0.03839558
5025,-0.008224207
5026,0.034103595
5027,-0.04309599
5028,-0.009742513
5029,-0.021989342
5030,0.020712944
5031,-0.036485072
5032,0.042507015
5033,-0.01388351
5034,-0.009263365
5035,-0.03684994
5036,-0.020979753
5037,0.011628564
5038,-0.0138281975
5039,-0.015623246
5040,-0.037683416
5041,-0.0201271
5042,-0.013684533
5043,0.000505748
5044,-0.0023446654
5045,0.02636338
5046,0.026683643
5047,-0.0071676583
5048,0.018269928
5049,-0.054297734
5050,-0.007846844
5051,0.03467692
5052,-0.039605957
5053,3.942669e-05
5054,-0.004699837
5055,-0.010359018
5056,-0.03318593
5057,-0.005303227
5058,-0.032871243
5059,0.062953845
5060,-0.07464898
5061,-0.015243571
5062,-0.008611367
5063,0.026098806
5064,0.045199983
5065,-0.11281771
5066,-0.02620131
5067,0.024911001
5068,-0.0009612758
5069,-0.009647855
5070,-0.1332032
5071,0.04206033
5072,-0.02914282
5073,-0.041708246
5074,-0.01882738
5075,-0.0016167479
5076,-0.035505947
5077,0.011125273
5078,-0.020327752
5079,0.04054827
5080,-0.03304426
5081,-0.020607617
5082,-0.041191787
5083,-0.04435825
5084,-0.013178447
5085,-0.049133178
5086,0.029345354
5087,0.0056802616
5088,-0.011956146
5089,-0.019220116
5090,-0.045894437
5091,-0.011613542
5092,0.06443438
5093,-0.034403015
5094,-0.010905171
5095,-0.06586141
5096,5.574053e-05
5097,-0.032761145
5098,0.022534862
5099,0.020836147
5100,-0.006463836
5101,-0.0073790923
5102,0.045668986
5103,0.009732766
5104,0.015990866
5105,-0.02938232
5106,-0.012827965
5107,-0.03246548
5108,-0.010025212
5109,0.01790501
5110,-0.008072149
5111,-0.012281093
5112,-0.024970643
5113,0.001993255
5114,0.009073565
5115,-0.02725742
5116,-0.02250247
5117,0.0012983753
5118,-0.012580032
5119,-0.035806213
5120,-0.033822913
5121,0.09210122
5122,-0.0058504017
5123,0.02371938
5124,-0.15321799
5125,0.027739797
5126,0.013185704
5127,-0.07093527
5128,-0.080907345
5129,-0.14430182
5130,0.0022410788
5131,-0.059917614
5132,0.011725152
5133,0.0683921
5134,-0.042676624
5135,-0.03851553
5136,-0.02509891
5137,0.053922985
5138,0.012745585
5139,-0.021211479
5140,-0.07953678
5141,0.14527412
5142,-0.014402679
5143,0.04259859
5144,-0.015969183
5145,-0.030004218
5146,0.0745858
5147,0.018690785
5148,-0.03244898
5149,-0.0039632414
5150,0.029734874
5151,-0.12545413
5152,-0.09043816
5153,0.052153062
5154,0.024334626
5155,-0.056151215
5156,0.008119444
5157,0.014114392
5158,-0.06545644
5159,0.15420586
5160,-0.00747922
5161,-0.013220782
5162,-0.00960726
5163,-0.030310784
5164,-0.018740833
5165,0.022941148
5166,-0.14878291
5167,-0.016643852
5168,-0.10535981
5169,-0.001523838
5170,0.010769263
5171,-0.0067105344
5172,-0.00341356
5173,0.13455108
5174,-0.02758038
5175,0.10958179
5176,-0.064386435
5177,-0.039506074
5178,0.022187773
5179,0.0017999662
5180,-0.020603653
5181,0.046530105
5182,0.042540513
5183,0.101990275
5184,-0.011218984
5185,-0.07697324
5186,-0.002656983
5187,-0.012725973
5188,-0.014056437
5189,0.110419445
5190,-0.08464869
5191,0.030126272
5192,-0.086829655
5193,0.09414666
5194,-0.026075855
5195,0.077438675
5196,0.049267784
5197,0.014141098
5198,0.12224015
5199,0.06408431
5200,0.10969944
5201,0.0005627137
5202,-0.06960701
5203,-0.02853993
5204,-0.011115301
5205,0.06480981
5206,-0.08221107
5207,-0.042068195
5208,0.073010966
5209,0.06488684
5210,-0.091119595
5211,-0.101168826
5212,0.006253413
5213,0.014127447
5214,0.05888992
5215,-0.0030000054
5216,0.0011634901
5217,-0.07978472
5218,-0.006336276
5219,-0.0037056596
5220,0.12467624
5221,-0.13110226
5222,-0.009540835
5223,0.027173849
5224,0.0032826709
5225,-0.07315601
5226,0.014237603
5227,-0.038289804
5228,-0.1430009
5229,-0.1749283
5230,-0.17062142
5231,-0.09675052
5232,0.059247166
5233,-0.03833801
5234,-0.0017733241
5235,-0.059997927
5236,0.013808979
5237,-0.011658976
5238,-0.015347025
5239,-0.012745193
5240,-0.08061671
5241,-0.0006219374
5242,-0.013433393
5243,-0.106042184
5244,-0.057473093
5245,-0.00603026
5246,0.0071998695
5247,-0.088520296
5248,-0.04700446
5249,-0.009551716
5250,0.011586951
5251,-0.036328908
5252,-0.02064366
5253,-0.069230124
5254,-0.00929991
5255,-0.06710327
5256,-0.003875584
5257,-0.04829247
5258,-0.047984093
5259,-0.037608206
5260,-0.01891354
5261,-0.09911516
5262,0.07668315
5263,-0.17689633
5264,0.063582346
5265,-0.10279028
5266,-0.037923332
5267,-0.062603444
5268,-0.016913917
5269,-0.3424258
5270,-0.10062323
5271,0.048412193
5272,-0.04562421
5273,-0.0893518
5274,-0.11481623
5275,-0.0633762
5276,-0.051317874
5277,-0.008595483
5278,-0.101927675
5279,-0.0009466364
5280,-0.024858985
5281,-0.02581735
5282,-0.17401855
5283,-0.007914292
5284,0.10451868
5285,-0.06471245
5286,-0.027696244
5287,0.015596179
5288,0.048522864
5289,-0.01146647
5290,0.007735439
5291,-0.032430634
5292,-0.026090195
5293,0.04227655
5294,-0.042255767
5295,-0.0057688025
5296,0.008695337
5297,-0.019032367
5298,0.00041796255
5299,0.00311714
5300,-0.004586348
5301,-0.062746696
5302,0.092470214
5303,-0.14782573
5304,-0.005344288
5305,0.069473535
5306,-0.065511644
5307,-0.01045738
5308,-0.037698213
5309,0.0059221606
5310,0.007833054
5311,-0.080101766
5312,-0.04612238
5313,-0.025742164
5314,-0.029127782
5315,0.04315092
5316,-0.010702941
5317,0.019440245
5318,-0.005680084
5319,-0.018169267
5320,-0.0029489924
5321,-0.0630044
5322,0.019047335
5323,-0.19312094
5324,0.01667963
5325,0.0035094991
5326,-0.04147218
5327,-0.13923836
5328,0.04562855
5329,0.011165104
5330,-0.0075807157
5331,0.02116488
5332,-0.019328838
5333,-0.0134747755
5334,-0.017476559
5335,0.0011241699
5336,-0.07358175
5337,0.0217106
5338,-0.019978993
5339,-0.0047776075
5340,0.0042060926
5341,-0.101238415
5342,0.017309897
5343,0.014761015
5344,-0.063340016
5345,-0.0805532
5346,-0.061243985
5347,-0.07978172
5348,-0.11637755
5349,0.0015560207
5350,-0.017336605
5351,-0.041490037
5352,-0.013815365
5353,-0.0070248935
5354,-0.16803354
5355,-0.040626563
5356,-0.034627214
5357,-0.07480012
5358,-0.07370178
5359,-0.082261175
5360,-0.06090244
5361,-0.09405007
5362,-0.0131885875
5363,-0.061583634
5364,-0.05269012
5365,-0.07403328
5366,-0.022833226
5367,0.074619114
5368,-0.02620685
5369,-0.009974625
5370,-0.0013691137
5371,-0.0933323
5372,0.029100353
5373,-0.019080019
5374,-0.014354443
5375,0.0044758087
5376,-0.038652755
5377,-0.015731923
5378,-0.01715479
5379,-0.045257334
5380,0.003944503
5381,-0.052318078
5382,-0.03649195
5383,-0.085064895
5384,-0.022132466
5385,0.020897072
5386,-0.07791534
5387,-0.07621899
5388,0.016138596
5389,0.044163767
5390,0.020966938
5391,-0.05008743
5392,0.028989391
5393,0.0036211365
5394,-0.074539065
5395,-0.033494968
5396,-0.0036485125
5397,-0.043223046
5398,-0.062585086
5399,-0.112675354
5400,-0.06620121
5401,-0.09756962
5402,-0.1390255
5403,-0.025357986
5404,-0.10783003
5405,0.007083196
5406,-0.09106692
5407,0.03673048
5408,-0.051530533
5409,0.076008186
5410,0.022993138
5411,-0.019254616
5412,-0.066940024
5413,-0.000561648
5414,0.018749928
5415,-0.04385004
5416,-0.050052006
5417,-0.024341868
5418,-0.009456729
5419,-0.104278184
5420,-0.018498335
5421,0.014586362
5422,0.05112072
5423,0.014698531
5424,-0.087287195
5425,-0.023031142
5426,0.0127215255
5427,-0.019837728
5428,-0.0022462998
5429,-0.027426971
5430,0.03078777
5431,-0.06932536
5432,-0.009315038
5433,-0.0915222
5434,-0.077285804
5435,0.0252077
5436,-0.0703387
5437,0.02240399
5438,-0.0043691737
5439,-0.10232146
5440,-0.010225347
5441,-0.04313381
5442,-0.088826224
5443,-0.018623196
5444,-0.13801625
5445,-0.042741936
5446,0.0011917274
5447,0.035638765
5448,0.08234686
5449,-0.024519252
5450,-0.024369981
5451,-0.022860182
5452,-0.017539876
5453,-0.012851786
5454,-0.13702935
5455,-0.079591975
5456,-0.02241255
5457,-0.026231064
5458,-0.04055769
5459,-0.073365405
5460,-0.055810582
5461,0.01650966
5462,-0.00782525
5463,-0.003732114
5464,-0.07917489
5465,-0.084802374
5466,-0.023998603
5467,0.027237568
5468,-0.04484499
5469,-0.12906334
5470,-0.05781735
5471,-0.007446525
5472,-0.04346267
5473,-0.04957885
5474,-0.05680247
5475,-0.039269347
5476,0.026452722
5477,-0.017735317
5478,-0.0007306699
5479,0.071048714
5480,-0.019953268
5481,0.0010357571
5482,-0.049371336
5483,-0.07582363
5484,0.03540824
5485,0.048401963
5486,-0.021142526
5487,-0.09371124
5488,0.013999274
5489,-0.11601117
5490,-0.026691262
5491,-0.044918764
5492,-0.08190335
5493,0.005694758
5494,-0.027905632
5495,-0.08960404
5496,-0.12930231
5497,0.002935198
5498,-0.036523014
5499,0.024444511
5500,-0.008523235
5501,0.01231047
5502,0.07331383
5503,-0.004753347
5504,-0.017298296
5505,0.07176732
5506,-0.010811891
5507,-0.0438992
5508,-0.02262263
5509,0.003724408
5510,-0.0370648
5511,-0.04141324
5512,-0.02400922
5513,-0.06146662
5514,-0.036587473
5515,-0.014297207
5516,0.005227538
5517,-0.08577194
5518,0.007909984
5519,-0.08960964
5520,0.034679692
5521,0.02572435
5522,-0.00410008
5523,-0.017302604
5524,0.034178317
5525,-0.013534041
5526,0.021286217
5527,-0.008035272
5528,0.003140599
5529,-0.03926888
5530,-0.13330881
5531,-0.051413722
5532,0.082810365
5533,0.0020073697
5534,0.03532474
5535,-0.11140187
5536,-0.025338234
5537,-0.14588638
5538,-0.15748094
5539,-0.016351731
5540,0.0020468144
5541,-0.013475132
5542,-0.0018768157
5543,-0.015359423
5544,-0.017615212
5545,0.020418307
5546,0.00259595
5547,-0.036980033
5548,-0.010007597
5549,0.010718322
5550,-0.06373011
5551,-0.010570927
5552,0.0611667
5553,-0.0029849592
5554,-0.014580353
5555,-0.0014907114
5556,0.004846688
5557,0.10289979
5558,0.0167281
5559,-0.12593217
5560,-0.024341948
5561,-0.048292797
5562,-0.017181873
5563,0.028851243
5564,0.0036976077
5565,-0.06402266
5566,-0.04108925
5567,-0.021177344
5568,-0.009185263
5569,0.004795817
5570,-0.056588486
5571,-0.016308786
5572,-0.12427125
5573,-0.020259418
5574,-0.037213657
5575,0.0066412003
5576,-0.102008395
5577,-0.11389133
5578,-0.025673775
5579,0.010926976
5580,0.028121976
5581,-0.0030984296
5582,-0.03656187
5583,-0.16240394
5584,-0.024156617
5585,-0.022794839
5586,-0.030228924
5587,-0.003781314
5588,0.010262627
5589,-0.021148434
5590,-0.004520412
5591,-0.13239498
5592,0.042215724
5593,0.076315515
5594,-0.030914146
5595,0.004538807
5596,-0.024087664
5597,0.07755764
5598,0.017339984
5599,-0.011267231
5600,-0.021243865
5601,-0.0118980305
5602,0.075065166
5603,-0.019212052
5604,-0.08550729
5605,-0.087447524
5606,0.0046033193
5607,-0.11183908
5608,0.016589304
5609,-0.006039755
5610,-0.03737988
5611,-0.056724492
5612,-0.086412944
5613,-0.04856048
5614,-0.11337905
5615,0.021223376
5616,-0.0922099
5617,-0.09153834
5618,-0.016652845
5619,0.049771532
5620,-0.020939635
5621,-0.11160812
5622,0.008381528
5623,-0.010839217
5624,-0.00911185
5625,0.0028601147
5626,-0.010068208
5627,0.03455871
5628,0.0047258395
5629,-0.00544792
5630,-0.020480417
5631,-0.0021972498
5632,-0.06236503
5633,0.016123336
5634,-0.047406673
5635,0.005286519
5636,0.093412966
5637,-0.033615123
5638,0.0003201013
5639,-0.3051458
5640,-0.011507296
5641,-0.06280166
5642,0.016178522
5643,-0.039215513
5644,-0.013252819
5645,0.045125756
5646,0.0023885649
5647,0.03890992
5648,0.02729245
5649,-0.06321982
5650,-0.014562885
5651,0.00096272427
5652,-0.0639004
5653,0.13679104
5654,-0.07506282
5655,0.056901537
5656,0.0013434355
5657,-0.016863413
5658,-0.07990231
5659,-0.02902024
5660,-0.00013886498
5661,-0.031949483
5662,-0.06334495
5663,-0.048505597
5664,-0.15004279
5665,-0.030442921
5666,-0.02687393
5667,-0.080625065
5668,-0.033531632
5669,0.005838905
5670,-0.03889417
5671,0.0067057596
5672,-0.06313665
5673,0.0033222637
5674,-0.011019731
5675,-0.004429767
5676,0.0060109207
5677,0.03685377
5678,-0.017735375
5679,0.006465934
5680,-0.009323281
5681,-0.04303443
5682,0.026735596
5683,0.0034002878
5684,-0.0040048924
5685,0.06236986
5686,0.0072339056
5687,0.009194622
5688,-0.11717795
5689,0.019938616
5690,-0.055879883
5691,0.035540845
5692,0.0064368276
5693,-0.034481697
5694,-0.0294252
5695,-0.009572382
5696,-0.13657252
5697,-0.20940155
5698,-0.07292948
5699,-0.024721058
5700,0.033486944
5701,-0.021073181
5702,-0.017988646
5703,0.013236232
5704,0.04267902
5705,0.020763636
5706,-0.042308107
5707,-0.10734285
5708,-0.026612183
5709,-0.004898845
5710,0.08750657
5711,-0.12503468
5712,-0.009372594
5713,0.0068710893
5714,-0.07589105
5715,-0.03964092
5716,-0.043352038
5717,-0.02125753
5718,-0.054867897
5719,-0.029954469
5720,0.11529315
5721,0.05903738
5722,-0.08359788
5723,-0.07118963
5724,0.0038806365
5725,-0.10626784
5726,0.02344811
5727,-0.0014361432
5728,-0.06474719
5729,-0.08778996
5730,-0.07058954
5731,0.0030950494
5732,-0.021460041
5733,-0.005076832
5734,-0.00090673525
5735,0.012444527
5736,0.0020507518
5737,-0.06257309
5738,-0.06308355
5739,-0.0013699416
5740,-0.11174937
5741,-0.08796964
5742,-0.23974131
5743,-0.057178456
5744,0.06085154
5745,-0.014945371
5746,0.018914875
5747,0.08293183
5748,-0.05745046
5749,-0.02835486
5750,-0.048652694
5751,0.012284082
5752,-0.049286712
5753,-0.0070301155
5754,-0.03166068
5755,-0.21324375
5756,-0.026886813
5757,0.024963321
5758,0.0059381765
5759,-0.08478657
5760,-0.044021375
5761,0.04688042
5762,-0.042723704
5763,-0.0027968239
5764,-0.06610971
5765,0.025268398
5766,-0.020190181
5767,0.0009994591
5768,-0.02971041
5769,-0.15763429
5770,-0.036524754
5771,-0.03769393
5772,-0.008118413
5773,0.031701036
5774,0.00012779236
5775,-0.030289598
5776,0.006810499
5777,0.0119126765
5778,-0.046070486
5779,-0.017093947
5780,-0.06037462
5781,0.01705381
5782,-0.02571035
5783,-0.012175255
5784,-0.068683736
5785,-0.055403847
5786,0.043152902
5787,0.015034222
5788,0.02615105
5789,-0.012179235
5790,0.019653963
5791,-0.048866395
5792,-0.01968164
5793,-0.009262352
5794,-0.017017215
5795,-0.041974843
5796,-0.03468097
5797,0.031602632
5798,-0.010449475
5799,-0.010030387
5800,-0.042342212
5801,-0.008961058
5802,0.0104800025
5803,-0.026689406
5804,-0.01162842
5805,0.032977436
5806,-0.076100565
5807,-0.022138113
5808,0.005370103
5809,0.0028725367
5810,0.0032859307
