Sno,Weight
0,0.00622663
1,-0.035164215
2,0.0025678044
3,-0.0041300883
4,-0.036023315
5,-0.0076583745
6,0.008343566
7,-0.0033864207
8,-0.07161379
9,0.019876316
10,0.021768453
11,-0.05887597
12,-0.002382539
13,0.004301031
14,-0.016855273
15,0.000973228
16,0.009489037
17,-0.039140888
18,-0.0057617053
19,0.006629653
20,-0.024678737
21,0.021255203
22,0.039662093
23,0.03229852
24,-0.01153068
25,-0.023402361
26,0.035664026
27,-0.15286832
28,0.036146194
29,0.012676285
30,-0.029977106
31,0.03966097
32,-0.066913135
33,-0.022738216
34,-0.012443138
35,-0.04073631
36,-0.0010130033
37,0.0040923534
38,-0.023691934
39,-0.03488707
40,0.0043146554
41,0.013916129
42,0.060506016
43,-0.02511497
44,0.026017405
45,0.020953663
46,0.04323865
47,0.018824112
48,0.07884296
49,-0.013187971
50,-0.07169933
51,-0.015469518
52,-0.0985282
53,-0.00043926583
54,-0.030688468
55,-0.0021459574
56,0.009997893
57,0.013448969
58,-0.08422182
59,-0.06436711
60,-0.0461345
61,0.03616155
62,0.00407306
63,-0.040197734
64,0.0030513788
65,-0.002893411
66,0.01085155
67,-0.014831536
68,-0.006963406
69,-0.05174919
70,0.020947373
71,0.022955079
72,0.0023714772
73,0.0057522375
74,-0.021321898
75,-0.03944779
76,-0.028508294
77,-0.060408227
78,-0.02186049
79,-0.0071897805
80,-0.013255406
81,-0.13217491
82,0.016627815
83,0.007552479
84,-0.0002938683
85,0.00364652
86,-0.026927397
87,-0.009974269
88,-0.05434723
89,-0.015762882
90,-0.057142027
91,-0.07922128
92,-0.0024385825
93,-0.0199605
94,-0.019303903
95,-0.00335815
96,-0.09135185
97,0.02606634
98,0.0020950912
99,-0.0148261245
100,-0.011608496
101,-0.054939166
102,-0.008114578
103,0.0025422059
104,-0.052258134
105,-0.037931334
106,0.014476017
107,-0.007136016
108,-0.05070252
109,0.05151129
110,-0.048888564
111,-0.058914367
112,0.030517748
113,-0.0054337615
114,0.010838918
115,0.008249003
116,-0.053457804
117,-0.023359396
118,0.0054328605
119,0.0831299
120,-0.0067241136
121,0.003602043
122,-8.4919855e-05
123,0.014543344
124,-0.007873425
125,-0.0035619736
126,0.025377316
127,-0.012493009
128,0.012366324
129,-0.0071488633
130,0.0029998221
131,-0.029650925
132,0.017012626
133,-0.025176853
134,-0.083539605
135,0.023958595
136,-0.040864006
137,0.038116362
138,-0.012489016
139,0.078414306
140,-0.01913968
141,0.025376786
142,0.0082575735
143,-0.022719214
144,-0.14852981
145,-0.009185643
146,-0.010104906
147,0.031231396
148,-0.0144787375
149,-0.01186574
150,0.023235941
151,-0.02447003
152,0.03803782
153,0.075474374
154,0.0069927494
155,0.19503285
156,-0.09774793
157,-0.014586189
158,0.020512758
159,0.06480678
160,-0.03571766
161,-0.018634891
162,-0.021621512
163,0.034823906
164,0.01800368
165,-0.07805108
166,-0.009905984
167,0.013123219
168,-0.003138398
169,0.02331657
170,0.08047794
171,0.023927303
172,0.04359111
173,-0.020490238
174,0.035311185
175,-0.010009662
176,0.018247513
177,-0.0219244
178,-0.033087436
179,-0.036013015
180,0.020635251
181,0.0037938084
182,0.07398672
183,-0.025861047
184,-0.005175085
185,-0.015401235
186,-0.04139949
187,-0.04701256
188,-0.028249305
189,0.011950726
190,-0.010123579
191,-0.0085627865
192,-0.030132331
193,-0.03702382
194,0.0037489675
195,0.016388513
196,-0.033925846
197,0.000626846
198,-0.05636344
199,-0.023844603
200,0.009848304
201,0.04182805
202,0.041836906
203,0.017061865
204,0.051852893
205,-0.021581935
206,-0.0003870409
207,0.032868173
208,0.001201084
209,-0.14585447
210,-0.016098471
211,0.0033814933
212,-0.010796208
213,-0.01534498
214,-0.0603485
215,-0.025292432
216,-0.01404326
217,-0.002887198
218,-0.05905003
219,-0.0519711
220,-0.01039553
221,-0.025188444
222,-0.06258605
223,-0.0059876544
224,0.024281144
225,-0.025753269
226,0.048707813
227,0.0043588565
228,-0.0055027804
229,-0.024018886
230,0.026734354
231,0.012975161
232,-0.074598715
233,0.037050612
234,-0.022907315
235,0.035258014
236,-0.05124808
237,-0.027572107
238,0.017604114
239,-0.035097618
240,-0.00353671
241,-0.025829747
242,-0.0054318183
243,0.022660078
244,0.0036080733
245,-0.021081641
246,-0.014923616
247,0.010993599
248,0.016711995
249,0.006373268
250,-0.026950361
251,-0.010634558
252,-0.046782233
253,-0.033766832
254,0.038800932
255,-0.0853506
256,0.010049867
257,0.025302399
258,0.0016613214
259,-0.0677458
260,0.059591126
261,0.032697685
262,-0.0094998535
263,0.04723709
264,-0.008131439
265,0.073847376
266,0.0037906927
267,0.05163119
268,0.012734095
269,0.058368437
270,-0.11800213
271,0.02082405
272,-0.0151797915
273,-0.042474877
274,0.009030063
275,-0.012434006
276,0.01560736
277,0.03136746
278,0.04466798
279,0.047782328
280,0.019296352
281,-0.058348313
282,0.039834034
283,0.11915479
284,-0.0347165
285,0.041830268
286,0.092466556
287,0.050632432
288,-0.013426263
289,0.02577239
290,-0.006003469
291,0.018136792
292,0.018773658
293,-0.029157504
294,0.02781398
295,-0.083463125
296,0.0102918185
297,0.0068537765
298,0.0827745
299,0.065995835
300,0.04414667
301,-0.011482677
302,0.037994973
303,0.06949625
304,-0.046440322
305,-0.013556238
306,-0.019148232
307,-0.0056935977
308,-0.052205104
309,-0.00779814
310,0.011637475
311,-0.007232577
312,0.019355297
313,0.009304927
314,-0.0989815
315,0.0075195725
316,-0.0069652903
317,0.042511154
318,0.020880224
319,0.047304578
320,0.040205177
321,0.02967748
322,0.0029174783
323,0.051387995
324,0.030834103
325,0.07097108
326,-0.030588124
327,0.038565613
328,0.033240695
329,0.011521358
330,0.068568386
331,0.035225153
332,0.041640215
333,-0.024345888
334,-0.014480894
335,0.04479768
336,0.030044226
337,-0.034409493
338,-0.0020775553
339,0.06510188
340,0.07907872
341,0.00945856
342,-0.0026175817
343,0.0391997
344,-0.0044275103
345,0.0015424524
346,-0.018920511
347,-0.012994647
348,-0.081995584
349,0.014646135
350,0.014855433
351,0.020847227
352,0.021352358
353,-0.011295854
354,0.06107298
355,0.007245113
356,-0.034660872
357,-0.07308472
358,-0.0029738063
359,-0.08310103
360,-0.049874783
361,0.049476314
362,-0.017537488
363,0.05735637
364,0.023501754
365,-0.016842186
366,0.05164996
367,0.029891944
368,0.07007862
369,-0.009013224
370,-0.0033527284
371,0.0329713
372,0.03125077
373,0.022501767
374,-0.028012767
375,0.015836282
376,0.0297511
377,0.01367741
378,-0.05333197
379,-0.008974634
380,0.00922083
381,0.050662316
382,0.015237855
383,0.00530579
384,-0.031488866
385,-0.034374755
386,-0.014091787
387,0.28465822
388,-0.12855324
389,0.14570753
390,-0.06324723
391,0.09882721
392,-0.036251526
393,-0.07135196
394,0.009313706
395,0.05448677
396,-0.050935097
397,0.3704406
398,0.070768416
399,0.07067333
400,-0.049404334
401,0.039953813
402,0.0014892828
403,-0.17738806
404,-0.020589003
405,-0.05211562
406,0.24433538
407,-0.09420981
408,-0.073839076
409,0.024448074
410,0.054037247
411,0.03922969
412,0.153602
413,0.07228466
414,-0.0026150974
415,0.1720112
416,0.010904348
417,-0.034621824
418,0.08418399
419,-0.02438758
420,-0.1033554
421,0.089260735
422,-0.09259891
423,0.074912004
424,0.061799493
425,0.18537968
426,0.07854895
427,-0.09674469
428,0.055370953
429,-0.15219621
430,0.2316525
431,-0.089722805
432,-0.028755866
433,-0.039450612
434,-0.04091588
435,-0.0759674
436,0.033447433
437,-0.012295325
438,-0.03758606
439,-0.043747872
440,-0.014399584
441,-0.1003851
442,0.22616372
443,0.0055196923
444,0.008472735
445,0.13089472
446,-0.07079615
447,-0.030988976
448,-0.032769974
449,-0.090397544
450,-0.015431836
451,-0.10773928
452,-0.04718516
453,0.16173358
454,-0.050152484
455,-0.048898283
456,-0.10608433
457,-0.2801897
458,0.032115955
459,-0.06715832
460,0.13943426
461,0.01715115
462,-0.019135403
463,-0.066148445
464,-0.13264932
465,-0.04166224
466,-0.016365154
467,-0.13350882
468,-0.08491872
469,-0.08754621
470,-0.050980415
471,-0.06335499
472,-0.035972554
473,-0.031753816
474,0.055397093
475,-0.064328775
476,0.056525532
477,-0.00038202814
478,-0.035893224
479,-0.048574
480,-0.16980962
481,0.08669345
482,-0.0541453
483,-0.10637821
484,-0.037249263
485,0.06073576
486,0.0019672709
487,-0.078993075
488,0.098084524
489,-0.0045433305
490,0.1257826
491,0.15159762
492,-0.0061102556
493,-0.030452853
494,0.096133046
495,-0.029299192
496,-0.098615095
497,0.004214074
498,-0.10946301
499,-0.026788048
500,-0.0024443609
501,-0.08063203
502,0.023404328
503,0.01872701
504,0.2298687
505,-0.11028467
506,-0.10115501
507,0.0002622538
508,-0.07647914
509,-0.054253846
510,-0.11129174
511,-0.028240792
512,-0.011220482
513,0.00434945
514,-0.0033179778
515,-0.06499186
516,0.043998756
517,0.031208178
518,-0.019568745
519,0.026562711
520,0.028163237
521,-0.019040033
522,-0.002022828
523,-0.07554029
524,0.020528967
525,-0.012751444
526,-0.04023877
527,-0.04123829
528,-0.07394013
529,-0.042060114
530,0.011525832
531,-0.019884234
532,0.0064971293
533,-0.00017699068
534,0.04921388
535,0.017253207
536,-0.08123698
537,-0.021057907
538,0.042650536
539,-0.018839628
540,-0.10583387
541,-0.010084964
542,-0.027213063
543,0.010378733
544,-0.0063703465
545,0.01507064
546,-0.017179063
547,0.045266617
548,0.06296995
549,-0.08959744
550,0.0026106685
551,-0.041415468
552,0.002199924
553,0.03598856
554,-0.01646984
555,-0.024004811
556,-0.018805621
557,0.013039568
558,0.059397522
559,-0.021964416
560,-0.014832042
561,-0.0012998662
562,0.044949383
563,0.054750673
564,-0.024205886
565,-0.014757619
566,0.0075160284
567,-0.01770975
568,-0.0053358567
569,0.039598376
570,-0.033126768
571,0.03495488
572,-3.6575173e-05
573,0.02317553
574,0.048540674
575,0.011730969
576,0.037823197
577,0.04506024
578,-0.01453904
579,0.03127838
580,0.019877639
581,0.03829439
582,-0.016303042
583,-0.022758111
584,-0.024439247
585,0.044476133
586,0.024875732
587,-0.004257331
588,0.07288272
589,0.015964318
590,-0.007547802
591,0.02509785
592,0.008001402
593,-0.008666125
594,0.012892659
595,0.005420321
596,0.016442148
597,-0.042663306
598,0.0047300155
599,0.043938916
600,-0.042297322
601,-0.023556555
602,0.04057262
603,0.007920074
604,-0.016337862
605,0.040320322
606,0.05290493
607,0.032857608
608,0.011032024
609,-0.05015803
610,0.003176991
611,0.037192684
612,-0.011984666
613,-0.036979932
614,-0.012830054
615,0.008063761
616,-0.025158204
617,-0.00991079
618,-0.066240735
619,6.5217675e-05
620,0.006769533
621,0.024112226
622,0.023248723
623,0.0046753553
624,-0.020035071
625,-0.009141424
626,-0.025193144
627,0.024658857
628,0.0076386738
629,0.046263177
630,0.0025535955
631,0.011912057
632,0.0010433694
633,-0.034228493
634,0.0020998004
635,-0.028242715
636,0.071126886
637,0.022278965
638,-0.0067714965
639,-0.013635319
640,0.019877713
641,-0.0100317495
642,0.010983568
643,-0.092028126
644,-0.06766644
645,0.06203273
646,-0.028362172
647,0.07257648
648,-0.0095120305
649,-0.05181871
650,0.018587327
651,-0.028484995
652,-0.02550913
653,0.059452962
654,0.005510344
655,-0.08523046
656,0.057824798
657,0.060339212
658,-0.0032149162
659,-0.0735068
660,-0.049121473
661,-0.01077805
662,0.03061315
663,-0.060955856
664,-0.033365708
665,-0.00553319
666,0.050163984
667,-0.12123122
668,-0.16041979
669,-0.021192677
670,-0.042880796
671,0.046063926
672,0.005101965
673,-0.04604558
674,0.011119263
675,-0.07959747
676,-0.10888295
677,-0.007934319
678,-0.03586024
679,0.02098474
680,-0.035739228
681,0.0051508066
682,0.077229805
683,-0.039669078
684,0.06579405
685,-0.05007742
686,0.03638345
687,-0.1218392
688,-0.008285732
689,-0.012955717
690,0.036590263
691,-0.04200092
692,-0.10761716
693,-0.017576577
694,-0.041162174
695,-0.013520302
696,-0.073137335
697,-0.03633499
698,-0.18740454
699,-0.02229811
700,-0.0030896717
701,0.056265876
702,-0.029137269
703,-0.020555431
704,-0.023651341
705,-0.0667354
706,-0.039530564
707,0.009989657
708,-0.06555061
709,-0.039818224
710,0.06411114
711,0.0022424818
712,-0.09278586
713,-0.12104108
714,-0.11513779
715,0.021788577
716,0.04482595
717,-0.009747383
718,0.01717982
719,-0.047503904
720,-0.14571227
721,-0.049569897
722,0.020547993
723,-0.03256871
724,-0.004724525
725,-0.03253937
726,-0.034448434
727,-0.032983415
728,0.015722157
729,-0.02984855
730,-0.021533458
731,0.016342416
732,0.042902965
733,-0.0035795006
734,-0.0040738904
735,-0.09763396
736,-0.04873458
737,-0.11484501
738,0.010176868
739,-0.09221146
740,0.05717513
741,0.08499053
742,-0.018474631
743,0.0012398224
744,0.06254492
745,0.009164508
746,-0.009368522
747,0.04972094
748,-0.018388039
749,0.020416148
750,0.026734162
751,-0.010473936
752,-0.074079566
753,-0.018193923
754,-0.13473861
755,-0.0012112149
756,-0.0029552993
757,-0.07447958
758,0.03955596
759,0.09197703
760,0.042375434
761,-0.16553746
762,-0.097788945
763,-0.015894849
764,-0.052887555
765,-0.048077226
766,-0.045815174
767,-0.0070133186
768,0.004013963
769,-0.017243229
770,-0.021211874
771,-0.07227347
772,-0.009985517
773,0.098189116
774,-0.07371632
775,0.06785994
776,0.0036375707
777,0.017913202
778,0.010967847
779,0.004737299
780,0.035641156
781,0.04284282
782,-0.032894414
783,-0.040874142
784,-0.0013876302
785,0.009758284
786,0.013277519
787,0.0019788833
788,0.0304573
789,0.0019796672
790,0.07120813
791,0.024297409
792,-0.031392787
793,0.043807115
794,0.01230023
795,-0.24931131
796,-0.21633202
797,-0.0727276
798,0.032174565
799,0.07274343
800,0.027666235
801,0.020808788
802,0.063712075
803,0.024139551
804,0.023414267
805,-0.007504569
806,0.054888196
807,-0.00075628725
808,-0.024559496
809,0.02126623
810,-0.3167872
811,-0.030783204
812,0.06570231
813,-0.08620391
814,0.065665595
815,0.037320577
816,-0.062140126
817,0.012466972
818,0.027925098
819,0.0364502
820,-0.032936912
821,-0.0013215395
822,-0.020568624
823,-0.08487937
824,0.008937985
825,0.04334923
826,-0.13651054
827,0.01145828
828,0.019575736
829,0.051108226
830,0.03404353
831,0.02129699
832,0.03223854
833,0.039696258
834,-0.0676481
835,0.010172801
836,0.044435594
837,-0.019236332
838,0.014696076
839,-0.11809422
840,0.017513223
841,-0.03671397
842,-0.14195691
843,0.02324165
844,0.055663723
845,0.03114318
846,0.014468683
847,0.036989804
848,0.018252848
849,-0.028917853
850,-0.008594835
851,-0.0244678
852,-0.074994504
853,-0.03794897
854,0.004057661
855,0.02429388
856,0.013113223
857,-0.029588932
858,-0.018630708
859,0.020400193
860,-0.044126034
861,0.0030479413
862,-0.09084094
863,-0.012515824
864,-0.018755667
865,-0.081002966
866,0.023070242
867,0.023044504
868,-0.018439276
869,-0.028592858
870,-0.01422505
871,-0.05534166
872,0.0150893815
873,0.019831607
874,0.025233587
875,0.05426438
876,0.004263461
877,0.049884293
878,-0.04134343
879,-0.0373225
880,0.030583162
881,0.0014405794
882,-0.00882292
883,0.0023150828
884,0.01688482
885,0.025138183
886,0.02013393
887,-0.18060958
888,0.05281738
889,0.020204475
890,0.0065353424
891,-0.01661199
892,0.038588475
893,0.032857157
894,-0.04826054
895,-0.032497026
896,-0.047863323
897,-0.077315874
898,0.016589452
899,-0.13950504
900,0.00034811464
901,-0.09909988
902,-0.020518892
903,-0.008041459
904,0.009242572
905,-0.040796705
906,0.015663208
907,-0.040085092
908,-0.021881057
909,-0.015072706
910,-0.06359075
911,-0.024316812
912,-0.012833367
913,-0.067941874
914,0.00085113297
915,-0.045326248
916,0.0037469976
917,0.021945072
918,-0.037202522
919,0.015282566
920,-0.0392513
921,-0.03737026
922,-0.07483639
923,-0.08967976
924,-0.08579353
925,0.02128804
926,-0.035089135
927,-0.08411434
928,-0.011946735
929,0.0053238724
930,-0.020414438
931,0.02401885
932,0.005440012
933,-0.03743086
934,0.015463678
935,-0.035345644
936,-0.0039148955
937,-0.0974152
938,0.0015279705
939,-0.012481268
940,-0.010434107
941,-0.017826613
942,-0.037040245
943,-0.03485229
944,-0.083335884
945,-0.0024685657
946,0.020065457
947,0.02092701
948,-0.14138931
949,-0.0014432328
950,-0.027020568
951,-0.028940631
952,0.0034671063
953,0.011578779
954,-0.12275348
955,0.0200809
956,0.003795391
957,-0.031151647
958,0.01813347
959,-0.0056699174
960,0.032496028
961,0.020049721
962,-0.017338712
963,-0.01520936
964,0.011698078
965,-0.0109575
966,-0.006719078
967,0.00041782006
968,-0.016984778
969,-0.030301254
970,-0.018946443
971,-0.025721638
972,-0.028244054
973,-0.014495459
974,-0.011681411
975,0.009540571
976,-0.0009818127
977,-0.017371219
978,-0.005333788
979,-0.010472216
980,-0.01911477
981,-0.041351706
982,-0.031187057
983,0.0103912745
984,-0.05905743
985,0.025965698
986,0.038087413
987,-0.029817052
988,-0.044083733
989,0.019887688
990,0.004791264
991,0.0040363683
992,-0.0076795025
993,-0.102545895
994,0.008713306
995,0.00065236754
996,-0.07100486
997,-0.009301765
998,0.006971901
999,-0.07045019
1000,-0.04476622
1001,0.017746964
1002,-0.030290188
1003,-0.09035686
1004,-0.03919131
1005,0.044971947
1006,0.04654809
1007,-0.007082258
1008,-0.008916229
1009,-0.00025452505
1010,-0.0975399
1011,0.015031775
1012,-0.009085733
1013,0.0085659055
1014,-0.03382179
1015,-0.077637896
1016,-0.008289394
1017,-0.0743721
1018,-0.012584743
1019,-0.012012864
1020,0.024463138
1021,-0.021952383
1022,-0.038307916
1023,-0.006706916
1024,0.033934437
1025,0.0025503656
1026,0.0012718228
1027,0.19578418
1028,0.05374346
1029,0.1503971
1030,0.00247439
1031,-0.025061037
1032,-0.038923036
1033,0.031129971
1034,-0.0150521565
1035,0.009397779
1036,0.004307029
1037,0.053221483
1038,-0.007352956
1039,-9.2678565e-05
1040,0.052940942
1041,-0.006012819
1042,-0.0026053106
1043,0.02776639
1044,-0.011684799
1045,-0.00480588
1046,-0.0066677965
1047,0.01070265
1048,-0.09977501
1049,0.023235163
1050,-0.032413203
1051,0.013096626
1052,0.018659854
1053,0.018284729
1054,0.012547349
1055,-0.006171475
1056,-0.028587462
1057,0.003766174
1058,0.0050194515
1059,0.0047724647
1060,0.018845074
1061,-0.07609699
1062,-0.0052419016
1063,-0.0018820055
1064,-0.009041931
1065,0.008312542
1066,0.0050707296
1067,-0.017293487
1068,-0.082552165
1069,0.032486785
1070,-0.016906954
1071,0.026854895
1072,-0.00080206076
1073,-0.032379203
1074,-0.019107185
1075,-0.0028910248
1076,-0.03850764
1077,0.004709892
1078,0.04678961
1079,0.00072535186
1080,0.014566043
1081,0.014968905
1082,0.033576403
1083,-0.027183749
1084,0.0012341549
1085,-0.028044635
1086,-0.0029529892
1087,-0.025980828
1088,0.000928447
1089,0.0034714506
1090,-0.007701479
1091,-0.031030053
1092,-0.005690416
1093,-0.007092372
1094,0.039004948
1095,-0.01467687
1096,0.049801577
1097,0.078741565
1098,0.022176456
1099,0.021145374
1100,0.033057775
1101,0.0005353962
1102,-0.008338455
1103,-0.002756427
1104,0.043311045
1105,-0.0031298792
1106,-0.016560387
1107,0.017696975
1108,0.004325524
1109,-0.026798392
1110,-0.024195833
1111,0.0013177794
1112,-0.023025833
1113,-0.017076883
1114,0.0010745719
1115,-0.049179282
1116,0.036121428
1117,0.005596985
1118,0.022708913
1119,0.025828194
1120,0.0054948656
1121,0.03158668
1122,0.017390095
1123,0.0005213871
1124,0.0012098942
1125,-0.03478464
1126,-0.0012291974
1127,0.019355917
1128,0.012570362
1129,-0.0188394
1130,-0.017547509
1131,-0.047953367
1132,-0.053179078
1133,0.017571436
1134,-0.0035036681
1135,-0.03066623
1136,0.0065391758
1137,0.008504227
1138,0.009557502
1139,0.013735205
1140,-0.00053881895
1141,0.006094169
1142,0.017641116
1143,0.040037166
1144,-0.05914761
1145,0.059466757
1146,0.047069177
1147,-0.005350858
1148,0.024191268
1149,-0.0009836225
1150,-0.019782728
1151,-0.009859539
1152,0.03790374
1153,-0.014403511
1154,-0.013820332
1155,0.025206737
1156,0.05542222
1157,-0.15263775
1158,-0.04937862
1159,-0.12374685
1160,0.022061829
1161,-0.20704621
1162,-0.007781774
1163,-0.09029217
1164,-0.0156973
1165,-0.11432324
1166,0.0732472
1167,0.038484856
1168,0.08523827
1169,-0.024047637
1170,-0.01402135
1171,-0.030394811
1172,0.0026016333
1173,-0.010506766
1174,-0.096753165
1175,0.066099204
1176,0.020923108
1177,0.095470905
1178,-0.124349356
1179,-0.13700302
1180,-0.03020022
1181,0.014077065
1182,-0.049594644
1183,-0.03276317
1184,0.0047196676
1185,-0.0015001541
1186,-0.011927488
1187,0.07342941
1188,0.05250341
1189,-0.0014769577
1190,0.09026328
1191,0.12124956
1192,-0.08576199
1193,-0.03904775
1194,-0.13867137
1195,0.042115234
1196,-0.03932202
1197,0.05637289
1198,-0.10815443
1199,-0.104787625
1200,0.06915117
1201,2.3978264e-06
1202,-0.0025931834
1203,0.05343336
1204,-0.119644165
1205,0.003264122
1206,0.07113331
1207,-0.041208003
1208,0.0018250985
1209,0.0621191
1210,0.094424866
1211,0.0034466165
1212,0.0149776
1213,-0.08030414
1214,0.053735644
1215,0.04317853
1216,0.0187396
1217,0.021438885
1218,-0.012224975
1219,0.009967303
1220,0.009636228
1221,-0.12305395
1222,0.038287234
1223,0.050382536
1224,-0.2423359
1225,-0.0026469908
1226,0.013295507
1227,-0.04360274
1228,-0.07105893
1229,0.02957639
1230,-0.0060599386
1231,0.0057010883
1232,-0.1591577
1233,0.00035966837
1234,-0.024688153
1235,0.0582655
1236,0.04238016
1237,0.015152218
1238,0.02042932
1239,0.08537364
1240,0.01955587
1241,0.004900492
1242,-0.00972358
1243,0.013601161
1244,0.12648135
1245,-0.007769417
1246,-0.02390428
1247,0.03597292
1248,0.01936493
1249,0.032587085
1250,0.048248984
1251,0.0583464
1252,0.03627626
1253,0.109248854
1254,-0.010604478
1255,0.114603646
1256,0.06103025
1257,0.0045320108
1258,0.060782082
1259,-0.051540904
1260,0.015140987
1261,0.04112196
1262,-0.07605203
1263,-0.0019044522
1264,-0.13101843
1265,-0.025630966
1266,-0.196526
1267,-0.03542282
1268,0.0028561999
1269,0.045802455
1270,0.05996763
1271,0.033009548
1272,-0.10481161
1273,-0.20920828
1274,0.046408255
1275,-0.022908354
1276,0.05543087
1277,-0.001139278
1278,-0.18458165
1279,-0.05047804
1280,0.10837517
1281,0.0024900555
1282,0.033690948
1283,0.13425459
1284,-0.03935193
1285,0.013926235
1286,0.049949843
1287,0.047652762
1288,-0.04458019
1289,0.026956944
1290,-0.0047992696
1291,-0.07550727
1292,0.0030740856
1293,0.07026991
1294,0.096642785
1295,0.02228522
1296,-0.11853383
1297,-0.051898457
1298,0.0037919644
1299,-0.014146761
1300,-0.02378182
1301,0.063275106
1302,0.08024185
1303,-0.070632465
1304,0.032962993
1305,-0.0008580682
1306,0.02003487
1307,-0.1731505
1308,0.06363538
1309,-0.10072271
1310,0.012434213
1311,0.027463209
1312,0.024550667
1313,-0.018311338
1314,-0.0088929655
1315,-0.04715965
1316,-0.059904695
1317,0.0864758
1318,-0.24904343
1319,0.050004907
1320,0.008692606
1321,0.047303736
1322,-0.0043418026
1323,0.04641293
1324,0.099368416
1325,-0.031736452
1326,0.060743347
1327,0.008696904
1328,0.07979461
1329,0.021114549
1330,-0.025592832
1331,-0.092362605
1332,0.07855383
1333,-9.661709e-05
1334,0.05515729
1335,0.035396073
1336,-0.022902757
1337,-0.04246575
1338,0.07602424
1339,-0.042347874
1340,0.013944358
1341,0.084253706
1342,-0.054357547
1343,-0.035471622
1344,-0.046305597
1345,-0.052402496
1346,0.005128986
1347,0.011570012
1348,-0.045426425
1349,-0.0814433
1350,-0.0534807
1351,-0.044311296
1352,-0.026017908
1353,-0.020279076
1354,-0.066556826
1355,0.032103673
1356,0.043916665
1357,0.0076147392
1358,0.025501406
1359,-0.037105825
1360,-0.01773289
1361,0.009197013
1362,0.021020146
1363,0.039178517
1364,-0.027888587
1365,0.07580688
1366,0.010096644
1367,-0.115080096
1368,0.002531289
1369,-0.024311213
1370,-0.054576978
1371,0.001721628
1372,0.08485143
1373,0.015502415
1374,-0.058684226
1375,-0.03341956
1376,0.034562085
1377,0.06426144
1378,-0.04840594
1379,-0.084766485
1380,-0.0027362718
1381,0.07702943
1382,-0.011807506
1383,0.095329404
1384,0.044340193
1385,-0.002212881
1386,0.1344603
1387,0.10443491
1388,-0.031120166
1389,-0.06517556
1390,0.02038433
1391,0.010569886
1392,0.07712245
1393,-0.010118691
1394,-0.008126304
1395,0.069179095
1396,-0.04593271
1397,-0.07975135
1398,0.031350594
1399,0.08865519
1400,-0.03469438
1401,0.033128727
1402,-0.012804817
1403,0.0036891622
1404,-0.07352331
1405,-0.015151364
1406,0.034197226
1407,0.046701435
1408,0.0115100015
1409,-0.03982986
1410,0.007675468
1411,0.12456259
1412,0.04196334
1413,-0.13043278
1414,-0.00024587783
1415,-0.11458714
1416,-0.012624337
1417,-0.14460549
1418,0.0044831834
1419,-0.057830907
1420,-0.027941456
1421,0.03066227
1422,0.05485927
1423,0.019535737
1424,-0.010819826
1425,0.030509803
1426,-0.00052786805
1427,-0.055204
1428,-0.03866951
1429,-0.024973437
1430,-0.058749802
1431,0.009470124
1432,-0.09456336
1433,-0.035680816
1434,-0.28234717
1435,-0.26352534
1436,-0.06585351
1437,-0.024202928
1438,-0.11469525
1439,-0.009747314
1440,-0.036306456
1441,-0.028232906
1442,-0.0011135187
1443,0.0022942862
1444,0.00418198
1445,-0.19767608
1446,-0.0025012933
1447,0.065011635
1448,-0.010280683
1449,-0.0405647
1450,-0.27123263
1451,-0.008234748
1452,-0.030214224
1453,-0.028865268
1454,-0.06353037
1455,-0.16033375
1456,0.018743768
1457,0.010248327
1458,-0.0171311
1459,0.0016367583
1460,-0.07138179
1461,-0.011162624
1462,0.032705944
1463,0.0031702155
1464,-0.03160622
1465,-0.013051196
1466,0.07965763
1467,-0.021438539
1468,0.008201356
1469,-0.10659829
1470,-0.028124765
1471,-0.01696007
1472,0.009511439
1473,-0.029024763
1474,0.002484337
1475,-0.01266906
1476,-0.026713807
1477,-0.0021261217
1478,-0.0068783537
1479,-0.013842929
1480,-0.14968453
1481,-0.11800942
1482,0.0073652687
1483,-0.053914886
1484,-0.017606873
1485,-0.00570397
1486,-0.032110568
1487,-0.049659118
1488,-0.11917802
1489,0.00259405
1490,-0.016221944
1491,0.030488255
1492,0.020019636
1493,-0.0442609
1494,-0.009168432
1495,-0.007155091
1496,-0.0026514388
1497,-0.00945796
1498,-0.04334563
1499,-0.026383786
1500,0.1258979
1501,-0.04378065
1502,-0.029972319
1503,-0.009834937
1504,0.010374333
1505,-0.02431148
1506,-0.04805792
1507,0.012483677
1508,0.0006480344
1509,0.060297728
1510,-0.0048772832
1511,0.09878823
1512,0.05899387
1513,-0.011566461
1514,0.0125097
1515,-0.034497403
1516,0.01999122
1517,0.01776415
1518,-0.07262715
1519,-0.00036252334
1520,-0.12560305
1521,0.0049505397
1522,-0.12760602
1523,-0.036458414
1524,-0.030956026
1525,-0.0065289303
1526,0.005204835
1527,0.08074137
1528,-0.19077733
1529,-0.13390538
1530,-0.004791562
1531,-0.0027496875
1532,-0.003936704
1533,-0.03275244
1534,-0.17651694
1535,-0.00013949329
1536,-0.023618363
1537,0.0049316497
1538,0.015340537
1539,0.04468123
1540,-0.02534652
1541,0.0665224
1542,-0.012626402
1543,0.14234012
1544,-0.031127943
1545,-0.020220619
1546,-0.0012633074
1547,0.025174206
1548,-0.015488927
1549,0.12494946
1550,0.014871964
1551,-0.002351421
1552,-0.22448288
1553,-0.027931446
1554,-0.0044661826
1555,-0.08445524
1556,-0.02042738
1557,0.023756353
1558,0.12862794
1559,-0.012478805
1560,-0.016758518
1561,0.016173283
1562,0.018076984
1563,-0.09794721
1564,-0.11729829
1565,0.030939654
1566,0.0005080194
1567,0.077492945
1568,0.024886057
1569,-0.0055582724
1570,0.10174516
1571,0.010998846
1572,-0.05198793
1573,0.021858556
1574,-0.05421017
1575,0.013944801
1576,0.0014539452
1577,0.0909792
1578,0.04756089
1579,-0.016866758
1580,0.10861821
1581,-0.10678328
1582,0.12324217
1583,-0.064678095
1584,-0.027478335
1585,-0.0085431365
1586,-0.055665933
1587,-0.011306995
1588,-0.10903311
1589,-0.008777057
1590,0.023497136
1591,-0.008159641
1592,0.013431366
1593,0.017160533
1594,-0.04928332
1595,-0.014632508
1596,0.011758518
1597,0.09446719
1598,0.0124039585
1599,-0.0101952795
1600,0.02135765
1601,0.019216387
1602,0.005516296
1603,0.014324032
1604,-0.040924557
1605,0.002606823
1606,-0.15049137
1607,-0.0541808
1608,-0.07998203
1609,-0.052200433
1610,0.05232972
1611,-0.023652727
1612,0.09002907
1613,-0.0021732124
1614,0.016394183
1615,-0.014036735
1616,-0.058203544
1617,-0.11151266
1618,0.005280011
1619,-0.017570218
1620,-0.046273794
1621,-0.025536701
1622,-0.0025832471
1623,-0.03950272
1624,0.0014220789
1625,-0.0019947775
1626,-0.019932766
1627,0.01098535
1628,0.006661156
1629,0.01870426
1630,0.00085307925
1631,0.014561981
1632,-0.022781981
1633,-0.081370175
1634,-0.0024866385
1635,-0.017767226
1636,-0.0006775472
1637,-0.033499494
1638,0.0021226117
1639,-0.03891296
1640,-0.008716093
1641,0.015412426
1642,0.019369395
1643,0.11351822
1644,-0.013394638
1645,-0.04171433
1646,-0.072744444
1647,0.0049539693
1648,-0.043331254
1649,-0.0042740474
1650,-0.123336636
1651,0.035893172
1652,-0.020969521
1653,-0.014383592
1654,-0.003406508
1655,-0.0054912847
1656,0.1146347
1657,-0.1451849
1658,-0.08614271
1659,-0.018251732
1660,-0.019467037
1661,-0.0026257923
1662,-0.05952466
1663,-0.01901244
1664,0.033704888
1665,-0.032970715
1666,0.030105159
1667,-0.0379327
1668,0.03184477
1669,0.012102198
1670,-0.076852255
1671,-0.019604273
1672,0.001829431
1673,-0.09034667
1674,-0.01134134
1675,0.022932362
1676,-0.020565623
1677,-0.023926891
1678,0.023296082
1679,-0.008024528
1680,0.0070562046
1681,-0.02168353
1682,0.013501714
1683,-0.1409788
1684,-0.012479114
1685,-0.009787327
1686,-0.056756478
1687,-0.0097575085
1688,-0.013766001
1689,0.067753345
1690,0.0020724782
1691,0.03750763
1692,-0.08426418
1693,0.017346725
1694,-0.021225393
1695,-0.026055638
1696,-0.048329435
1697,-0.007418164
1698,-0.018561596
1699,0.0020912294
1700,-0.008818312
1701,0.0071427277
1702,-0.049869925
1703,0.035911847
1704,-0.049360707
1705,0.010347006
1706,-0.02920086
1707,-0.005451473
1708,-0.0047601922
1709,0.024009591
1710,-0.04500972
1711,-0.14198685
1712,0.04231739
1713,0.00038647163
1714,-0.017477222
1715,-0.02308961
1716,0.017278468
1717,-0.005993237
1718,0.051261034
1719,-0.046795946
1720,0.016059559
1721,-0.03930975
1722,-0.00032559442
1723,-0.016591016
1724,-0.026685603
1725,-0.048942894
1726,-0.012324829
1727,0.011176319
1728,-0.019026633
1729,-0.003908969
1730,0.02240068
1731,0.008759492
1732,-0.03336346
1733,-0.059893258
1734,0.044197883
1735,0.0063584624
1736,-0.079941384
1737,-0.020305436
1738,-0.009016181
1739,-0.012811721
1740,-0.0099833235
1741,-0.002948539
1742,0.016543504
1743,0.05750343
1744,-0.02689495
1745,-0.016942818
1746,-0.0063980496
1747,-0.011292776
1748,-0.015056675
1749,0.006009221
1750,0.021221228
1751,-0.015368009
1752,0.019366272
1753,-0.0066260737
1754,0.0009422757
1755,0.0134663815
1756,0.040371362
1757,-0.015566571
1758,-0.007013142
1759,0.03537515
1760,-0.006022591
1761,0.005926636
1762,-0.044437293
1763,0.0023034657
1764,0.009330888
1765,0.0055338494
1766,0.02162078
1767,0.030639455
1768,0.020939572
1769,0.005738002
1770,0.044326257
1771,0.00012457647
1772,0.009132244
1773,0.029779099
1774,-0.00783049
1775,0.0058312844
1776,-0.051352184
1777,-0.008977198
1778,-0.0900661
1779,0.0034096742
1780,-0.0013161668
1781,-0.015082878
1782,0.014616401
1783,0.05417316
1784,-0.016551897
1785,-0.14288476
1786,0.015211687
1787,-0.012391577
1788,-0.01563491
1789,-0.011450166
1790,-0.095330246
1791,-0.07516731
1792,0.012607173
1793,-0.019706909
1794,0.009569582
1795,-0.13546337
1796,0.030391043
1797,-0.042357434
1798,0.020587042
1799,0.032465674
1800,-0.015045014
1801,-0.008000029
1802,0.01848837
1803,-0.11351061
1804,-0.02728089
1805,-0.13503668
1806,-0.019239943
1807,-0.008030916
1808,0.0027694525
1809,0.0070804525
1810,0.015966868
1811,-0.01619609
1812,-0.06325234
1813,-0.0066962047
1814,-0.032382153
1815,0.008169267
1816,0.010422557
1817,-0.027523166
1818,-0.0029895804
1819,-0.1676045
1820,-0.14899436
1821,-0.049682673
1822,0.032122117
1823,-0.05432026
1824,-0.01898332
1825,-0.014442111
1826,-0.058947656
1827,-0.005374403
1828,-0.015168544
1829,-0.05220887
1830,0.019609056
1831,-0.028899796
1832,-0.075504355
1833,-0.07416665
1834,-0.08059679
1835,0.01342293
1836,0.025649635
1837,-0.02217828
1838,-0.027346367
1839,-0.0027663922
1840,0.015019002
1841,0.036009654
1842,-0.03936844
1843,0.015053772
1844,-0.015301425
1845,0.012203816
1846,-0.021732243
1847,-0.014129852
1848,-0.011219439
1849,0.009783367
1850,-0.046859052
1851,-0.016479239
1852,0.039846875
1853,0.0137311
1854,0.030827224
1855,0.002232939
1856,0.02456527
1857,0.025575908
1858,0.024687361
1859,-0.046369724
1860,-0.0075953323
1861,-0.087234415
1862,0.023180401
1863,-0.044514406
1864,-0.06878136
1865,-0.025957193
1866,-0.06342103
1867,-0.022679517
1868,0.02154106
1869,0.026125284
1870,-0.012407486
1871,-0.016623763
1872,3.3031643e-05
1873,-0.012420622
1874,0.013169198
1875,0.012256942
1876,-0.01244166
1877,-0.009541723
1878,-0.02265389
1879,0.0020940003
1880,-0.0052451077
1881,-0.0024750163
1882,-0.09858306
1883,-0.032616764
1884,-0.004729705
1885,-0.0082314415
1886,-0.04753898
1887,-0.001282711
1888,0.005649371
1889,-0.054510776
1890,-0.0152626205
1891,0.0069017834
1892,-0.012851174
1893,-0.00019652056
1894,-0.004691621
1895,-0.043631136
1896,-0.038660098
1897,-0.029236516
1898,-0.07444585
1899,-0.010879294
1900,0.00020871857
1901,0.038174503
1902,-0.11498575
1903,-0.014938587
1904,-0.005899048
1905,0.036766604
1906,-0.054640688
1907,0.0012634016
1908,-0.06797751
1909,0.021890517
1910,0.015785566
1911,-0.031165201
1912,-0.104335524
1913,-0.06062785
1914,0.006172437
1915,-0.012101898
1916,0.037058547
1917,-0.014678547
1918,-0.028901882
1919,-0.012811891
1920,0.019104544
1921,0.009805419
1922,-0.009708594
1923,-0.022164064
1924,-0.073535256
1925,0.08715206
1926,-0.05046948
1927,0.04517567
1928,-0.01899145
1929,0.007508132
1930,-0.018707223
1931,0.05339078
1932,-0.00689933
1933,0.057723295
1934,0.00953562
1935,-0.0640316
1936,-0.036689036
1937,0.02455225
1938,0.0023510559
1939,-0.035159096
1940,0.0008691905
1941,-0.008153483
1942,0.038916714
1943,-0.022909649
1944,0.0416261
1945,-0.019126305
1946,0.04572623
1947,-0.052351996
1948,0.0013924697
1949,-0.081307605
1950,0.020943904
1951,0.05549044
1952,-0.022094145
1953,0.011067374
1954,-0.013095692
1955,-0.006853748
1956,-0.01591654
1957,0.006806652
1958,-0.036301024
1959,-0.022310868
1960,-0.01301191
1961,0.048855882
1962,0.06654598
1963,-0.042553216
1964,0.066052176
1965,-0.017423728
1966,0.039852303
1967,-0.012394731
1968,0.0033475219
1969,-0.015008267
1970,-0.009039183
1971,-0.08739482
1972,-0.015404002
1973,0.0025501188
1974,0.05474885
1975,-0.07143378
1976,-0.009720112
1977,-0.009000508
1978,-0.055128694
1979,-0.021628246
1980,0.008699991
1981,0.067625694
1982,-0.01621519
1983,-0.0038410998
1984,-0.044219863
1985,-0.01627658
1986,0.004644209
1987,0.008824356
1988,0.0036054878
1989,-0.085531875
1990,-0.006244676
1991,-0.1219336
1992,-0.026087312
1993,0.03592275
1994,-0.13508321
1995,-0.01907616
1996,0.10587913
1997,0.015353049
1998,0.023956688
1999,0.034262586
2000,0.021614375
2001,-0.18154687
2002,-0.0026201918
2003,-0.05317244
2004,-0.07132947
2005,-0.0043950854
2006,0.0002609315
2007,-0.012697112
2008,0.0044392957
2009,-0.016009565
2010,0.00673033
2011,-0.007234947
2012,-0.027742326
2013,0.022075405
2014,0.021482809
2015,-0.023390302
2016,-0.10564273
2017,-0.013598942
2018,0.03304556
2019,-0.029070256
2020,0.03243046
2021,0.08111011
2022,0.036215343
2023,0.025993016
2024,-0.0021298826
2025,0.010204499
2026,-0.021191064
2027,0.0816935
2028,0.011905361
2029,-0.020561377
2030,0.016768336
2031,0.002582522
2032,0.045360666
2033,-0.0048553334
2034,-0.0045474996
2035,-0.006593301
2036,-0.013794277
2037,-0.047313698
2038,-0.005685053
2039,0.041910414
2040,0.008980632
2041,-0.016733428
2042,-0.035542194
2043,0.005956502
2044,-0.081626534
2045,0.00742597
2046,0.031965025
2047,-0.04372058
2048,0.034523033
2049,-0.03015647
2050,0.00426869
2051,-0.07479886
2052,0.033709724
2053,-0.07997807
2054,-0.07466053
2055,-0.037583724
2056,0.013002721
2057,0.034469534
2058,0.015191789
2059,0.0029421914
2060,-0.020802809
2061,-0.056863986
2062,0.11204212
2063,0.044472896
2064,0.07209249
2065,-0.027861357
2066,0.0021890982
2067,-0.034151785
2068,-0.027712375
2069,-0.016855834
2070,-0.03601457
2071,0.0059103454
2072,-0.08246957
2073,0.11177268
2074,-0.026580617
2075,-0.08207353
2076,0.008105109
2077,0.039789565
2078,0.037987046
2079,-0.004584994
2080,0.007506052
2081,-0.02219189
2082,-0.018747032
2083,0.00179033
2084,-0.039161976
2085,0.009620344
2086,0.043405395
2087,0.08873209
2088,-0.015675882
2089,-0.03429085
2090,-0.06479793
2091,0.054706976
2092,-0.034611862
2093,0.032182764
2094,-0.04584452
2095,0.05081368
2096,0.09198867
2097,-0.026548548
2098,-0.023413153
2099,-0.029227527
2100,-0.022984944
2101,-0.0011588816
2102,0.08722301
2103,-0.06928093
2104,-0.014582549
2105,-0.019633427
2106,-0.08313606
2107,-0.03679575
2108,-0.013403213
2109,-0.029731838
2110,0.009831696
2111,-0.015900712
2112,-0.013627407
2113,-0.01966552
2114,-0.06068803
2115,-0.023343952
2116,-0.040204585
2117,-0.04155186
2118,0.04647531
2119,0.035725947
2120,-0.0025130662
2121,-0.052349076
2122,0.030694384
2123,-0.045495648
2124,-0.035858404
2125,0.009722269
2126,0.00045761248
2127,-0.0029767212
2128,0.0004764984
2129,-0.0015315828
2130,0.014356268
2131,0.054287575
2132,0.0528324
2133,0.031033846
2134,-0.031467814
2135,0.013972918
2136,0.028081272
2137,0.013691963
2138,-0.012248272
2139,0.038594298
2140,0.0896251
2141,-0.03632257
2142,-0.012144282
2143,-0.010111347
2144,0.011518292
2145,0.0659986
2146,-0.006422402
2147,-0.04338645
2148,0.03463236
2149,0.03934804
2150,0.010785134
2151,0.07311343
2152,0.04872403
2153,0.019379355
2154,0.10535258
2155,-0.0090333475
2156,0.0019052965
2157,0.020522142
2158,-0.022144381
2159,-0.0080930665
2160,0.041879427
2161,-0.03578751
2162,-0.08946299
2163,0.01698061
2164,-0.034580532
2165,-0.010002287
2166,0.020278782
2167,0.07672732
2168,-0.035536766
2169,-0.07900599
2170,0.019053943
2171,-0.004304392
2172,0.0034983086
2173,-0.027639003
2174,0.0025398824
2175,-0.07520084
2176,-0.02725303
2177,0.02544478
2178,-0.0021826727
2179,0.018158944
2180,-0.09613273
2181,0.108614646
2182,-0.12809625
2183,0.13155645
2184,-0.04428417
2185,0.0638297
2186,0.0058058426
2187,-0.17268528
2188,0.0034925246
2189,0.066563725
2190,-0.039775297
2191,-0.010453063
2192,-0.06198351
2193,-0.04843489
2194,-0.003971874
2195,-0.011141548
2196,-0.020874899
2197,0.009444099
2198,0.22872284
2199,-0.015901616
2200,-0.16974889
2201,-0.019731956
2202,0.13992772
2203,-0.12059436
2204,0.017915662
2205,-0.021595769
2206,0.030098973
2207,0.17653936
2208,0.0034703198
2209,0.0023025023
2210,-0.0054855696
2211,-0.0054992456
2212,0.009782385
2213,0.046877045
2214,-0.033810537
2215,-0.034826
2216,-0.005050737
2217,0.1297603
2218,0.07909516
2219,-0.080817305
2220,0.15727194
2221,-0.082816415
2222,0.21390116
2223,0.017760836
2224,-0.07298667
2225,-0.0029843797
2226,-0.030439503
2227,-0.059640847
2228,0.059605286
2229,-0.0028641114
2230,-0.0642923
2231,-0.115150504
2232,-0.020789005
2233,0.0055093993
2234,0.014144051
2235,-0.0073841093
2236,-0.03056952
2237,0.14547297
2238,0.0044801096
2239,-0.019162921
2240,-0.0010753667
2241,-0.008559434
2242,-0.10783494
2243,0.04351843
2244,-0.0139943715
2245,-0.0046887537
2246,0.030829635
2247,-0.110942684
2248,0.021569021
2249,0.068952054
2250,0.0067493212
2251,0.008500386
2252,0.120022126
2253,-0.0015079768
2254,0.035137273
2255,0.05239199
2256,0.039285522
2257,-0.15162995
2258,0.01025001
2259,-0.10427957
2260,-0.094611675
2261,-0.040128972
2262,-0.052515227
2263,-0.032305412
2264,0.0252908
2265,0.0134783
2266,0.034118086
2267,0.03546693
2268,-0.04746671
2269,0.019550256
2270,0.046009906
2271,-0.02409487
2272,-0.12638913
2273,-0.035980254
2274,0.054881528
2275,0.011203683
2276,0.034855265
2277,-0.06301002
2278,0.00446101
2279,-0.055109195
2280,-0.034519125
2281,-0.018615676
2282,0.015888559
2283,0.08277552
2284,-0.081077866
2285,0.024951054
2286,0.01331133
2287,0.019088486
2288,0.02818265
2289,-0.04508006
2290,0.01626084
2291,0.04731347
2292,-0.018103883
2293,-0.0023740332
2294,-0.024439165
2295,-0.014857365
2296,0.102608755
2297,0.00625829
2298,-0.020323928
2299,0.0032927806
2300,-0.051258367
2301,0.0380908
2302,0.037765887
2303,-0.13059962
2304,0.025631232
2305,0.0052048354
2306,0.056504183
2307,-0.08942551
2308,0.07965941
2309,-0.08207857
2310,0.067838795
2311,0.051493548
2312,0.040196925
2313,-0.023709392
2314,0.0779825
2315,-0.005066969
2316,-0.023345942
2317,-0.09194481
2318,0.042772666
2319,0.027308857
2320,0.046092004
2321,-0.047749512
2322,0.0023895362
2323,-0.08833544
2324,0.033428784
2325,0.0038736265
2326,-0.0707692
2327,-0.021203816
2328,0.061621837
2329,0.01915266
2330,-0.044965174
2331,-0.15919618
2332,-0.10927409
2333,0.024949165
2334,0.016600132
2335,-0.13926363
2336,0.075716764
2337,0.0072473525
2338,-0.013831904
2339,0.05020639
2340,-0.07293415
2341,-0.10253586
2342,-0.03877532
2343,0.043164104
2344,-0.075807
2345,-0.0904042
2346,0.10634153
2347,0.05992017
2348,-0.04465482
2349,0.06358095
2350,-0.028725062
2351,-0.044802
2352,0.04395695
2353,0.060022
2354,-0.010872843
2355,-0.047578212
2356,-0.08950053
2357,-0.0071506314
2358,0.07060669
2359,0.018272208
2360,0.039492115
2361,-0.034390606
2362,-0.1705839
2363,0.0052383635
2364,0.07852249
2365,-0.05097274
2366,-0.007661245
2367,0.06560285
2368,-0.01390336
2369,-0.016624283
2370,0.05630125
2371,-0.004010919
2372,-0.014765278
2373,-0.13290553
2374,0.058633856
2375,0.042492837
2376,-0.06944289
2377,-0.07913875
2378,-0.012980521
2379,-0.026791949
2380,-0.027607441
2381,0.05884058
2382,0.040527802
2383,-0.05308928
2384,-0.058630243
2385,0.014536601
2386,0.056553666
2387,0.07265777
2388,0.08196391
2389,-0.0739968
2390,0.05104628
2391,0.01535792
2392,0.035630148
2393,0.0676828
2394,0.02075999
2395,0.03046506
2396,-0.01049524
2397,-0.008624519
2398,-0.060143422
2399,0.041071873
2400,0.071929075
2401,0.059127957
2402,-0.061880935
2403,-0.041916426
2404,0.034684286
2405,0.018662164
2406,0.011709721
2407,0.009932816
2408,0.039151568
2409,0.0074448297
2410,-0.035437915
2411,-0.09445223
2412,0.0721973
2413,0.038289025
2414,0.020220576
2415,0.076021396
2416,-0.049481276
2417,0.06513068
2418,-0.06568156
2419,0.009760349
2420,0.008556711
2421,-0.055915438
2422,0.018380001
2423,-0.030510074
2424,-0.100504436
2425,-0.07172842
2426,0.020765012
2427,-0.00538436
2428,-0.05400935
2429,-0.0048568696
2430,-0.024815354
2431,0.018738922
2432,0.032531396
2433,0.0065764477
2434,-0.0025988773
2435,-0.015501401
2436,0.02183426
2437,-0.017811798
2438,-0.0019088564
2439,0.017526327
2440,0.014138465
2441,-0.114628196
2442,0.026392853
2443,-0.041603073
2444,0.0009197774
2445,-0.041280575
2446,0.058052223
2447,0.042037915
2448,0.019784173
2449,-0.0025038216
2450,-0.00069995556
2451,-0.21811102
2452,-0.037012003
2453,0.04098361
2454,-0.010452643
2455,-0.05038857
2456,-0.029124105
2457,-0.009830967
2458,-0.019873695
2459,-0.12426897
2460,0.04177022
2461,0.012686561
2462,-0.099749446
2463,-0.023135241
2464,-0.047720425
2465,0.022389503
2466,-0.025179017
2467,0.009203985
2468,-0.101187624
2469,-0.0034689244
2470,-0.16419905
2471,0.062806144
2472,-0.046942376
2473,-0.023458572
2474,-0.014123962
2475,0.03256521
2476,-0.0075636264
2477,0.01126927
2478,-0.029284798
2479,-0.11931474
2480,0.055639733
2481,0.013640595
2482,-0.00047353125
2483,-0.0943244
2484,0.0114191845
2485,-0.011154069
2486,0.045105383
2487,-0.002814939
2488,-0.020872204
2489,-0.0670774
2490,-0.10315251
2491,0.009786801
2492,0.0104086725
2493,0.0126798535
2494,-0.060682002
2495,-0.001957592
2496,-0.069365636
2497,-0.0700111
2498,-0.0057692598
2499,0.07597225
2500,0.01271579
2501,-0.03734341
2502,-0.0065890253
2503,0.040657457
2504,-0.13474762
2505,-0.09803736
2506,0.0061798287
2507,0.036976468
2508,-0.0065338793
2509,0.010654516
2510,0.013898958
2511,-0.08634513
2512,-0.14226234
2513,0.013774819
2514,0.0015827225
2515,0.058102313
2516,0.053066045
2517,0.020502184
2518,0.018585574
2519,-0.07054018
2520,0.009347778
2521,0.0017678111
2522,-0.014039417
2523,-0.005574336
2524,0.06241256
2525,0.013647505
2526,-0.033469733
2527,-0.026072942
2528,0.016587127
2529,0.042087033
2530,-0.09662826
2531,-0.09812135
2532,-0.0074377293
2533,0.03292449
2534,-0.021549338
2535,0.049173664
2536,0.006779739
2537,-0.021078983
2538,-0.014359019
2539,-0.01182865
2540,0.013753742
2541,0.044084415
2542,0.005494258
2543,0.014972333
2544,-0.13872282
2545,-0.010850597
2546,-0.17404468
2547,0.027649561
2548,-0.016612759
2549,-0.06432043
2550,0.03614784
2551,0.070518404
2552,-0.09481506
2553,-0.12129827
2554,0.0043885754
2555,-0.0195491
2556,-0.08485373
2557,-0.0058961855
2558,-0.16485937
2559,-0.018237045
2560,-0.017467676
2561,-0.037063647
2562,-0.006630575
2563,-0.060222816
2564,-0.17128602
2565,-0.06768756
2566,-0.026214935
2567,-0.03917748
2568,-0.00064819824
2569,0.0030694709
2570,-0.02308126
2571,-0.0069370577
2572,-0.03064864
2573,0.04246701
2574,-0.036533218
2575,-0.025488958
2576,-0.014434826
2577,0.013169257
2578,-0.002182539
2579,-0.050290458
2580,-0.019389398
2581,-0.0063070054
2582,-0.031067397
2583,-0.056215037
2584,-0.11675159
2585,-0.02979205
2586,-0.06706815
2587,-0.05225134
2588,-0.08497756
2589,-0.098965086
2590,0.016573483
2591,0.021262472
2592,-0.044637088
2593,-0.040252954
2594,-0.014553204
2595,-0.021563424
2596,0.01652273
2597,0.06598832
2598,-0.011110513
2599,0.01078981
2600,-0.017992329
2601,0.04547268
2602,-0.21826601
2603,-0.08059747
2604,0.027029624
2605,0.008874679
2606,-0.043038566
2607,0.006142582
2608,-0.09347193
2609,-0.009707195
2610,-0.035208147
2611,-0.0006157965
2612,-0.050525084
2613,0.0030351183
2614,-0.05339298
2615,-0.029683387
2616,-0.04771763
2617,-0.029433252
2618,-0.15910415
2619,-0.03365396
2620,-0.036312383
2621,0.002028001
2622,-0.00855049
2623,-0.050047766
2624,-0.000704004
2625,-0.012127675
2626,-0.043482803
2627,-0.09751222
2628,-0.04141732
2629,-0.0060490314
2630,0.01827038
2631,-0.011842679
2632,-0.028250964
2633,-0.08467912
2634,-0.21010605
2635,-0.09166547
2636,0.030180993
2637,-0.012720614
2638,0.0067455233
2639,0.030693399
2640,0.079419926
2641,-0.021313693
2642,-0.01916654
2643,-0.04840741
2644,-0.059421215
2645,-0.05169915
2646,-0.045015402
2647,-0.035179824
2648,-0.01627572
2649,-0.040996652
2650,-0.01194059
2651,-0.022280289
2652,-0.025522674
2653,-0.032556634
2654,-0.022864448
2655,-0.034527525
2656,-0.10248244
2657,-0.10085485
2658,-0.058012344
2659,0.008887769
2660,0.011518232
2661,0.015986739
2662,-0.0151769435
2663,-0.030434271
2664,0.043712694
2665,0.0043728454
2666,0.10079466
2667,0.040247496
2668,-0.020310719
2669,0.018216368
2670,-0.047160108
2671,-0.025734663
2672,0.0016637027
2673,-0.036450427
2674,-0.025748244
2675,-0.00047979233
2676,-0.028942447
2677,-0.007297524
2678,0.021179682
2679,0.051985834
2680,-0.045814857
2681,-0.06666028
2682,-0.050184026
2683,0.00796739
2684,-0.013166457
2685,-0.028874476
2686,-0.12538965
2687,-0.061813936
2688,0.013351044
2689,-0.03475912
2690,-0.00019361777
2691,0.036095455
2692,0.02045389
2693,-0.0702784
2694,-0.031264286
2695,-0.06544168
2696,-0.042334855
2697,0.01101131
2698,-0.004225328
2699,-0.01712355
2700,-0.035624936
2701,-0.038689524
2702,0.015026312
2703,-0.02298689
2704,0.010318021
2705,0.029216185
2706,-0.0023927414
2707,-0.027799768
2708,-0.0133513175
2709,-0.021485038
2710,-0.07068889
2711,-0.08608827
2712,-0.05774284
2713,0.041312627
2714,-0.08114845
2715,-0.028321944
2716,0.0797819
2717,-0.0881716
2718,0.023111785
2719,-0.045616202
2720,-0.024754502
2721,-0.05231477
2722,-0.02781272
2723,-0.023556579
2724,-0.008840181
2725,0.021606365
2726,-0.06887812
2727,-7.4422904e-05
2728,-0.006421351
2729,-0.059322167
2730,-0.05874706
2731,-0.009315731
2732,-0.03939643
2733,0.039499592
2734,-0.052782074
2735,0.023254432
2736,-0.0061848382
2737,-0.017645987
2738,-0.02965906
2739,-0.02806054
2740,0.00369827
2741,-0.014232735
2742,-0.013874135
2743,-0.011944743
2744,-0.020516543
2745,-0.05741023
2746,-0.0050969566
2747,-0.04339823
2748,-0.03150598
2749,-0.06438461
2750,-0.044254716
2751,-0.02115102
2752,-0.030697662
2753,-0.03957171
2754,0.011950905
2755,-0.124140486
2756,-0.04563789
2757,-0.03594544
2758,0.045172658
2759,-0.034208037
2760,-0.044426896
2761,0.010893706
2762,-0.01578441
2763,-0.026547354
2764,-0.025366234
2765,0.0017597477
2766,-0.008469377
2767,0.028604131
2768,0.028462535
2769,0.03298156
2770,0.0020374716
2771,0.00672891
2772,-0.00043429827
2773,-0.044389676
2774,-0.038883477
2775,-0.06693991
2776,-0.009471744
2777,0.00853001
2778,-0.00957381
2779,-0.01844159
2780,-0.03670598
2781,-0.033559863
2782,-0.028369568
2783,-0.015629606
2784,-0.02470708
2785,0.0033658913
2786,-0.09380039
2787,-0.048237327
2788,0.006343211
2789,-0.08414038
2790,0.0058591007
2791,-0.010296383
2792,0.020204376
2793,-0.0005828235
2794,0.078531295
2795,-0.08068606
2796,-0.04464924
2797,0.045895904
2798,0.016937623
2799,-0.039980818
2800,0.08651908
2801,-0.017418375
2802,0.011557298
2803,-0.02327668
2804,-0.033352267
2805,-0.0086781215
2806,0.01586925
2807,0.03240021
2808,-0.0127605
2809,0.0032857794
2810,-0.0041975453
2811,-0.007812826
2812,-0.042255785
2813,-0.030395184
2814,0.07599852
2815,-0.04898125
2816,0.0201382
2817,0.0048304126
2818,-0.026310539
2819,0.043166906
2820,-0.015195259
2821,-0.0155135095
2822,-0.03100948
2823,0.02693291
2824,-0.02161051
2825,-0.06820796
2826,-0.004091164
2827,-0.044788465
2828,-0.028226873
2829,0.012649686
2830,-0.022599915
2831,0.024408918
2832,0.03374583
2833,0.0062339455
2834,0.0035789267
2835,-0.054817915
2836,0.0053184894
2837,-0.007818615
2838,0.035455287
2839,-0.047048382
2840,0.008902939
2841,-0.009493845
2842,0.0014584285
2843,-0.0020125492
2844,0.024919435
2845,-0.057388544
2846,0.011099008
2847,0.06771946
2848,-0.03751456
2849,-0.032805797
2850,-0.005195105
2851,0.02712888
2852,0.0034792577
2853,0.019646332
2854,0.028733533
2855,-0.0014160764
2856,-0.020866703
2857,0.024433155
2858,-0.20060875
2859,-0.017439708
2860,0.0878
2861,-0.037071325
2862,0.020892639
2863,-0.016398821
2864,-0.016051078
2865,-0.018286794
2866,0.00020062989
2867,-0.11649713
2868,0.0035889107
2869,0.008634846
2870,-0.05079197
2871,-0.037485614
2872,-0.045988284
2873,-0.019688463
2874,0.03594324
2875,-0.027611965
2876,-0.018054578
2877,0.06038794
2878,-0.06131625
2879,-0.07478318
2880,-0.09919729
2881,-0.066655934
2882,-0.120014824
2883,-0.06532398
2884,-0.020242304
2885,-0.10221934
2886,0.041027054
2887,-0.038427256
2888,-0.051077317
2889,0.026716297
2890,-0.04869648
2891,-0.088434264
2892,-0.019409316
2893,-0.030793995
2894,-0.016090697
2895,-0.0065817735
2896,0.023568155
2897,-0.01790736
2898,-0.016873738
2899,-0.021158505
2900,-0.039008193
2901,-0.04557034
2902,-0.02924999
2903,-0.040629923
2904,-0.046044517
2905,-0.019744588
2906,-0.0042771646
2907,-0.03232504
2908,0.007847381
2909,-0.026009545
2910,0.02803147
2911,-0.0838942
2912,-0.002928737
2913,-0.026216788
2914,-0.05530107
2915,0.035040993
2916,-0.0056787394
2917,0.039060775
2918,-0.018527264
2919,0.016263658
2920,0.023597384
2921,-0.02610963
2922,0.0426153
2923,-0.005779383
2924,-0.062143255
2925,0.050954126
2926,-0.06749978
2927,-0.015974704
2928,-0.09642831
2929,0.010911395
2930,-0.056172337
2931,-0.003518829
2932,-0.016492493
2933,-0.053779047
2934,0.023320263
2935,-0.033407
2936,-0.12939808
2937,-0.06579196
2938,-0.028556509
2939,-0.0070585487
2940,-0.10177074
2941,-0.018697115
2942,-0.1707174
2943,-0.03149079
2944,0.016828425
2945,-0.027611705
2946,0.0008983526
2947,0.025149234
2948,0.03731374
2949,0.058375556
2950,-0.0037346235
2951,0.008928843
2952,-0.010540131
2953,-0.05609166
2954,0.0010409434
2955,-0.0033750352
2956,-0.01835524
2957,0.043882746
2958,-0.015749175
2959,-0.027990172
2960,-0.059580866
2961,0.00987894
2962,0.0023759399
2963,-0.09827718
2964,-0.011007288
2965,-0.0076736696
2966,0.03643793
2967,-0.008464568
2968,-0.12971637
2969,0.006064693
2970,0.04596481
2971,0.008098485
2972,-0.063436694
2973,0.012945741
2974,-0.05226822
2975,0.028646369
2976,0.008867151
2977,-0.021406058
2978,-0.006272019
2979,-0.021349669
2980,0.008138706
2981,-0.14196062
2982,0.018711424
2983,-0.03149205
2984,-0.004038743
2985,0.030155182
2986,-0.032395463
2987,-0.005155602
2988,0.018561691
2989,0.009169972
2990,0.050753754
2991,-0.05737894
2992,-0.041824203
2993,0.005674989
2994,-0.0034863756
2995,-0.04313135
2996,-0.024102287
2997,-0.015325328
2998,-0.0077058706
2999,0.00429008
3000,-0.006285307
3001,-0.0005009301
3002,-0.00074626715
3003,-0.0030757587
3004,-0.0026081495
3005,0.010455018
3006,0.005947102
3007,-0.011937443
3008,0.005335125
3009,0.007510065
3010,-0.025868673
3011,-0.03404165
3012,-0.0068041543
3013,-0.04914548
3014,0.0064109056
3015,0.0221015
3016,-0.078442775
3017,0.0009301868
3018,0.017715367
3019,-0.04016089
3020,0.031298805
3021,0.005422055
3022,-0.014475374
3023,0.022057356
3024,0.005471825
3025,-0.010425947
3026,0.0013727385
3027,0.03629873
3028,0.020356534
3029,0.0068677156
3030,0.0035515046
3031,-0.015079888
3032,0.004873416
3033,-0.0027213125
3034,-0.0067945505
3035,-0.0120518515
3036,-0.017301168
3037,0.013432615
3038,-0.013625943
3039,-0.017542612
3040,-0.0416918
3041,-0.0036625015
3042,0.0049323407
3043,0.008265618
3044,0.02047942
3045,-0.053715494
3046,-0.011939912
3047,-0.0021344312
3048,0.028745335
3049,-0.0007135974
3050,-0.02628949
3051,0.011459231
3052,0.014192349
3053,-0.028906113
3054,-0.029514112
3055,-0.007956206
3056,-0.05939594
3057,0.00047429404
3058,-0.12694293
3059,0.010006742
3060,-0.023045216
3061,0.0043017436
3062,0.012607139
3063,-0.0002852212
3064,0.013189173
3065,-0.1739763
3066,-0.0005827837
3067,-0.0055786287
3068,-0.02208074
3069,-0.019505851
3070,-0.062475316
3071,-0.011382244
3072,-0.026907614
3073,-0.0003878076
3074,0.00033611376
3075,0.1036524
3076,0.01587473
3077,0.084778056
3078,-0.019845262
3079,0.06393244
3080,-0.0018253999
3081,0.0361711
3082,0.032301284
3083,-0.008423692
3084,-0.046493936
3085,0.07904115
3086,-0.032279804
3087,-0.060207997
3088,-0.14019914
3089,-0.026047971
3090,0.0021151067
3091,-0.05571566
3092,-0.017921008
3093,-0.010752315
3094,0.055602077
3095,-0.03865106
3096,-0.12249483
3097,0.010019847
3098,0.031000072
3099,0.06758386
3100,-0.024312764
3101,-0.079514965
3102,0.022618804
3103,0.06992106
3104,0.037369866
3105,-0.023381593
3106,0.0070182355
3107,-0.03747417
3108,-0.04498056
3109,-0.13390498
3110,-0.072649784
3111,-0.023667604
3112,-0.018081468
3113,0.061482262
3114,0.073422484
3115,-0.07581809
3116,0.103039406
3117,-0.05974265
3118,0.08049863
3119,-0.027948149
3120,-0.013414079
3121,0.010096711
3122,-0.023284309
3123,-0.025825756
3124,0.059372846
3125,0.006516566
3126,-0.00021704347
3127,-0.0018966595
3128,-0.028931048
3129,-0.053911857
3130,0.0691952
3131,-0.022542298
3132,0.002850237
3133,0.085451595
3134,-0.031249762
3135,-0.0077013224
3136,-0.006099575
3137,-0.025162365
3138,-0.014715264
3139,-0.08613414
3140,-0.04594726
3141,-0.024998736
3142,-0.06869462
3143,-0.15120406
3144,-0.07834513
3145,0.06470578
3146,0.012716684
3147,-0.028762374
3148,0.1233566
3149,0.023884315
3150,0.01901435
3151,0.025875606
3152,0.020709282
3153,-0.033214092
3154,0.0057092495
3155,-0.06942974
3156,-0.15406163
3157,-0.025131285
3158,0.022494469
3159,-0.059367374
3160,0.030859422
3161,-0.0039538983
3162,-0.012238321
3163,-0.008121383
3164,-0.01748997
3165,-0.03713479
3166,-0.020698512
3167,-0.018253114
3168,-0.03495595
3169,-0.060937352
3170,0.0035437827
3171,-0.035783287
3172,0.009109486
3173,-0.12992384
3174,0.012573685
3175,-0.03597592
3176,-0.008565154
3177,-0.001949431
3178,0.040858194
3179,0.076552674
3180,-0.024509033
3181,-0.021111717
3182,-0.02881257
3183,0.015508212
3184,0.018044095
3185,0.0075236238
3186,-0.012574197
3187,-3.297443e-05
3188,-0.003854836
3189,-0.030691061
3190,-0.026020225
3191,-0.08435517
3192,-0.04075037
3193,-0.024479415
3194,-0.0026071335
3195,0.013407196
3196,-0.05356874
3197,-0.019094653
3198,0.07498141
3199,-0.0076878034
3200,-0.036136847
3201,0.0023775059
3202,0.003651998
3203,0.09273104
3204,0.047132522
3205,-0.029489603
3206,0.004437321
3207,-0.096039675
3208,-0.024498876
3209,-0.10671352
3210,-0.053621475
3211,-0.0033502518
3212,-0.021514356
3213,0.03341554
3214,0.067432985
3215,0.07479287
3216,-0.00567482
3217,0.03339175
3218,-0.00079924864
3219,-0.05346157
3220,-0.016428888
3221,-0.058638223
3222,-0.013016295
3223,-0.08276023
3224,0.028847372
3225,0.06988651
3226,-0.00641048
3227,-0.14422262
3228,0.040201988
3229,0.05677573
3230,-0.11605944
3231,0.04469443
3232,-0.10348607
3233,-0.017034458
3234,0.004218963
3235,0.011619095
3236,-0.08411601
3237,0.11714565
3238,-0.07419959
3239,0.110864855
3240,-0.022140594
3241,0.040884927
3242,0.0854731
3243,0.052798167
3244,-0.06892455
3245,0.035603575
3246,0.006193346
3247,-0.17467818
3248,0.03667329
3249,-0.00920785
3250,0.0034442632
3251,-0.039259568
3252,-0.04844398
3253,0.0020535518
3254,0.077104986
3255,-0.0005290671
3256,-0.034530163
3257,-0.07733615
3258,0.09087438
3259,-0.029264232
3260,-0.021367308
3261,-0.0638643
3262,-0.06534782
3263,-0.0034596056
3264,-0.040907733
3265,-0.068599395
3266,-0.012579023
3267,-0.0062004556
3268,-0.032250803
3269,0.057488106
3270,-0.019530373
3271,0.07573918
3272,-0.113080196
3273,-0.07620144
3274,0.081086144
3275,-0.020060027
3276,-0.00055929954
3277,-0.033407006
3278,-0.02342643
3279,-0.097542964
3280,-0.16275427
3281,0.008207651
3282,-0.018957209
3283,0.055297196
3284,0.039182022
3285,0.021405283
3286,-0.030454336
3287,-0.04250778
3288,-0.012627462
3289,-0.0043434612
3290,-0.015877208
3291,-0.021122161
3292,0.09639065
3293,-0.013581249
3294,0.0049693314
3295,-0.037495773
3296,0.03549292
3297,0.07242765
3298,0.050681435
3299,-0.042865332
3300,0.01593845
3301,0.046096366
3302,-0.008650562
3303,0.10143945
3304,0.094390795
3305,-0.0050239475
3306,0.054157495
3307,-0.02996288
3308,-0.037016645
3309,0.008818134
3310,0.0077114645
3311,-0.016971309
3312,-0.113934696
3313,-0.010617602
3314,-0.15058883
3315,-0.03723165
3316,0.001783122
3317,-0.047581773
3318,-0.0042595514
3319,0.16961199
3320,0.021242442
3321,-0.15880668
3322,0.01926097
3323,0.016423248
3324,-0.021191947
3325,-0.02816316
3326,-0.10304362
3327,0.011422656
3328,-0.0023066709
3329,0.0038275984
3330,0.008427742
3331,0.1603565
3332,0.023242569
3333,0.23829529
3334,-0.040327206
3335,0.13460338
3336,-0.022979889
3337,-0.05453506
3338,-0.015549429
3339,0.050181348
3340,0.019106628
3341,0.13381796
3342,0.081791155
3343,-0.029817099
3344,-0.11267173
3345,0.08389932
3346,-0.019753985
3347,-0.10121767
3348,-0.012036223
3349,-0.021814508
3350,0.06419309
3351,-0.020401211
3352,-0.057919063
3353,0.0036312905
3354,0.039159458
3355,0.1358218
3356,0.08464958
3357,0.013519805
3358,-0.037503656
3359,0.026907818
3360,0.015441237
3361,0.02934406
3362,-0.011899166
3363,-0.00076566404
3364,-0.026352374
3365,-0.015452807
3366,0.02857934
3367,0.080530554
3368,-0.013795708
3369,0.062472954
3370,-0.032388482
3371,-0.013206134
3372,0.053513672
3373,-0.009399932
3374,0.09715526
3375,-0.055694293
3376,0.028588073
3377,-0.024011128
3378,0.007718657
3379,-0.03676312
3380,-0.002705079
3381,-0.01905373
3382,0.031819813
3383,-0.035564978
3384,0.012162413
3385,0.0018472734
3386,0.12982099
3387,0.011488233
3388,-0.013718717
3389,0.068208806
3390,-0.017927544
3391,-0.032824285
3392,-0.06697295
3393,-0.03820622
3394,0.008915789
3395,-0.022482036
3396,0.0151923355
3397,-0.22238818
3398,-0.065653875
3399,0.0131583
3400,-0.06833303
3401,-0.06434682
3402,0.0471064
3403,-0.04946951
3404,0.11347019
3405,-0.027267216
3406,0.011294293
3407,-0.013935733
3408,-0.07171192
3409,0.011046872
3410,-0.0029560165
3411,0.0012560012
3412,0.023101822
3413,0.002817809
3414,-0.016531559
3415,0.01954238
3416,-0.0029137223
3417,-0.00019534315
3418,0.027154304
3419,-0.011854451
3420,0.061434206
3421,0.00057973235
3422,0.06317738
3423,-0.026456896
3424,-0.046970364
3425,0.014920194
3426,0.024948156
3427,0.044686537
3428,0.014549813
3429,-0.0132191535
3430,0.0067629814
3431,0.08184903
3432,0.04256896
3433,0.03428401
3434,0.034787793
3435,0.031167738
3436,-0.008137576
3437,-0.07358475
3438,-0.026067978
3439,-0.039558683
3440,-0.015446274
3441,-0.006594191
3442,-0.122414954
3443,-0.031597633
3444,0.014760139
3445,-0.031876855
3446,-0.04531891
3447,0.051140122
3448,-0.05691435
3449,-0.1027236
3450,-0.007867077
3451,0.018296437
3452,-0.04124378
3453,-0.009038047
3454,-0.019321801
3455,-0.03592915
3456,0.026649656
3457,0.012500796
3458,0.039857827
3459,0.032158807
3460,0.03523621
3461,0.03788042
3462,0.034985434
3463,0.04236202
3464,-0.01018736
3465,-0.08549496
3466,0.022379056
3467,0.015222096
3468,-0.016914578
3469,0.018936822
3470,0.06799577
3471,0.037174508
3472,0.046279386
3473,0.033928346
3474,-0.007488101
3475,-0.09882107
3476,-0.033576865
3477,-0.01696305
3478,0.033515938
3479,-0.02473639
3480,0.05061133
3481,0.05528173
3482,0.012521038
3483,0.0029546758
3484,0.014060246
3485,0.022160375
3486,-0.06744933
3487,-0.0031424053
3488,0.008477415
3489,0.048403196
3490,0.06205688
3491,0.04728892
3492,-0.064084195
3493,-0.061404485
3494,-0.046517074
3495,0.055830985
3496,0.0028095492
3497,0.035006914
3498,-0.066565774
3499,0.035702735
3500,0.030401574
3501,0.006170558
3502,0.032205783
3503,-0.0726277
3504,0.048866745
3505,0.01221241
3506,0.038325142
3507,-0.053569574
3508,-0.015975706
3509,-0.004326075
3510,0.03697621
3511,0.02644631
3512,0.019152857
3513,-0.022833614
3514,0.00034962478
3515,-0.0035243307
3516,0.03869975
3517,-0.004565088
3518,-0.00073863415
3519,0.033537418
3520,-0.035876606
3521,-0.020357428
3522,0.04354829
3523,-0.027289132
3524,-0.018978748
3525,0.007821386
3526,-0.021246279
3527,0.015237641
3528,-0.09410112
3529,-0.0059190616
3530,0.06099788
3531,-0.022561483
3532,-0.00967768
3533,0.03310703
3534,0.0008161147
3535,-0.06291388
3536,-0.11473898
3537,0.018882152
3538,0.0129849715
3539,0.03355554
3540,0.031403206
3541,0.020753793
3542,0.036509845
3543,0.011241884
3544,0.031567473
3545,0.0139795
3546,-0.030980509
3547,-0.009019386
3548,0.061836377
3549,-0.014160335
3550,-0.019751739
3551,0.07789401
3552,0.04053915
3553,0.0053249
3554,-0.06449649
3555,-0.058635436
3556,0.0021599634
3557,-0.033075374
3558,0.03645564
3559,0.0610704
3560,-0.056115646
3561,0.00020111489
3562,-0.053448003
3563,0.05206092
3564,0.0001663748
3565,-0.017796455
3566,-0.030795941
3567,-0.021296151
3568,-0.07851823
3569,0.047153793
3570,-0.14329192
3571,0.0031322867
3572,-0.026260091
3573,-0.07108898
3574,0.018141808
3575,-0.0060262005
3576,0.020884337
3577,-0.13440908
3578,0.03660375
3579,-0.009295925
3580,-0.060531843
3581,-0.03660939
3582,-0.044216193
3583,0.017957775
3584,0.04223048
3585,0.011996558
3586,0.013789843
3587,0.020974487
3588,0.027937165
3589,-0.15025102
3590,-0.033620473
3591,-0.083629936
3592,-0.0064115473
3593,-0.024277538
3594,0.014429255
3595,-0.0118138455
3596,-0.01316372
3597,-0.011041011
3598,0.08101509
3599,0.0670204
3600,0.025240276
3601,0.029774839
3602,-0.008973053
3603,-0.032061227
3604,-0.007137214
3605,-0.012437333
3606,-0.060021907
3607,-0.030587872
3608,-0.0494155
3609,-0.01292566
3610,-0.094015054
3611,-0.0556645
3612,0.040549133
3613,-0.09594139
3614,-0.031576205
3615,-0.03501449
3616,-0.023495365
3617,-0.02333124
3618,-0.015795717
3619,0.04629404
3620,0.014052813
3621,-0.03565537
3622,-0.06553055
3623,0.056389976
3624,-0.019603984
3625,0.0103938645
3626,-0.26920658
3627,0.037525017
3628,-0.014820882
3629,-0.037501004
3630,-0.08959314
3631,0.025708694
3632,0.008541199
3633,-0.001132577
3634,-0.03588772
3635,0.0053736097
3636,0.055520777
3637,-0.0032691641
3638,0.028657243
3639,-0.035341114
3640,0.011332871
3641,-0.058646783
3642,0.004372931
3643,-0.0014490407
3644,0.0034172165
3645,-0.11548307
3646,-0.032268118
3647,-0.03215101
3648,-0.016328543
3649,-0.044441897
3650,-0.04988188
3651,-0.025385225
3652,-0.013552968
3653,-0.01962369
3654,0.039179537
3655,0.014044067
3656,0.026482886
3657,-0.2502083
3658,-0.043591596
3659,-0.024266146
3660,0.010875302
3661,0.01676891
3662,0.047927324
3663,0.005439282
3664,0.041987453
3665,-0.008786778
3666,0.015717827
3667,0.03801627
3668,0.03826681
3669,-0.0054744612
3670,0.01903172
3671,-0.044806242
3672,0.04010403
3673,-0.014022842
3674,-0.039704476
3675,0.061673302
3676,0.057634454
3677,-0.013334124
3678,-0.024828536
3679,0.001912955
3680,-0.04642273
3681,-0.045572292
3682,-0.10892871
3683,0.028628495
3684,0.056185983
3685,0.054185756
3686,-0.013514845
3687,0.09210474
3688,0.079252064
3689,-0.04589923
3690,0.06237478
3691,3.6754274e-05
3692,0.009759152
3693,0.03481168
3694,-0.09008273
3695,-0.009118087
3696,-0.09131697
3697,-0.025119169
3698,0.010774619
3699,0.00090553425
3700,-0.02768088
3701,0.003253442
3702,0.054261215
3703,0.016822252
3704,-0.12552103
3705,0.001958842
3706,0.1218106
3707,0.0006831055
3708,-0.043263573
3709,-0.0054255184
3710,-0.21100831
3711,-0.029396378
3712,0.04196791
3713,0.0057272874
3714,0.013941453
3715,0.008452135
3716,0.049950343
3717,-0.104636244
3718,-0.021804353
3719,-0.20809886
3720,0.010986322
3721,0.014408382
3722,-0.0051304707
3723,-0.06049715
3724,-0.047249965
3725,-0.15959013
3726,0.023268774
3727,0.028976915
3728,0.07935113
3729,-0.015963845
3730,-0.008971261
3731,-0.0035993261
3732,-0.028915184
3733,-0.019052189
3734,-0.19011003
3735,-0.06143023
3736,-0.011670157
3737,0.039960682
3738,-0.06135244
3739,-0.069759734
3740,0.06671182
3741,-0.0044355625
3742,-0.021591704
3743,-0.09347141
3744,0.025228763
3745,-0.033117797
3746,-0.047585834
3747,-0.0126645425
3748,-0.060049936
3749,0.03598506
3750,-0.07449411
3751,0.002913457
3752,-0.07839212
3753,-0.071035735
3754,-0.049999274
3755,0.022487115
3756,-0.20122871
3757,0.05270987
3758,-0.19522634
3759,-0.01135005
3760,0.06959488
3761,0.025837705
3762,-0.007724674
3763,-0.03156647
3764,0.079427816
3765,-0.010304258
3766,0.012169774
3767,-0.044766575
3768,0.014854658
3769,-0.04228468
3770,0.08915632
3771,-0.02729314
3772,-0.0011784408
3773,-0.09986093
3774,-0.032723702
3775,0.010693359
3776,-0.028121278
3777,-0.027225895
3778,-0.021681994
3779,-0.08628833
3780,-0.06384459
3781,-0.085976705
3782,0.029465178
3783,0.03993461
3784,-0.075875945
3785,0.022409428
3786,-0.031323027
3787,-0.05677379
3788,-0.14931454
3789,0.032891694
3790,0.014813305
3791,-0.09482551
3792,-0.051362526
3793,-0.059130684
3794,0.01148696
3795,0.04614381
3796,0.034448627
3797,-0.03689605
3798,0.017020516
3799,-0.052715838
3800,0.033108015
3801,-0.014322368
3802,-0.04278737
3803,0.02237867
3804,0.01499822
3805,-0.037570044
3806,-0.041248813
3807,-0.035242356
3808,0.025201997
3809,0.079570465
3810,-0.027075846
3811,-0.03209918
3812,0.022058906
3813,-0.01981157
3814,-0.036304526
3815,0.04901681
3816,-0.035673738
3817,-0.031761844
3818,0.04035723
3819,-0.15507664
3820,0.002549229
3821,0.06177554
3822,-0.092085905
3823,-0.012102555
3824,0.090374835
3825,-0.013770675
3826,-0.031991173
3827,-0.034259114
3828,-0.03747351
3829,-0.022883411
3830,0.04072319
3831,0.07120139
3832,-0.15031256
3833,0.00014487842
3834,0.039569307
3835,-0.021678617
3836,-0.017515518
3837,-0.040870097
3838,0.062827244
3839,-0.017840197
3840,-0.0060481573
3841,-0.0105191525
3842,-0.0053809523
3843,0.007050516
3844,0.045818474
3845,0.0069331652
3846,-0.018570125
3847,0.03223568
3848,-0.018242324
3849,0.041031376
3850,-0.010830516
3851,-0.028718531
3852,-0.00957181
3853,0.022859417
3854,0.0014969679
3855,0.048336025
3856,-0.027430683
3857,-0.04866965
3858,0.0023699596
3859,0.0018942187
3860,-0.020286163
3861,-0.035630137
3862,0.043811634
3863,-0.040730946
3864,0.05332029
3865,0.05477702
3866,0.013563471
3867,-0.09677699
3868,0.016625488
3869,0.01637516
3870,0.058078
3871,0.051045317
3872,-0.034445304
3873,-0.031676248
3874,-0.018653743
3875,0.010347024
3876,-0.061899796
3877,-0.0006735859
3878,-0.040797595
3879,-0.015053374
3880,-0.009437784
3881,0.0296377
3882,0.07572997
3883,0.030142266
3884,0.038655378
3885,0.048340704
3886,0.043647572
3887,0.02090634
3888,0.02616187
3889,-0.00754383
3890,-0.040740818
3891,-0.059871007
3892,-0.014543756
3893,-0.0041233613
3894,0.028905109
3895,-0.021730457
3896,-0.039794464
3897,-0.022142593
3898,-0.003524394
3899,0.003858077
3900,-0.006042736
3901,0.03458467
3902,-0.009094671
3903,0.004557723
3904,-0.04980042
3905,-0.032448914
3906,-0.11310723
3907,0.050091848
3908,-0.03298901
3909,-0.07879167
3910,-0.026938519
3911,0.038062576
3912,-0.0046797805
3913,0.009975914
3914,0.06426881
3915,0.033304717
3916,0.04220931
3917,-0.002064786
3918,0.001981077
3919,0.017724935
3920,0.03257798
3921,-0.16872585
3922,0.0037677428
3923,0.03555325
3924,0.011264078
3925,0.011352052
3926,-0.011715806
3927,-0.05055307
3928,0.0009305852
3929,0.007787605
3930,-0.006142985
3931,-0.020190775
3932,-0.013737857
3933,0.0010028454
3934,-0.0076526357
3935,-0.06867582
3936,0.025167195
3937,0.032953836
3938,0.0397689
3939,-0.006518107
3940,0.0069026854
3941,-0.08605269
3942,-0.017644612
3943,-0.044439055
3944,-0.019189572
3945,-0.0040198523
3946,-0.0066436213
3947,-0.005025374
3948,-0.03544125
3949,0.005722764
3950,0.0447571
3951,0.0065674772
3952,0.036478598
3953,-0.0022930247
3954,-0.02469502
3955,-0.013411718
3956,0.006336455
3957,-0.029618073
3958,0.008864961
3959,0.016060725
3960,0.02909504
3961,-0.019956691
3962,0.0023615323
3963,0.0153808985
3964,-0.040431716
3965,-0.036399223
3966,0.05130727
3967,-0.024350507
3968,-0.009933887
3969,-0.044947054
3970,-0.039980847
3971,-0.039368648
3972,-0.11288375
3973,0.0917445
3974,-0.11599764
3975,0.10449187
3976,-0.002188583
3977,-0.15015143
3978,-0.045372605
3979,-0.12905316
3980,-0.0068933354
3981,0.053867556
3982,-0.008455836
3983,-0.048003763
3984,-0.06552105
3985,-0.0121201435
3986,-0.012061213
3987,-0.057653796
3988,-0.027932309
3989,0.0014177929
3990,0.062362935
3991,0.021225916
3992,-0.11022716
3993,-0.03190897
3994,0.13700812
3995,-0.09338063
3996,-0.101577
3997,-0.06941512
3998,-0.09731965
3999,0.045320623
4000,-0.068856195
4001,-0.022124918
4002,-0.00733613
4003,-0.015680412
4004,0.008064642
4005,-0.053072695
4006,0.035036176
4007,0.017270803
4008,-0.08554537
4009,0.04422314
4010,-0.09357805
4011,-0.057816103
4012,0.10539516
4013,-0.054780908
4014,0.064165995
4015,-0.119947344
4016,-0.014044587
4017,-0.032212347
4018,-0.0211556
4019,0.004420807
4020,-0.09762096
4021,0.0015673306
4022,-0.01941984
4023,-0.09307272
4024,-0.040017437
4025,0.030174859
4026,-0.124644905
4027,0.012248796
4028,-0.058771983
4029,0.06513828
4030,0.016198685
4031,-0.07548835
4032,-0.011959241
4033,0.025077583
4034,-0.09998606
4035,-0.011885305
4036,0.02168462
4037,0.03905799
4038,-0.08729021
4039,-0.017766407
4040,-0.18611774
4041,-0.07101106
4042,-0.15897097
4043,-0.06308302
4044,0.08015581
4045,-0.110923015
4046,-0.028038207
4047,-0.03800525
4048,-0.120533705
4049,-0.0025917643
4050,-0.061660334
4051,-0.047674052
4052,-0.03403058
4053,-0.011275897
4054,-0.04552337
4055,0.0269909
4056,-0.06668285
4057,-0.036072247
4058,-0.02029693
4059,-0.06271813
4060,0.038197957
4061,0.0051461277
4062,-0.012564948
4063,-0.025985636
4064,-0.05266269
4065,-0.117168054
4066,-0.002825345
4067,-0.004282506
4068,-0.06642152
4069,0.16669376
4070,-0.0043516275
4071,-0.0009613512
4072,0.06896429
4073,0.0033611162
4074,0.06562499
4075,0.073710255
4076,-0.05359425
4077,-0.035794947
4078,-0.07124709
4079,-0.024028532
4080,-0.104971565
4081,-0.06130909
4082,-0.14739536
4083,-0.0022039942
4084,-0.00022910969
4085,0.0061303964
4086,-0.017632423
4087,0.10091258
4088,0.022449708
4089,-0.20318282
4090,-0.11933903
4091,-0.0064919577
4092,0.02035398
4093,-0.0051898314
4094,-0.06659039
4095,-0.07123722
4096,0.00843417
4097,-0.020342266
4098,0.01777036
4099,-0.057060562
4100,-0.043417465
4101,0.04345328
4102,-0.04523951
4103,0.041256435
4104,-0.0935097
4105,0.035159048
4106,-0.008327894
4107,-0.035932973
4108,-0.02383027
4109,-0.025313528
4110,-0.030747712
4111,-0.072957516
4112,0.0019533427
4113,-0.022675084
4114,-0.016892457
4115,0.015912522
4116,0.00047208444
4117,0.006190654
4118,0.085209146
4119,0.031058898
4120,-0.03991528
4121,-0.044006463
4122,0.06485362
4123,0.09149929
4124,-0.046447266
4125,-0.01290821
4126,0.028167184
4127,0.022280589
4128,-0.008003791
4129,-0.006854181
4130,-0.011467015
4131,-0.014932049
4132,-0.0012145877
4133,-0.05160266
4134,0.014644056
4135,-0.06938372
4136,-0.044331588
4137,0.0077307974
4138,0.038561195
4139,0.002379214
4140,0.06297816
4141,-0.019377468
4142,0.059592154
4143,0.046095565
4144,0.024854507
4145,0.0020254273
4146,-0.05416982
4147,-0.012319698
4148,-0.06534909
4149,0.008435424
4150,-0.002096048
4151,-0.029219875
4152,0.026476417
4153,0.031395264
4154,-0.0861303
4155,-0.05088806
4156,-0.012166092
4157,0.032038048
4158,0.0137983635
4159,-0.05196502
4160,0.021396356
4161,0.019528812
4162,-0.060813602
4163,-0.0015789426
4164,0.023081932
4165,0.022640886
4166,0.023455467
4167,-0.0069675525
4168,0.034942348
4169,0.009605676
4170,-0.055326458
4171,0.0037195897
4172,0.018598184
4173,-0.0021027625
4174,0.0031714684
4175,0.040551446
4176,0.0329147
4177,-0.033966344
4178,0.013015977
4179,0.009514827
4180,0.01324828
4181,-0.0046622707
4182,-0.04392667
4183,0.027841011
4184,-0.041701056
4185,-0.025297895
4186,-0.006455494
4187,-0.040639795
4188,-0.055433873
4189,0.0040942533
4190,0.0999246
4191,0.017914973
4192,-0.03567698
4193,-0.04810493
4194,0.015478692
4195,-0.011989879
4196,0.020036753
4197,-0.04340392
4198,-0.0008844116
4199,0.033426866
4200,-0.04797552
4201,0.012971306
4202,-0.07824731
4203,0.0061952407
4204,-0.052059516
4205,0.04421439
4206,-0.02515626
4207,-0.020787787
4208,0.040849198
4209,-0.03532587
4210,-0.00023187957
4211,-0.016281541
4212,0.017654615
4213,0.0027449606
4214,-0.005121
4215,0.034578383
4216,-5.4740674e-05
4217,0.010508627
4218,-0.07956724
4219,0.0018170383
4220,0.007934765
4221,0.006479745
4222,0.01999885
4223,-0.034910157
4224,0.03339086
4225,-0.06377672
4226,-0.00893505
4227,-0.05823616
4228,0.042954616
4229,-0.078282446
4230,-0.07770558
4231,-0.008988484
4232,-0.0059663435
4233,0.00827068
4234,-0.017828235
4235,-0.028956687
4236,0.016927367
4237,-0.040775567
4238,0.038367372
4239,0.008670219
4240,0.00011562308
4241,0.10173815
4242,-0.003920751
4243,-0.04342277
4244,0.012027208
4245,-0.020039393
4246,-0.03718249
4247,0.07247573
4248,0.032594383
4249,0.07940442
4250,0.01988522
4251,-0.1355792
4252,0.0209847
4253,0.025067646
4254,0.04020416
4255,-0.0135975955
4256,-0.010647136
4257,0.009823195
4258,-0.022941124
4259,0.022062706
4260,0.028384367
4261,0.006492108
4262,0.0476516
4263,0.06206191
4264,-0.035020415
4265,0.00027728322
4266,-0.09791018
4267,0.023945773
4268,0.0017341189
4269,0.021873962
4270,-0.032604527
4271,0.020908615
4272,0.07780217
4273,-0.0070775016
4274,-0.029822612
4275,0.0372962
4276,-0.13948092
4277,0.003310187
4278,0.06820612
4279,-0.04651332
4280,-0.003205611
4281,0.065058246
4282,-0.07655423
4283,-0.016959615
4284,-0.04239225
4285,-0.0056226403
4286,0.053974967
4287,-0.0011946684
4288,0.05039643
4289,0.065705344
4290,-0.0045847846
4291,-0.02247313
4292,0.026536074
4293,0.0128031215
4294,0.03334973
4295,0.026333027
4296,-0.009379152
4297,-0.108889505
4298,0.013971511
4299,-0.039595462
4300,-0.019623308
4301,-0.03380507
4302,-0.048087034
4303,0.015724553
4304,0.007871582
4305,0.0065671112
4306,-0.01634449
4307,0.031477116
4308,0.02818574
4309,0.030078052
4310,-0.034004737
4311,0.08061997
4312,-0.04071125
4313,-0.02435028
4314,-0.0029438455
4315,0.0006211633
4316,0.038454108
4317,-0.024489304
4318,0.0032985588
4319,0.025401866
4320,0.018074935
4321,0.022386597
4322,0.062972784
4323,0.045545764
4324,0.013751905
4325,0.022813177
4326,0.008515543
4327,0.03830246
4328,0.007688818
4329,0.023303268
4330,0.010690404
4331,-0.015603001
4332,-0.03219316
4333,0.0146697685
4334,0.018512698
4335,-0.04615972
4336,0.02621045
4337,-0.046189535
4338,0.03462013
4339,-0.021283425
4340,0.03377075
4341,0.03909985
4342,0.06117468
4343,0.0090588555
4344,-0.07171234
4345,-0.0043055676
4346,0.026077146
4347,0.008993265
4348,0.07472012
4349,0.024430567
4350,0.007941489
4351,-0.05659823
4352,-0.030478124
4353,0.008181283
4354,0.016200213
4355,0.007485818
4356,-0.011570982
4357,-0.0256256
4358,-0.02293544
4359,0.015731826
4360,-0.023166602
4361,0.044434536
4362,0.027367061
4363,-0.072588235
4364,-0.00084233045
4365,-0.1013923
4366,0.006755278
4367,0.013222046
4368,-0.0101218205
4369,-0.030751709
4370,-0.01589753
4371,-0.0067688446
4372,-0.020781968
4373,0.0015672307
4374,-0.00200758
4375,0.009470326
4376,-0.0595512
4377,-0.00519826
4378,0.008405455
4379,-0.24604258
4380,0.056150027
4381,-0.04768279
4382,0.03224348
4383,0.030880291
4384,-0.010507945
4385,0.017741399
4386,-0.030754527
4387,0.008629939
4388,0.028509464
4389,0.059527066
4390,-0.19244263
4391,-0.02524582
4392,-0.05667062
4393,-0.014647006
4394,0.037686758
4395,0.021781862
4396,0.050405513
4397,0.05901112
4398,0.009412406
4399,0.0147220725
4400,0.021874249
4401,0.014924608
4402,0.011015332
4403,-0.010023832
4404,0.08780752
4405,0.014602446
4406,0.03419092
4407,-0.024365677
4408,0.00639432
4409,0.012949612
4410,0.023084775
4411,-0.016119713
4412,-0.022493977
4413,0.059718184
4414,0.05365251
4415,0.0062536206
4416,0.027988512
4417,0.03938834
4418,-0.01370289
4419,0.013403382
4420,-0.013991133
4421,-0.16678992
4422,0.007768836
4423,0.023997525
4424,-0.026642445
4425,0.08403073
4426,-0.11196841
4427,0.021254536
4428,-0.0027946404
4429,0.0027253113
4430,0.01627978
4431,0.008894928
4432,0.00800114
4433,-0.05836626
4434,0.02176056
4435,0.027629942
4436,0.0016866094
4437,0.016428495
4438,-0.05536653
4439,-0.063360184
4440,-0.017291201
4441,0.026751112
4442,-0.06007419
4443,0.0019230745
4444,-0.040259846
4445,0.02057178
4446,-0.09389948
4447,0.0092294235
4448,0.002689744
4449,0.046869904
4450,-0.022601865
4451,0.017961401
4452,-0.032172076
4453,-0.0742454
4454,-0.013715369
4455,-0.03985598
4456,-0.069169775
4457,-0.016706176
4458,0.050653912
4459,-0.037257135
4460,0.005606932
4461,0.045690294
4462,-0.07508725
4463,-0.0031288443
4464,0.082383774
4465,0.018298663
4466,0.0014396266
4467,0.010752646
4468,-0.035062183
4469,-0.029268976
4470,-0.018859698
4471,0.03843647
4472,-0.08216919
4473,-0.0058095967
4474,0.03804063
4475,-0.009566022
4476,-0.011584297
4477,0.031403918
4478,0.057698634
4479,-0.026334677
4480,0.047948778
4481,-0.01138944
4482,0.04268772
4483,0.055511225
4484,0.016811896
4485,-0.067171186
4486,-0.04026803
4487,-0.04410971
4488,0.04049668
4489,-0.07301577
4490,0.010369354
4491,-0.07507683
4492,0.0077897077
4493,-0.15154007
4494,0.066117726
4495,-0.037622508
4496,0.0034115356
4497,0.025194872
4498,5.0150105e-05
4499,-0.07991855
4500,0.0175053
4501,0.013184942
4502,-0.112579495
4503,-0.030234642
4504,0.033646926
4505,0.033076447
4506,-0.04555324
4507,0.13320193
4508,0.08068177
4509,-0.026551018
4510,-0.08556262
4511,-0.16394301
4512,0.0315809
4513,-0.002175315
4514,-0.059964247
4515,-0.0065781297
4516,-0.0003098179
4517,0.009409949
4518,-0.01123914
4519,0.10846931
4520,-0.07477242
4521,-0.09880495
4522,-0.05854464
4523,0.024106907
4524,-0.09887525
4525,0.039311443
4526,-0.11412165
4527,-0.09554851
4528,0.04098865
4529,0.015846778
4530,0.04879196
4531,-0.012305903
4532,-0.08081888
4533,-0.0028061443
4534,0.037403174
4535,-0.011212947
4536,0.008836202
4537,-0.036511377
4538,-0.004794164
4539,6.967641e-05
4540,0.020152582
4541,-0.061468553
4542,-0.032616284
4543,0.038469907
4544,-0.007844965
4545,-0.033265855
4546,-0.0145433955
4547,-0.027666796
4548,-0.026349282
4549,0.00072214287
4550,0.03919836
4551,0.02790318
4552,-0.11431076
4553,-0.039640058
4554,0.0064071086
4555,-0.050216332
4556,-0.027087282
4557,0.004284759
4558,0.012217372
4559,-0.07709342
4560,-0.10466714
4561,-0.0061558625
4562,0.041671965
4563,0.042357992
4564,0.021070734
4565,0.019662945
4566,0.045843504
4567,-0.016971579
4568,0.050254833
4569,0.018455593
4570,-0.04390764
4571,0.04088427
4572,0.07777086
4573,0.00963492
4574,-0.026964271
4575,-0.0039445413
4576,0.026517535
4577,0.031857952
4578,-0.01440056
4579,0.004071446
4580,0.047339708
4581,0.057060108
4582,-0.027040765
4583,0.08679096
4584,0.043930843
4585,0.015552637
4586,0.06077281
4587,-0.046466555
4588,0.021691836
4589,0.04322772
4590,-0.10636015
4591,0.009813566
4592,-0.072907895
4593,-0.0008328311
4594,-0.14978434
4595,0.016392985
4596,0.0006315273
4597,-0.00921468
4598,0.049750965
4599,0.03459514
4600,-0.1734281
4601,-0.1326776
4602,0.02310406
4603,0.0035884846
4604,-0.005471249
4605,-0.0049954597
4606,-0.1267023
4607,-0.030640116
4608,0.034310695
4609,-0.060382683
4610,-0.0031989976
4611,-0.00460098
4612,0.0086440435
4613,0.037236188
4614,-0.08245902
4615,-0.029122168
4616,-0.018827466
4617,0.03639271
4618,-0.024706589
4619,0.007132993
4620,-0.036028735
4621,0.02747096
4622,0.015588084
4623,-0.05607579
4624,0.0037238644
4625,0.03094062
4626,-0.0030479871
4627,-0.02216632
4628,-0.016959256
4629,-0.012613194
4630,0.0631806
4631,-0.04708604
4632,-0.068269245
4633,0.054898165
4634,-0.034946937
4635,-0.1688904
4636,0.0590932
4637,-0.027549656
4638,0.051305924
4639,0.0508361
4640,-0.018477399
4641,-0.026531903
4642,0.092830814
4643,-0.044434767
4644,-0.036223758
4645,0.015161645
4646,-0.03983569
4647,0.008401762
4648,-0.009039569
4649,0.027505135
4650,0.020125752
4651,-0.008850904
4652,0.047384232
4653,-0.022398813
4654,0.0353214
4655,0.031366307
4656,0.0043638833
4657,-0.0066250283
4658,-0.010246308
4659,-0.056445792
4660,-0.002449187
4661,-0.0026942145
4662,-0.006890458
4663,-0.09128632
4664,-0.052151743
4665,-0.071882755
4666,-0.06964875
4667,-0.007413572
4668,-0.021991877
4669,-0.006993898
4670,-0.07282146
4671,0.0012685336
4672,-0.06736375
4673,-0.06404909
4674,-0.07988987
4675,-0.018122554
4676,-0.046764005
4677,-0.022106044
4678,-0.035675112
4679,-0.018540064
4680,0.003480209
4681,0.0015655005
4682,-0.06617596
4683,-0.0016437748
4684,0.024869202
4685,-0.0017513684
4686,-0.00558188
4687,0.018903643
4688,0.052031543
4689,-0.10239453
4690,-0.0002355691
4691,-0.032294195
4692,-0.021203356
4693,-0.02049667
4694,-0.02540618
4695,-0.07190142
4696,-0.031222558
4697,-0.027209675
4698,0.008583761
4699,0.005011105
4700,0.029638339
4701,-0.03805391
4702,-0.011348724
4703,-0.105536945
4704,-0.020845069
4705,-0.01444315
4706,0.010753648
4707,-0.03851003
4708,-0.011863565
4709,0.0009854657
4710,0.02569942
4711,-0.0023063663
4712,0.03382846
4713,-0.01748563
4714,0.085434385
4715,-0.008474333
4716,-0.057818767
4717,0.039649356
4718,0.01646033
4719,-0.012839549
4720,0.05772483
4721,-0.020016994
4722,0.020472163
4723,-0.016013883
4724,0.013893273
4725,-0.07104634
4726,0.042405415
4727,0.05635391
4728,0.09091946
4729,0.016821282
4730,-0.022417309
4731,0.00019975343
4732,-0.050272472
4733,-0.034689464
4734,0.050806414
4735,-0.057008307
4736,-0.0034224475
4737,-0.03549217
4738,-0.0217468
4739,-0.056898687
4740,-0.012905261
4741,0.03783684
4742,-0.08977044
4743,0.03785774
4744,-0.004129343
4745,-0.055551574
4746,-0.023552757
4747,-0.053260658
4748,-0.007839423
4749,-0.036804907
4750,-0.029788869
4751,0.0023776386
4752,0.0034127173
4753,-0.016120192
4754,0.012508821
4755,-0.123305246
4756,0.0068089506
4757,0.0012065275
4758,0.032012776
4759,-0.011169326
4760,-0.038811628
4761,0.014864685
4762,0.013961868
4763,0.036378548
4764,-0.030734211
4765,-0.048841506
4766,-0.01518622
4767,0.0844209
4768,-0.014114511
4769,-0.04488883
4770,-0.009879714
4771,-0.037535183
4772,-0.020367624
4773,-0.02038874
4774,-0.034056332
4775,-0.011248976
4776,-0.015552967
4777,0.01981615
4778,-0.030532153
4779,-0.024443232
4780,0.09731024
4781,-0.020785406
4782,0.01689586
4783,-0.07067707
4784,-0.001930821
4785,-0.02871074
4786,0.039562847
4787,-0.037245106
4788,-0.009678695
4789,-0.001173462
4790,-0.008388791
4791,-0.042612698
4792,-0.065472536
4793,-0.0138765555
4794,0.0070749167
4795,0.015081058
4796,-0.028982442
4797,0.058663644
4798,-0.009369105
4799,-0.008422263
4800,0.009509086
4801,0.013490461
4802,-0.004107755
4803,0.009139603
4804,-0.0011389065
4805,-0.015229965
4806,-0.00063774403
4807,-0.04779
4808,-0.065092154
4809,0.0037360657
4810,-0.03658833
4811,0.00021219306
4812,0.0071369056
4813,-0.036372066
4814,-0.008949256
4815,0.023900006
4816,0.04023837
4817,0.08487792
4818,-0.006811315
4819,-0.016378459
4820,-0.015764352
4821,-0.0047943513
4822,-0.0123102665
4823,-0.0010940154
4824,-0.009390873
4825,0.004325738
4826,0.013286062
4827,-0.013067224
4828,0.01583182
4829,-0.005413034
4830,-0.0027218251
4831,-0.052017935
4832,-0.037398595
4833,-0.03679967
4834,-0.012506393
4835,-0.019842075
4836,0.0055657667
4837,0.051405083
4838,-0.015049229
4839,0.0024385625
4840,-0.0034721904
4841,-0.00811989
4842,0.088891536
4843,0.03111875
4844,-0.03705716
4845,-0.011939101
4846,-0.007232909
4847,-0.012877043
4848,-0.0018502616
4849,-0.022129579
4850,-0.07460729
4851,-0.012840066
4852,-0.0180069
4853,-0.026164997
4854,0.016385341
4855,-0.010591493
4856,-0.023091722
4857,-0.13215177
4858,-0.025552787
4859,-0.019583661
4860,-0.042606287
4861,-0.03356786
4862,-0.061839264
4863,-0.069278225
4864,-0.005795085
4865,-0.0070112743
4866,0.044956725
4867,0.005987298
4868,0.012253231
4869,-0.009297245
4870,-0.018908562
4871,-0.040755186
4872,0.013808652
4873,-0.10284802
4874,0.04818054
4875,-0.030662075
4876,-0.014958989
4877,-0.0909947
4878,0.007437529
4879,0.020621097
4880,0.016391741
4881,-0.013298592
4882,-0.020755276
4883,-0.1120489
4884,-0.020831263
4885,0.009215948
4886,-0.07054252
4887,-0.06820924
4888,-0.01322277
4889,0.06015999
4890,-0.010720663
4891,0.08837891
4892,-0.09071858
4893,0.03316152
4894,-0.02718859
4895,-0.06660713
4896,0.0531589
4897,0.019787377
4898,-0.019923463
4899,0.00703751
4900,-0.014477122
4901,-0.03334644
4902,-0.057591677
4903,0.051703442
4904,-0.001835244
4905,-0.104887255
4906,-0.053678893
4907,0.026836073
4908,-0.024911286
4909,0.11041292
4910,-0.062599406
4911,-0.069362305
4912,0.049501244
4913,-0.031993575
4914,0.003385122
4915,-0.08132645
4916,0.014337028
4917,-0.0069218315
4918,0.015121278
4919,-0.019179637
4920,0.045507487
4921,-0.07399232
4922,0.08640761
4923,-0.022602081
4924,0.029857123
4925,-0.033481803
4926,-0.05138264
4927,0.015119422
4928,-0.039159063
4929,-0.029954055
4930,-0.020543572
4931,-0.013926426
4932,-0.0069150547
4933,-0.048021942
4934,0.040592786
4935,0.050426904
4936,-0.04129757
4937,-0.007900835
4938,0.030914143
4939,0.005750313
4940,-0.06393263
4941,0.038310293
4942,0.02003375
4943,-0.001034026
4944,-0.025701059
4945,0.03402594
4946,0.017937928
4947,0.049814314
4948,0.073227145
4949,0.0039582057
4950,0.025619179
4951,-0.0894787
4952,0.05969437
4953,0.008355688
4954,-0.03328525
4955,0.06662466
4956,0.020521825
4957,-0.010475689
4958,0.03009495
4959,0.022224955
4960,0.013489864
4961,0.12929575
4962,-0.07192269
4963,0.0059033874
4964,0.013894501
4965,-0.03777992
4966,0.010803738
4967,0.06457156
4968,0.056234915
4969,-0.0031755622
4970,0.08940469
4971,-0.09661926
4972,0.03582311
4973,0.055451088
4974,-0.02283442
4975,-0.023092985
4976,-0.05721889
4977,0.002584692
4978,-0.047884915
4979,-0.0032343655
4980,-0.015023511
4981,-0.031734392
4982,0.012424826
4983,-0.0028263272
4984,-0.082362294
4985,-0.09884358
4986,0.030005429
4987,0.003902282
4988,-0.060375083
4989,-0.022094572
4990,-0.10741036
4991,-0.011614039
4992,-0.0060675023
4993,-0.03400778
4994,-0.03851248
4995,-0.023432732
4996,0.025171462
4997,0.06981949
4998,-0.08707947
4999,0.116241485
5000,-0.029386315
5001,-0.0172374
5002,-0.033507135
5003,-0.05048007
5004,-0.021234604
5005,0.08902034
5006,-0.057823285
5007,-0.021177294
5008,-0.07477445
5009,-0.057020877
5010,0.0021578248
5011,-0.035002872
5012,-0.05363822
5013,-0.01601155
5014,0.057518363
5015,0.018746803
5016,-0.02932587
5017,0.023931254
5018,0.021863202
5019,-0.11241483
5020,-0.16404107
5021,-0.038029995
5022,0.021878386
5023,0.028386345
5024,-0.06057772
5025,-0.043690607
5026,-0.014758391
5027,0.031603623
5028,0.0066941697
5029,-0.14892001
5030,0.010946364
5031,-0.0018298756
5032,-0.066198476
5033,0.07370302
5034,-0.023399444
5035,-0.0027822438
5036,0.03297294
5037,-0.013577016
5038,0.103686474
5039,-0.015063075
5040,-0.011197615
5041,-0.05892934
5042,-0.02275096
5043,0.045573007
5044,-0.06433754
5045,-0.008783054
5046,-0.016628396
5047,-0.0792746
5048,-0.0072336006
5049,0.049084704
5050,0.0066518676
5051,-0.017555922
5052,-0.03601057
5053,0.09327508
5054,0.021124162
5055,-0.052507345
5056,0.031001354
5057,0.021723859
5058,-0.103081785
5059,-0.036628827
5060,-0.02037379
5061,0.08066642
5062,-0.08667908
5063,0.008131603
5064,-0.079339065
5065,-0.040956132
5066,0.024435688
5067,-0.037654407
5068,0.16504933
5069,-0.034631863
5070,-0.031781737
5071,-0.0073972815
5072,-0.014070584
5073,0.0079847155
5074,-0.031871054
5075,0.02062846
5076,-0.009355796
5077,-0.022423355
5078,-0.045503058
5079,0.006670687
5080,-0.022612913
5081,-0.014106853
5082,-0.042806868
5083,-0.07412115
5084,-0.0032888616
5085,-0.018186638
5086,-0.023449728
5087,-0.0046425452
5088,0.016869666
5089,-0.05377184
5090,0.021261804
5091,0.018055532
5092,-0.052273177
5093,-0.04945107
5094,0.0064301877
5095,-0.010263515
5096,0.0001194512
5097,0.010675415
5098,-0.11148737
5099,0.041223515
5100,-0.033991605
5101,-0.07751436
5102,-0.05733814
5103,-0.023592083
5104,-0.0013936168
5105,-0.03447029
5106,-0.09014903
5107,-0.014591833
5108,-0.038943317
5109,0.039735876
5110,-0.05355386
5111,0.01574113
5112,0.04505598
5113,-0.13902393
5114,-0.03559953
5115,-0.0117209405
5116,0.022817036
5117,-0.049868878
5118,-0.02937781
5119,-0.07756949
5120,-0.013872023
5121,-0.046528436
5122,-0.020695098
5123,0.11995689
5124,-0.08239671
5125,0.101162806
5126,-0.08846793
5127,0.010651648
5128,-0.04029708
5129,-0.06766123
5130,-0.0074728215
5131,-0.07195791
5132,-0.03920015
5133,0.08965834
5134,0.026546367
5135,0.03632923
5136,0.013350318
5137,-0.044717867
5138,-0.004777351
5139,-0.07147981
5140,-0.013986208
5141,-0.014489691
5142,0.058362108
5143,-0.0022716653
5144,-0.06960024
5145,0.05298763
5146,0.1234237
5147,-0.02043107
5148,0.025015445
5149,0.023039613
5150,-0.071169786
5151,0.14276923
5152,-0.02624773
5153,-0.052723866
5154,-0.015043322
5155,-0.032463286
5156,-0.023996657
5157,0.004092018
5158,-0.030002102
5159,0.053752974
5160,-0.0040306943
5161,0.10688039
5162,-0.054816905
5163,-0.010980728
5164,0.07724945
5165,0.01708766
5166,0.026236389
5167,-0.055966653
5168,0.03711932
5169,-0.01910786
5170,-0.04581098
5171,-0.014645784
5172,-0.021021912
5173,-0.0038147834
5174,0.01667575
5175,-0.07822869
5176,-0.035780825
5177,0.0034962222
5178,-0.0523881
5179,-0.019788744
5180,-0.04720595
5181,0.0049678283
5182,0.011378907
5183,-0.086046875
5184,-0.0018986961
5185,-0.0069631417
5186,-0.09781653
5187,-0.040757854
5188,-0.024646915
5189,0.028507054
5190,0.029499298
5191,0.03952132
5192,-0.09654192
5193,-0.1836159
5194,-0.038205914
5195,-0.019410482
5196,-0.022489086
5197,-0.04021105
5198,0.0034665612
5199,-0.050650332
5200,-0.10594323
5201,-0.0026351162
5202,0.0057483925
5203,0.014404099
5204,0.03890402
5205,0.033537697
5206,-0.054172736
5207,-0.009244056
5208,-0.014066311
5209,-0.012536842
5210,0.008783584
5211,-0.0059080133
5212,0.044636752
5213,-0.020584604
5214,-0.0046062698
5215,-0.043940354
5216,-0.050150983
5217,0.040906265
5218,-0.029640678
5219,0.010710315
5220,0.027711121
5221,0.10028408
5222,-0.0073917126
5223,0.028611539
5224,0.09750804
5225,0.0060588196
5226,0.1557516
5227,0.059211005
5228,-0.057073634
5229,0.0116839735
5230,-0.00077646435
5231,-0.002848736
5232,-0.05486017
5233,-0.021478413
5234,-0.12874866
5235,0.00312129
5236,-0.004411071
5237,-0.031553466
5238,-0.006973229
5239,0.08292561
5240,0.07571405
5241,-0.10080092
5242,-0.05765738
5243,0.0005619341
5244,-0.0037982825
5245,-0.030482637
5246,-0.092019215
5247,-0.061632507
5248,0.018414171
5249,-0.01949586
5250,0.015546976
5251,0.14034444
5252,0.0313048
5253,0.108438954
5254,-0.013816232
5255,0.08538708
5256,-0.019623358
5257,-0.05207063
5258,-0.007401424
5259,0.020061586
5260,0.013966555
5261,0.12223159
5262,0.00973977
5263,-0.12884693
5264,-0.13315564
5265,0.10792627
5266,-0.0156715
5267,-0.035745952
5268,-0.0075589023
5269,0.022225842
5270,0.08717786
5271,0.002576958
5272,-0.10842462
5273,-0.07063736
5274,-0.017194798
5275,-0.18437073
5276,-0.18275692
5277,-0.109826095
5278,-0.03911355
5279,0.0071828
5280,0.0024096488
5281,0.0028480114
5282,0.0025066065
5283,-0.005000303
5284,0.0030325903
5285,-0.13125512
5286,-0.008683062
5287,-0.06316953
5288,-0.0017640701
5289,0.026171835
5290,-0.048245817
5291,-0.043836165
5292,0.08261675
5293,-0.11968603
5294,0.07897618
5295,-0.027280679
5296,-0.041361287
5297,-0.012436093
5298,0.019229341
5299,-0.01769279
5300,-0.10375403
5301,0.0037736308
5302,-0.009748392
5303,-0.0030796002
5304,0.024535745
5305,0.019051295
5306,0.045045808
5307,-0.0020644045
5308,-0.006898563
5309,0.041494712
5310,0.0058964067
5311,0.012533837
5312,-0.013308214
5313,-0.0066246935
5314,-0.028478345
5315,-0.009350942
5316,0.034097813
5317,-0.109976366
5318,-0.037422176
5319,-0.12831236
5320,-0.07476762
5321,-0.076421924
5322,-0.0004124159
5323,0.0038898375
5324,0.1124431
5325,-0.014995381
5326,-0.0062226104
5327,0.010999671
5328,-0.049655914
5329,-0.05985449
5330,0.017105684
5331,-0.07125563
5332,-0.11647451
5333,-0.033207446
5334,0.016631963
5335,0.011849658
5336,0.0069565056
5337,0.0024617047
5338,-0.015277307
5339,0.009522737
5340,0.01367142
5341,-0.004869585
5342,-0.03632919
5343,0.02478217
5344,-0.029732218
5345,-0.12713853
5346,-0.0097718
5347,0.004305459
5348,0.06715999
5349,-0.14437258
5350,0.0011438779
5351,-0.0010562156
5352,-0.03595187
5353,-0.0020094034
5354,-0.040379275
5355,0.060591325
5356,0.013823362
5357,-0.123543896
5358,0.0010842516
5359,-0.034526754
5360,-0.07982301
5361,-0.0032464478
5362,-0.012518228
5363,-0.013766548
5364,-0.022351462
5365,-0.018647641
5366,0.034479856
5367,-0.08944272
5368,-0.085681096
5369,-0.04629457
5370,-0.03218028
5371,-0.0038419524
5372,0.013415717
5373,0.0139762685
5374,-0.045528527
5375,0.0058823703
5376,0.01391546
5377,-0.05242568
5378,0.004969983
5379,-0.015377907
5380,0.013585157
5381,0.005082303
5382,-0.025990209
5383,0.028721454
5384,-0.0030192279
5385,0.0031420924
5386,-0.0043362393
5387,-0.020064715
5388,-0.033698294
5389,-0.06285056
5390,-0.0007837073
5391,0.002518969
5392,-0.022150625
5393,0.014775675
5394,-0.01341047
5395,-0.054376
5396,-0.011946857
5397,-0.023460433
5398,-0.026218887
5399,-0.0056253453
5400,0.04497122
5401,0.04463592
5402,-0.0007436766
5403,-0.07750595
5404,0.025060346
5405,-0.010999211
5406,0.04679584
5407,-0.07859887
5408,-0.005545313
5409,-0.019816432
5410,-0.033176497
5411,-0.004128019
5412,-0.015066173
5413,-0.06768107
5414,-0.02051294
5415,-0.05107891
5416,-0.08035607
5417,-0.07379989
5418,0.0022582526
5419,0.019996839
5420,-0.043579243
5421,0.011764923
5422,-0.0011502503
5423,0.006124115
5424,0.007736124
5425,0.021007814
5426,0.00077094464
5427,-0.0049646
5428,-0.019285932
5429,0.006976785
5430,0.010377211
5431,-0.015629837
5432,-0.0024941296
5433,-0.017161535
5434,-0.068889484
5435,-0.014066455
5436,0.008957504
5437,-0.0065790643
5438,0.0010329412
5439,0.011205938
5440,0.021141104
5441,-0.0041924887
5442,0.032448962
5443,-0.040448833
5444,-0.021835739
5445,-0.005269405
5446,0.023515286
5447,0.040264916
5448,-0.056612376
5449,-0.023162344
5450,0.029268509
5451,-0.06287994
5452,0.024795739
5453,0.0032976912
5454,-0.0042223707
5455,0.009780675
5456,0.037605178
5457,-0.01660381
5458,0.010448717
5459,0.018804675
5460,0.0465634
5461,0.051218353
5462,0.009565194
5463,-0.014711266
5464,0.00091696833
5465,0.0040046605
5466,0.025030961
5467,0.020511234
5468,-0.034723006
5469,-0.0052056746
5470,-0.012637704
5471,0.0041819126
5472,0.004644559
5473,0.01018239
5474,-0.069342814
5475,-0.005504521
5476,0.039575517
5477,-0.080803476
5478,0.03180547
5479,-0.009173881
5480,-0.039707202
5481,0.0066640815
5482,-0.066917755
5483,-0.03656397
5484,0.033106703
5485,0.013718775
5486,-0.032390535
5487,-0.030473381
5488,-0.005778321
5489,0.021058867
5490,-0.021364238
5491,-0.014501653
5492,-0.029419014
5493,-0.013410137
5494,0.022229206
5495,-0.07568282
5496,-0.04355213
5497,-0.040227454
5498,0.020472042
5499,-0.0023675608
5500,-0.008337389
5501,-0.024994502
5502,0.015797976
5503,-0.032900255
5504,0.037853494
5505,-0.015420034
5506,-0.014498982
5507,-0.08686253
5508,0.0270436
5509,0.003477726
5510,0.002335365
5511,0.028541878
5512,-0.041912887
5513,-0.047362324
5514,-0.006581713
5515,-0.028109629
5516,-0.05169354
5517,-0.007740199
5518,-0.010049705
5519,-0.008808656
5520,0.049174316
5521,0.00017032835
5522,0.0042918627
5523,-0.100968435
5524,-0.01851121
5525,-0.010111229
5526,-0.01603922
5527,-0.035743814
5528,-0.026658988
5529,0.02364918
5530,-0.010487134
5531,0.008594954
5532,-0.10684557
5533,-0.01910732
5534,-0.023226859
5535,-0.011174183
5536,-0.015469457
5537,-0.03164254
5538,-0.006153638
5539,-0.038973205
5540,-0.0125478245
5541,0.09500337
5542,0.03670005
5543,0.04408968
5544,-0.028291915
5545,-0.018116323
5546,-0.12869294
5547,0.005661148
5548,0.062046915
5549,-0.11672836
5550,-0.023849603
5551,-0.041214164
5552,-0.038899485
5553,0.0032150622
5554,-0.03266732
5555,-0.05265626
5556,-0.030392822
5557,0.00012288915
5558,-0.038124952
5559,0.006324385
5560,-0.07365161
5561,0.0062497025
5562,-0.03633909
5563,-0.04123294
5564,-0.019165574
5565,-0.011779194
5566,-0.030842798
5567,-0.058257494
5568,-0.08094738
5569,-0.06042111
5570,-0.041988257
5571,-0.021484243
5572,-0.019216562
5573,-0.05365532
5574,0.0635861
5575,-0.13196789
5576,-0.100421585
5577,-0.04142213
5578,-0.12574221
5579,-0.058745343
5580,0.00463138
5581,-0.014462434
5582,-0.0194125
5583,0.026492087
5584,-0.022376359
5585,0.090101
5586,-0.027380489
5587,-0.02839986
5588,-0.066187255
5589,-0.061340913
5590,-0.070488356
5591,-0.0092515275
5592,-0.015171618
5593,-0.017764961
5594,-0.0051138103
5595,0.014661927
5596,0.033639908
5597,-0.027747152
5598,0.04063523
5599,-0.074698694
5600,-0.026158366
5601,-0.1069345
5602,0.022251345
5603,0.0070661604
5604,0.008872094
5605,0.08558341
5606,-0.008324392
5607,-0.01598803
5608,0.029247617
5609,0.018488945
5610,0.06589058
5611,0.013709031
5612,-0.087221116
5613,0.077242576
5614,-0.012984387
5615,-0.031283848
5616,-0.03017505
5617,-0.027930208
5618,-0.15078633
5619,-0.014643322
5620,0.00502353
5621,-0.027090227
5622,0.026271043
5623,-0.045723636
5624,-0.015903255
5625,-0.13891812
5626,0.02381633
5627,0.008194796
5628,-0.04969952
5629,-0.034539543
5630,-0.05328089
5631,0.02601873
5632,-0.011563623
5633,0.045019317
5634,-0.012296295
5635,-0.026706906
5636,-0.0627338
5637,0.026159944
5638,0.0011525289
5639,0.113238856
5640,0.027172815
5641,-0.0016722296
5642,0.019604271
5643,0.012855693
5644,0.02570469
5645,0.027473524
5646,0.00843812
5647,0.014911659
5648,0.012095566
5649,0.008453008
5650,-0.013952165
5651,0.007221862
5652,0.02258044
5653,-0.0076152203
5654,0.1247285
5655,0.022902593
5656,-0.12880385
5657,-0.025845602
5658,0.04777259
5659,-0.066810295
5660,-0.112479776
5661,0.0010519587
5662,0.04442786
5663,0.09217362
5664,0.03390524
5665,0.020378144
5666,-0.021154067
5667,0.04466219
5668,0.04252421
5669,0.0015325318
5670,0.0007893669
5671,-0.015873738
5672,-0.0057944395
5673,0.006332156
5674,-0.037592154
5675,-0.01988646
5676,0.1810751
5677,-0.069715835
5678,0.11616514
5679,0.019358601
5680,-0.03917082
5681,0.009555678
5682,-0.011749081
5683,0.045367025
5684,-0.033624414
5685,-0.01571905
5686,-0.04700309
5687,-0.021192702
5688,0.017605439
5689,0.02154417
5690,-0.04735136
5691,0.02375185
5692,0.00899142
5693,0.14753334
5694,0.04480307
5695,0.008082426
5696,0.059305444
5697,0.046400983
5698,-0.027680416
5699,0.011676725
5700,0.027965773
5701,0.0060399007
5702,0.087768674
5703,-0.0983087
5704,-0.015040688
5705,0.045473333
5706,-0.009700662
5707,0.034000807
5708,0.07650314
5709,0.003954917
5710,0.017042745
5711,0.027217602
5712,-0.013059981
5713,-0.07445095
5714,0.0047353334
5715,-0.08020423
5716,-0.102417484
5717,-0.013610806
5718,0.040548522
5719,0.027727619
5720,0.056775723
5721,-0.017613074
5722,-0.21879916
5723,0.044768672
5724,-0.036447395
5725,-0.0041218954
5726,-0.14534582
5727,0.029241731
5728,-0.13880691
5729,-0.075321175
5730,0.00406287
5731,0.048033018
5732,0.007359629
5733,-0.01891516
5734,-0.021226749
5735,-0.08590188
5736,-0.019336943
5737,0.0033035188
5738,-0.009610459
5739,0.0678342
5740,0.0174614
5741,0.06302661
5742,-0.04339834
5743,0.0485978
5744,0.013350821
5745,0.012103897
5746,-0.019783458
5747,-0.021447238
5748,0.022355493
5749,0.03402694
5750,-0.008332888
5751,-0.04666654
5752,-0.00061708165
5753,-0.015487816
5754,-0.024158496
5755,-0.003304
5756,0.0688986
5757,0.026089614
5758,0.017563952
5759,-0.013700111
5760,0.013352159
5761,-0.023832226
5762,-0.023598334
5763,-0.0054440107
5764,-0.014604581
5765,0.13204046
5766,-0.04132603
5767,0.12255504
5768,-0.030102132
5769,-0.03949676
5770,-0.021486044
5771,-0.009031618
5772,-0.009985743
5773,0.08414036
5774,-0.028570088
5775,-0.07720787
5776,-0.08723747
5777,-0.015064528
5778,0.0024522934
5779,-0.09326662
5780,-0.007888417
5781,-0.024842642
5782,0.08352726
5783,0.0021949764
5784,-0.22444977
5785,-0.013806861
5786,0.09707146
5787,-0.027698863
5788,-0.05437682
5789,-0.04892328
5790,-0.0039952593
5791,0.057505194
5792,-0.06325461
5793,-0.017484358
5794,-0.018537149
5795,-0.011696592
5796,0.040707402
5797,-0.050808437
5798,-0.021382017
5799,-0.06309541
5800,-0.077354096
5801,0.08004551
5802,-0.12470973
5803,-0.028302222
5804,0.073864974
5805,-0.051797304
5806,0.09113771
5807,-0.047875803
5808,-0.05121677
5809,-0.016550679
5810,0.015573141
5811,-0.0052955295
5812,-0.02152552
5813,0.0063657816
5814,-0.051323697
5815,-0.032438368
5816,-0.015762351
5817,-0.0040489156
5818,0.0463586
5819,-0.0018790056
5820,-0.039040707
5821,0.061643947
5822,0.015375642
5823,-0.036879268
5824,0.029627996
