Sno,Weight
0,-0.0043091583
1,-0.04614374
2,-0.009700557
3,0.0010906258
4,0.020020097
5,0.01203153
6,0.012575509
7,0.013007482
8,-0.033199817
9,-0.014336272
10,-0.016218731
11,-0.01706339
12,0.04521832
13,0.0031224184
14,0.024001945
15,-0.010182962
16,0.0037648776
17,0.027211472
18,-0.05650402
19,0.035793744
20,0.03547859
21,0.0034743075
22,-0.038627815
23,-0.014671871
24,0.015225854
25,-0.06709106
26,-0.023357006
27,-0.07587833
28,0.018107468
29,-0.006655918
30,-0.03973759
31,0.04870192
32,0.024628514
33,0.029058784
34,0.013760325
35,-0.0020590865
36,-0.06039748
37,-0.025221892
38,-0.052807167
39,0.051253084
40,-0.046696126
41,-0.0007280483
42,0.01718878
43,-0.0037215278
44,-0.0076031364
45,0.046922963
46,-0.038279478
47,0.022392213
48,-0.035944402
49,-0.042192794
50,0.015199374
51,0.00069183146
52,0.013305843
53,-0.00022531673
54,-0.03301979
55,-0.031140354
56,-0.011342034
57,-0.061134487
58,0.02548895
59,-0.0627468
60,0.01479611
61,-0.030946301
62,-0.015671741
63,-0.02725861
64,0.016112227
65,-0.022623263
66,0.0038288606
67,0.026109554
68,-0.01350958
69,0.005701628
70,-0.017789647
71,0.023666298
72,0.0029939536
73,0.00606543
74,-0.04053664
75,0.016062533
76,-0.08161656
77,-0.04957358
78,0.009106555
79,-0.024731189
80,-0.06823818
81,0.026242722
82,0.004198091
83,-0.009139853
84,-0.018113662
85,-0.041266207
86,-0.05023531
87,-0.042032562
88,0.019774387
89,-0.03161201
90,0.0029051437
91,-0.026228553
92,-0.065542236
93,0.025060957
94,0.018599426
95,-0.017968172
96,0.08933078
97,0.03571186
98,-0.06267529
99,0.032252565
100,0.0058631278
101,0.0203459
102,0.011777725
103,-0.00094717817
104,-0.052633274
105,0.057164155
106,-0.031430513
107,-0.12481711
108,-0.043187756
109,-0.024875723
110,0.019089451
111,-0.07696592
112,0.01744229
113,-0.04472902
114,0.005123833
115,-0.044712853
116,0.056616947
117,-0.031092566
118,-0.011694693
119,0.053271003
120,-0.008768374
121,0.014946612
122,-0.0057756943
123,-0.033441365
124,0.008206157
125,0.0048758034
126,0.023473745
127,-0.11674691
128,-0.0032053986
129,-0.044267368
130,0.008531648
131,0.0066797556
132,0.0003470939
133,-0.04112817
134,0.0012055313
135,0.009646017
136,-0.006857548
137,-0.0343265
138,0.046392504
139,-0.050760232
140,-0.10031589
141,-0.047098186
142,-0.046609428
143,0.0034097736
144,-0.05267268
145,-0.014135345
146,-0.0011953647
147,-0.024637436
148,-0.050968766
149,-0.036795348
150,0.025168413
151,0.017022895
152,0.018168129
153,0.015460495
154,0.04760326
155,0.023409743
156,-0.049020935
157,0.0044737477
158,-0.042289644
159,0.022930771
160,-0.0016959839
161,0.02270266
162,0.05043948
163,0.04659024
164,-0.043958034
165,0.016261742
166,-0.026795607
167,-0.05609988
168,0.0009533897
169,0.050111335
170,-0.0009710997
171,0.0056647593
172,0.033974
173,0.016754936
174,0.018898997
175,-0.010255904
176,-0.03464928
177,0.026474914
178,-0.004066832
179,0.03714235
180,-0.007345439
181,0.005255671
182,-0.007830197
183,0.029653845
184,-0.027648322
185,0.027596943
186,0.05350993
187,0.0008342133
188,-0.009904714
189,-0.050425056
190,-0.04478956
191,-0.041919883
192,-0.021608638
193,0.019333204
194,-0.03605375
195,0.067398615
196,-0.011344603
197,0.007549379
198,0.031135984
199,0.0424549
200,-0.026865061
201,0.06359276
202,-0.027883464
203,-0.04489031
204,-0.027404483
205,-0.06910979
206,-0.02763948
207,-0.020552283
208,-0.03711073
209,-0.004763066
210,-0.012375819
211,0.010569842
212,-0.05937781
213,-0.05332052
214,-0.077710494
215,0.043163203
216,-0.0410359
217,-0.054918528
218,0.032212142
219,0.13185775
220,0.0279035
221,0.038919915
222,0.014140253
223,-0.0028901275
224,0.012299304
225,0.013724056
226,-0.032509685
227,0.018566215
228,0.02926055
229,-0.0494994
230,-0.035445593
231,-0.03997891
232,-0.03482895
233,0.046920612
234,0.027496202
235,-0.05624792
236,0.02226199
237,-0.038128577
238,0.007995348
239,0.0058173076
240,0.048350215
241,0.03338478
242,0.021924932
243,-0.06846665
244,-0.033431392
245,-0.02929044
246,-0.017090794
247,-0.045451317
248,0.014010446
249,-0.04624061
250,0.0021513607
251,-0.0069842204
252,-0.10506273
253,-0.07678066
254,0.032940343
255,0.058581423
256,0.021029256
257,-0.03341596
258,-0.014574643
259,-0.092795216
260,-0.004821104
261,0.032506626
262,0.03519455
263,0.044385977
264,0.0008045845
265,0.043045893
266,-0.061974365
267,0.008733053
268,-0.03852102
269,0.03360407
270,0.03774854
271,-0.06288405
272,0.038607586
273,0.059458118
274,-0.023761546
275,0.03416205
276,0.024759345
277,0.02154711
278,0.04513142
279,0.00945218
280,-0.06885619
281,-0.038728636
282,-0.05806889
283,0.057389002
284,0.01075996
285,0.10094001
286,0.027897308
287,0.021240417
288,0.034670133
289,0.04658955
290,0.042843014
291,0.0071414066
292,0.0332028
293,0.03171964
294,0.027415834
295,0.0075112055
296,0.03364986
297,-0.032216836
298,0.0058238353
299,0.052958217
300,0.057719138
301,0.017230395
302,-0.005937663
303,0.05012288
304,-0.012449339
305,0.026742885
306,0.024836496
307,-0.07988883
308,0.030950148
309,-0.015765656
310,0.029668553
311,0.03978145
312,0.014850744
313,0.0591399
314,0.03679222
315,0.006834051
316,0.04312142
317,-0.05416083
318,0.048244093
319,0.040811453
320,-0.02526612
321,0.04361301
322,0.03498607
323,0.01830143
324,0.013657361
325,0.0309922
326,0.04605903
327,0.0057094367
328,0.037483
329,0.004296167
330,-0.075222254
331,0.023449821
332,0.07507188
333,-0.049716875
334,0.023629075
335,0.049183764
336,-0.010734933
337,0.022658857
338,0.051380727
339,0.028118934
340,0.043574672
341,0.018988244
342,-0.050315615
343,0.018273162
344,0.033673286
345,0.009833857
346,0.035039157
347,-0.050654482
348,-0.067556754
349,-0.0007565048
350,0.036266442
351,-0.06651467
352,0.0018796131
353,-0.036997244
354,-0.0631647
355,-0.07998109
356,0.027643992
357,0.015212055
358,0.05392489
359,0.03965404
360,-0.052763388
361,-0.0677763
362,0.043540232
363,0.050129622
364,-0.042970005
365,0.008294922
366,0.012718454
367,0.03396885
368,0.028844189
369,0.06443045
370,0.033454232
371,0.031973958
372,-0.05493301
373,0.039045185
374,0.037220553
375,0.012677463
376,0.026881365
377,0.01478126
378,0.047097266
379,0.01598781
380,0.012939327
381,0.028047143
382,0.01766828
383,0.087842524
384,0.012503121
385,-0.0011761611
386,-0.0027060937
387,0.034820955
388,-0.06389276
389,-0.040835984
390,0.067305475
391,0.047963552
392,-0.066115715
393,0.051461212
394,0.034909297
395,0.022866063
396,0.08383531
397,-0.0469201
398,0.011229925
399,0.027046496
400,-0.07601785
401,0.047395214
402,0.04298736
403,0.029047769
404,-0.050778575
405,0.042038944
406,0.038594097
407,-0.09008796
408,0.036668144
409,0.033600073
410,-0.07551619
411,-0.060447086
412,0.06511486
413,0.015199772
414,0.02512235
415,0.047448955
416,0.02034042
417,-0.0857272
418,-0.0020551486
419,-0.026250843
420,0.025964675
421,0.044993814
422,0.03199731
423,0.015047117
424,0.035721954
425,-0.06768037
426,-0.053434405
427,0.05664179
428,-0.07386104
429,0.0041067954
430,0.033152383
431,-0.06626245
432,-0.034770682
433,0.045626394
434,-0.0042141876
435,-0.100514196
436,-0.012167975
437,0.035019696
438,-0.003717621
439,0.04945566
440,-0.07780805
441,0.016995385
442,0.05118366
443,-0.01045243
444,0.022583857
445,0.052672382
446,-0.04693016
447,0.022756517
448,0.053960517
449,0.035000436
450,0.0050700465
451,-0.08303344
452,0.040587973
453,0.03275556
454,0.04582422
455,-0.070053905
456,0.031995468
457,-0.058969077
458,0.021915296
459,-0.048101828
460,-0.012562606
461,-0.04615869
462,-0.040363584
463,0.038400702
464,0.030556636
465,0.013640194
466,-0.004676657
467,0.037410986
468,-0.055118218
469,0.038109787
470,0.060160577
471,0.034920536
472,0.017879892
473,-0.009857101
474,-0.09403275
475,0.022545794
476,0.0314679
477,0.015084074
478,-0.051501647
479,0.037238754
480,0.010913323
481,0.025909223
482,0.011459557
483,0.04798392
484,-0.06760854
485,0.015048139
486,0.05794057
487,0.015260613
488,0.03005206
489,0.013819376
490,0.037265524
491,0.022398718
492,0.030893227
493,0.060458906
494,0.020928267
495,-0.020778105
496,-0.06969007
497,0.01798084
498,0.054102387
499,-0.06855079
500,0.04421402
501,0.030545628
502,0.033303984
503,0.03904981
504,0.010416594
505,0.053825714
506,0.0121161975
507,0.04775972
508,0.06986381
509,0.039062407
510,0.009005461
511,-0.054671567
512,0.03276553
513,-0.0068016024
514,-0.0059240153
515,-0.06841889
516,0.0032269529
517,0.023514288
518,-0.07417501
519,-0.032540336
520,0.018023156
521,0.028230727
522,0.055975433
523,0.03347403
524,0.020026475
525,0.023587406
526,-0.052210975
527,-0.06319219
528,0.017083662
529,-0.056115422
530,-0.020084834
531,0.043492716
532,0.024829973
533,0.021576334
534,-0.03674488
535,0.044277452
536,0.06536245
537,0.04580031
538,0.055530652
539,-0.0354229
540,0.016848508
541,-0.019460827
542,0.023997169
543,0.0075416747
544,0.029867567
545,0.02309275
546,0.0012577586
547,0.017586274
548,-0.0017871134
549,-0.04926726
550,0.025088081
551,0.0071060164
552,0.056302644
553,0.052191883
554,0.0363339
555,-0.025877466
556,-0.06766558
557,0.019695653
558,0.019625181
559,0.0404988
560,0.05465655
561,0.026062215
562,-0.025251677
563,-0.07963879
564,0.012480734
565,-0.01651159
566,-0.034653906
567,0.009404009
568,0.030405434
569,-0.06110653
570,0.023446525
571,0.040097523
572,-0.048276287
573,-0.03535053
574,0.031206476
575,-0.058304507
576,0.0016732629
577,0.044086415
578,0.022084564
579,0.030766688
580,0.04906921
581,0.01509395
582,-0.044991408
583,0.006217698
584,0.053749464
585,0.021900678
586,-0.06606616
587,-0.04555955
588,-0.00957025
589,0.01874122
590,0.025533928
591,-0.048164446
592,0.044632472
593,-0.029555809
594,0.010409937
595,0.031890217
596,-0.08182905
597,0.048052885
598,0.033504415
599,0.035586324
600,-0.05002998
601,0.015138564
602,0.034037426
603,-0.07774245
604,0.048165023
605,0.031552248
606,-0.050764482
607,-0.06665123
608,0.0054513896
609,0.031583097
610,-0.06310237
611,0.070549086
612,0.05563223
613,0.04545758
614,-0.081019774
615,0.031225936
616,0.05628874
617,-0.029884731
618,0.0394181
619,-0.04285332
620,0.0012753606
621,0.011278446
622,0.00934969
623,0.05137544
624,-0.041195143
625,-0.009810308
626,0.02299922
627,0.024654215
628,0.028736228
629,0.04531759
630,-0.05994665
631,0.031227866
632,-0.056326926
633,0.036187537
634,-0.04345959
635,0.046508167
636,0.016037459
637,0.0527634
638,0.042684052
639,-0.020978156
640,-0.028767036
641,0.03744007
642,0.020249614
643,0.037551746
644,0.053521983
645,-0.040856645
646,-0.061661027
647,-0.053416513
648,0.060286433
649,-0.034567896
650,0.05387606
651,0.037168458
652,0.024480827
653,0.04245064
654,-0.001965385
655,0.021484764
656,-0.075885735
657,0.053236935
658,0.037626196
659,0.038237493
660,0.033880904
661,-0.053335667
662,-0.04311477
663,-0.077782564
664,-0.021007927
665,0.02267896
666,-0.07556349
667,-0.08091908
668,-0.010656861
669,-0.001139221
670,0.014274959
671,-0.020724954
672,0.009545391
673,-0.08603484
674,0.017005367
675,0.026794242
676,0.02753535
677,-0.05607564
678,0.039552484
679,0.052614734
680,-0.006652757
681,-0.06786588
682,0.050766464
683,0.0124232685
684,0.07071884
685,0.020953488
686,0.049048144
687,0.060235865
688,0.009611666
689,0.052503634
690,-0.0044305567
691,-0.092817925
692,0.015838303
693,0.02990708
694,0.032653365
695,-0.058181018
696,-0.0772155
697,0.034683317
698,-0.018672071
699,-0.009160679
700,0.025510717
701,-0.03618112
702,0.008140707
703,-0.015490093
704,-0.06867488
705,0.018446967
706,0.04226114
707,-0.08306865
708,-0.04964234
709,0.031532183
710,0.028541027
711,-0.070054546
712,0.042979952
713,0.03218209
714,0.028462525
715,0.05359637
716,0.04117444
717,-0.031484414
718,-0.040757045
719,0.029705213
720,0.037513223
721,0.009561645
722,0.010757386
723,0.04407113
724,-0.046102118
725,-0.0128922025
726,-0.044546116
727,0.043671902
728,0.03476445
729,0.0092042135
730,0.051594034
731,-0.06259593
732,0.014212286
733,0.0058788103
734,0.02061287
735,0.025570985
736,0.017392546
737,0.036058083
738,0.03454934
739,-0.06405581
740,0.05766272
741,0.046918564
742,-0.021745523
743,0.018976023
744,0.04322827
745,0.012375181
746,0.009673677
747,0.04538591
748,0.008570272
749,-0.03839572
750,0.03336923
751,0.046172645
752,0.029278038
753,-0.020477438
754,0.046444807
755,0.04017619
756,0.026043104
757,-0.024970727
758,0.03867092
759,0.01517249
760,0.025160039
761,0.020048667
762,0.0138850175
763,0.016973821
764,-0.065410174
765,0.029500999
766,0.016808525
767,-0.06207766
768,-0.0375774
769,0.017646678
770,-0.0036646344
771,-0.039337143
772,0.008951313
773,-0.049604885
774,0.013068123
775,-0.011010974
776,0.036648527
777,0.023409508
778,-0.061954644
779,0.03364988
780,-0.020912828
781,0.006220108
782,-0.02905312
783,0.06330074
784,0.0112549
785,-0.05603032
786,0.020317674
787,0.028825734
788,-0.053567782
789,0.012059657
790,0.03361283
791,0.03771232
792,0.057788186
793,0.035279058
794,0.048652954
795,0.03809293
796,0.021936545
797,0.00800961
798,0.019177586
799,-0.04465556
800,-0.030959938
801,0.0132393325
802,-0.029364455
803,-0.011762087
804,-0.003845259
805,0.038819987
806,0.04668793
807,0.02165132
808,-0.030194834
809,0.04296432
810,-0.03139259
811,0.011149404
812,-0.06787021
813,0.027591992
814,0.047880933
815,0.025567103
816,0.05366301
817,0.0051724184
818,0.025636049
819,0.057577007
820,-0.03233414
821,0.002965679
822,0.030398779
823,0.021433832
824,-0.025913019
825,-0.061015382
826,-0.051539276
827,0.06988403
828,0.041440114
829,-0.052342568
830,-0.04130907
831,0.040273167
832,-0.031349793
833,-0.062341493
834,0.03888468
835,0.0002560066
836,-0.010584034
837,-0.0023051696
838,0.036734805
839,-0.034675587
840,-0.044245638
841,-0.03200139
842,0.054284465
843,0.026598789
844,-0.0913409
845,0.048634265
846,-0.003678374
847,0.019763278
848,0.041718714
849,-0.0064171925
850,0.018121583
851,-0.032878708
852,0.020144906
853,-0.030308245
854,0.032550212
855,-0.0027442747
856,0.03380529
857,0.0019843967
858,-0.04681329
859,-0.07760908
860,0.019884909
861,0.026524665
862,0.042119134
863,-0.066901304
864,-0.060172834
865,0.039754663
866,0.059452564
867,-0.079796456
868,0.029525667
869,0.037326805
870,-0.06363241
871,0.014125553
872,-0.020854264
873,-0.067712896
874,0.04065783
875,-0.12494745
876,0.008840701
877,0.031661622
878,-0.004583318
879,-0.06505503
880,0.028761482
881,0.0044250144
882,-0.034482814
883,-0.04750066
884,0.054306824
885,0.011220863
886,0.020412728
887,0.03082406
888,0.04843929
889,0.016309526
890,0.023750395
891,-0.0008156799
892,0.054401577
893,0.02477181
894,-0.023037491
895,0.0052141612
896,-0.023713546
897,0.023115182
898,-0.02428431
899,-0.04155377
900,-0.06385283
901,0.0077634887
902,-0.061892074
903,0.029482251
904,-0.066096626
905,0.031165976
906,-0.0460874
907,0.038213752
908,-0.100334406
909,0.017459808
910,0.026494639
911,0.043272905
912,-0.076001994
913,0.0013845528
914,0.010651673
915,0.019316154
916,0.046852577
917,0.046987657
918,-0.00038908556
919,0.032083403
920,0.01621741
921,-0.0483798
922,0.013080449
923,-0.08351024
924,0.021229222
925,0.0023904769
926,0.017044948
927,-0.018176237
928,0.023209013
929,0.069095835
930,0.0323144
931,0.052114595
932,-0.04392525
933,0.03942305
934,-0.004376592
935,0.03330885
936,-0.002926384
937,-0.067598104
938,0.050929926
939,-0.019655058
940,-0.078318655
941,0.033385154
942,0.042321477
943,-0.066352375
944,0.050678667
945,0.029382687
946,-0.0044744126
947,0.059476364
948,0.044807605
949,-0.031257555
950,0.03347827
951,-0.057984665
952,0.038879804
953,0.022899376
954,-0.019227158
955,-0.012472579
956,0.02653979
957,0.024409547
958,0.039399084
959,-0.03332788
960,-0.06934064
961,0.034873776
962,0.02206412
963,-0.083172455
964,0.044061873
965,0.0030076706
966,0.007401816
967,-0.07021296
968,0.013645903
969,0.044399526
970,-0.054930113
971,-0.048337366
972,0.006815014
973,-0.06949895
974,0.039353196
975,-0.060618382
976,0.022665074
977,-0.030965887
978,0.0002979152
979,-0.012967004
980,0.014005893
981,0.02259434
982,-0.040178146
983,-0.05339516
984,0.027288701
985,0.03323904
986,0.042005647
987,-0.06285161
988,-0.0103698885
989,0.014698585
990,0.046632428
991,-0.010779768
992,0.022465216
993,0.013166513
994,0.007500906
995,-0.06408018
996,-0.06788025
997,0.021091312
998,-0.011002223
999,0.018184748
1000,-0.04542075
1001,-0.0328499
1002,-0.00820336
1003,0.036858823
1004,0.013899989
1005,-0.025555028
1006,0.0149475625
1007,0.022747455
1008,-0.069706686
1009,-0.014986153
1010,0.034585595
1011,0.035073075
1012,0.00086916453
1013,-0.024001446
1014,-0.048888534
1015,-0.04571692
1016,0.0048262416
1017,0.03292408
1018,0.011461229
1019,0.024573792
1020,-0.10499225
1021,-0.049873196
1022,0.006713091
1023,0.018072495
1024,-0.020947268
1025,0.044406433
1026,-0.0056530116
1027,-0.03790061
1028,-0.026687447
1029,-0.05005406
1030,-0.07516852
1031,-0.052476063
1032,-0.032995243
1033,0.025568362
1034,0.011879079
1035,-0.024151463
1036,-0.03887366
1037,-0.04010034
1038,0.004884295
1039,-0.063215606
1040,0.026693368
1041,-0.03252442
1042,0.030148663
1043,-0.0075306892
1044,-0.05326473
1045,-0.036431976
1046,0.02956539
1047,-0.041250203
1048,-0.068837084
1049,0.026902681
1050,-0.05802887
1051,0.045004185
1052,-0.027143106
1053,0.007849703
1054,0.02794894
1055,-0.04407211
1056,-0.03676446
1057,0.018680623
1058,-0.01868609
1059,0.0662223
1060,-0.06536207
1061,-0.017247457
1062,-0.041238535
1063,-0.004355563
1064,-0.028633127
1065,-0.0320859
1066,0.017344326
1067,-0.025029987
1068,0.05273947
1069,-0.044149365
1070,0.033755068
1071,0.015184177
1072,-0.014598898
1073,0.03155613
1074,0.02303877
1075,0.048071623
1076,0.006303456
1077,-0.011452678
1078,-0.034195073
1079,-0.040307116
1080,0.03877019
1081,0.058392614
1082,-0.051325288
1083,-0.035585143
1084,0.017657911
1085,-0.03830883
1086,0.029020071
1087,-0.01931891
1088,0.0029272514
1089,-0.06235662
1090,0.035236496
1091,0.03824835
1092,0.013977705
1093,-0.042598803
1094,-0.044809893
1095,-0.010025565
1096,-0.043854192
1097,-0.010832409
1098,-0.075462736
1099,0.0038622783
1100,-0.04681916
1101,0.0040500243
1102,-0.024473825
1103,0.0053016366
1104,-0.015383005
1105,-0.010841621
1106,-0.040445086
1107,0.0074301376
1108,0.02471007
1109,-0.01716163
1110,-0.04981442
1111,-0.032201495
1112,0.026844285
1113,0.029072419
1114,-0.04655446
1115,0.06571236
1116,-0.06695432
1117,-0.037090123
1118,-0.01685417
1119,0.05576732
1120,0.0101638315
1121,-0.037081808
1122,-0.06294944
1123,-0.07994124
1124,0.01471995
1125,0.029045751
1126,-0.08089397
1127,-0.039547574
1128,0.03499856
1129,-0.067204036
1130,0.015723167
1131,0.021837043
1132,0.016980171
1133,-0.01931844
1134,0.0027011782
1135,-0.042649418
1136,-0.019927025
1137,0.008720395
1138,0.012695879
1139,-0.005738706
1140,0.020636389
1141,0.022038545
1142,-0.033441868
1143,-0.025553217
1144,-0.020513976
1145,-0.032345127
1146,-0.029240336
1147,-0.07971811
1148,0.007891789
1149,1.424467e-05
1150,-0.06659726
1151,-0.12739545
1152,-0.025579978
1153,-0.028508741
1154,-0.024212673
1155,-0.03823915
1156,0.051714126
1157,0.057146423
1158,-0.04606041
1159,-0.053114843
1160,0.039946593
1161,0.030103637
1162,-0.045673907
1163,0.034266796
1164,0.009860695
1165,0.03903384
1166,0.047755707
1167,-0.030464478
1168,0.057717152
1169,-0.020994147
1170,0.0181893
1171,-0.02800409
1172,0.041939832
1173,-0.023148801
1174,-0.0018117091
1175,-0.076816455
1176,0.007226207
1177,0.011593038
1178,0.03509434
1179,0.06134028
1180,0.02805982
1181,-0.039030906
1182,-0.038878165
1183,0.025119647
1184,0.013378226
1185,-0.086057305
1186,-0.018701782
1187,-0.0031165732
1188,0.023894798
1189,-0.05611465
1190,-0.0017635633
1191,0.022644423
1192,-0.02118457
1193,0.015973434
1194,-0.053412326
1195,-0.061013114
1196,-0.078318596
1197,0.004406726
1198,0.023222595
1199,0.046833396
1200,-0.034763422
1201,0.008739392
1202,0.00026151794
1203,-0.04908445
1204,-0.020839883
1205,-0.030856462
1206,0.020961873
1207,-0.057990484
1208,0.060969424
1209,-0.028676761
1210,-0.069610015
1211,0.0010797571
1212,-0.027851665
1213,0.018356666
1214,0.015404641
1215,0.03862735
1216,-0.06410168
1217,-0.011247557
1218,0.0137274
1219,-0.08325882
1220,-0.019147113
1221,-0.030312657
1222,-0.027584128
1223,0.005769629
1224,0.0024088505
1225,-0.059021603
1226,0.019460307
1227,0.02305127
1228,-0.021612564
1229,-0.069760635
1230,0.048680365
1231,-0.060407434
1232,-0.0077622393
1233,-0.027778573
1234,0.00539325
1235,0.0025144015
1236,0.055077188
1237,-0.053144645
1238,-0.044409644
1239,-0.05363477
1240,0.027467225
1241,0.032806855
1242,-0.061421286
1243,-0.061582167
1244,-0.032794133
1245,-0.027509704
1246,-0.051383905
1247,-0.033107553
1248,-0.0039149686
1249,0.020009113
1250,-0.02317083
1251,0.017056948
1252,0.026281204
1253,0.004994904
1254,0.047403853
1255,-0.039650083
1256,-0.045483515
1257,-0.021400452
1258,-0.02536278
1259,0.03351713
1260,-0.05302345
1261,0.056201704
1262,0.031256653
1263,-0.017399907
1264,0.042242717
1265,0.0064696497
1266,0.003936328
1267,0.008025828
1268,-0.018650984
1269,0.038850557
1270,-0.049449608
1271,-0.024022106
1272,0.01438021
1273,0.025309598
1274,0.014491918
1275,-0.036412694
1276,-0.0061924835
1277,-0.07597172
1278,-0.016464962
1279,0.04549666
1280,-0.0122639695
1281,0.01420975
1282,-0.004585933
1283,-0.025819242
1284,-0.031728037
1285,-0.016676638
1286,-0.07407542
1287,-0.07540666
1288,-0.032863777
1289,0.0013121553
1290,0.030676853
1291,-0.021189969
1292,-0.04123776
1293,0.011953048
1294,0.011520917
1295,-0.063204095
1296,0.006418815
1297,0.057413373
1298,-0.026897449
1299,0.005979891
1300,-0.019837815
1301,0.0016444873
1302,-0.037557304
1303,-0.028640315
1304,-0.068870686
1305,0.034769267
1306,-0.057944752
1307,0.057123795
1308,-0.027417209
1309,-0.06263518
1310,-0.039935682
1311,0.017719049
1312,0.016709825
1313,0.011635098
1314,0.024596736
1315,-0.02659007
1316,-0.061307672
1317,0.01537949
1318,0.03790541
1319,-0.028327236
1320,0.05972736
1321,-0.0320912
1322,0.013483409
1323,-0.02435707
1324,-0.013078395
1325,-0.043848652
1326,-0.02229979
1327,0.0056631872
1328,-0.036080807
1329,-0.042366643
1330,-0.024096856
1331,-0.07983429
1332,-0.03191999
1333,-0.0138967885
1334,-0.021365916
1335,-0.041390695
1336,-0.021278568
1337,-0.024141788
1338,-0.050175987
1339,-0.029475048
1340,-0.019627778
1341,-0.040899973
1342,0.026076443
1343,-0.025573634
1344,-0.034916792
1345,-0.06153258
1346,-0.010853151
1347,0.014686928
1348,-0.08633961
1349,-0.042116877
1350,-0.044926476
1351,-0.034040377
1352,-0.04392046
1353,-0.04499675
1354,0.051556993
1355,-0.013206302
1356,0.02271169
1357,-0.0062488443
1358,-0.025053017
1359,0.01019568
1360,-0.037004508
1361,-0.029331455
1362,0.023369426
1363,-0.028151117
1364,0.021334896
1365,-0.0098357415
1366,-0.050400335
1367,-0.014748931
1368,-0.04670928
1369,0.031056704
1370,0.01968333
1371,-0.07774263
1372,0.032180738
1373,-0.03714561
1374,-0.05077915
1375,-0.066909984
1376,0.0160043
1377,-0.0056897905
1378,0.07568093
1379,-0.079917766
1380,-0.0073382766
1381,-0.0055369483
1382,-0.0807598
1383,-0.019668864
1384,0.03142666
1385,0.029400501
1386,-0.07086621
1387,0.060590077
1388,0.06050023
1389,0.0020331962
1390,-0.04813261
1391,-0.041067317
1392,0.030106585
1393,0.09191273
1394,0.0084177395
1395,-0.047518007
1396,-0.054729708
1397,-0.0020181246
1398,-0.060007837
1399,-0.026131522
1400,0.041947734
1401,-0.03407378
1402,0.02205836
1403,-0.076941855
1404,-0.0044312063
1405,0.015324056
1406,-0.06675864
1407,-0.07275658
1408,-0.052426893
1409,-0.03599245
1410,0.01867566
1411,0.024431773
1412,-0.06400111
1413,-0.0025205896
1414,0.0017540248
1415,-0.053391557
1416,-0.06610817
1417,-0.01428059
1418,-0.046101674
1419,0.03612082
1420,0.06490821
1421,-0.04698502
1422,0.045658637
1423,0.03318891
1424,0.06708818
1425,-0.051091634
1426,0.0011796231
1427,-0.026129689
1428,-0.05105125
1429,0.03584714
1430,-0.042807825
1431,0.033495575
1432,-0.028760914
1433,-0.027350288
1434,-0.075729534
1435,-0.07831458
1436,0.011829915
1437,-0.038028963
1438,0.012630802
1439,0.01590635
1440,-0.039822467
1441,-0.085989796
1442,-0.033886563
1443,0.017270748
1444,-0.04400084
1445,-0.026295394
1446,0.012869437
1447,-0.016267793
1448,-0.009590301
1449,0.03338376
1450,-0.017261053
1451,-0.05988115
1452,0.032208677
1453,-0.044650022
1454,-0.015413301
1455,-0.06627703
1456,-0.034680463
1457,-0.013778703
1458,-0.0066891657
1459,-0.077507384
1460,0.017868007
1461,0.01634051
1462,-0.018721284
1463,0.030123217
1464,-0.07764029
1465,-0.004059565
1466,-0.022015613
1467,0.0018067413
1468,-0.027302677
1469,-0.00675847
1470,0.030461073
1471,-0.05587136
1472,-0.06501704
1473,-0.042579684
1474,0.04534377
1475,0.0086686015
1476,-0.014128924
1477,-0.02993145
1478,0.02549297
1479,0.023135154
1480,0.0019908182
1481,0.018332694
1482,-0.05497168
1483,0.014212717
1484,0.004139097
1485,0.06245601
1486,-0.0305081
1487,0.0044715973
1488,-0.026462767
1489,-0.029336577
1490,0.0018737678
1491,0.020683117
1492,0.03671099
1493,0.012852382
1494,-0.04016306
1495,-0.041994035
1496,-0.016735742
1497,0.037395094
1498,-0.060954556
1499,-0.06244618
1500,-0.041712638
1501,-0.039167136
1502,0.034686707
1503,-0.032855418
1504,0.0016736737
1505,-0.034914933
1506,-0.013084701
1507,0.015539991
1508,-0.06782616
1509,0.015801722
1510,0.05781061
1511,-0.039961215
1512,0.040937304
1513,0.021558598
1514,-0.026374899
1515,0.013335278
1516,-0.054898325
1517,-0.038379993
1518,0.0028114906
1519,-0.03536706
1520,-0.06978176
1521,-0.0021765938
1522,-0.0016551272
1523,0.06645089
1524,-0.022992268
1525,-0.025422096
1526,-0.04898559
1527,-0.028350538
1528,-0.022061579
1529,-0.020693902
1530,0.00095499156
1531,-0.01607812
1532,0.025788518
1533,0.024788212
1534,-0.030343011
1535,-0.05717159
1536,-0.013123887
1537,0.0232929
1538,-0.008869015
1539,0.066378005
1540,-0.028268212
1541,-0.049231697
1542,0.021467363
1543,0.018985806
1544,-0.026917888
1545,-0.014493533
1546,-0.0617701
1547,-0.022671293
1548,0.051034477
1549,-0.0016979962
1550,-0.027504519
1551,0.0042171543
1552,0.0047375285
1553,-0.055955168
1554,0.060636926
1555,-0.01382359
1556,-0.018671842
1557,-0.014303222
1558,-0.039937094
1559,-0.041079383
1560,-0.06883791
1561,-0.035573747
1562,-0.02625434
1563,0.050010096
1564,0.00581176
1565,-0.052387834
1566,-0.03580301
1567,-0.0441867
1568,-0.036450595
1569,-0.004455798
1570,0.018812556
1571,-0.028297089
1572,0.026131758
1573,-0.03653288
1574,0.0038593728
1575,-0.028599134
1576,-0.028670114
1577,-0.03230069
1578,0.0052928394
1579,-0.019297132
1580,-0.009853826
1581,-0.02502911
1582,-0.03858518
1583,-0.0028921773
1584,-0.035928443
1585,-0.042427376
1586,-0.024141746
1587,-0.07996858
1588,-0.029300174
1589,-0.0065990086
1590,-0.034858104
1591,0.027255407
1592,-0.034437377
1593,0.0047959043
1594,-0.045884557
1595,-0.036193315
1596,-0.012600767
1597,-0.033881076
1598,0.011497396
1599,0.05299947
1600,-0.04269176
1601,-0.06240438
1602,-0.018282322
1603,0.04860946
1604,-0.023922598
1605,-0.0078575155
1606,-0.044688642
1607,-0.034569986
1608,-0.044072885
1609,-0.015234594
1610,-0.0066607874
1611,0.008308295
1612,0.003676584
1613,0.026021443
1614,-0.025138909
1615,-0.053454094
1616,0.028451873
1617,-0.027110448
1618,-0.0056990357
1619,-0.031125765
1620,0.024709912
1621,-0.041231845
1622,-0.0503278
1623,-0.013792306
1624,-0.04688028
1625,0.031430144
1626,-0.046593286
1627,-0.021393292
1628,0.015692215
1629,-0.038466867
1630,-0.039578028
1631,-0.015706167
1632,-0.0013945719
1633,0.020122789
1634,-0.00034622074
1635,-0.022245176
1636,-0.029964758
1637,-0.02993332
1638,0.084885776
1639,-0.012539483
1640,-0.019031052
1641,-0.003925062
1642,-0.069909744
1643,0.079517
1644,0.02095477
1645,-0.03375994
1646,-0.050236087
1647,0.06987271
1648,-0.036106274
1649,-0.08043964
1650,-0.033609204
1651,-0.047162615
1652,-0.020575833
1653,-0.04088245
1654,-0.059934296
1655,-0.03861779
1656,-0.035634562
1657,0.026286626
1658,-0.059919894
1659,-0.055571705
1660,-0.0060210624
1661,0.009663738
1662,-0.066797905
1663,0.0053502806
1664,0.05645766
1665,-0.106093556
1666,-0.022469485
1667,-0.046260215
1668,-0.016588625
1669,0.010043487
1670,-0.061768536
1671,-0.053062472
1672,-0.06598848
1673,-0.034145318
1674,-0.045995124
1675,-0.018837765
1676,0.006030339
1677,-0.047005396
1678,0.0735151
1679,-0.03514203
1680,-0.075997606
1681,-0.052173454
1682,-0.011289128
1683,-0.02345611
1684,-0.050723698
1685,-0.03263325
1686,-0.02341243
1687,-0.08998761
1688,0.0081231985
1689,0.040221803
1690,-0.07574288
1691,-0.07555078
1692,0.010566805
1693,0.04170325
1694,0.023122823
1695,-0.034656856
1696,0.014592589
1697,-0.08606231
1698,-0.04036811
1699,-0.033800438
1700,0.0032537505
1701,-0.056305062
1702,0.018929556
1703,-0.021963203
1704,-0.041928492
1705,-0.067636795
1706,-0.05362514
1707,0.04950287
1708,-0.045873284
1709,0.045648634
1710,0.008187666
1711,-0.06613
1712,0.020720625
1713,-0.02597664
1714,-0.008449048
1715,-0.09907174
1716,-0.02586205
1717,-0.030909339
1718,-0.015038076
1719,-0.05800145
1720,-0.077796854
1721,-0.020602819
1722,-0.011630393
1723,-0.0035416563
1724,-0.010764655
1725,0.025775168
1726,-0.03547649
1727,0.006162116
1728,-0.06754016
1729,-0.019649694
1730,0.05172551
1731,-0.014871826
1732,-0.04960577
1733,-0.030291334
1734,0.007343326
1735,-0.07000232
1736,-0.011402925
1737,-0.059012357
1738,-0.05489857
1739,-0.01575319
1740,-0.005194146
1741,-0.069647215
1742,-0.03926558
1743,-0.018609526
1744,-0.037410505
1745,-0.028742291
1746,-0.0063789873
1747,-0.002045448
1748,0.02393828
1749,0.027404204
1750,0.05913172
1751,-0.05240686
1752,-0.019095823
1753,0.021405771
1754,0.042838294
1755,-0.06263991
1756,-0.0369257
1757,0.0016640393
1758,-0.027565483
1759,-0.031524077
1760,0.01854309
1761,-0.029366303
1762,-0.012472521
1763,0.040698387
1764,-0.065073244
1765,0.013094132
1766,-0.009009746
1767,-0.040230077
1768,-0.04568106
1769,-0.021597385
1770,0.034175955
1771,0.017185219
1772,-0.012390545
1773,-0.029374352
1774,0.020466004
1775,-0.06380543
1776,-0.06995893
1777,-0.014389259
1778,-0.0087807
1779,0.06753315
1780,-0.033073973
1781,-0.01662165
1782,-0.049031798
1783,0.058687843
1784,-0.022784533
1785,-0.034342937
1786,-0.012468967
1787,0.023925258
1788,-0.0020597007
1789,0.025487527
1790,-0.033751313
1791,-0.062266715
1792,-0.03623877
1793,0.037018437
1794,-0.0113273
1795,-0.09903016
1796,-0.03242603
1797,-0.04814804
1798,-0.07417196
1799,0.06349413
1800,-0.033177707
1801,-0.049748477
1802,-0.061780382
1803,-0.02489258
1804,-0.04120431
1805,0.0103672
1806,-0.04280961
1807,-0.035016872
1808,0.008917388
1809,-0.028997464
1810,-0.14660107
1811,-0.0069815624
1812,-0.019628186
1813,-0.03459752
1814,-0.039215438
1815,-0.024661742
1816,-0.06891837
1817,-0.066766605
1818,-0.021211945
1819,-0.0015878578
1820,0.025267886
1821,-0.05856154
1822,-0.031127298
1823,-0.044692695
1824,-0.036591474
1825,-0.00042211596
1826,-0.011968672
1827,-0.013694994
1828,-0.027637003
1829,-0.013140364
1830,0.044478726
1831,-0.027422138
1832,-0.0032914723
1833,-0.03231463
1834,0.0043347897
1835,-0.02314213
1836,-0.021611935
1837,-0.00727564
1838,-0.038518056
1839,0.007506103
1840,-0.0026837299
1841,-0.042538803
1842,-0.017408833
1843,-0.023568984
1844,0.046777643
1845,0.0005325379
1846,-0.033898193
1847,-0.03251243
1848,-0.01943598
1849,-0.025842255
1850,-0.051635213
1851,-0.017397318
1852,-0.005537987
1853,0.08194301
1854,0.0055621294
1855,-0.049191777
1856,-0.029235685
1857,-0.062465325
1858,0.0088901045
1859,-0.0033584319
1860,-0.018274529
1861,-0.017370747
1862,-0.044749603
1863,-0.027666893
1864,-0.044136066
1865,0.051332455
1866,-0.07535131
1867,-0.03963036
1868,0.005844347
1869,-0.0074905646
1870,0.03575951
1871,-0.053421225
1872,0.015510529
1873,-0.026737558
1874,-0.015739052
1875,-0.016528878
1876,-0.0191659
1877,-0.024378281
1878,-0.049743246
1879,-0.012415938
1880,-0.046769105
1881,-0.04895561
1882,-0.019905597
1883,-0.07767901
1884,0.020541042
1885,-0.037438933
1886,-0.050561063
1887,-0.06688893
1888,0.012665081
1889,0.015304786
1890,-0.020789066
1891,-0.08011857
1892,-0.016834468
1893,-0.038669534
1894,-0.08106689
1895,-0.0031051075
1896,-0.018822718
1897,-0.068072535
1898,-0.028295716
1899,0.009913045
1900,0.024488036
1901,-0.031779934
1902,-0.04832175
1903,-0.06884319
1904,-0.036366165
1905,-0.057943992
1906,-0.021638734
1907,-0.047127005
1908,-0.026360452
1909,-0.03359037
1910,-0.03990787
1911,-0.019786123
1912,-0.018066753
1913,-0.033352256
1914,-0.046690337
1915,-0.07451518
1916,0.047754258
1917,-0.014908674
1918,-0.05334531
1919,0.06351029
1920,0.009090145
1921,0.054821014
1922,-0.00017096406
1923,-0.04489118
1924,-0.063839145
1925,0.06331415
1926,-0.02846935
1927,-0.05307513
1928,-0.017593445
1929,-0.034517217
1930,-0.045777924
1931,-0.031459484
1932,0.042895284
1933,-0.047001548
1934,0.09821441
1935,-0.030419115
1936,-0.075954095
1937,-0.052254062
1938,0.017104046
1939,-0.020621713
1940,-0.050707098
1941,-0.02102972
1942,0.009880926
1943,-0.06220218
1944,-0.004299409
1945,-0.049754363
1946,-0.075488314
1947,-0.08560641
1948,-0.0005701825
1949,0.044605047
1950,-0.025264217
1951,-0.04320943
1952,-0.028118692
1953,-0.08566485
1954,-0.039914686
1955,-0.0582002
1956,-0.043987703
1957,-0.056258924
1958,-0.06339926
1959,-0.014524576
1960,-0.02778685
1961,-0.029112792
1962,-0.05340066
1963,0.060359273
1964,-0.023670597
1965,0.004697515
1966,0.003161627
1967,0.002001482
1968,0.022174427
1969,-0.025285015
1970,-0.00055526296
1971,0.0156414
1972,0.0027853511
1973,-0.029481642
1974,-0.007000087
1975,-0.057984184
1976,-0.07738561
1977,-0.027983658
1978,-0.02592716
1979,-0.014288493
1980,-0.03017677
1981,0.0062549897
1982,-0.032771878
1983,-0.035717037
1984,-0.03675031
1985,0.007157677
1986,-0.011254914
1987,-0.083000444
1988,-0.03063311
1989,-0.030308835
1990,-0.022688625
1991,-0.024345227
1992,-0.06381126
1993,-0.017290484
1994,-0.021606205
1995,-0.044544302
1996,-0.029509736
1997,-0.06949522
1998,-0.033078752
1999,-0.0019687158
2000,-0.037128177
2001,-0.03069439
2002,0.010273112
2003,-0.051337887
2004,0.0005959265
2005,-0.053391736
2006,0.10866059
2007,-0.052994564
2008,-0.041055992
2009,0.024684759
2010,-0.09494674
2011,-0.062541656
2012,-0.040058333
2013,-0.0061501525
2014,-0.051381275
2015,-0.033392377
2016,0.030283345
2017,-0.034798887
2018,-0.036984123
2019,-0.034594648
2020,-0.06282571
2021,0.020669376
2022,-0.014646658
2023,-0.03955097
2024,-0.027005337
2025,-0.04229288
2026,0.0069819596
2027,0.03934383
2028,-0.050201174
2029,0.005978941
2030,0.0323165
2031,-0.063624516
2032,-0.06314158
2033,0.019801842
2034,-0.007583629
2035,-0.029372372
2036,-0.047721453
2037,-0.02854168
2038,-0.048857585
2039,-0.0456889
2040,0.0058995555
2041,-0.03329247
2042,-0.058717974
2043,-0.036333557
2044,0.025911534
2045,-0.039137278
2046,0.037871473
2047,-0.06214532
2048,0.028842432
2049,0.003909598
2050,-0.014354779
2051,0.03823926
2052,-0.023467684
2053,-0.04892227
2054,-0.07418344
2055,0.033027943
2056,-0.032917444
2057,-0.024067681
2058,-0.01601493
2059,-0.024063861
2060,-0.025299659
2061,0.021399677
2062,0.015179837
2063,-0.030686604
2064,-0.046287056
2065,-0.033539485
2066,0.01836247
2067,-0.044216406
2068,-0.051815353
2069,-0.013187414
2070,-0.03936654
2071,-0.027539784
2072,-0.06871124
2073,-0.06700433
2074,-0.058019135
2075,-0.044099048
2076,-0.02170764
2077,0.018596545
2078,-0.032244466
2079,-0.04378936
2080,0.0006063326
2081,-0.04509689
2082,0.09382043
2083,-0.08579169
2084,-0.01816794
2085,-0.021951463
2086,-0.0015774441
2087,-0.027700692
2088,-0.022597522
2089,0.007258393
2090,0.046368897
2091,-0.025192443
2092,-0.010910878
2093,-0.04359876
2094,-0.038050946
2095,-0.05133171
2096,-0.035866
2097,-0.042413194
2098,-0.022918623
2099,-0.079921
2100,-0.040129934
2101,-0.032299038
2102,-0.03493783
2103,-0.041364215
2104,-0.019787133
2105,-0.06135357
2106,-0.05103772
2107,-0.003550882
2108,-0.016145302
2109,0.009612832
2110,-0.04167102
2111,-0.05821355
2112,-0.022791428
2113,-0.02046859
2114,0.010859096
2115,-0.0017163582
2116,-0.011260042
2117,-0.015959674
2118,-0.04499901
2119,0.06074381
2120,0.01599725
2121,-0.034292433
2122,-0.07549778
2123,-0.005318066
2124,0.005610753
2125,-0.010591273
2126,0.019039327
2127,-0.05328305
2128,-0.034135234
2129,0.01737537
2130,-0.02196871
2131,-0.028742777
2132,-0.023425419
2133,-0.008442293
2134,-0.0116092395
2135,-0.012458081
2136,-0.048360564
2137,0.032082662
2138,-0.046942603
2139,-0.012672199
2140,-0.06737446
2141,-0.037131872
2142,-0.040847175
2143,-0.053187013
2144,0.01055452
2145,0.0059418604
2146,-0.05683196
2147,-0.025362711
2148,-0.035773467
2149,-0.025233721
2150,-0.048844233
2151,-0.03941332
2152,-0.025420487
2153,-0.035245158
2154,0.0035091976
2155,0.020681048
2156,-0.012859812
2157,-0.030804997
2158,-0.047721293
2159,-0.07835492
2160,-0.03707046
2161,-0.049545422
2162,0.028366156
2163,-0.04627015
2164,-0.032859966
2165,-0.041324932
2166,-0.030931095
2167,-0.022851666
2168,-0.019681811
2169,-0.03042381
2170,-0.056828316
2171,-0.018207248
2172,-0.04695972
2173,-0.026944695
2174,-0.06679605
2175,0.10218923
2176,-0.03812931
2177,0.08297223
2178,0.011773402
2179,-0.03570364
2180,-0.013337453
2181,0.025147345
2182,-0.013078838
2183,-0.05302437
2184,-0.017701564
2185,-0.02290622
2186,-0.045797154
2187,-0.030904025
2188,-0.03445287
2189,-0.0469886
2190,-0.034435533
2191,-0.02350454
2192,-0.07582829
2193,-0.05190462
2194,-0.04609162
2195,-0.020893717
2196,-0.050528627
2197,-0.020947747
2198,-0.046834495
2199,-0.090295084
2200,-0.021499285
2201,-0.049636465
2202,-0.07574245
2203,-0.0004962778
2204,0.0067924005
2205,0.02436533
2206,-0.02463643
2207,0.010634583
2208,-0.03933668
2209,-0.035109323
2210,-0.026306706
2211,-0.027455969
2212,-0.043808784
2213,-0.056246355
2214,0.031054176
2215,-0.026670096
2216,-0.04199084
2217,-0.052490495
2218,-0.05343942
2219,-0.013271278
2220,-0.04193247
2221,-0.033363674
2222,-0.029305583
2223,-0.035193693
2224,-0.033907585
2225,-0.008803438
2226,-0.013380755
2227,0.0122107845
2228,0.005706605
2229,-0.030921811
2230,-0.005964897
2231,-0.039289873
2232,-0.050373755
2233,-0.03929239
2234,-0.020167327
2235,-0.0034406576
2236,-0.030297771
2237,-0.012982845
2238,-0.0449414
2239,-0.05732314
2240,0.039848275
2241,0.0017433006
2242,0.064598724
2243,-0.026647348
2244,-0.027389579
2245,0.053139605
2246,-0.036971264
2247,-0.06993666
2248,-0.0562468
2249,-0.05890799
2250,-0.05524546
2251,-0.04681954
2252,0.013942455
2253,-0.009961349
2254,-0.0406411
2255,-0.06059632
2256,0.014572222
2257,-0.029727241
2258,-0.008325691
2259,-0.014355777
2260,0.07281347
2261,-0.053391054
2262,-0.0934139
2263,-0.042038202
2264,-0.016568989
2265,0.035006933
2266,-0.094946906
2267,-0.06257501
2268,-0.042253036
2269,-0.018408667
2270,-0.05163398
2271,-0.032757085
2272,0.044314343
2273,-0.034170862
2274,-0.010366813
2275,-0.045623217
2276,-0.067622736
2277,0.008338338
2278,-0.030850861
2279,-0.013100524
2280,-0.032695513
2281,-0.029759638
2282,-0.00725901
2283,-0.008492433
2284,-0.031548377
2285,-0.035633717
2286,0.018212102
2287,-0.06433511
2288,-0.06970041
2289,-0.002064063
2290,-0.02823826
2291,0.043324698
2292,-0.047346815
2293,-0.028305411
2294,-0.048775468
2295,-0.045605883
2296,-0.037248448
2297,-0.033988293
2298,0.107148744
2299,-0.029178197
2300,0.02108277
2301,-0.006822839
2302,-0.036305226
2303,-0.06227329
2304,0.035135627
2305,-0.04629694
2306,-0.0012408791
2307,-0.013797081
2308,-0.023375593
2309,-0.03386559
2310,-0.06968627
2311,0.0049884156
2312,0.0072479867
2313,-0.04935775
2314,-0.015988462
2315,-0.017840952
2316,-0.03920622
2317,0.001548914
2318,0.09617882
2319,-0.012294291
2320,-0.037825834
2321,-0.029861636
2322,0.0056038643
2323,-0.03286218
2324,-0.011661072
2325,-0.017901296
2326,-0.039313957
2327,-0.041378044
2328,-0.033140667
2329,-0.065977536
2330,-0.026819734
2331,-0.0021313871
2332,-0.0555972
2333,0.049345873
2334,0.0043477723
2335,-0.043141738
2336,0.030985592
2337,-0.044356234
2338,0.020788752
2339,0.11618117
2340,-0.042348973
2341,-0.026179064
2342,0.033112817
2343,-0.026168644
2344,-0.02024078
2345,0.027424354
2346,0.0030856202
2347,-0.012576372
2348,-0.01672809
2349,-0.04386787
2350,0.018946003
2351,0.0049675135
2352,-0.016102822
2353,-0.042168047
2354,0.031405233
2355,-0.07218
2356,0.013992597
2357,-0.00027041533
2358,0.023211049
2359,-0.031383168
2360,-0.022253918
2361,-0.023163388
2362,-0.04393744
2363,-0.08869166
2364,-0.02214205
2365,-0.05423381
2366,-0.0412079
2367,-0.058116127
2368,-0.05913441
2369,-0.016344642
2370,-0.017200008
2371,-0.041744694
2372,-0.004982642
2373,-0.040902726
2374,-0.016198497
2375,-0.014205485
2376,0.024398992
2377,-0.04483542
2378,-0.039928313
2379,-0.04841031
2380,0.03987769
2381,-0.0059233806
2382,-0.025928734
2383,-0.05328835
2384,-0.038275097
2385,-0.028222224
2386,-0.02080877
2387,-0.032653734
2388,-0.03489829
2389,-0.04140409
2390,-0.041577782
2391,-0.042336173
2392,-0.048563726
2393,-0.0013784369
2394,-0.02586069
2395,-0.034940444
2396,-0.025897231
2397,-0.03718987
2398,-0.050731335
2399,-0.027548982
2400,-0.031466465
2401,-0.023521861
2402,-0.062154524
2403,-0.0036307692
2404,0.034315955
2405,-0.0013197536
2406,0.0152826365
2407,-0.035861444
2408,-0.019451652
2409,-0.033271536
2410,-0.03454801
2411,0.020158548
2412,-0.013001164
2413,-0.009801287
2414,-0.03496229
2415,-0.06224616
2416,-0.036680263
2417,0.06347653
2418,0.030639293
2419,-0.007325169
2420,-0.035730317
2421,-0.04065664
2422,-0.029555464
2423,-0.051301308
2424,-0.02377579
2425,-0.033150613
2426,-0.04693672
2427,-0.015141288
2428,-0.03218322
2429,0.005555632
2430,-0.052954026
2431,0.028969096
2432,0.027332908
2433,0.0071265018
2434,0.011036181
2435,-0.035344914
2436,-0.013567902
2437,-0.03111616
2438,-0.012870878
2439,-0.050375357
2440,-0.016881406
2441,-0.02469899
2442,-0.045778144
2443,0.010768438
2444,-0.0014456406
2445,-0.034352735
2446,-0.040865436
2447,0.03956939
2448,-0.049345568
2449,-0.052393477
2450,-0.025413139
2451,-0.05439064
2452,-0.05095945
2453,-0.022309976
2454,-0.017717935
2455,-0.04629684
2456,-0.050557412
2457,-0.048767447
2458,-0.072221175
2459,-0.06237503
2460,-0.010647851
2461,0.017590383
2462,0.03800411
2463,0.05834717
2464,-0.038981464
2465,-0.012276578
2466,-0.023963137
2467,0.016234728
2468,-0.04436945
2469,-0.029770723
2470,-0.008943663
2471,0.026902119
2472,-0.041810706
2473,-0.06765104
2474,-0.03400145
2475,-0.043355964
2476,-0.04105983
2477,0.030414747
2478,0.011361036
2479,-0.03510197
2480,-0.033675015
2481,0.02812038
2482,-0.012584332
2483,-0.050700333
2484,-0.00577236
2485,-0.027977092
2486,-0.0072506526
2487,-0.020706631
2488,-0.051958643
2489,-0.036339667
2490,-0.016673766
2491,-0.009819356
2492,-0.029134896
2493,-0.045957163
2494,-0.02430867
2495,0.048274655
2496,-0.059007205
2497,-0.042852838
2498,-0.0028948693
2499,-0.019248342
2500,-0.006563721
2501,-0.002010349
2502,0.036248047
2503,-0.059376296
2504,-0.0640747
2505,-0.055677317
2506,-0.026382104
2507,-0.048576795
2508,-0.027943144
2509,-0.017156247
2510,-0.041113235
2511,-0.026274426
2512,-0.029826768
2513,-0.025010107
2514,0.0058688084
2515,0.054865953
2516,-0.062400844
2517,-0.028795943
2518,0.0018184184
2519,-0.052079313
2520,-0.015933132
2521,-0.060969513
2522,-0.064342655
2523,-0.06257118
2524,-0.036952734
2525,-0.03904095
2526,-0.05165258
2527,-0.018726887
2528,-0.036596015
2529,-0.033695284
2530,-0.010125912
2531,-0.042726647
2532,-0.044011015
2533,-0.01388411
2534,-0.022150047
2535,-0.03928234
2536,-0.027740775
2537,-0.029703896
2538,-0.004770674
2539,0.007809655
2540,0.030307306
2541,0.0097593935
2542,-0.028945178
2543,-0.0218848
2544,-0.05010136
2545,-0.026024666
2546,-0.038268253
2547,-0.026469564
2548,5.100367e-05
2549,-0.028916694
2550,-0.015491986
2551,-0.013756885
2552,-0.009911062
2553,-0.046182785
2554,0.081408896
2555,-0.036144096
2556,0.03298502
2557,0.012445631
2558,-0.034130655
2559,-0.06196096
2560,0.029338712
2561,-0.015414458
2562,0.0007803612
2563,-0.015861474
2564,-0.0139803495
2565,-0.0075216508
2566,-0.02895612
2567,-1.4846455e-05
2568,-0.01772757
2569,0.016027037
2570,-0.01802795
2571,-0.016477246
2572,-0.018676262
2573,-0.016799007
2574,0.0868613
2575,-0.007259464
2576,-0.017118376
2577,-0.033587266
2578,0.0022558682
2579,0.00032143004
2580,0.0032477952
2581,-0.014708281
2582,-0.036763906
2583,-0.041320637
2584,-0.0038309132
2585,-0.061297923
2586,-0.045411624
2587,-0.028012339
2588,-0.030947717
2589,0.046442233
2590,-0.031190347
2591,-0.03355016
2592,0.027745798
2593,-0.008089764
2594,0.00534315
2595,0.08983551
2596,-0.059252504
2597,-0.020323003
2598,0.0015016616
2599,-0.025648106
2600,-0.022168739
2601,0.033638194
2602,-0.016914772
2603,-0.009120191
2604,-0.008699585
2605,-0.043680236
2606,-0.0076556043
2607,-0.014243307
2608,-0.035789475
2609,-0.042751517
2610,0.017962858
2611,-0.042168733
2612,0.041629095
2613,0.039640356
2614,0.0106692435
2615,-0.041262113
2616,-0.021205023
2617,-0.021984998
2618,-0.022795754
2619,0.017513223
2620,-0.010806348
2621,-0.051546387
2622,-0.017191844
2623,-0.030483244
2624,-0.024675008
2625,-0.023621613
2626,-0.026301151
2627,-0.0138633195
2628,0.00011548151
2629,-0.03313669
2630,-0.04469971
2631,-0.028266558
2632,0.028744143
2633,-0.025075914
2634,-0.038325
2635,-0.0031090728
2636,0.010680874
2637,-0.031474914
2638,-0.015560867
2639,-0.053609155
2640,-0.018211558
2641,-0.027290631
2642,-0.0034596152
2643,-0.030053396
2644,-0.021350713
2645,-0.011421152
2646,-0.029863523
2647,-0.011592557
2648,-0.02898802
2649,-0.023485959
2650,-0.025559295
2651,-0.032503556
2652,-0.02036344
2653,-0.035693277
2654,-0.012820928
2655,-0.01979778
2656,0.019659411
2657,0.0025083402
2658,-0.037740048
2659,-0.025805144
2660,0.034809068
2661,-0.002683712
2662,0.009464427
2663,-0.026220405
2664,-0.01936505
2665,-0.031200193
2666,-0.04286843
2667,0.02158719
2668,-0.03519443
2669,-0.026213555
2670,-0.017648248
2671,-0.07691242
2672,0.0021689092
2673,0.010945891
2674,0.029200887
2675,-0.037270777
2676,-0.05487218
2677,0.00046600794
2678,-0.026836952
2679,-0.025707074
2680,-0.019467887
2681,-0.033039376
2682,-0.059452895
2683,-0.050447833
2684,-0.038899418
2685,0.0070948475
2686,-0.037933614
2687,0.027400222
2688,0.03518569
2689,0.022646153
2690,-0.024970522
2691,-0.044806488
2692,-0.013689895
2693,-0.041217286
2694,-0.03287087
2695,-0.034291144
2696,-0.017205533
2697,-0.016699413
2698,-0.045536857
2699,0.021597097
2700,-0.034654237
2701,-0.039320886
2702,0.036353618
2703,0.03555659
2704,-0.03875568
2705,-0.0059546013
2706,-0.03656082
2707,-0.020151706
2708,-0.05100981
2709,-0.022436121
2710,-0.007601632
2711,-0.014235498
2712,-0.011738719
2713,-0.026087407
2714,-0.048428442
2715,-0.04070535
2716,0.018066322
2717,-0.026357263
2718,-0.016322212
2719,0.05376731
2720,-0.037952267
2721,-0.013227581
2722,-0.02787218
2723,0.011769825
2724,-0.043802623
2725,-0.013877092
2726,-0.027235564
2727,0.03471832
2728,-0.004885693
2729,-0.04265431
2730,-0.003349763
2731,-0.059277777
2732,-0.037553176
2733,0.05206997
2734,0.005308544
2735,-0.033998735
2736,-0.021364285
2737,0.037167992
2738,-0.003511128
2739,-0.0373848
2740,0.015285307
2741,-0.028133059
2742,-0.011165067
2743,-0.026380217
2744,-0.059810992
2745,-0.03496343
2746,-0.024483526
2747,-0.008701179
2748,-0.027043605
2749,0.0027860848
2750,-0.04479893
2751,0.026971355
2752,-0.02061497
2753,-0.042837095
2754,-0.014548263
2755,-0.028774334
2756,-0.012408771
2757,0.01724029
2758,0.02437265
2759,-0.037906464
2760,0.002213139
2761,-0.03860825
2762,-0.031022703
2763,-0.048447903
2764,-0.007402483
2765,-0.012316327
2766,-0.039402977
2767,-0.022553876
2768,-0.037289664
2769,-0.020106884
2770,0.004382353
2771,0.015107278
2772,-0.05478217
2773,-0.046565194
2774,0.0009175891
2775,-0.03765837
2776,-0.014271676
2777,-0.026720975
2778,-0.03428351
2779,-0.018736212
2780,0.03493414
2781,-0.020352378
2782,-0.043306887
2783,0.012198806
2784,-0.02853766
2785,-0.03180472
2786,-0.019331252
2787,-0.035219718
2788,-0.04982696
2789,-0.030678526
2790,-0.03537248
2791,-0.039092332
2792,-0.028669268
2793,-0.020210747
2794,-0.014137633
2795,0.011622669
2796,0.0065696114
2797,-0.025936663
2798,-0.04159316
2799,-0.06458305
2800,-0.021088213
2801,-0.042962108
2802,-0.0019398488
2803,-0.005491712
2804,0.043130066
2805,-0.025591813
2806,-0.024062429
2807,-0.021876955
2808,-0.037266564
2809,-0.036712565
2810,0.09360057
2811,0.008687478
2812,0.002152807
2813,0.032740965
2814,-0.030058969
2815,-0.042154986
2816,-0.0013051596
2817,-0.025185805
2818,-0.002694841
2819,-0.0059603937
2820,-0.0029976235
2821,-0.00914467
2822,-0.002792042
2823,0.016999362
2824,-0.019268366
2825,0.011306345
2826,-0.012796531
2827,-0.007443163
2828,0.0038116146
2829,-0.011731544
2830,0.034951348
2831,-0.002656065
2832,-0.014265653
2833,-0.022637123
2834,0.008597162
2835,0.027507128
2836,-0.011720906
2837,0.010666053
2838,-0.030512188
2839,-0.01041653
2840,-0.009662919
2841,-0.019349983
2842,-0.006154338
2843,-0.0077158436
2844,-0.0041660275
2845,0.009784848
2846,7.492931e-05
2847,-0.01641425
2848,-0.010819686
2849,9.5514384e-05
2850,0.0064088874
2851,0.0222035
2852,-0.020181766
2853,-0.013210989
2854,0.049891464
2855,-0.010065636
2856,-0.009707018
2857,-0.00083106273
2858,-0.011147327
2859,-0.0022439011
2860,-0.008202887
2861,-0.005601849
2862,-0.011699275
2863,-0.024214355
2864,0.0008446256
2865,-0.026162812
2866,0.0035874161
2867,-0.026941825
2868,0.0073547093
2869,0.00024622923
2870,0.0013450166
2871,-0.011665675
2872,-0.009180735
2873,-0.021642994
2874,0.010440053
2875,-0.013197591
2876,-0.004114916
2877,-0.006425935
2878,-0.009802938
2879,-0.015138429
2880,0.027685147
2881,0.0038839306
2882,-0.001858881
2883,0.01432715
2884,-0.004931705
2885,0.033234697
2886,-0.016690522
2887,0.004950419
2888,0.010224363
2889,0.008335084
2890,-0.01730315
2891,-0.01854742
2892,0.020794183
2893,-0.01564723
2894,-0.011324788
2895,-0.014232287
2896,0.005336816
2897,0.009169503
2898,0.0056791096
2899,0.0008878677
2900,0.0069781397
2901,-0.0046020113
2902,0.007499965
2903,-0.007380965
2904,0.0033480912
2905,-0.025506139
2906,-0.006832292
2907,-0.0053701443
2908,0.0024788822
2909,-0.0015503791
2910,-0.0009713631
2911,-0.019241178
2912,0.0019414499
2913,0.01593302
2914,-0.020852132
2915,-0.0068849954
2916,0.022630492
2917,-0.014129207
2918,-0.0007217668
2919,-0.0063003413
2920,-0.018205192
2921,-0.014692927
2922,0.024483657
2923,-0.0057127383
2924,-0.021675322
2925,-0.024520367
2926,-0.0052474905
2927,-0.016982589
2928,-0.012175701
2929,0.015330581
2930,-0.0043628113
2931,-0.016757682
2932,-0.015220846
2933,0.01520919
2934,0.0030564498
2935,-0.007980845
2936,-0.013564841
2937,-0.01955274
2938,-0.021758512
2939,-0.016387517
2940,0.012443803
2941,0.010813294
2942,0.0068887025
2943,0.030522805
2944,0.0101797655
2945,0.014270562
2946,0.02052878
2947,-0.0010371805
2948,-0.005211008
2949,-0.028866155
2950,-0.0005982121
2951,0.005004238
2952,-0.013145531
2953,-0.010899031
2954,0.010832055
2955,-0.0020733548
2956,-0.009935971
2957,-0.009529039
2958,0.0017074703
2959,0.011297224
2960,-0.02147126
2961,0.032777704
2962,0.03388734
2963,-0.02140473
2964,-0.011613022
2965,-0.0156209795
2966,0.014719828
2967,-0.016869169
2968,0.00598789
2969,-0.017615022
2970,-0.0015327907
2971,-0.032255556
2972,0.042241886
2973,0.013582613
2974,-0.0043406133
2975,0.0008485428
2976,-0.022829248
2977,-0.0032192443
2978,0.007126498
2979,0.0018029457
2980,0.00024966238
2981,-0.0059458814
2982,-0.011271912
2983,0.029304462
2984,-0.008449467
2985,-0.01634376
2986,-0.0028180634
2987,-0.008471369
2988,-0.020220552
2989,0.024616128
2990,0.002966394
2991,-0.019196264
2992,-0.004631411
2993,0.02312212
2994,-0.0032840536
2995,-0.020672837
2996,0.006704704
2997,0.0027803872
2998,-0.005186297
2999,-0.009006309
3000,-0.019058496
3001,-0.014348434
3002,-0.010175294
3003,-0.014050914
3004,0.0010749038
3005,0.0117115965
3006,-0.021628054
3007,0.010420694
3008,-0.0018185006
3009,-0.0068203313
3010,-0.026777962
3011,-0.0106125595
3012,0.0096387295
3013,-0.009133223
3014,-0.0027455618
3015,-0.03426193
3016,0.03448057
3017,-0.012814559
3018,-0.027085489
3019,-0.026748601
3020,0.0009920263
3021,-0.013128537
3022,-0.009526923
3023,-0.0072768764
3024,-0.0067128353
3025,0.003502202
3026,0.001993175
3027,0.023608465
3028,-0.022193555
3029,-0.012395298
3030,0.0022170793
3031,0.013298985
3032,-0.00017606637
3033,-0.010631887
3034,-0.0053784293
3035,-0.00018175546
3036,-0.002840281
3037,-0.0040427013
3038,-0.023839848
3039,-0.0029117526
3040,0.011502878
3041,0.011830212
3042,-0.011591572
3043,-0.018068425
3044,-0.0043201335
3045,-0.008403873
3046,-0.010389728
3047,-0.023200875
3048,-0.015772076
3049,-0.00843559
3050,-0.006853791
3051,-0.021638395
3052,0.01854438
3053,-0.022008762
3054,-0.010774809
3055,0.012053811
3056,-0.0057586874
3057,0.010760008
3058,0.015266466
3059,-0.0038699845
3060,0.02370271
3061,-0.01987938
3062,0.012918403
3063,-0.022040946
3064,-0.012033498
3065,0.016811697
3066,0.00991584
3067,0.0012916054
3068,0.0052634994
3069,0.016431019
3070,-0.001398992
3071,-0.014495501
3072,-0.008479218
3073,0.009758478
3074,-0.010612953
3075,0.016382784
3076,0.012858275
3077,0.0028710177
3078,0.013891601
3079,-0.009096073
3080,-0.0033400443
3081,-0.0015400951
3082,0.0062298095
3083,0.0013032047
3084,-0.0027100476
3085,-0.013427579
3086,-0.010341321
3087,0.0013274977
3088,-0.0018204874
3089,0.008101777
3090,0.0124926185
3091,-0.0039019915
3092,-0.008285314
3093,0.0016312568
3094,0.008938434
3095,0.0019762996
3096,0.015318245
3097,-0.005858643
3098,-0.0047092023
3099,-0.008452974
3100,-0.0044270926
3101,0.015361165
3102,-0.000603518
3103,-0.0031531819
3104,0.010494815
3105,-0.0044393195
3106,-0.00014606303
3107,0.0026433389
3108,-0.0032506527
3109,-0.0035329494
3110,0.005509008
3111,-0.010834509
3112,0.006508189
3113,8.549329e-05
3114,-0.0051336973
3115,-0.008245796
3116,0.014667792
3117,0.011700832
3118,-0.0021941655
3119,0.0035393452
3120,0.003698606
3121,-0.00076932297
3122,-0.0031847407
3123,-0.008488437
3124,-0.008078402
3125,-0.012780241
3126,0.0014007133
3127,0.0008816566
3128,-0.0028305836
3129,0.00058437604
3130,0.0029895895
3131,-0.013763872
3132,0.01361841
3133,0.003920983
3134,-0.007230405
3135,-0.0122154355
3136,0.004274794
3137,-0.0074512707
3138,0.00678528
3139,0.004345263
3140,0.0027647503
3141,-0.00376717
3142,0.0037509012
3143,-0.004610571
3144,-0.0077467887
3145,0.0072299815
3146,-0.010130483
3147,0.004531038
3148,0.009206297
3149,-0.01814284
3150,-0.001266354
3151,-0.0037295546
3152,0.0017820642
3153,-0.0046847025
3154,-0.005085461
3155,0.0041825147
3156,-0.0036482962
3157,0.01694979
3158,0.007113239
3159,0.0046999594
3160,0.0012580088
3161,-0.001177408
3162,0.016636737
3163,-0.019258117
3164,-0.0027353647
3165,0.0066632503
3166,0.0066508786
3167,0.0059596756
3168,0.002357666
3169,-0.005219858
3170,-0.008756124
3171,-0.013047861
3172,0.010093639
3173,-0.018909179
3174,-0.006924889
3175,0.009959638
3176,-0.0011687855
3177,0.0070466334
3178,0.0037979728
3179,-0.014230594
3180,-0.0032145018
3181,0.0029019676
3182,-0.008467136
3183,-0.00026914175
3184,0.0036813011
3185,0.0070354003
3186,-0.013189241
3187,0.006635398
3188,0.003933517
3189,0.0075833546
3190,0.013580673
3191,0.0009183416
3192,-0.0014479406
3193,0.003961299
3194,-0.002791968
3195,-0.0023552233
3196,-0.0022708043
3197,0.006035145
3198,0.007088029
3199,-0.0003609165
3200,0.0008927733
3201,0.0038176535
3202,-0.0026884126
3203,0.0024733124
3204,-0.00027503204
3205,0.00033938652
3206,-0.017572569
3207,0.013752354
3208,0.01912166
3209,-0.007516123
3210,-0.003752066
3211,-0.0017292605
3212,0.013490431
3213,-0.011068624
3214,-0.011176126
3215,-0.011167743
3216,-0.012824284
3217,-0.0022174693
3218,0.010521119
3219,-0.010479064
3220,0.0051620025
3221,-0.009919259
3222,-0.008057241
3223,-0.004106088
3224,0.002965296
3225,0.016732581
3226,0.0034013875
3227,-0.00023177415
3228,-0.0027230002
3229,0.01644817
3230,-0.015540461
3231,0.0079027
3232,0.0036693732
3233,0.01714325
3234,-0.006773155
3235,-0.008123667
3236,0.0052736476
3237,-0.0048797596
3238,0.0015621468
3239,-0.011115708
3240,0.014861419
3241,-0.0107272705
3242,0.0010040809
3243,0.001761111
3244,0.014833687
3245,0.011130303
3246,0.0026803804
3247,0.0064029447
3248,0.0043980335
3249,0.003710488
3250,0.018245924
3251,0.008286687
3252,-0.004564033
3253,-0.0017908766
3254,0.0056611877
3255,0.006891796
3256,0.011842342
3257,0.007918281
3258,0.005106194
3259,0.0071970634
3260,0.00477222
3261,-0.007967463
3262,0.009090766
3263,0.011261421
3264,-0.011047261
3265,-0.012608198
3266,0.012920421
3267,-0.00476688
3268,-0.004314686
3269,-0.0021274327
3270,0.010742979
3271,0.009055169
3272,0.0021656426
3273,-0.010864203
3274,0.008922264
3275,0.00206957
3276,-0.004116692
3277,0.010379282
3278,0.002822245
3279,0.009674119
3280,0.000933644
3281,-0.0046007973
3282,-0.01684863
3283,-0.00607692
3284,-0.001040222
3285,0.00865484
3286,0.018818496
3287,0.0074536316
3288,-0.0010688865
3289,0.004938987
3290,0.0067333416
3291,0.008333766
3292,-0.008312977
3293,-0.0037887099
3294,-0.0044311243
3295,-0.0023125208
3296,-0.014023202
3297,0.0046681175
3298,0.0028804084
3299,0.012056061
3300,-0.0091241235
3301,-0.0070029986
3302,-0.008237612
3303,0.006014348
3304,-0.011050936
3305,0.007706028
3306,-0.0012076847
3307,0.004690398
3308,0.013424541
3309,0.008830526
3310,0.017038893
3311,-0.010919912
3312,0.0056534996
3313,-0.0066910093
3314,-0.015805598
3315,0.004519017
3316,-0.0006114192
3317,0.010652075
3318,0.017971827
3319,0.0109331915
3320,0.0119972145
3321,0.014498511
3322,0.0048965206
3323,-0.004732461
3324,-0.00028306307
3325,-0.0017767433
3326,0.0074841655
3327,-0.012940877
3328,-0.012825832
3329,-0.016788004
3330,-0.0069573396
3331,0.007737037
3332,-0.001758219
3333,-0.0024408246
3334,0.003242335
3335,0.0071984665
3336,-0.0049335966
3337,-0.004302319
3338,0.005246339
3339,-0.0077296603
3340,-0.0057160514
3341,-9.159152e-05
3342,-0.0087988665
3343,0.010879335
3344,0.006077605
3345,0.0041715866
3346,0.010933238
3347,-0.007660821
3348,0.009937659
3349,0.0043330267
3350,0.0148980245
3351,-0.006525513
3352,-0.0036560674
3353,0.0052600605
3354,-0.0015340853
3355,0.006279595
3356,-0.007989359
3357,0.0008447684
3358,-0.002365198
3359,0.0061224764
3360,-0.010403234
3361,0.0012920251
3362,-0.015022417
3363,-0.0014176952
3364,0.004427618
3365,-0.014985877
3366,0.007049771
3367,0.007903407
3368,-0.007593817
3369,-0.0030573672
3370,0.0039899093
3371,0.0074373987
3372,-0.0067033377
3373,0.0070487526
3374,0.0039413557
3375,0.004409021
3376,-0.002250155
3377,-0.0013744679
3378,-0.013113365
3379,0.0051063066
3380,-0.011451203
3381,0.010092562
3382,-0.00674882
3383,0.01928608
3384,0.00041181
3385,0.008427956
3386,0.009160871
3387,0.014068599
3388,0.018146168
3389,-0.0006175339
3390,-0.017167233
3391,-0.0026213913
3392,0.0022860223
3393,-0.0011915269
3394,-0.019504126
3395,-0.002218942
3396,0.005991907
3397,-0.0032038956
3398,-0.0054310984
3399,0.004777658
3400,-0.004887504
3401,-0.011704986
3402,0.010364884
3403,-0.0044383463
3404,0.008279823
3405,0.004169182
3406,-0.004939827
3407,-0.013468044
3408,-0.0056182803
3409,0.004496178
3410,0.0019919027
3411,0.018850513
3412,-0.0014893515
3413,-0.0026708308
3414,0.012297675
3415,-0.014394829
3416,0.009400204
3417,-0.013146266
3418,-0.0039634663
3419,-0.0016118855
3420,0.0027358506
3421,-0.010900817
3422,0.0027982097
3423,0.0030725535
3424,0.015463518
3425,0.011502404
3426,-0.010300274
3427,0.007741097
3428,0.0006504093
3429,0.008692772
3430,-8.812438e-05
3431,-0.0022214428
3432,0.0026280775
3433,-0.0012697588
3434,-0.00042043978
3435,0.012638996
3436,-0.01567099
3437,0.0065494967
3438,-0.0036717104
3439,-0.0031530436
3440,-0.016493555
3441,-0.0006005019
3442,0.00038378753
3443,-0.0011829745
3444,0.0082076015
3445,0.006482405
3446,0.006393651
3447,0.0036937096
3448,0.0026453917
3449,0.00039006723
3450,0.012199678
3451,0.0027193013
3452,0.0091228625
3453,0.001036047
3454,0.007642161
3455,0.009192397
3456,0.008221424
3457,-0.014228945
3458,0.010215753
3459,0.0022231152
3460,-0.013855794
3461,0.008814296
3462,0.0047834213
3463,-0.012688296
3464,0.017474616
3465,0.002825831
3466,0.007750182
3467,0.007998795
3468,-0.00036784116
3469,-0.006759768
3470,-0.004512917
3471,-0.0094939545
3472,-0.0035846632
3473,-0.012558742
3474,-0.01254526
3475,-0.003906698
3476,0.0030621076
3477,0.0019717792
3478,0.0044491747
3479,-0.003371733
3480,-0.012332146
3481,-0.005720518
3482,-0.014603049
3483,0.013104697
3484,-0.002651769
3485,-0.0091341715
3486,0.004145891
3487,0.0013381594
3488,0.00509218
3489,0.009238247
3490,0.0112922015
3491,-0.012212628
3492,-0.004815626
3493,-0.006378858
3494,-0.0003706487
3495,-0.0069251093
3496,-0.016717562
3497,0.007944941
3498,0.007542148
3499,0.0059297946
3500,0.006087004
3501,-0.0018819295
3502,-0.014087848
3503,-0.0027079405
3504,-0.008986023
3505,-0.007560528
3506,-0.003025107
3507,0.014446189
3508,-0.011406083
3509,0.000601091
3510,-0.014715179
3511,0.008134106
3512,-0.0069009876
3513,0.0064564347
3514,-0.017326789
3515,-0.011456176
3516,-0.008486791
3517,0.013167883
3518,0.005899787
3519,0.0021287806
3520,-0.016228443
3521,-0.0048118355
3522,0.0028963492
3523,-0.003978775
3524,-0.017157571
3525,0.0012668169
3526,-0.01619189
3527,0.0032896597
3528,-0.018668365
3529,-0.006764127
3530,0.0017802365
3531,-0.0055701034
3532,0.0067529986
3533,-0.014103029
3534,-0.001946953
3535,0.0016827271
3536,-0.011955798
3537,0.0058845836
3538,0.00026790964
3539,-0.0098816315
3540,0.008215115
3541,-0.004633863
3542,0.016339054
3543,0.012702046
3544,0.007489937
3545,-0.010772058
3546,-0.0019757035
3547,0.009493958
3548,-0.0093734665
3549,0.004816048
3550,0.005477212
3551,0.0019118882
3552,0.005286905
3553,-0.0025101288
3554,-5.3407533e-05
3555,0.0010033082
3556,-0.009780634
3557,-0.017436367
3558,0.006712093
3559,0.012698277
3560,0.0052167517
3561,0.007814337
3562,0.005183904
3563,0.007923541
3564,-0.008387271
3565,-0.005584545
3566,-0.010104532
3567,-0.0001402768
3568,-0.008342192
3569,0.0144442255
3570,-0.0049067778
3571,-0.0117210075
3572,-0.0049972474
3573,0.008695922
3574,-0.009367531
3575,-0.006868509
3576,-0.005521984
3577,0.0027442016
3578,-0.0048551955
3579,0.0027367936
3580,0.0048439056
3581,0.008120651
3582,0.0051365257
3583,0.011003611
3584,0.010480763
3585,0.0007706685
3586,-0.0013494052
3587,-0.003905952
3588,-0.012385611
3589,0.0059758513
3590,-0.00654586
3591,0.009340508
3592,0.012095406
3593,-0.015255176
3594,-0.0077479407
3595,-0.014184967
3596,0.004108023
3597,-0.009757365
3598,-0.011751545
3599,-0.004840507
3600,-0.0046079457
3601,-0.013477181
3602,-0.012677451
3603,0.006597115
3604,0.00019652786
3605,-0.0059689544
3606,-0.00094031956
3607,-0.003663366
3608,-0.014422532
3609,0.015968317
3610,-0.0053581516
3611,-0.011310445
3612,0.004554772
3613,-0.005030865
3614,0.00024403216
3615,0.01953983
3616,0.0013372968
3617,0.015368024
3618,0.00064378034
3619,-0.016660146
3620,0.0035070854
3621,-0.0063393638
3622,-0.014706737
3623,-0.010703097
3624,-0.0025382596
3625,0.0025338642
3626,0.0075726197
3627,0.0127627
3628,-0.0025626526
3629,0.0016836689
3630,0.0062255254
3631,0.00082676834
3632,-0.007509075
3633,0.007533015
3634,-0.00087625266
3635,-0.015333573
3636,0.013034472
3637,0.012848993
3638,0.0018878712
3639,0.014082055
3640,-0.0018838858
3641,-0.010684982
3642,0.006016587
3643,-0.01614016
3644,0.006740004
3645,0.0052339328
3646,0.009760492
3647,-0.006633035
3648,-0.007042824
3649,-0.0064473134
3650,-0.0020917638
3651,0.012438971
3652,0.008605927
3653,0.008986498
3654,-0.013873342
3655,0.004497838
3656,0.006348706
3657,0.00549156
3658,0.016870208
3659,-0.0093647605
3660,-0.0022685342
3661,-0.006744598
3662,-0.014009135
3663,0.0114746215
3664,0.005795758
3665,-0.004453616
3666,0.012761195
3667,-0.004230863
3668,-0.0031402623
3669,0.0015662408
3670,0.016661929
3671,-0.0006908666
3672,-0.0026745535
3673,-0.004235328
3674,-0.008987084
3675,0.015926506
3676,0.013032957
3677,0.004831945
3678,0.002749815
3679,0.005508989
3680,-0.013908514
3681,-0.006210986
3682,-0.011412426
3683,0.00282316
3684,-0.006279377
3685,-0.006822646
3686,0.004912146
3687,0.0012137011
3688,-0.005171641
3689,0.004201363
3690,-0.010128303
3691,-0.005749434
3692,-0.007821124
3693,-0.0044241613
3694,-0.0017334576
3695,-0.0017403843
3696,-0.010317621
3697,0.014398691
3698,-0.0105152605
3699,0.0031458144
3700,0.0076274574
3701,0.0011463837
3702,0.0048755375
3703,-0.0037849026
3704,-0.0012222666
3705,0.0039653736
3706,0.0066543105
3707,0.015793145
3708,0.0039291526
3709,-0.002350604
3710,0.0004675842
3711,-0.0060539455
3712,-0.008990313
3713,0.00860989
3714,0.011056902
3715,-0.0022528095
3716,0.018566567
3717,0.0016826689
3718,-0.00043163548
3719,-0.007702204
3720,0.008809551
3721,0.013229917
3722,-0.0038019388
3723,-0.0027125084
3724,-0.015945906
3725,-0.008293708
3726,0.008250794
3727,-0.007816775
3728,0.0066914484
3729,-0.010555559
3730,-0.008462498
3731,-0.0008491218
3732,-0.0047790394
3733,-0.003277464
3734,0.0016896795
3735,0.009280334
3736,0.012470502
3737,0.019751221
3738,0.0058214837
3739,-0.006151958
3740,-0.003685397
3741,-0.0094606355
3742,-0.0041539115
3743,0.004258004
3744,0.013687334
3745,0.012849135
3746,0.0159334
3747,0.0079794815
3748,-0.0025945227
3749,-0.01427815
3750,-0.01364983
3751,-0.0055553187
3752,-0.0033448848
3753,-0.00095748156
3754,0.009369446
3755,-0.0006282997
3756,0.0020284937
3757,0.00089262385
3758,0.012099344
3759,0.0032368102
3760,0.005750825
3761,-0.0066964915
3762,-0.002360919
3763,0.0019495779
3764,-0.010032638
3765,0.0031370448
3766,0.015283968
3767,0.006253643
3768,0.006607472
3769,-0.0030601956
3770,0.01193391
3771,-0.013119606
3772,-0.009392327
3773,-0.018141624
3774,0.0020823088
3775,-0.014439334
3776,-0.0048694666
3777,-0.0020527428
3778,-0.00015423996
3779,0.0044103293
3780,-0.003087688
3781,0.007075875
3782,-0.011543544
3783,-0.010074285
3784,0.00050747703
3785,0.003723133
3786,-0.0033909553
3787,-0.016145527
3788,-0.004716513
3789,-0.0028333347
3790,-0.012656887
3791,-0.006960111
3792,0.0075662713
3793,-0.0008709617
3794,0.0011655374
3795,0.004369809
3796,0.007898532
3797,-0.017523475
3798,-0.018884145
3799,0.010121715
3800,0.013797816
3801,-0.0039686654
3802,0.0074842954
3803,-0.0005953073
3804,7.547617e-05
3805,-0.0028037152
3806,0.015904887
3807,-0.0065565696
3808,0.015232981
3809,0.00736348
3810,-0.0066319816
3811,-0.006096844
3812,0.0044981823
3813,0.004727318
3814,0.0012470476
3815,-0.015419722
3816,-0.009038586
3817,0.0030898203
3818,-0.007854916
3819,0.0027513348
3820,0.008309583
3821,0.010722306
3822,0.007440486
3823,0.0013610607
3824,-0.018296884
3825,-0.012211553
3826,-0.01535685
3827,0.007057023
3828,-0.0032733674
3829,0.00017291383
3830,0.00030502037
3831,-0.00557116
3832,0.015661916
3833,-0.0021841482
3834,-0.010637287
3835,0.0031712973
3836,-0.0010597078
3837,0.0059164087
3838,-0.009395745
3839,-0.018355533
3840,0.0118494695
3841,0.01166494
3842,-0.01882423
3843,-0.0106355
3844,0.017380392
3845,-0.0037375758
3846,0.0020464002
3847,0.006798176
3848,-0.0035335207
3849,0.009144775
3850,0.0005638919
3851,-0.0064572017
3852,-0.017629173
3853,-0.010894996
3854,-0.009423335
3855,0.010322333
3856,0.014908444
3857,0.008272779
3858,-0.0006133704
3859,0.013377642
3860,-0.015028884
3861,-0.0066905003
3862,-0.004246531
3863,0.0045878845
3864,-0.0035073562
3865,-0.016884828
3866,-0.0020732821
3867,-0.0017717278
3868,0.011956606
3869,-0.019704198
3870,0.006966989
3871,-0.0050408314
3872,0.010153176
3873,-0.010737539
3874,-0.004790221
3875,0.012880166
3876,0.007627209
3877,-0.0065086773
3878,-0.00036110505
3879,0.013486939
3880,0.0012559812
3881,0.0030398676
3882,-0.015515299
3883,-0.0030107223
3884,0.015655825
3885,-0.018668259
3886,-0.009418923
3887,-0.006954076
3888,0.011301751
3889,-0.004978205
3890,0.01873812
3891,-0.0073034703
3892,0.001024083
3893,-0.011875212
3894,0.014014576
3895,-0.002324898
3896,-0.0011118664
3897,-0.0064331335
3898,-0.0025223186
3899,-0.00021236265
3900,-0.00678133
3901,0.0038917523
3902,-0.016480817
3903,-7.275581e-05
3904,-0.014444222
3905,0.005837643
3906,-0.0077110734
3907,0.0040924894
3908,0.0074277245
3909,-0.013210199
3910,0.0056880466
3911,-0.007848584
3912,0.00013579901
3913,-0.0035414211
3914,-0.0013302383
3915,-0.017235935
3916,0.00043159138
3917,-0.0062959604
3918,-0.004809849
3919,0.010743267
3920,0.013813634
3921,-0.017554713
3922,-0.0014447123
3923,0.006082197
3924,0.00073944853
3925,-0.014778308
3926,-0.0047402894
3927,-0.004680956
3928,0.0052917604
3929,-0.017108839
3930,0.0087004015
3931,-0.001340649
3932,0.0015819941
3933,-0.018470237
3934,-0.0067271134
3935,-0.007958144
3936,-0.0014761413
3937,0.007574874
3938,0.0123524815
3939,0.0022080252
3940,-0.0018916774
3941,-0.005097589
3942,0.00530991
3943,-0.015566406
3944,-0.001751446
3945,0.00905398
3946,-0.0035018243
3947,0.0031399056
3948,-0.012456235
3949,0.010852428
3950,0.009671622
3951,-0.0034598669
3952,-0.009621627
3953,-0.015313951
3954,0.00012767107
3955,-0.00034562807
3956,0.019115953
3957,-0.0069608837
3958,-0.011674294
3959,0.0020402248
3960,-0.008635606
3961,-0.004226299
3962,-0.0039057434
3963,0.008200177
3964,0.0008738986
3965,0.0035304835
3966,-0.0010529093
3967,0.004832693
3968,0.002075755
3969,-0.0050001773
3970,-0.008669307
3971,0.0010899688
3972,0.010791886
3973,0.0059385886
3974,-0.008756117
3975,0.0006752892
3976,0.008825151
3977,-0.0058278204
3978,-0.0015953816
3979,-0.010278443
3980,0.006909565
3981,0.010518143
3982,0.009345079
3983,-0.0020011747
3984,0.008507234
3985,-0.005812463
3986,-0.0065417057
3987,-0.01043524
3988,-0.012211798
3989,-0.010714966
3990,-0.0045201727
3991,-0.006667276
3992,-0.002481567
3993,-0.0010901726
3994,0.0019488591
3995,0.008841685
3996,-0.015023883
3997,0.0028713436
3998,-0.008174635
3999,0.013494241
4000,-0.006174811
4001,-0.0028667566
4002,-0.017778428
4003,-0.0076001915
4004,0.012902291
4005,-0.017092798
4006,-0.0033514826
4007,0.003989834
4008,-0.0071001914
4009,0.003343956
4010,-0.0016134958
4011,0.0019924147
4012,0.019056348
4013,-0.005378074
4014,-0.006613466
4015,0.018011969
4016,0.004617726
4017,-0.0011266031
4018,0.007429537
4019,0.011102175
4020,-0.006579793
4021,-0.0011655332
4022,-0.0024116524
4023,0.0028586213
4024,-0.0015682359
4025,0.0040317345
4026,-0.008161184
4027,0.0067157648
4028,0.009149703
4029,-0.009482173
4030,0.008156497
4031,-0.019893441
4032,0.019034231
4033,0.0014478056
4034,-0.0035783064
4035,-0.0038925144
4036,-0.013421417
4037,0.0040512634
4038,0.013438757
4039,-0.0015662793
4040,-0.0062075322
4041,0.0001832436
4042,0.013302972
4043,0.019733762
4044,-0.004603593
4045,-0.006172632
4046,0.011944477
4047,-0.010024975
4048,0.009606375
4049,0.0072064362
4050,0.010251093
4051,0.0062620887
4052,0.012205194
4053,-0.010431932
4054,-0.008836069
4055,0.009360615
4056,-0.0077615413
4057,-0.00054901117
4058,0.015491377
4059,0.013073935
4060,-0.011754172
4061,-0.013357589
4062,0.018439593
4063,-0.016480738
4064,0.016147524
4065,0.004691259
4066,0.00075458025
4067,-0.0011765952
4068,-0.0008251337
4069,-0.0072796643
4070,-0.006228051
4071,-0.015054984
4072,-0.017312933
4073,0.01618071
4074,-0.0039691012
4075,0.0067599057
4076,-0.006874576
4077,0.0025838767
4078,-0.0056380765
4079,0.0034275365
4080,-0.009284855
4081,0.0012809874
4082,-0.0021058342
4083,0.0057754433
4084,-0.009010411
4085,-0.002636405
4086,-0.004218726
4087,0.0011317409
4088,-0.0016625348
4089,0.018848138
4090,-0.0024310953
4091,-0.007757398
4092,-0.018452924
4093,0.0009878073
4094,-0.005778456
4095,-0.0049201837
4096,0.035238348
4097,0.011654643
4098,-0.0071603553
4099,-0.024791077
4100,0.013263939
4101,-0.005342736
4102,0.006685952
4103,0.031834878
4104,0.032473527
4105,0.0074164467
4106,0.015742881
4107,0.010608743
4108,0.0333355
4109,0.034649294
4110,0.047751136
4111,-0.0061327633
4112,0.007284779
4113,-0.060246155
4114,-0.018553883
4115,0.043548964
4116,0.019122712
4117,0.015498647
4118,0.00037785445
4119,-0.04555821
4120,-0.016005471
4121,-0.044822093
4122,-0.017712846
4123,-0.059083164
4124,0.026635565
4125,-0.009074833
4126,-0.02986465
4127,-0.04900501
4128,0.03577777
4129,0.031445358
4130,0.030703137
4131,0.011214458
4132,-0.036597352
4133,-0.018363794
4134,0.03970629
4135,-0.05272314
4136,0.0020128929
4137,0.031779844
4138,0.034895938
4139,0.019825393
4140,0.030569648
4141,-0.04797913
4142,0.037695616
4143,0.021361686
4144,0.035237532
4145,-0.010164469
4146,0.021968257
4147,-0.025904251
4148,0.030967839
4149,-0.010905538
4150,-0.033683654
4151,-0.04190585
4152,-0.04014758
4153,0.051893838
4154,-0.039792538
4155,-0.053297415
4156,0.024382634
4157,0.024806922
4158,0.023037883
4159,-0.0076151937
4160,-0.017791362
4161,0.0122538265
4162,0.009817368
4163,0.039791733
4164,-0.0149620045
4165,-0.009389963
4166,0.022773577
4167,0.033547655
4168,0.0081980955
4169,-0.008250075
4170,-0.013944366
4171,-0.00032573895
4172,-0.006718874
4173,-0.049647663
4174,0.02222597
4175,-0.0239577
4176,-0.046127494
4177,0.025435396
4178,0.021773633
4179,0.003692942
4180,-0.025149692
4181,-0.009214494
4182,-0.0344272
4183,0.000958398
4184,0.025252633
4185,0.033941276
4186,0.018464556
4187,-0.013185234
4188,-0.036137056
4189,-0.0019656988
4190,0.011933513
4191,-0.01814771
4192,0.055861298
4193,0.036744382
4194,0.024786726
4195,-0.03287323
4196,0.02284325
4197,0.03147782
4198,0.0143248495
4199,0.01243154
4200,0.007085118
4201,-0.06085847
4202,-0.040872168
4203,-0.06538687
4204,0.0427787
4205,0.006953159
4206,-0.0065574613
4207,-0.052369885
4208,0.03112434
4209,0.017899321
4210,0.03377293
4211,0.0049442383
4212,-0.05698938
4213,-0.012325385
4214,-0.031846542
4215,-0.054347802
4216,-0.0537595
4217,0.026615195
4218,-0.034774985
4219,-0.011243036
4220,0.016649077
4221,0.014485961
4222,-0.042698618
4223,-0.102671534
4224,-0.01131719
4225,-0.035158023
4226,-0.014405757
4227,-0.040618315
4228,-0.0006642644
4229,0.039943412
4230,-0.005419177
4231,-0.04914846
4232,0.006388108
4233,0.022273809
4234,-0.05518145
4235,-0.038535308
4236,-0.08466346
4237,-0.020001391
4238,0.045430735
4239,0.01995747
4240,0.00072655466
4241,-0.051525887
4242,0.02606787
4243,-0.021096956
4244,-0.048121743
4245,0.0073998095
4246,0.021007122
4247,-0.033915758
4248,0.043803364
4249,0.018726956
4250,-0.036898084
4251,-0.06261273
4252,-0.013591095
4253,0.032133866
4254,-0.017445704
4255,0.047012493
4256,-0.017360495
4257,-0.027739352
4258,-0.051476322
4259,-0.05316577
4260,-0.004325859
4261,-0.045774654
4262,0.0032837703
4263,-0.022931987
4264,0.002580809
4265,-0.052315738
4266,0.0003871258
4267,0.012339489
4268,-0.034751486
4269,0.015550162
4270,0.029169424
4271,0.0095996065
4272,0.012972101
4273,0.033863034
4274,-0.0051676626
4275,-0.01785372
4276,0.037677173
4277,-0.0034491348
4278,-0.034280945
4279,0.0050634253
4280,-0.039342426
4281,0.015518309
4282,-0.055300012
4283,-0.011381537
4284,0.008989577
4285,-0.0025898358
4286,-0.04099205
4287,-0.0049618315
4288,0.009589796
4289,0.037847098
4290,0.035795074
4291,-0.070799395
4292,0.01800402
4293,0.029370762
4294,0.04497151
4295,-0.046859954
4296,-0.012182847
4297,-0.061496012
4298,-0.008097514
4299,-0.05491989
4300,-0.004345542
4301,-0.003918659
4302,0.018193338
4303,-0.0076121506
4304,0.03658174
4305,-0.015405776
4306,-0.013814293
4307,0.011965615
4308,0.008320791
4309,-0.0394258
4310,0.035844143
4311,-0.044877686
4312,-0.035260547
4313,0.048309706
4314,-0.043531276
4315,-0.13279733
4316,0.009883504
4317,0.038545463
4318,-0.04927466
4319,-8.3851344e-05
4320,0.03305844
4321,-0.015754374
4322,0.009578178
4323,0.015151715
4324,-0.029669803
4325,0.04835206
4326,0.03457377
4327,-0.023252945
4328,0.02567801
4329,0.046507757
4330,0.043754917
4331,0.016039306
4332,0.009311078
4333,0.036611304
4334,0.040999994
4335,-0.023938008
4336,-0.04914708
4337,0.030351471
4338,0.03013625
4339,0.013640545
4340,0.036099367
4341,-0.039878394
4342,-0.009012391
4343,-0.01639693
4344,0.0365625
4345,-0.021485217
4346,-0.01594571
4347,0.035673525
4348,-0.027516104
4349,0.011467132
4350,0.0149003845
4351,-0.060494494
4352,0.031466614
4353,-0.04500999
4354,-0.0024752414
4355,-0.057317782
4356,0.02049884
4357,0.03545407
4358,0.04462776
4359,-0.001986851
4360,-0.009974595
4361,0.013936377
4362,-0.05661697
4363,0.014549579
4364,-0.052853543
4365,-0.03486246
4366,0.02084598
4367,-0.06369238
4368,0.041091535
4369,0.05558705
4370,-0.06263692
4371,0.029895877
4372,0.018561823
4373,0.026814511
4374,0.031460676
4375,0.040367145
4376,-0.06620594
4377,0.033580776
4378,0.018058116
4379,-0.058412693
4380,0.013803055
4381,-0.10112681
4382,0.038923755
4383,0.02826187
4384,0.025241848
4385,0.04245839
4386,-0.002106635
4387,0.010593493
4388,0.0061453087
4389,0.04823568
4390,0.012027789
4391,0.025195228
4392,0.054435935
4393,-0.05402703
4394,0.041991174
4395,0.01742358
4396,0.06733218
4397,0.036135543
4398,-0.04816693
4399,0.04952169
4400,-0.05579882
4401,0.015105992
4402,0.01427799
4403,-0.05334315
4404,0.0026580407
4405,-0.027067838
4406,-0.03262384
4407,0.010942709
4408,0.051737715
4409,0.06059641
4410,0.04531055
4411,-0.040939298
4412,0.047269028
4413,0.053168084
4414,0.040473204
4415,0.05671737
4416,0.026610887
4417,0.04702391
4418,0.043773744
4419,0.04019172
4420,-0.04953108
4421,0.04160166
4422,0.04319464
4423,0.021522049
4424,0.043011095
4425,-0.013175107
4426,-0.05623078
4427,0.044815768
4428,-0.07567625
4429,-0.04987401
4430,0.010399069
4431,0.03798286
4432,0.067488395
4433,0.01795156
4434,0.051009346
4435,0.010266941
4436,-0.04424318
4437,0.040368594
4438,-0.037740506
4439,0.041301515
4440,0.045968845
4441,0.0214796
4442,0.03207461
4443,-0.00772044
4444,-0.044905674
4445,0.03484305
4446,0.049520046
4447,0.0026025926
4448,-0.015181975
4449,-0.041070815
4450,-0.07637305
4451,-0.07145134
4452,0.04404877
4453,0.037796546
4454,0.06294036
4455,0.019330772
4456,-0.056694306
4457,-0.06074252
4458,0.015347234
4459,-0.050364025
4460,-0.026122127
4461,0.0025849054
4462,0.04704218
4463,0.041142154
4464,0.03476933
4465,-0.06323129
4466,0.016366104
4467,0.002911996
4468,-0.057047263
4469,0.023389626
4470,0.05914535
4471,0.050362878
4472,0.05556884
4473,0.027339395
4474,0.042619057
4475,-0.032109756
4476,0.034545977
4477,0.05329176
4478,0.024080597
4479,-0.08807358
4480,0.023314012
4481,-0.034557745
4482,0.04287581
4483,0.030614704
4484,-0.05434499
4485,-0.020502433
4486,0.061289556
4487,0.052147914
4488,-0.060892016
4489,0.033521727
4490,0.045295455
4491,0.050209697
4492,-0.08405668
4493,-0.043233205
4494,-0.063457415
4495,0.043593183
4496,-0.06185554
4497,0.008238964
4498,0.037040982
4499,0.053874858
4500,-0.048126914
4501,0.052637544
4502,0.046204034
4503,-0.035270985
4504,0.012039957
4505,0.026078314
4506,-0.04917404
4507,-0.029774407
4508,0.044981766
4509,0.010500046
4510,0.041060273
4511,0.019621862
4512,0.03128937
4513,-0.06962504
4514,0.038164698
4515,-0.052954
4516,0.036087897
4517,0.05520168
4518,0.039646
4519,0.062214114
4520,0.011116195
4521,-0.05235723
4522,-0.051456913
4523,0.02967131
4524,-0.07109522
4525,0.02399606
4526,0.053104408
4527,-0.061189286
4528,-0.05097251
4529,0.048165813
4530,-0.0008712418
4531,-0.059992623
4532,-0.045087516
4533,0.02344373
4534,0.04621899
4535,0.05763467
4536,-0.06194328
4537,0.032494556
4538,0.021117784
4539,-0.007909553
4540,0.0267699
4541,0.047524016
4542,-0.040628597
4543,-0.024998548
4544,0.061689727
4545,0.04192125
4546,0.034745634
4547,-0.0707676
4548,0.04838866
4549,0.015335385
4550,0.041835077
4551,-0.026321445
4552,0.022409393
4553,-0.064298846
4554,0.021225354
4555,0.04364842
4556,0.009757515
4557,-0.06357816
4558,0.0010430908
4559,0.032557487
4560,0.0042913253
4561,0.004125707
4562,-0.014136102
4563,0.028258506
4564,-0.06472014
4565,-0.004141476
4566,0.038678136
4567,0.042422373
4568,0.039927065
4569,-0.038533695
4570,-0.052868728
4571,0.061183296
4572,0.031640477
4573,0.0096449
4574,-0.04931232
4575,0.02520708
4576,0.035781167
4577,0.025685482
4578,0.03138376
4579,0.063482255
4580,-0.05828003
4581,0.027579624
4582,0.02077571
4583,0.038829315
4584,0.026954206
4585,0.026635265
4586,0.0058716396
4587,0.055057645
4588,0.02230255
4589,0.0337429
4590,0.052283518
4591,0.02055598
4592,-0.049322553
4593,0.0038506815
4594,0.04525351
4595,0.06804766
4596,-0.0014317993
4597,0.020222794
4598,0.038403433
4599,-0.043400563
4600,-0.0002742332
4601,0.045664687
4602,-0.016163405
4603,0.01579154
4604,-0.070430435
4605,-0.039396673
4606,0.029710798
4607,-0.06022599
4608,-0.018369444
4609,0.03224109
4610,-0.0049044886
4611,-0.06726004
4612,0.0035197488
4613,0.045510978
4614,-0.040380668
4615,0.032809995
4616,-0.018170184
4617,0.0079377685
4618,0.061369717
4619,-0.002790895
4620,0.02505878
4621,0.037186723
4622,-0.04509988
4623,-0.06353431
4624,0.036719006
4625,-0.06026271
4626,-0.06249933
4627,0.03147366
4628,0.048849635
4629,-0.02376433
4630,-0.045905545
4631,0.023120793
4632,0.06831473
4633,0.019789586
4634,0.056564324
4635,0.033727605
4636,-0.026443444
4637,0.039647825
4638,0.030605182
4639,0.03755784
4640,0.0044937446
4641,0.02991145
4642,0.06922216
4643,-0.017063713
4644,0.014543076
4645,-0.041759703
4646,-0.015664259
4647,0.02317109
4648,0.021476964
4649,0.012380062
4650,-0.044986352
4651,-0.053698603
4652,-0.05903848
4653,0.04280643
4654,-0.005358129
4655,0.051095445
4656,0.00994576
4657,0.04154647
4658,-0.036172193
4659,-0.059809648
4660,-0.018193318
4661,-0.041948047
4662,0.032906864
4663,0.038925305
4664,0.019228784
4665,-0.059758745
4666,0.04375541
4667,-0.070551224
4668,-0.046796996
4669,0.03202918
4670,0.036523785
4671,-0.053617936
4672,0.019706331
4673,0.055623148
4674,0.03747879
4675,0.04069172
4676,-0.049515534
4677,-0.016692992
4678,-0.046536174
4679,-0.011838355
4680,0.034679756
4681,-0.022292307
4682,-0.055715248
4683,0.037236787
4684,0.019494386
4685,0.04854893
4686,-0.0035599314
4687,-0.04953894
4688,0.02513289
4689,-0.03010739
4690,0.023387155
4691,0.015127321
4692,0.08129942
4693,0.0052976096
4694,0.04902942
4695,0.011198692
4696,-0.036643486
4697,0.032910604
4698,0.04532742
4699,-0.06705742
4700,-0.046143252
4701,0.025179802
4702,-0.046245467
4703,-0.057375483
4704,-0.010600545
4705,0.0042468207
4706,-0.07640381
4707,0.07940549
4708,0.0043632863
4709,0.018721158
4710,-0.056094673
4711,0.036329016
4712,0.051818028
4713,-0.00945563
4714,0.04947002
4715,0.049980037
4716,-0.06111951
4717,0.02348072
4718,-0.016907044
4719,0.03903903
4720,-0.032250226
4721,0.044726208
4722,-0.012203991
4723,0.03721389
4724,0.054089036
4725,0.027921364
4726,-0.03784616
4727,0.019295838
4728,-0.05377624
4729,0.005981067
4730,-0.04809208
4731,0.011320267
4732,0.033948734
4733,0.026157605
4734,0.013538815
4735,0.020356173
4736,0.018416695
4737,-0.046241056
4738,-0.020572545
4739,0.038754668
4740,0.06361979
4741,-0.061654683
4742,-0.068689644
4743,-0.048791807
4744,0.06513288
4745,-0.051768262
4746,0.04279445
4747,0.01607202
4748,-0.010797887
4749,0.018167067
4750,-0.049676612
4751,0.022286318
4752,-0.06783104
4753,-0.010013545
4754,0.045533713
4755,0.019565193
4756,0.04080812
4757,-0.04863081
4758,-0.04074853
4759,-0.033876367
4760,-0.042635884
4761,0.013163021
4762,-0.04836224
4763,-0.06262171
4764,0.04843791
4765,-0.007318411
4766,-0.014683314
4767,-0.04943647
4768,0.036797963
4769,-0.06965864
4770,0.017231759
4771,0.025795206
4772,0.04324869
4773,-0.045722596
4774,-0.03999836
4775,0.01488749
4776,0.039641555
4777,-0.036263093
4778,0.05279891
4779,0.02391357
4780,0.07738996
4781,0.010845811
4782,0.03804475
4783,0.06548956
4784,0.034246292
4785,0.011638645
4786,-0.0056201294
4787,-0.060046356
4788,0.010213083
4789,0.024902571
4790,0.0063900272
4791,-0.044483606
4792,-0.061885186
4793,0.02729749
4794,0.012447217
4795,-0.008229064
4796,0.008888506
4797,0.035498038
4798,0.039401308
4799,0.02619775
4800,-0.055015847
4801,0.02114991
4802,-0.053710204
4803,-0.010470581
4804,-0.047048155
4805,-0.00086623995
4806,0.006110334
4807,-0.029930053
4808,-0.018603327
4809,0.05834265
4810,0.054436065
4811,0.003388995
4812,-0.042254943
4813,-0.0064025815
4814,-0.049592867
4815,0.059219692
4816,0.0058578355
4817,0.027542133
4818,-0.011329802
4819,0.034041557
4820,0.030434405
4821,0.013727237
4822,-0.061267797
4823,0.04946156
4824,0.015634874
4825,-0.004154475
4826,0.05921367
4827,0.0047969143
4828,0.027159365
4829,0.008726814
4830,0.05063684
4831,0.013923353
4832,-0.03040058
4833,0.0133832
4834,-0.030465536
4835,-0.0486771
4836,0.06720208
4837,-0.04812881
4838,-0.059231117
4839,0.016057508
4840,0.04243758
4841,0.017072212
4842,-0.011872052
4843,0.050553005
4844,0.009097566
4845,-0.06099117
4846,0.020629687
4847,-0.046744525
4848,0.06901227
4849,0.036988292
4850,0.037541736
4851,-0.04233065
4852,-0.006921832
4853,0.023318164
4854,0.044255067
4855,-0.0012452026
4856,-0.030903544
4857,0.021525186
4858,-0.016347468
4859,0.02794625
4860,0.058727056
4861,-0.016395647
4862,0.0143460175
4863,-0.048527308
4864,-0.035529304
4865,0.045243934
4866,-0.0037095735
4867,-0.037045952
4868,-0.017716147
4869,-0.03526296
4870,0.027312597
4871,0.025677424
4872,-0.015746132
4873,0.015322403
4874,-0.056528833
4875,-0.034606833
4876,-0.02337747
4877,0.048105516
4878,0.0494425
4879,0.060750686
4880,-0.029874498
4881,-0.060435884
4882,-0.06250142
4883,-0.01565316
4884,-0.036219385
4885,0.032854073
4886,0.032699183
4887,0.024203211
4888,0.04892846
4889,0.018413592
4890,0.042839773
4891,0.06301419
4892,-0.023782426
4893,0.055131365
4894,0.03059596
4895,-0.049183138
4896,-0.039914425
4897,0.039466888
4898,0.032372735
4899,0.009874304
4900,0.063252896
4901,0.012633201
4902,-0.045386992
4903,0.024770923
4904,-0.061950043
4905,-0.0117745325
4906,0.030894719
4907,0.009979824
4908,-0.059069034
4909,0.018424982
4910,0.0023406006
4911,0.0329822
4912,-0.0051151514
4913,0.041106787
4914,0.0053602555
4915,0.077547505
4916,-0.048079543
4917,-0.033321187
4918,0.020380858
4919,0.031853285
4920,-0.040053725
4921,-0.059993315
4922,-0.02563655
4923,-0.028402882
4924,-0.025210775
4925,0.028643804
4926,-0.048951242
4927,0.015870452
4928,0.0006364228
4929,-0.04482249
4930,0.00052759156
4931,0.025696833
4932,0.02234899
4933,0.002238147
4934,0.036470167
4935,-0.006097905
4936,-0.05526803
4937,0.017146217
4938,0.06404928
4939,-0.026929328
4940,0.090845905
4941,0.049254764
4942,0.0014364923
4943,-0.01822996
4944,0.023891846
4945,-0.029537927
4946,0.0025408948
4947,-0.040274937
4948,-0.025809728
4949,-0.048692808
4950,0.046489164
4951,0.011990857
4952,0.01757576
4953,-0.032679513
4954,-0.04025531
4955,-0.066658765
4956,0.047836907
4957,0.017068155
4958,0.01226318
4959,-0.05723902
4960,-0.017952805
4961,-0.040777195
4962,0.06072468
4963,-0.07134036
4964,0.012113556
4965,-0.008996487
4966,-0.084124446
4967,-0.015086636
4968,-0.056882992
4969,-0.05845236
4970,0.07063735
4971,0.124516405
4972,-0.06102613
4973,-0.032114275
4974,-0.0037498972
4975,-0.070831746
4976,0.005171868
4977,0.025609221
4978,-0.040380992
4979,-0.035872754
4980,0.025300134
4981,0.040500406
4982,0.027219698
4983,0.019306054
4984,0.018716905
4985,-0.011856906
4986,0.02864282
4987,0.07882626
4988,-0.055408485
4989,0.007838484
4990,0.06362713
4991,0.011086125
4992,0.0046311016
4993,-0.015498224
4994,-0.021277
4995,-0.04123357
4996,-0.054190084
4997,-0.06375377
4998,-0.0685135
4999,0.04503646
5000,-0.061396927
5001,0.013416706
5002,-0.054688286
5003,0.029792031
5004,0.10004552
5005,0.046576083
5006,0.02239294
5007,-0.044868812
5008,-0.0680345
5009,0.039026733
5010,0.0022272666
5011,0.02014449
5012,0.050128747
5013,0.020410908
5014,0.009862371
5015,0.076297246
5016,0.017427586
5017,-0.042439472
5018,0.07448994
5019,-0.06222121
5020,0.028067764
5021,-0.04520401
5022,-0.016334532
5023,-0.043575794
5024,0.018607222
5025,0.08467858
5026,0.005493261
5027,0.057570454
5028,-0.030659843
5029,0.036443822
5030,-0.022047922
5031,0.009982094
5032,0.0032563806
5033,-0.051088277
5034,0.037779566
5035,0.05888419
5036,-0.071038194
5037,-0.03244491
5038,0.025532331
5039,-0.060805183
5040,0.016736273
5041,0.00514899
5042,-0.0013404944
5043,0.07570741
5044,-0.04504073
5045,-0.041801617
5046,0.0034670872
5047,-0.05177531
5048,0.076181166
5049,0.0073707057
5050,0.06869614
5051,-0.0055406205
5052,-0.026708223
5053,-0.02234822
5054,0.04408154
5055,0.034923855
5056,-0.055329427
5057,-0.02017198
5058,-0.06568377
5059,0.0065905717
5060,0.0049578273
5061,-0.017719395
5062,-0.010273349
5063,-0.04367242
5064,-0.0055297045
5065,0.053619225
5066,-0.034054726
5067,-0.054587513
5068,-0.04212304
5069,-0.06331237
5070,0.02968012
5071,-0.04022697
5072,0.0060854624
5073,-0.024610825
5074,-0.013874863
5075,0.022243297
5076,0.041683413
5077,-0.021586752
5078,-0.097611934
5079,-0.044671137
5080,0.013875068
5081,0.016696874
5082,0.057155844
5083,-0.025925888
5084,-0.010450312
5085,-0.017491821
5086,0.048650928
5087,0.029329456
5088,-0.030615995
5089,0.027552875
5090,-0.008592492
5091,-0.05052129
5092,-0.058495723
5093,-0.0239747
5094,-0.05884566
5095,0.036610693
5096,-0.043797843
5097,-0.03602679
5098,0.018913815
5099,0.044246174
5100,-0.013869411
5101,-0.061404835
5102,-0.034787506
5103,0.021526616
5104,-0.04899046
5105,-0.010428911
5106,0.021071842
5107,-0.036155228
5108,0.016992435
5109,-0.036809817
5110,-0.040977374
5111,0.043065444
5112,-0.031415585
5113,0.020248203
5114,-0.010361556
5115,-0.02549497
5116,0.10463792
5117,0.03857383
5118,0.009989694
5119,0.061573863
5120,-0.031986587
5121,-0.018697372
5122,-0.009088042
5123,-0.037801456
5124,-0.02301978
5125,-0.035032414
5126,-0.03684377
5127,0.07571897
5128,-0.038003966
5129,0.011856502
5130,0.011353758
5131,-0.03435912
5132,-0.01994793
5133,-0.034536514
5134,0.02374354
5135,-0.06357625
5136,-0.0401948
5137,-0.06045097
5138,-0.046935655
5139,0.008844049
5140,-0.036147792
5141,-0.034322657
5142,0.030176645
5143,-0.045650616
5144,-0.06588063
5145,0.032053772
5146,-0.05583946
5147,0.07531638
5148,-0.023718279
5149,0.05160332
5150,-0.014693645
5151,-0.029821377
5152,-0.040540017
5153,-0.024346054
5154,-0.02061019
5155,-0.057712585
5156,-0.039939143
5157,-0.042185567
5158,0.042054236
5159,-0.040501263
5160,-0.061437
5161,-0.052680407
5162,-0.03235042
5163,-0.013579149
5164,0.0053183893
5165,-0.03148443
5166,-0.048318595
5167,-0.013351757
5168,-0.055781953
5169,0.010474862
5170,-0.02665272
5171,0.07646209
5172,-0.005512366
5173,-0.020753222
5174,-0.030809287
5175,-0.041937083
5176,0.0031875393
5177,0.021078588
5178,-0.020652182
5179,0.03538289
5180,0.0038270017
5181,-0.013462802
5182,-0.048754282
5183,-0.046160497
5184,-0.0049314722
5185,-0.044873957
5186,-0.039335072
5187,-0.04925207
5188,-0.017410168
5189,0.0055928426
5190,-0.04650921
5191,0.008183303
5192,-0.055034813
5193,0.003362663
5194,-0.056071535
5195,-0.028287474
5196,0.0483474
5197,0.045478415
5198,-0.039210614
5199,0.051096138
5200,0.037750933
5201,-0.026787639
5202,-0.052614283
5203,-0.0015405683
5204,-0.044275176
5205,-0.048667137
5206,-0.035555575
5207,-0.036151998
5208,0.028102625
5209,-0.032675486
5210,-0.04102834
5211,0.07607309
5212,0.06668638
5213,-0.035242714
5214,-0.041182544
5215,0.06536479
5216,-0.020410702
5217,-0.0410192
5218,-0.07640042
5219,-0.0667079
5220,0.0135428645
5221,-0.028140863
5222,-0.054671712
5223,-0.044113196
5224,0.016939672
5225,-0.06037566
5226,0.06758439
5227,-0.022802256
5228,-0.061098922
5229,-0.03226226
5230,-0.025610404
5231,-0.070688106
5232,-0.03221884
5233,-0.0037546854
5234,-0.03964555
5235,0.043862306
5236,0.019187218
5237,0.03381207
5238,-0.028484093
5239,-0.034237564
5240,-0.053252876
5241,-0.03785971
5242,-0.04775136
5243,-0.04681601
5244,0.003569087
5245,0.01356009
5246,-0.028952857
5247,0.12795214
5248,0.05227341
5249,0.03480893
5250,0.025946066
5251,-0.040563576
5252,0.009946062
5253,0.006804546
5254,-0.06850589
5255,-0.032054905
5256,0.014119244
5257,-0.016626194
5258,-0.03785415
5259,0.018065656
5260,0.045925908
5261,0.020230442
5262,-0.030791542
5263,0.028504381
5264,0.07431142
5265,0.05041376
5266,-0.016995711
5267,-0.03877669
5268,0.030101005
5269,-0.038079575
5270,-0.011317331
5271,-0.03405434
5272,-0.025219416
5273,0.01721359
5274,0.045338515
5275,0.070468776
5276,-0.02879215
5277,0.041633993
5278,0.024012696
5279,-0.0036258826
5280,0.027764648
5281,-0.06944949
5282,-0.05123411
5283,0.025795156
5284,0.02701631
5285,-0.04566285
5286,-0.025635261
5287,0.012911159
5288,-0.03971873
5289,0.06662243
5290,-0.05166231
5291,-0.05244097
5292,-0.07124584
5293,-0.007839464
5294,-0.017880622
5295,0.032673944
5296,-0.050872277
5297,-0.0046429457
5298,-0.0044619096
5299,-0.060029164
5300,-0.044954605
5301,-0.04074853
5302,-0.0019240594
5303,-0.051608823
5304,0.05911747
5305,0.00610048
5306,-0.033030406
5307,-0.010099105
5308,-0.032847714
5309,-0.026201574
5310,0.023935935
5311,-0.0379349
5312,-0.02403901
5313,-0.03847515
5314,-0.014482485
5315,-0.0138014965
5316,-0.029110666
5317,-0.030797582
5318,0.027609956
5319,0.06898051
5320,0.008078985
5321,-0.054179963
5322,0.02677354
5323,0.015002807
5324,-0.041965906
5325,-0.06383166
5326,0.037115786
5327,-0.040054075
5328,-0.038062114
5329,-0.02327325
5330,-0.010917675
5331,0.05074763
5332,-0.064580105
5333,0.04258975
5334,-0.059938528
5335,-0.044878066
5336,0.0050359564
5337,-0.040406793
5338,-0.048143454
5339,0.012971568
5340,-0.04002395
5341,-0.022770809
5342,-0.049067814
5343,-0.04308153
5344,-0.008669228
5345,0.008203499
5346,-0.035207428
5347,0.033613864
5348,0.06399901
5349,-0.048366886
5350,0.008503286
5351,-0.024145663
5352,-0.043764178
5353,-0.013721002
5354,-0.042124685
5355,-0.034465235
5356,0.05402016
5357,0.028315777
5358,-0.037160113
5359,0.03862621
5360,0.061654735
5361,-0.010757647
5362,0.002932658
5363,-0.0068029114
5364,-0.016055139
5365,0.023451153
5366,-0.040880665
5367,0.02400418
5368,-0.030561572
5369,0.021466874
5370,0.0070665693
5371,-0.048551165
5372,0.01993778
5373,0.076666415
5374,-0.03005987
5375,0.04158719
5376,-0.038734604
5377,-0.045043085
5378,-0.008111505
5379,-0.06709619
5380,-0.013240331
5381,-0.033623762
5382,-0.01947139
5383,0.033453617
5384,-0.0378356
5385,0.012409012
5386,0.001043843
5387,-0.034668475
5388,-0.052405383
5389,-0.014787579
5390,-0.010698776
5391,-0.06356713
5392,-0.0066215796
5393,0.031784564
5394,0.0191831
5395,-0.004245264
5396,-0.036087118
5397,-0.031082291
5398,-0.045710664
5399,-0.032707036
5400,-0.06594539
5401,0.06411877
5402,-0.05595172
5403,0.05568923
5404,-0.028815106
5405,0.10954574
5406,-0.032216918
5407,0.041407105
5408,-0.01589089
5409,-0.030947814
5410,-0.028604172
5411,0.026187357
5412,-0.04038599
5413,0.010613654
5414,-0.011085456
5415,-0.051690206
5416,0.006113456
5417,-0.053541802
5418,-0.036687642
5419,-0.039801285
5420,-0.059121244
5421,-0.04764828
5422,-0.04848566
5423,-0.009198003
5424,-0.05251631
5425,-0.032311555
5426,0.00888204
5427,-0.059835438
5428,-0.04782189
5429,-0.036686704
5430,-0.03403961
5431,-0.042112563
5432,-0.039783455
5433,-0.04934707
5434,-0.039776538
5435,0.025017321
5436,-0.046914335
5437,0.03175243
5438,-0.015249362
5439,-0.053678088
5440,-0.023635004
5441,-0.044806853
5442,-0.018209588
5443,-0.012666527
5444,0.10105921
5445,0.03456342
5446,-0.04644798
5447,-0.05177366
5448,-0.054975897
5449,-0.00016167792
5450,0.07498694
5451,-0.019988306
5452,-0.025588326
5453,0.006611728
5454,-0.03946406
5455,0.050984833
5456,-0.04603398
5457,-0.026502602
5458,-0.052084327
5459,-0.04073031
5460,0.015406638
5461,-0.048653297
5462,-0.03667642
5463,-0.022905137
5464,-0.03613887
5465,-0.032281857
5466,-0.013399077
5467,-0.06691325
5468,-0.046637796
5469,-0.033361346
5470,-0.040174384
5471,-0.05750019
5472,-0.015823144
5473,-0.040191803
5474,0.055321384
5475,-0.07150009
5476,0.010628385
5477,-0.016440772
5478,-0.049796008
5479,-0.043706194
5480,0.008748076
5481,0.06687268
5482,0.027912805
5483,-0.024123674
5484,-0.003506304
5485,-0.014404552
5486,-0.029592441
5487,-0.07089704
5488,-0.032533832
5489,-0.09290462
5490,-0.040498674
5491,-0.035910666
5492,0.0078664115
5493,0.034855984
5494,-0.037960958
5495,-0.054198746
5496,0.018954476
5497,-0.03769949
5498,0.05866556
5499,-0.042374324
5500,-0.016819654
5501,0.011473191
5502,-0.04159538
5503,0.077441275
5504,-0.042431075
5505,0.054863892
5506,-0.03434457
5507,0.043271534
5508,-0.054229543
5509,-0.063617796
5510,0.028357163
5511,-0.046866547
5512,-0.06126193
5513,-0.052040942
5514,-0.055072382
5515,0.027820949
5516,0.054913405
5517,-0.043254558
5518,-0.081634864
5519,-0.03087802
5520,0.06263263
5521,0.048828565
5522,0.0021348498
5523,-0.03881671
5524,-0.04780254
5525,0.004527458
5526,-0.018626625
5527,0.08865674
5528,-0.038472824
5529,-0.042710673
5530,-0.048806824
5531,-0.06249743
5532,-0.0024560245
5533,0.049352746
5534,0.033141483
5535,-0.012295021
5536,-0.030993914
5537,-0.06943244
5538,-0.05109424
5539,-0.017184589
5540,-0.030822027
5541,-0.04560638
5542,-0.03996378
5543,0.025496246
5544,-0.03997577
5545,0.05886893
5546,-0.051400587
5547,-0.06081859
5548,0.04690569
5549,0.06776139
5550,0.02395056
5551,-0.060829986
5552,-0.051666953
5553,0.013307295
5554,-0.0032013862
5555,-0.06002937
5556,-0.04531162
5557,-0.028623445
5558,-0.034477945
5559,0.052776646
5560,-0.06166514
5561,-0.01558486
5562,-0.008046228
5563,-0.0074048834
5564,-0.033080008
5565,0.028718239
5566,0.0007748793
5567,0.055942375
5568,-0.03981129
5569,-0.039753027
5570,-0.03678534
5571,0.082844116
5572,-0.0386752
5573,-0.047140293
5574,-0.023786666
5575,0.05638206
5576,0.061966486
5577,0.043840766
5578,-0.034225333
5579,0.047226302
5580,-0.0045803054
5581,0.06560138
5582,-0.010594313
5583,-0.012935987
5584,-0.038341906
5585,-0.025010537
5586,-0.01727945
5587,-0.018391673
5588,-0.055003785
5589,0.052525878
5590,-0.064808294
5591,-0.044661526
5592,-0.035605665
5593,-0.040950537
5594,-0.052720897
5595,-0.015818546
5596,-0.03794723
5597,-0.037274905
5598,0.019138005
5599,-0.04243474
5600,-0.022156205
5601,-0.03736824
5602,-0.03515177
5603,0.03228366
5604,-0.058253974
5605,-0.048112042
5606,-0.026633376
5607,-0.023918487
5608,0.021489898
5609,-0.025658397
5610,-0.037990507
5611,-0.011503165
5612,-0.0363914
5613,-0.061153784
5614,-0.036043625
5615,0.062327016
5616,-0.048068393
5617,-0.03264307
5618,-0.00044747128
5619,-0.06842001
5620,-0.053597216
5621,-0.02603441
5622,-0.012741016
5623,0.013469714
5624,-0.031554177
5625,0.030092208
5626,0.017301451
5627,-0.04847306
5628,-0.040196497
5629,-0.038045395
5630,-0.04125773
5631,-0.05965695
5632,-0.03817652
5633,-0.025099292
5634,-0.0082930615
5635,0.07831846
5636,-0.02055113
5637,-0.03528306
5638,0.07100623
5639,-0.0038537034
5640,-0.03781561
5641,0.026482558
5642,-0.056579385
5643,-0.034299776
5644,0.036767874
5645,-0.034779545
5646,0.019567162
5647,-0.06351042
5648,-0.04356139
5649,-0.053212475
5650,-0.061675712
5651,0.012023133
5652,-0.036146652
5653,-0.03536826
5654,-0.045584794
5655,-0.045541454
5656,-0.06593906
5657,-0.046257082
5658,-0.056162354
5659,0.048486102
5660,-0.026626553
5661,0.05635292
5662,-0.03196309
5663,-0.049218506
5664,-0.028129186
5665,-0.047315776
5666,-0.01635748
5667,-0.015445398
5668,0.03916585
5669,-0.042162813
5670,0.019067066
5671,-0.05246083
5672,-0.061647076
5673,-0.054042242
5674,-0.0060644974
5675,-0.011661247
5676,-0.059067123
5677,-0.04733068
5678,-0.0399601
5679,0.0075908573
5680,-0.05535068
5681,-0.03238979
5682,-0.034640685
5683,-0.059743512
5684,0.011848924
5685,-0.04348839
5686,-0.03350492
5687,0.030534785
5688,-0.018820254
5689,-0.059835926
5690,-0.025815785
5691,-0.056451607
5692,-0.0465523
5693,0.024392797
5694,-0.048373938
5695,0.05105503
5696,-0.023063846
5697,-0.045027222
5698,0.025724608
5699,-0.04824941
5700,-0.04914432
5701,0.006581647
5702,-0.04677569
5703,0.00869078
5704,-0.055157594
5705,0.04400419
5706,0.009343153
5707,-0.0068471697
5708,-0.011255191
5709,-0.050179582
5710,-0.03852054
5711,-0.028206032
5712,-0.03407794
5713,0.013621368
5714,-0.008782694
5715,-0.040637802
5716,0.018844279
5717,-0.04862188
5718,-0.0367568
5719,-0.036482535
5720,-0.036324307
5721,-0.0323007
5722,-0.038988203
5723,-0.06669074
5724,-0.048471715
5725,-0.033576403
5726,-0.045566943
5727,-0.0021291156
5728,-0.018476358
5729,-0.04084637
5730,-0.07606891
5731,0.007043935
5732,0.048884064
5733,-0.0010978533
5734,0.078215055
5735,-0.045087043
5736,-0.056618646
5737,0.028054895
5738,0.027400803
5739,-0.08026493
5740,-0.061036315
5741,-0.006723413
5742,-0.026547842
5743,0.07594543
5744,-0.032257527
5745,0.084767066
5746,-0.04070597
5747,-0.035872623
5748,0.032604143
5749,0.03707752
5750,-0.024650019
5751,-0.054166216
5752,-0.022211593
5753,0.03163649
5754,-0.017721482
5755,-0.040910993
5756,-0.035898924
5757,-0.053286117
5758,-0.04286429
5759,-0.0020653561
5760,-0.057821635
5761,0.11306139
5762,-0.03366153
5763,-0.026904432
5764,-0.0510004
5765,-0.045144435
5766,-0.06850171
5767,-0.025317939
5768,-0.06129048
5769,-0.04055348
5770,-0.029945463
5771,0.029357785
5772,0.016286759
5773,-0.043333177
5774,-0.08400011
5775,-0.04475921
5776,-0.06791096
5777,0.045864772
5778,0.03095764
5779,-0.038713373
5780,-0.048069324
5781,-0.048852295
5782,0.029043429
5783,-0.023973044
