Sno,Weight
0,-0.040572435
1,0.006490165
2,-0.075291544
3,-0.006843769
4,0.014824097
5,0.011413177
6,-0.073072456
7,-0.028641982
8,-0.024184776
9,-0.009441016
10,0.022592649
11,0.05107953
12,0.0021543256
13,-0.0048939623
14,0.032747544
15,-0.0016835149
16,0.003120015
17,-0.04385202
18,-0.020576349
19,0.058022752
20,-0.019704117
21,-0.017893722
22,0.015134246
23,-0.0029209082
24,-0.023492752
25,-0.021463936
26,-0.026524773
27,0.0162441
28,0.040327564
29,-0.04331238
30,0.0021925143
31,0.01739139
32,0.011750195
33,-0.076052785
34,-0.08603151
35,0.02726129
36,0.0105668055
37,0.018976388
38,-0.040616892
39,0.0033281194
40,0.00047436974
41,0.0009376574
42,0.040452514
43,-0.0110295685
44,0.015762445
45,0.008219317
46,-0.051311
47,-0.046423644
48,-0.010402733
49,0.04307312
50,-0.0011751248
51,0.029578658
52,-0.0046138526
53,0.047865167
54,0.0052266344
55,-0.048132524
56,-0.038284075
57,-0.040401194
58,-0.0432737
59,0.038821295
60,0.008503608
61,0.022423157
62,0.019245032
63,-0.036703136
64,-0.012810191
65,0.011185236
66,0.033517905
67,0.037074756
68,-0.016734477
69,0.013502767
70,0.029015804
71,0.051669367
72,-0.064245984
73,-0.005152392
74,-0.035121497
75,0.029748363
76,0.023373935
77,-0.044867463
78,0.05698115
79,0.042685438
80,0.002315571
81,0.020132523
82,-0.048099697
83,-0.029368745
84,0.026634958
85,-0.045577116
86,-0.010314316
87,0.029053122
88,-0.013067889
89,0.019318419
90,-0.02293565
91,0.033477414
92,-0.04678379
93,-0.0373724
94,0.0035924704
95,-0.04994
96,0.026993066
97,-0.03614323
98,-0.06440704
99,0.035144046
100,-0.027458036
101,-0.05589409
102,-0.04912278
103,-0.023279302
104,-0.011242049
105,-0.06078092
106,0.004504889
107,0.02740184
108,0.0054678437
109,-0.07728761
110,0.0007386613
111,0.004725824
112,-0.06775443
113,0.05196494
114,-0.08655413
115,0.018647162
116,-0.053680148
117,-0.022574838
118,0.003161343
119,0.008553082
120,-0.06958236
121,0.008852316
122,-0.043165397
123,-0.02347997
124,0.014309687
125,-0.07016247
126,-0.04408349
127,0.03749311
128,-0.017671494
129,-0.0474396
130,-0.004263962
131,-0.04116008
132,-0.03912951
133,0.02396679
134,0.019247793
135,0.0018130394
136,0.017279482
137,-0.018069712
138,-0.058371246
139,0.0024306998
140,0.025197458
141,-0.04502968
142,0.015108343
143,0.026012788
144,-0.018069256
145,0.0039244676
146,0.022655828
147,-0.0241666
148,0.009007516
149,-0.065470725
150,0.039640713
151,-0.042329468
152,0.015876496
153,-0.011109945
154,0.045947183
155,-0.05639941
156,0.016234264
157,-0.04819356
158,0.040920816
159,-0.08599046
160,0.0019309609
161,-0.050965164
162,-0.010202723
163,0.008868888
164,0.024343675
165,-0.014247453
166,0.00031327095
167,0.041896004
168,-0.0014596088
169,-0.031595435
170,-0.0032095634
171,0.025708245
172,-0.022883458
173,0.0011098487
174,-0.032482788
175,-0.03602305
176,0.043972142
177,0.020339709
178,-0.0534682
179,0.014913378
180,0.006252135
181,0.04970127
182,-0.007635496
183,0.047229096
184,-0.006171674
185,-0.08412838
186,-0.04637691
187,-0.025212238
188,0.02421427
189,-0.02831975
190,-0.019529773
191,-0.06875455
192,0.017656779
193,-0.025981873
194,0.02760388
195,0.00421105
196,0.009803588
197,0.047158763
198,-0.0051027793
199,-0.015431753
200,0.010670342
201,-0.08726573
202,0.0045440006
203,-0.0024785902
204,-0.0987405
205,-0.0001022138
206,-0.011734514
207,0.03505595
208,0.032248132
209,-0.031609476
210,-0.06008999
211,-0.0033033607
212,0.02925975
213,-0.014974718
214,-0.007841909
215,-0.0057736835
216,0.02118803
217,-0.07079442
218,-0.037803166
219,-0.03040853
220,-0.050142776
221,0.026439175
222,0.0058471034
223,-0.04690852
224,-0.003888729
225,-0.00326663
226,-0.0049812617
227,0.014949428
228,-0.05446343
229,0.010386611
230,0.029087996
231,-0.055674512
232,-0.051419575
233,0.056381155
234,0.019333638
235,0.022632305
236,-0.0028134065
237,-0.04634082
238,0.04241318
239,0.040891882
240,0.055656068
241,0.053213138
242,-0.052358564
243,-0.039380558
244,-0.04637039
245,0.0038912208
246,-0.037584007
247,-0.046251137
248,0.015984664
249,0.031179523
250,0.05125512
251,0.03226796
252,0.026051626
253,0.04184865
254,0.0047762855
255,0.0044389544
256,-0.054706153
257,0.028319031
258,0.14579374
259,0.069147184
260,0.015617091
261,0.04460077
262,0.06025809
263,0.024553834
264,-0.012047722
265,-0.07357011
266,-0.07285939
267,-0.090328194
268,0.034574475
269,0.021202506
270,0.0532114
271,-0.012144817
272,0.065408885
273,0.04325851
274,0.03958373
275,-0.053854745
276,0.062148485
277,0.03652392
278,0.02732777
279,0.01813291
280,0.018588254
281,-0.056005437
282,-0.021419546
283,0.03341593
284,-0.06823993
285,-0.043514993
286,0.04718616
287,-0.0021370035
288,-0.017834743
289,-0.07021136
290,-0.00053016725
291,0.038406335
292,0.029359566
293,0.032082383
294,0.051379915
295,0.015916094
296,0.054478515
297,-0.030064315
298,0.03786538
299,0.040714186
300,0.06164558
301,0.030970423
302,-0.051676188
303,0.05064871
304,0.025413863
305,0.03187555
306,0.03613779
307,0.044254135
308,0.037458785
309,-0.06993181
310,-0.045396287
311,0.028367987
312,0.09941679
313,0.032508336
314,0.030998457
315,-0.0067325723
316,-0.073260024
317,-0.008219206
318,-0.025381533
319,0.052102275
320,-0.06260208
321,0.041882265
322,0.013393385
323,0.039313745
324,0.038475864
325,0.027889343
326,-0.009142157
327,0.014844381
328,-0.064387664
329,-0.06953837
330,0.040970556
331,0.0401305
332,-0.054125864
333,0.028679892
334,0.0056597805
335,-0.070596136
336,0.063012846
337,0.026868938
338,-0.054634657
339,-0.00047717826
340,0.037230916
341,-0.034691006
342,-0.0644546
343,0.034214623
344,0.06055853
345,-0.006672238
346,-0.022768604
347,0.025880272
348,0.04595636
349,-0.037133966
350,0.02809314
351,0.0048858305
352,0.05391102
353,0.057373527
354,-0.063907064
355,-0.011706983
356,0.025028199
357,-0.08124405
358,0.02354744
359,-0.058666985
360,0.04250398
361,0.06276866
362,0.059462596
363,0.018471556
364,-0.029105723
365,-0.07850856
366,0.025173187
367,0.050882168
368,0.046881348
369,0.023818519
370,-0.0044923327
371,-0.056549665
372,-0.053510435
373,-0.08009889
374,0.055234775
375,0.044128623
376,-0.069577135
377,0.042976655
378,-0.018313734
379,0.050749455
380,0.05277202
381,-0.0703625
382,-0.043492615
383,0.031068781
384,-0.059592918
385,0.0665364
386,0.02722866
387,-0.04127463
388,0.034518026
389,0.048410807
390,-0.04710971
391,-0.03033583
392,-0.03639432
393,-0.021218542
394,0.0549867
395,0.017688796
396,0.018728035
397,-0.007757836
398,0.06725688
399,0.02183719
400,0.0542865
401,0.039133854
402,-0.05350531
403,-0.055260032
404,0.032262888
405,-0.06559652
406,0.03144721
407,-0.042546652
408,0.051676545
409,-0.0145678045
410,0.007725936
411,-0.035470027
412,-0.06650473
413,0.050286114
414,-0.020008216
415,-0.0019618312
416,-0.05977504
417,-0.064772576
418,-0.10187898
419,0.028313383
420,0.02601907
421,-0.026348263
422,0.05012176
423,0.038052704
424,0.027505517
425,-0.026190724
426,0.027512016
427,0.0429557
428,-0.04703986
429,0.012161349
430,0.051580165
431,-0.036575653
432,0.085582696
433,0.023958892
434,0.030896803
435,-0.03645016
436,0.0780374
437,0.023825072
438,0.05235339
439,-0.01857368
440,-0.008125362
441,-0.08273171
442,0.05055949
443,0.028238818
444,0.021728978
445,-0.055254523
446,-0.021928815
447,-0.06548541
448,0.032711692
449,0.021288607
450,0.032456014
451,0.032136112
452,0.043289572
453,-0.05387114
454,0.036127932
455,0.038223013
456,0.04486557
457,0.08190412
458,-0.05310448
459,0.03645678
460,-0.004735703
461,0.033412166
462,-0.057119943
463,-0.0074636904
464,0.034214556
465,0.030238427
466,-0.011358157
467,0.04379353
468,0.03751456
469,-0.024192886
470,-0.0071109976
471,-0.06395384
472,0.029981133
473,-0.070496805
474,0.028015053
475,0.026849078
476,-0.050349783
477,0.026529914
478,0.03939293
479,-0.046913818
480,0.025656058
481,-0.030476045
482,-0.018034888
483,-0.00025702122
484,0.041788097
485,0.018923067
486,0.038395844
487,0.02706059
488,0.044845436
489,-0.060501073
490,0.035480577
491,0.047544554
492,0.03668659
493,0.05314118
494,0.021886883
495,-0.06432247
496,-0.07874088
497,-0.0023222624
498,0.054943774
499,-0.03962899
500,0.036215473
501,0.03367485
502,0.039124396
503,0.01825992
504,0.014760474
505,0.03257932
506,-0.055430807
507,0.032755367
508,0.036878735
509,0.050696656
510,0.037009403
511,0.052809566
512,-0.059523094
513,0.03476035
514,-0.00066465227
515,-0.06383971
516,0.03341001
517,0.02272342
518,-0.036928173
519,0.046700496
520,-0.01144437
521,0.0657785
522,-0.045992468
523,0.02190563
524,0.020800538
525,0.02275973
526,0.024018072
527,-0.01506578
528,-0.05711546
529,0.044106673
530,-0.0018705332
531,-0.056489002
532,-0.044409238
533,-0.04334488
534,0.02177308
535,0.040359017
536,0.03156693
537,0.057617992
538,-0.06794288
539,0.015495549
540,-0.06998262
541,0.055030394
542,0.029310158
543,0.010907836
544,0.0061750147
545,0.06509845
546,0.056675155
547,0.038124602
548,-0.052947786
549,0.018147571
550,0.0387043
551,0.02558227
552,0.053130683
553,0.01950081
554,0.010103408
555,0.0115994215
556,-0.004886061
557,0.008174667
558,0.059273154
559,0.023996962
560,-0.036840774
561,0.020933714
562,0.01902138
563,-0.07813692
564,0.030090729
565,-0.07017641
566,0.034657937
567,0.039905462
568,-0.12617815
569,0.04363273
570,0.05670693
571,-0.0030974392
572,-0.07370098
573,-0.001389803
574,-0.03685479
575,-0.051341817
576,0.056570996
577,0.026483487
578,0.05252294
579,0.018052343
580,0.014036102
581,0.037298307
582,0.01066731
583,0.0038877917
584,-0.005924399
585,0.06632116
586,0.03847796
587,-0.0070873913
588,0.02885332
589,0.03454484
590,-0.056673102
591,-0.039010238
592,-0.07383273
593,0.018598527
594,0.02374918
595,0.07065707
596,0.00086524844
597,-0.059259523
598,0.047235288
599,-0.009779572
600,-0.060523875
601,0.021186477
602,-0.022884902
603,0.020132955
604,-0.034395676
605,0.050848797
606,0.04070872
607,0.017383333
608,-0.03175681
609,-0.022334281
610,0.05412876
611,-0.04762369
612,-0.00035535995
613,-0.08121686
614,0.026438568
615,-0.058175802
616,0.041397143
617,-0.061018582
618,0.052479867
619,0.03107517
620,0.0055913045
621,-0.05997963
622,0.0067448895
623,-0.066524625
624,0.04646343
625,-0.051086385
626,0.121259555
627,0.045599256
628,0.04798486
629,0.079018965
630,0.017193265
631,-0.032553323
632,0.023233538
633,0.0199669
634,0.06567944
635,0.057598904
636,-0.06305553
637,-0.024986038
638,-0.023500232
639,0.012448755
640,0.037408657
641,-0.012545702
642,-0.028548256
643,0.016067347
644,0.041331563
645,0.030945439
646,0.018879706
647,0.0036204907
648,0.000999999
649,-0.053731646
650,0.025876129
651,0.04331909
652,0.0026005749
653,0.02659766
654,-0.076307125
655,0.015015024
656,-0.06090223
657,0.03594432
658,0.044148065
659,0.053480368
660,-0.01963918
661,-0.0511108
662,0.041752376
663,0.0603543
664,0.029746152
665,-0.017586177
666,0.014191477
667,-0.052723665
668,-0.0762276
669,-0.049881622
670,-0.018285017
671,-0.0870736
672,-0.06023364
673,-0.064803086
674,0.11303414
675,0.031290602
676,-0.022637222
677,0.023650687
678,-0.05832706
679,-0.0067508086
680,-0.004427036
681,0.060453877
682,0.039374813
683,-0.034867194
684,-0.011687843
685,-0.04420731
686,0.014316374
687,0.055930182
688,-0.06185056
689,-0.051626954
690,-0.05347697
691,-0.029636038
692,-0.0744047
693,0.011471049
694,-0.04386568
695,-0.05968919
696,-0.067098394
697,-0.040985227
698,0.04340997
699,-0.0028472699
700,0.018529242
701,0.059583526
702,-0.0053424356
703,-0.06829718
704,-0.05020057
705,0.03280528
706,-0.0044436464
707,0.02493939
708,0.032611933
709,-0.013685784
710,0.036066327
711,0.050999295
712,0.046812885
713,0.043932136
714,0.007478614
715,-0.02898348
716,0.12420997
717,0.006514364
718,0.05574671
719,-0.029120794
720,0.028936379
721,0.027617399
722,-0.059948094
723,0.037605505
724,-0.07144266
725,-0.023921665
726,-0.00885892
727,-0.06401267
728,0.033579115
729,-0.070665725
730,-0.04128501
731,0.03523079
732,0.043046385
733,0.03961895
734,-0.022053411
735,0.033148
736,0.034889977
737,0.026470078
738,-0.002258301
739,-0.00032352464
740,0.050730776
741,-0.007908899
742,-0.019470291
743,0.02942961
744,0.034358557
745,-0.047663216
746,0.035271578
747,0.0011973913
748,-0.0043098493
749,0.056292877
750,-0.018100163
751,0.04975771
752,-0.07934092
753,-0.002036864
754,-0.037590105
755,0.058661245
756,0.028785257
757,0.029393159
758,0.041600656
759,0.015052677
760,0.03727714
761,0.02571103
762,0.026819808
763,0.020504482
764,0.022801712
765,0.044904564
766,0.04436499
767,-0.048587948
768,-0.058287315
769,0.023503209
770,-0.06470844
771,-0.06352653
772,0.010783242
773,-0.031219978
774,-0.034179002
775,0.001886421
776,-0.019200966
777,-0.073114775
778,0.023019925
779,-0.09049531
780,-0.030375151
781,0.03362899
782,-0.0025634703
783,-0.012238734
784,-0.060621094
785,0.051218245
786,-0.020649899
787,-0.053546116
788,0.05739714
789,0.03842997
790,0.0016286025
791,-0.005121682
792,0.03450275
793,-0.055679027
794,-0.067910165
795,-0.033414263
796,0.01763649
797,0.05414929
798,-0.0034470258
799,-0.049998995
800,-0.002182765
801,-0.003707758
802,0.07466341
803,-0.045508046
804,0.012223682
805,0.0147831645
806,0.04161786
807,-0.014439221
808,-0.05888998
809,0.012437364
810,0.012711478
811,-0.02636386
812,-0.0030562112
813,0.021460595
814,0.06292501
815,0.024080131
816,0.04743754
817,0.012841663
818,0.026942315
819,-0.078143165
820,0.013312836
821,0.008837797
822,0.0056716967
823,0.043890778
824,-0.047986593
825,-0.040529404
826,0.054670554
827,-0.031511772
828,0.06174536
829,-0.025757162
830,0.078136474
831,-0.038793925
832,-0.062426604
833,0.026107082
834,0.023680804
835,0.015134683
836,-0.028165618
837,-0.014546704
838,-0.0059725316
839,-0.044427913
840,-0.064558
841,-0.06955819
842,-0.025987014
843,-0.038338117
844,0.018869495
845,0.023926582
846,-0.018880814
847,-0.044911437
848,-0.073696405
849,0.040040907
850,0.04518608
851,-0.046258394
852,-0.0018006098
853,-0.05954395
854,-0.0644871
855,-0.011329634
856,-0.060113613
857,0.015395859
858,-0.012324836
859,0.023448374
860,0.032794002
861,0.048381597
862,-0.04092742
863,0.031298455
864,-0.04383895
865,0.021814028
866,0.06042011
867,-0.026208246
868,0.0062370794
869,0.10573184
870,0.052975964
871,0.07302268
872,0.016536236
873,0.060773335
874,-0.052111384
875,0.0036652172
876,0.016791444
877,-0.049415886
878,0.0005479036
879,0.059447445
880,0.029415928
881,0.015858889
882,-0.12401816
883,0.03740941
884,0.055177692
885,-0.04807627
886,-0.030154847
887,0.011629807
888,0.047495916
889,-0.04705308
890,-0.02110864
891,-0.04658839
892,-0.06286498
893,-0.03158868
894,-0.04414065
895,-0.042684257
896,0.03110114
897,-0.04722312
898,-0.043502808
899,0.04585589
900,0.010849259
901,-0.040511016
902,0.072507486
903,0.05563651
904,-0.0017168762
905,-0.05125059
906,0.03182836
907,0.0317344
908,-0.045733962
909,0.017708173
910,-0.07609446
911,0.007766494
912,0.059883814
913,-0.03375892
914,0.060782228
915,-0.05643369
916,-0.019673346
917,-0.06570349
918,0.03346557
919,0.04210436
920,0.026606772
921,-0.008384434
922,-0.050238926
923,-0.044409882
924,-0.07624013
925,0.01941171
926,-0.03074009
927,0.104193024
928,0.041154686
929,-0.049733143
930,0.036799062
931,0.00161631
932,-0.027728006
933,-0.026147408
934,0.048898242
935,-0.030271608
936,0.012770824
937,-0.009192029
938,-0.057274155
939,0.030988269
940,0.09572986
941,0.033044472
942,0.004045835
943,0.023655815
944,-0.061788518
945,-0.051422648
946,0.0076343706
947,0.025926875
948,-0.07440046
949,-0.0346319
950,0.04363558
951,0.04455415
952,-0.06759036
953,0.014163702
954,-0.039686777
955,0.005160923
956,0.002420227
957,-0.055082213
958,-0.054923847
959,-0.01366426
960,0.0275171
961,0.032038778
962,0.028027458
963,-0.08071503
964,-0.03422816
965,0.010867369
966,0.03758026
967,0.03919383
968,-0.04260553
969,-0.02155685
970,-0.053129908
971,0.0019829627
972,-0.09886585
973,-0.022415597
974,0.0572612
975,-0.035162553
976,0.00034741222
977,0.040494617
978,-0.060092207
979,0.0042004082
980,-0.029721504
981,-0.008097333
982,-0.0046828343
983,0.06067594
984,-0.033457216
985,0.055880446
986,0.033052646
987,0.0061039566
988,0.053725593
989,-0.04237298
990,0.02664311
991,0.05320397
992,0.013484824
993,-0.030781226
994,-0.0055645537
995,0.016392743
996,0.017145272
997,0.021296216
998,-0.020177245
999,-0.015796866
1000,0.04213995
1001,-0.031905126
1002,-0.043760214
1003,0.0051353998
1004,-0.034337793
1005,-0.046299312
1006,0.0051376326
1007,-0.06454976
1008,-0.059542447
1009,-0.0464531
1010,0.046501983
1011,0.05243609
1012,-0.028929463
1013,0.014969444
1014,0.028586905
1015,0.012188899
1016,-0.005856271
1017,-0.06590552
1018,0.047455598
1019,0.0015172702
1020,0.01808994
1021,-0.043489493
1022,-0.046794802
1023,-0.04901174
1024,0.05615346
1025,-0.04653394
1026,-0.12016849
1027,0.06818415
1028,0.026622845
1029,0.006855135
1030,-0.073672384
1031,0.00043775563
1032,-0.0293306
1033,-0.07278082
1034,0.0299731
1035,-0.09049763
1036,0.03730856
1037,-0.028080652
1038,0.009863766
1039,0.030784557
1040,-0.060738295
1041,0.049620036
1042,-0.015506598
1043,-0.023174925
1044,-0.04919267
1045,0.035679724
1046,-0.043034315
1047,-0.023244023
1048,-0.042205956
1049,0.06706159
1050,-0.067650996
1051,-0.03313811
1052,-0.07022283
1053,0.060746692
1054,0.033816714
1055,-0.022255298
1056,0.07694013
1057,0.041646414
1058,0.06913189
1059,-0.045646872
1060,0.015403496
1061,-0.037963845
1062,-0.04108155
1063,-0.0119971195
1064,-0.05887082
1065,0.029838022
1066,-0.022464857
1067,-0.03636583
1068,0.008148489
1069,-0.03244551
1070,-0.051595442
1071,0.028780637
1072,0.027989967
1073,0.003914373
1074,-0.0067362767
1075,-0.07807678
1076,0.0344578
1077,-0.06994118
1078,0.0030654802
1079,0.027971094
1080,0.020376293
1081,-0.0033570766
1082,0.03126732
1083,0.0080464315
1084,0.066469885
1085,-0.026191978
1086,-0.010711
1087,0.05036648
1088,0.05846069
1089,-0.0011705048
1090,0.036563013
1091,0.007987244
1092,-0.035066996
1093,-0.0043521
1094,-0.03154941
1095,-0.026746755
1096,-0.05903017
1097,-0.06952749
1098,-0.032289505
1099,-0.000925746
1100,-0.054260142
1101,-0.006893432
1102,-0.056383334
1103,-0.013134733
1104,-0.073707126
1105,-0.003488064
1106,0.05817635
1107,-0.045929004
1108,0.0077744587
1109,-0.059233703
1110,0.053813756
1111,-0.00047847762
1112,0.033580516
1113,-0.028092947
1114,0.034333162
1115,-0.054678615
1116,0.0416251
1117,-0.03732202
1118,0.028313939
1119,0.045805044
1120,0.0270902
1121,-0.008817574
1122,-0.0642544
1123,-0.016073415
1124,0.042923696
1125,0.07554834
1126,0.0470052
1127,0.0045270883
1128,-0.043399684
1129,-0.06103601
1130,-0.051984683
1131,-0.042288717
1132,0.02371019
1133,-0.07875687
1134,-0.008439792
1135,-0.066609584
1136,0.043157093
1137,-0.0042807804
1138,-0.07605649
1139,-0.056312766
1140,-0.053448558
1141,-0.07963415
1142,-0.028315436
1143,-0.039777096
1144,0.053680073
1145,0.02592617
1146,0.07479072
1147,-0.046188094
1148,0.01651795
1149,0.0674888
1150,-0.043389156
1151,-0.04273609
1152,-0.059583385
1153,0.063607626
1154,0.016199745
1155,0.04167577
1156,0.032127228
1157,-0.010469117
1158,-0.044547733
1159,-0.049578093
1160,-0.056111418
1161,-0.053899374
1162,-0.027076507
1163,0.03524226
1164,-0.044923365
1165,0.013525759
1166,-0.075985916
1167,0.01038729
1168,-0.062744886
1169,-0.034640215
1170,-0.053305365
1171,0.033535488
1172,-0.019826204
1173,0.05707951
1174,0.0064736838
1175,0.045420818
1176,0.009402198
1177,-0.0038249015
1178,-0.053403355
1179,-0.016652567
1180,0.043140322
1181,0.035481192
1182,-0.030191023
1183,-0.031856682
1184,0.032594707
1185,0.06706645
1186,-0.0039611775
1187,0.016692571
1188,-0.029880114
1189,0.074029505
1190,-0.058459032
1191,-0.030472001
1192,0.009972585
1193,-0.031108856
1194,-0.055262167
1195,-0.010396898
1196,-0.04723011
1197,0.058470994
1198,0.014595474
1199,0.02641093
1200,-0.061569538
1201,-0.043904997
1202,0.009795428
1203,0.024340406
1204,-0.07444795
1205,-0.034547746
1206,0.04355639
1207,0.023060022
1208,-0.067526035
1209,0.012316633
1210,0.02847971
1211,0.03955658
1212,-0.045296557
1213,0.056825325
1214,-0.013164885
1215,0.054671105
1216,-0.0007738035
1217,0.03986006
1218,-0.015586011
1219,-0.08095941
1220,0.030638374
1221,-0.06061364
1222,0.025229216
1223,0.01378715
1224,-0.042897277
1225,-0.039641183
1226,-0.05308661
1227,-0.029217009
1228,-0.0034907924
1229,-0.022729002
1230,-0.05709531
1231,-0.003502627
1232,0.0040043807
1233,-0.034342334
1234,0.06413049
1235,-0.0033041388
1236,-0.011913651
1237,0.012116772
1238,-0.005349288
1239,0.054558657
1240,-0.03339826
1241,0.05741395
1242,0.045005027
1243,-0.016623514
1244,-0.04291452
1245,-0.014271386
1246,0.0069670286
1247,0.050517615
1248,-0.023936247
1249,-0.03061653
1250,-0.0055035464
1251,0.032655675
1252,-0.0012696774
1253,0.0014478299
1254,0.0008513784
1255,-0.0555606
1256,0.04224454
1257,-0.054980848
1258,0.022966933
1259,-0.04025067
1260,-0.034217216
1261,-0.046194166
1262,-0.011349076
1263,0.04003514
1264,-0.012656356
1265,-0.046811283
1266,-0.052022524
1267,-0.039523788
1268,-0.021969296
1269,0.019570367
1270,-0.03784294
1271,0.019738665
1272,-0.05184426
1273,-0.058391742
1274,-0.05936411
1275,-0.048140127
1276,0.010983869
1277,-0.044009123
1278,-0.04659132
1279,0.02050314
1280,-0.05467472
1281,0.066209175
1282,0.012957069
1283,-0.06269853
1284,-0.00868059
1285,0.019924736
1286,-0.036708448
1287,-0.020748828
1288,-0.0066657425
1289,-0.038387388
1290,-0.072836466
1291,-0.06454988
1292,-0.04566481
1293,-0.027985578
1294,-0.044429243
1295,-0.008573254
1296,-0.060701817
1297,-0.011107859
1298,-0.01804736
1299,-0.050522283
1300,0.004710194
1301,-0.04401549
1302,0.037239995
1303,-0.005561813
1304,-0.040525023
1305,-0.02774969
1306,0.048252713
1307,-0.024572806
1308,-0.026759919
1309,-0.035403434
1310,0.018419828
1311,-0.017902188
1312,-0.057938784
1313,0.015895197
1314,-0.051296342
1315,-0.008651843
1316,-0.00019699402
1317,-0.03647498
1318,-0.041332107
1319,-0.0036094254
1320,-0.058893006
1321,0.01532327
1322,-0.031774074
1323,0.040115975
1324,0.020793654
1325,-0.030785844
1326,-0.051300038
1327,0.03669263
1328,-0.036392026
1329,-0.028460028
1330,-0.003109557
1331,-0.07828762
1332,0.016766641
1333,0.003982033
1334,0.037163068
1335,0.010584674
1336,0.0074078133
1337,0.007636687
1338,-0.049983375
1339,-0.03123321
1340,-0.032233093
1341,-0.026114114
1342,-0.022417678
1343,-0.037236825
1344,-0.035106413
1345,0.038679328
1346,-0.011028833
1347,-0.033306763
1348,0.032285295
1349,-0.025609415
1350,-0.03173078
1351,-0.04405615
1352,0.00014266395
1353,-0.06958071
1354,-0.035283666
1355,-0.027332628
1356,0.0028674377
1357,-0.021024853
1358,0.057945166
1359,-0.07541693
1360,-0.073635325
1361,-0.040974934
1362,-0.027183296
1363,0.057076085
1364,-0.03816485
1365,0.05571648
1366,-0.064174056
1367,-0.024104642
1368,0.036188405
1369,-0.033473626
1370,-0.02298063
1371,-0.055570114
1372,-0.040157676
1373,0.055787113
1374,0.009527053
1375,-0.047959145
1376,0.008448174
1377,-0.009546127
1378,-0.0539733
1379,-0.05819421
1380,-0.035860326
1381,0.051771823
1382,0.025277577
1383,0.00950828
1384,0.0052104755
1385,-0.012498406
1386,-0.0520273
1387,-0.032208774
1388,0.028974647
1389,0.011311186
1390,-0.010980408
1391,-0.049868487
1392,0.034871764
1393,-0.051373657
1394,0.020832736
1395,-0.056048926
1396,-0.053847387
1397,-0.07069017
1398,-0.016781567
1399,-0.024764942
1400,-0.06927366
1401,-0.01858941
1402,-0.015670782
1403,-0.04618022
1404,0.03439324
1405,-0.023662485
1406,0.05345268
1407,-0.042608127
1408,0.039328493
1409,-0.019500634
1410,-0.034353632
1411,-0.024801247
1412,0.008992137
1413,0.0011225252
1414,-0.04661797
1415,0.034175478
1416,0.024828292
1417,-0.053028256
1418,-0.01754084
1419,0.0017201342
1420,-0.0040860707
1421,-0.044987127
1422,-0.075985275
1423,-0.04038195
1424,-0.059412893
1425,-0.028362008
1426,-0.052783985
1427,0.029926637
1428,-0.028496817
1429,0.059078168
1430,-0.013353081
1431,-0.04083579
1432,-0.03620255
1433,-0.0051944023
1434,-0.03858578
1435,-0.049994644
1436,-0.07619917
1437,-0.049562927
1438,-0.018445887
1439,0.016292943
1440,0.029385235
1441,0.044360273
1442,-0.017475044
1443,-0.030644177
1444,-0.01806995
1445,0.0109801125
1446,-0.034684755
1447,-0.025471736
1448,0.020657634
1449,0.027153058
1450,-0.044618905
1451,-0.045646377
1452,-0.04748722
1453,0.041218583
1454,-0.009033941
1455,0.06708885
1456,-0.061607733
1457,-0.021915229
1458,0.003004112
1459,-0.034732666
1460,-0.07439406
1461,0.006508825
1462,-0.04400808
1463,0.020407261
1464,0.06123074
1465,0.03070918
1466,-0.030327918
1467,-0.033962753
1468,-0.040914267
1469,-0.03701174
1470,-0.054831665
1471,-0.06854649
1472,-0.004389293
1473,-0.013924559
1474,-0.0061313654
1475,-0.044204134
1476,-0.03221464
1477,-0.04111919
1478,-0.021256857
1479,-0.026039293
1480,-0.042525966
1481,-0.08420214
1482,0.04868286
1483,-0.029152311
1484,-0.09676045
1485,-0.039993
1486,-0.057089746
1487,-0.034780096
1488,-0.012512322
1489,0.0074242484
1490,0.04014721
1491,-0.03589412
1492,-0.06644967
1493,-0.024184588
1494,-0.004667159
1495,0.04645502
1496,-0.03345273
1497,-0.07023442
1498,-0.025821358
1499,0.045706857
1500,-0.05104057
1501,-0.042407498
1502,-0.021400092
1503,0.029358596
1504,-0.021770664
1505,-0.03101144
1506,-0.0071717505
1507,-0.03627887
1508,-0.033832878
1509,-0.031170731
1510,7.78864e-05
1511,0.03929493
1512,-0.064743534
1513,-0.09108324
1514,0.062477652
1515,-0.031852826
1516,-0.03310606
1517,-0.03049419
1518,0.004708858
1519,-0.063188404
1520,-0.06858372
1521,-0.015883032
1522,-0.047390223
1523,-0.039814252
1524,-0.014558217
1525,-0.03373129
1526,-0.03810681
1527,0.025950767
1528,-0.047381107
1529,0.020677531
1530,-0.059471916
1531,0.012208812
1532,0.0044582943
1533,-0.026602063
1534,-0.024666024
1535,-0.013410467
1536,-0.0552804
1537,-0.04841408
1538,0.014732774
1539,-0.05428353
1540,-0.006208748
1541,-0.00837896
1542,0.013125232
1543,0.0036711495
1544,-0.024435615
1545,-0.023884559
1546,0.034056444
1547,-0.058167383
1548,-0.004617362
1549,-0.028061876
1550,-0.020078525
1551,-0.030426554
1552,-0.060539294
1553,-0.043852873
1554,-0.018642623
1555,-0.015103788
1556,-0.024277993
1557,-0.013061535
1558,-0.04302333
1559,-0.015671078
1560,-0.041387558
1561,-0.055157635
1562,-0.023704479
1563,-0.032995958
1564,-0.055412937
1565,-0.03587519
1566,-0.041548606
1567,-0.008768894
1568,0.04988117
1569,0.023455882
1570,-0.06472319
1571,0.044539887
1572,-0.052956216
1573,-0.036628768
1574,-0.040597655
1575,0.00736008
1576,-0.058694858
1577,0.016142417
1578,-0.041276023
1579,-0.012102369
1580,0.01461671
1581,-0.025028793
1582,-0.029178806
1583,-0.046717882
1584,-0.036395438
1585,0.007905849
1586,-0.008095344
1587,0.030493513
1588,-0.035029322
1589,-0.069729805
1590,0.036614906
1591,0.010240447
1592,0.015107645
1593,0.029174458
1594,-0.049817126
1595,-0.024443816
1596,-0.03662002
1597,-0.023645176
1598,0.083069086
1599,0.060321376
1600,-0.06263572
1601,-0.0073317313
1602,-0.01083318
1603,0.007830388
1604,-0.026186144
1605,-0.031878565
1606,-0.009888124
1607,-0.044168264
1608,0.052926145
1609,-0.0414868
1610,-0.018588053
1611,0.0018911505
1612,-0.035148162
1613,0.0024470983
1614,-0.0075683724
1615,-0.054278158
1616,-0.07363248
1617,-0.008795349
1618,-0.054674212
1619,-0.030933864
1620,-0.036125086
1621,-0.05938734
1622,-0.064465225
1623,-0.034848295
1624,-0.049055155
1625,-0.024809916
1626,-0.004973773
1627,-0.055755623
1628,-0.04661718
1629,-0.036875322
1630,0.01123044
1631,-0.049628563
1632,-0.0013202217
1633,-0.011346565
1634,-0.04475424
1635,-0.033936165
1636,-0.03647236
1637,-0.01092122
1638,-0.018924458
1639,-0.058285683
1640,0.047538478
1641,-0.06008674
1642,-0.052030254
1643,0.031809945
1644,0.008107595
1645,-0.03798412
1646,-6.177739e-06
1647,-0.058000814
1648,0.050212108
1649,-0.03576711
1650,0.015521343
1651,-0.036534254
1652,-0.013169036
1653,-0.034576368
1654,-0.01444967
1655,-0.027298214
1656,-0.06946958
1657,-0.046697922
1658,-0.020385409
1659,-0.046493154
1660,-0.06288188
1661,0.011690833
1662,-0.044203073
1663,0.020908624
1664,-0.05965897
1665,-0.047375385
1666,-0.043186612
1667,-0.016979687
1668,0.022331778
1669,0.024486234
1670,-0.017762624
1671,-0.017511845
1672,-0.052081175
1673,0.061559685
1674,-0.022089833
1675,-0.009174217
1676,-0.043534577
1677,-0.037897043
1678,-0.047511596
1679,-0.0050595514
1680,-0.06606231
1681,-0.003141602
1682,-0.02953711
1683,-0.027828531
1684,-0.03067776
1685,-0.06561773
1686,0.0018001045
1687,-0.037333574
1688,-0.00023032923
1689,-0.021013463
1690,-0.053539414
1691,-0.018712994
1692,-0.033026826
1693,-0.049679533
1694,-0.023328308
1695,0.019441405
1696,-0.060113944
1697,-0.06466125
1698,-0.030523133
1699,-0.030765368
1700,-0.02907
1701,-0.02105611
1702,-0.04468776
1703,-0.004600289
1704,-0.035932045
1705,0.019971881
1706,-0.042943142
1707,-0.012965109
1708,0.06924574
1709,-0.059896328
1710,0.03638167
1711,0.035536867
1712,-0.060493387
1713,-0.043927133
1714,-0.030717978
1715,-0.028951054
1716,0.06346572
1717,-0.03715069
1718,-0.043979544
1719,-0.059534963
1720,-0.024118764
1721,0.03948275
1722,-0.044951104
1723,0.052113913
1724,-0.043051656
1725,-0.027233616
1726,0.057176773
1727,0.000117089025
1728,-0.050208308
1729,0.058229648
1730,-0.024939809
1731,-0.06169969
1732,0.002927565
1733,-0.012150908
1734,0.02591096
1735,-0.038547553
1736,-0.04275882
1737,-0.051223844
1738,-0.0032559484
1739,-0.029227974
1740,-0.009393202
1741,-0.035778146
1742,-0.02409826
1743,-0.035676878
1744,-0.009215476
1745,-0.034454912
1746,-0.060103934
1747,-0.0039016504
1748,-0.06748595
1749,-0.022956485
1750,-0.011972226
1751,-0.06378472
1752,-0.008553266
1753,0.032721803
1754,-0.041196413
1755,-0.030509854
1756,-0.05100376
1757,-0.042067498
1758,-0.021237183
1759,-0.047146108
1760,-0.0088884
1761,-0.030232359
1762,-0.0074764285
1763,-0.03661466
1764,-0.009923758
1765,-0.03096701
1766,-0.002076677
1767,-0.0022537836
1768,0.007893979
1769,-0.043985173
1770,-0.025868827
1771,-0.0061703455
1772,0.0015644124
1773,-0.010974258
1774,0.023140743
1775,-0.019690387
1776,-0.075660735
1777,-0.0057526017
1778,-0.0523393
1779,-0.040014025
1780,-0.034257095
1781,-0.03351977
1782,-0.035535645
1783,-0.025688708
1784,-0.05179832
1785,0.04142903
1786,-0.059655897
1787,-0.029303031
1788,-0.0016170209
1789,-0.043688495
1790,-0.04661398
1791,-0.046400722
1792,-0.03441898
1793,-0.049311064
1794,-0.052038487
1795,-0.06355483
1796,0.054990366
1797,-0.03157084
1798,0.07403707
1799,0.058791433
1800,-0.029349966
1801,-0.008464123
1802,-0.07254284
1803,-0.07144133
1804,-0.045739755
1805,-0.027554596
1806,-0.03757538
1807,-0.027003303
1808,-0.03867626
1809,-0.04384155
1810,-0.01953445
1811,-0.05659175
1812,-0.049372576
1813,-0.04582943
1814,-0.043249585
1815,-0.015430049
1816,-0.041783348
1817,-0.055473123
1818,-0.067421004
1819,-0.012446642
1820,-0.063738346
1821,-0.029659955
1822,-0.04108013
1823,-0.0150243165
1824,-0.05786985
1825,-0.023772553
1826,-0.0130560845
1827,-0.02321504
1828,-0.052978426
1829,-0.03358172
1830,-0.041283365
1831,-0.03666428
1832,-0.058907837
1833,-0.05746199
1834,-0.030720012
1835,-0.037160438
1836,-0.09215139
1837,-0.029940069
1838,-0.051429916
1839,-0.046430055
1840,-0.036524493
1841,-0.030618308
1842,-0.04819575
1843,0.073008224
1844,-0.034483165
1845,-0.02246965
1846,0.01636763
1847,-0.04813633
1848,-0.0020118903
1849,-0.020074317
1850,-0.049760036
1851,-0.03320131
1852,-0.011022939
1853,-0.026820403
1854,0.0019206455
1855,-0.05097464
1856,-0.04989024
1857,-0.04805739
1858,0.023613703
1859,0.010600568
1860,-0.014434544
1861,-0.02461794
1862,-0.03197159
1863,-0.025998976
1864,-0.0644233
1865,-0.039121874
1866,-0.016578069
1867,-0.03860844
1868,-0.05420992
1869,0.040040527
1870,-0.056971002
1871,0.032112673
1872,-0.04458942
1873,0.009122521
1874,-0.014050374
1875,-0.046298705
1876,-0.03708251
1877,0.013825802
1878,-0.06455932
1879,-0.03720718
1880,-0.060283586
1881,-0.035704833
1882,0.0019080174
1883,-0.055526353
1884,0.004397182
1885,-0.008823153
1886,-0.021010203
1887,-0.049546245
1888,-0.027020907
1889,-0.008873753
1890,-0.031004017
1891,-0.024047906
1892,-0.037284225
1893,0.033426482
1894,-0.048513208
1895,-0.05840206
1896,-0.053289082
1897,-0.0034433368
1898,-0.051923785
1899,-0.038293272
1900,-0.025595149
1901,0.10467301
1902,-0.01516448
1903,-0.06347406
1904,0.049054425
1905,-0.006972448
1906,-0.029818343
1907,-0.056309495
1908,-0.043335475
1909,-0.032059837
1910,-0.029836023
1911,-0.027467083
1912,-0.0696165
1913,-0.046713714
1914,0.026774947
1915,-0.04658805
1916,-0.06268222
1917,-0.01669967
1918,0.012575008
1919,-0.0041191992
1920,-0.059548493
1921,-0.012159779
1922,-0.043184005
1923,0.0064831185
1924,0.0011939825
1925,-0.04075257
1926,-0.005263618
1927,0.004519794
1928,-0.025768707
1929,-0.054085534
1930,-0.0021498916
1931,0.012832656
1932,-0.035116673
1933,-0.041013397
1934,0.051609
1935,-0.01782392
1936,-0.01553709
1937,0.009336537
1938,-0.013907586
1939,-0.055362992
1940,-0.031676378
1941,-0.0061985613
1942,-0.026234804
1943,-0.042547572
1944,-0.035110433
1945,-0.003063965
1946,-0.053707868
1947,0.09200627
1948,-0.076505885
1949,-0.049601182
1950,-0.030814987
1951,-0.07149454
1952,-0.059818294
1953,-0.06506759
1954,-0.03366951
1955,-0.03010158
1956,-0.03349317
1957,-0.01760531
1958,-0.056866348
1959,-0.01881143
1960,-0.032347005
1961,-0.009027088
1962,-0.02328676
1963,-3.946154e-05
1964,-0.04708837
1965,-0.05543177
1966,-0.05107956
1967,-0.0069740955
1968,-0.034512877
1969,-0.010752337
1970,-0.042757753
1971,-0.036388148
1972,-0.036546163
1973,-0.036946427
1974,-0.043851465
1975,-0.059771273
1976,-0.06758932
1977,0.041737575
1978,-0.00088796066
1979,-0.024561254
1980,-0.044987436
1981,-0.023703413
1982,-0.052123364
1983,0.067286365
1984,-0.05000872
1985,-0.03585597
1986,-0.031978752
1987,-0.027077215
1988,-0.032345302
1989,-0.06063008
1990,-0.022006549
1991,-0.03873371
1992,-0.0424211
1993,0.01323684
1994,-0.053084504
1995,-0.029164622
1996,-0.051122762
1997,-0.035039995
1998,-0.0028750976
1999,-0.035275355
2000,-0.008665554
2001,-0.034249358
2002,-0.060131326
2003,-0.03588182
2004,-0.04986021
2005,-0.024033677
2006,-0.0069979993
2007,-0.047476143
2008,-0.0336372
2009,-0.07052532
2010,-0.040437248
2011,-0.030511824
2012,-0.050469715
2013,-0.03336083
2014,-0.021062557
2015,-0.04692825
2016,0.0090814335
2017,-0.029988304
2018,0.011852766
2019,-0.036900073
2020,0.03708753
2021,-0.031838346
2022,-0.019663125
2023,0.005125554
2024,0.0150468135
2025,0.0013493963
2026,0.008909416
2027,-0.040195137
2028,-0.031994067
2029,-0.046326037
2030,-0.0022190202
2031,-0.06430783
2032,-0.079641655
2033,-0.0061136656
2034,-0.008130914
2035,0.011423407
2036,0.054805122
2037,-0.031958006
2038,-0.03754637
2039,-0.04633479
2040,-0.047475625
2041,-0.065847054
2042,-0.05977249
2043,-0.047987662
2044,-0.020946527
2045,-0.013765812
2046,-0.02570479
2047,-0.047254473
2048,-0.05169223
2049,-0.04893838
2050,-0.03868764
2051,-0.052423112
2052,-0.0052338075
2053,-0.03139387
2054,-0.042537354
2055,0.004856383
2056,-0.02935407
2057,-0.029048912
2058,-0.04653157
2059,0.021310154
2060,-0.045659143
2061,-0.028309092
2062,-0.044172853
2063,-0.034999806
2064,-0.010284143
2065,-0.043589346
2066,0.0005970223
2067,-0.053020403
2068,-0.011963758
2069,-0.04324212
2070,-0.04271687
2071,-0.017432068
2072,-0.041260533
2073,-0.055545267
2074,-0.023750361
2075,0.011653386
2076,0.000806174
2077,-0.043351956
2078,-0.04090119
2079,-0.016327653
2080,-0.057699777
2081,-0.012715569
2082,-0.01701608
2083,-0.045920055
2084,-0.04555718
2085,-0.0069158087
2086,-0.041123338
2087,-0.036524188
2088,-0.058874637
2089,-0.012899384
2090,0.019891407
2091,-0.03721891
2092,0.0028924635
2093,-0.030955398
2094,-0.051251486
2095,-0.03690601
2096,-0.036471654
2097,-0.03307788
2098,-0.049354184
2099,-0.045789093
2100,-0.0346341
2101,-0.060417715
2102,-0.016053462
2103,-0.048189204
2104,-0.022805365
2105,0.00761843
2106,-0.049969915
2107,-0.018620765
2108,-0.03845366
2109,-0.0262085
2110,-0.05487331
2111,-0.05093529
2112,-0.031256095
2113,-0.048124272
2114,-0.048498806
2115,-0.014157397
2116,-0.035879407
2117,-0.006671041
2118,-0.033120576
2119,-0.03676021
2120,-0.022590412
2121,0.031533584
2122,-0.014215001
2123,-0.04065669
2124,-0.04937075
2125,0.01877783
2126,-0.056769714
2127,-0.08672095
2128,0.07280739
2129,-0.040903945
2130,-0.024607694
2131,-0.04634362
2132,-0.03788505
2133,0.0149617335
2134,-0.039339427
2135,0.0063060457
2136,-0.06032597
2137,0.03776906
2138,-0.00025663007
2139,-0.05621546
2140,0.016761947
2141,-0.02641478
2142,0.010118087
2143,-0.049585056
2144,-0.019644804
2145,-0.009424207
2146,-0.06405981
2147,-0.04212716
2148,-0.03696958
2149,-0.025197223
2150,-0.051035378
2151,0.012731401
2152,-0.053695176
2153,0.014369389
2154,-0.0519604
2155,-0.046592936
2156,-0.030380398
2157,0.058930743
2158,-0.041872147
2159,-0.03575559
2160,0.06568489
2161,-0.00838204
2162,-0.03053725
2163,-0.033346996
2164,-0.019027071
2165,0.03049596
2166,-0.030131381
2167,-0.040689334
2168,-0.06977044
2169,-0.047172576
2170,0.046273343
2171,-0.046342142
2172,-0.06256537
2173,0.014895338
2174,-0.0010994077
2175,0.012793295
2176,-0.0595456
2177,-0.02608632
2178,-0.043494586
2179,-0.009899482
2180,-0.0515766
2181,-0.040488437
2182,-0.014581915
2183,-0.011592541
2184,-0.02795072
2185,-0.047746588
2186,-0.05841981
2187,-0.014116911
2188,-0.044058036
2189,-0.045168653
2190,0.036512613
2191,-0.04027422
2192,-0.024335582
2193,0.0073056417
2194,-0.05283958
2195,-0.056441676
2196,-0.03084479
2197,-0.036224972
2198,0.02405357
2199,0.018047845
2200,-0.053477366
2201,-0.0057279677
2202,-0.053726584
2203,-0.064478144
2204,-0.0064960658
2205,-0.04987459
2206,-0.028884223
2207,0.121634126
2208,-0.0598799
2209,-0.044844776
2210,-0.030767446
2211,-0.0015968676
2212,-0.029628739
2213,-0.02622194
2214,-0.047420047
2215,-0.026009042
2216,-0.035603546
2217,-0.027890656
2218,-0.055244625
2219,-0.0016477375
2220,-0.042237554
2221,-0.0023817758
2222,-0.03586834
2223,-0.013088653
2224,0.014025375
2225,-0.021695765
2226,-0.04663436
2227,-0.031295873
2228,0.04127771
2229,-0.0380158
2230,-0.043941814
2231,-0.019999662
2232,-0.0408225
2233,-0.06872375
2234,-0.04533116
2235,-0.015285455
2236,-0.0432601
2237,-0.054967094
2238,-0.04079673
2239,0.037824042
2240,-0.049595617
2241,-0.034786496
2242,-0.0480379
2243,-0.045614287
2244,-0.03160197
2245,-0.010992005
2246,-0.01230373
2247,-0.037514035
2248,-0.042499177
2249,0.067955
2250,-0.03738976
2251,-0.029392628
2252,0.061974943
2253,-0.04128657
2254,-0.05662345
2255,-0.03537072
2256,0.043814212
2257,-0.033763137
2258,-0.060067352
2259,-0.035821777
2260,-0.04538169
2261,-0.016706267
2262,-0.0037496686
2263,-0.06384018
2264,-0.03347953
2265,-0.028504202
2266,-0.040869527
2267,-0.030209722
2268,-0.050294455
2269,-0.019542482
2270,-0.020527538
2271,-0.047085285
2272,0.019661369
2273,-0.030367281
2274,-0.0074767866
2275,-0.03682429
2276,0.03540759
2277,-0.028895807
2278,-0.031396642
2279,-0.018248053
2280,-0.01402585
2281,-0.09755053
2282,-0.017440023
2283,-0.03837583
2284,-0.03417157
2285,-0.046300065
2286,-0.0065526557
2287,-0.041156586
2288,0.03119063
2289,-0.0024257645
2290,-0.04109453
2291,-0.0058016847
2292,0.008198955
2293,-0.03284645
2294,-0.03595114
2295,-0.046302747
2296,-0.02854067
2297,-0.06585637
2298,-0.05976988
2299,-0.04805134
2300,-0.038402133
2301,-0.04379604
2302,-0.046263922
2303,-0.04657826
2304,0.07960778
2305,-0.033226088
2306,-0.066594064
2307,-0.05788052
2308,-0.03343017
2309,-0.031391654
2310,0.00032416766
2311,0.004264575
2312,0.04291209
2313,-0.01953925
2314,-0.0728136
2315,-0.024687901
2316,-0.045470454
2317,-0.027663743
2318,0.052127562
2319,-0.03086279
2320,-0.029671788
2321,-0.043955598
2322,-0.020423654
2323,-0.05106121
2324,0.0010510245
2325,-0.024068555
2326,-0.042015567
2327,-0.04222861
2328,-0.041300196
2329,-0.034290355
2330,-0.037919734
2331,-0.03320632
2332,-0.010123321
2333,-0.043438926
2334,-0.04058941
2335,-0.048990645
2336,0.042433303
2337,-0.055170987
2338,-0.07831794
2339,-0.044367287
2340,-0.026943596
2341,-0.020509554
2342,-0.0410348
2343,-0.036746193
2344,-0.042295422
2345,0.043126553
2346,6.260281e-05
2347,-0.036838334
2348,-0.013437444
2349,-0.028782733
2350,-0.03480088
2351,-0.033379924
2352,-0.03600021
2353,-0.02964021
2354,-0.034898736
2355,-0.0174905
2356,-0.034931406
2357,-0.0058987667
2358,-0.032014716
2359,-0.048318386
2360,-0.03353723
2361,0.003959305
2362,-0.050030947
2363,-0.040197086
2364,-0.050330464
2365,-0.023986956
2366,-0.009573397
2367,-0.05106585
2368,-0.004234456
2369,-0.045666795
2370,-0.046949275
2371,-0.043633822
2372,-0.0332411
2373,-0.03208123
2374,-0.0012707609
2375,-0.03864151
2376,-0.025988454
2377,-0.040693372
2378,-0.025877314
2379,-0.031217625
2380,-0.05414706
2381,-0.018077519
2382,-0.049201515
2383,-0.086768925
2384,-0.038595337
2385,-0.04115071
2386,-0.05400481
2387,-0.046021983
2388,-0.03464222
2389,-0.014930846
2390,-0.00840886
2391,-0.03570209
2392,-0.039555226
2393,0.032619268
2394,-0.008449339
2395,-0.055520523
2396,-0.006701329
2397,-0.011570046
2398,-0.04093566
2399,-0.0496936
2400,-0.015751122
2401,-0.022663292
2402,-0.035033885
2403,-0.004879934
2404,-0.03679223
2405,0.01088679
2406,0.051817603
2407,0.01822753
2408,-0.03715098
2409,-0.00400323
2410,-0.05205813
2411,-0.042384177
2412,-0.029922752
2413,0.061124012
2414,-0.03868812
2415,0.023293208
2416,-0.038011517
2417,-0.026631938
2418,0.020298073
2419,-0.028691154
2420,-0.013296031
2421,-0.032341905
2422,-0.0021007294
2423,-0.024191748
2424,-0.052698426
2425,-0.04701561
2426,0.021585645
2427,-0.046319053
2428,-0.042477142
2429,-0.03276847
2430,-0.04397567
2431,-0.029200405
2432,-0.05286435
2433,-0.033190474
2434,-0.043287396
2435,-0.041167
2436,-0.013113402
2437,-0.04011785
2438,-0.038630728
2439,-0.05594226
2440,-0.037272234
2441,-0.051189292
2442,-0.046913292
2443,-0.049655233
2444,0.013058181
2445,-0.045171633
2446,0.00336044
2447,-0.040308394
2448,-0.017466657
2449,-0.03599777
2450,-0.033870094
2451,-0.05584242
2452,-0.027162913
2453,-0.043176975
2454,-0.033260453
2455,0.0065124873
2456,-0.05325628
2457,0.0010985445
2458,-0.015758868
2459,0.059898097
2460,-0.022890259
2461,-0.04966887
2462,-0.030852858
2463,0.025629114
2464,-0.059764545
2465,-0.04858824
2466,-0.001651645
2467,-0.029919866
2468,-0.023591097
2469,-0.026346644
2470,-0.010894264
2471,-0.027645677
2472,-0.03270912
2473,-0.026580717
2474,-0.05538511
2475,-0.012643094
2476,-0.028520681
2477,-0.034931123
2478,-0.05068127
2479,-0.036023334
2480,0.02138596
2481,-0.05149368
2482,-0.032871317
2483,-0.03441603
2484,-0.020019343
2485,-0.018724676
2486,-0.044193156
2487,-0.034312192
2488,-0.015288086
2489,-0.06112183
2490,-0.03259218
2491,0.059743296
2492,-0.043080993
2493,-0.020788996
2494,-0.025597645
2495,-0.020527817
2496,-0.05035331
2497,-0.035970967
2498,-0.033951327
2499,0.059782274
2500,-0.02442472
2501,-0.020410957
2502,0.059442826
2503,-0.028188465
2504,-0.042858228
2505,-0.016521746
2506,-0.023805361
2507,-0.029367698
2508,0.028981816
2509,-0.027441705
2510,-0.033829823
2511,-0.017438639
2512,-0.045598783
2513,-0.034345772
2514,-0.059823498
2515,-0.03198478
2516,0.013609861
2517,-0.016470775
2518,-0.0012708019
2519,-0.053586237
2520,-0.028222991
2521,-0.022110952
2522,-0.030703578
2523,-0.030178204
2524,-0.03959862
2525,-0.016307937
2526,-0.021274287
2527,-0.0471854
2528,-0.014417895
2529,0.06590637
2530,-0.004602498
2531,-0.036423765
2532,0.005399293
2533,-0.030464705
2534,-0.031251952
2535,-0.05346005
2536,0.040375046
2537,-0.06183898
2538,-0.04382642
2539,-0.039448638
2540,-0.021761658
2541,-0.013227635
2542,-0.026245074
2543,-0.022818498
2544,-0.0587642
2545,0.04026814
2546,0.016925607
2547,-0.008202811
2548,-0.041583132
2549,-0.017591765
2550,-0.03566948
2551,-0.046145663
2552,-0.046430565
2553,-0.06562944
2554,-0.034832723
2555,-0.04812396
2556,0.015110409
2557,-0.043795627
2558,-0.046172753
2559,-0.040842082
2560,-0.0030542696
2561,0.0010330612
2562,-0.033934098
2563,-0.015979486
2564,0.013982568
2565,-0.0066819508
2566,0.034927737
2567,0.0069726245
2568,-0.00798369
2569,-0.026534386
2570,-0.022645101
2571,-0.016340792
2572,-0.04557452
2573,-0.027095104
2574,0.057792418
2575,-0.02658127
2576,0.008761491
2577,-0.0136113735
2578,-0.008017169
2579,-0.029245984
2580,-0.047942568
2581,-0.042962145
2582,-0.039657414
2583,-0.042169914
2584,-0.035101376
2585,-0.022342578
2586,-0.015438895
2587,-0.0109148035
2588,0.003670091
2589,-0.043104965
2590,-0.040533047
2591,0.0051131602
2592,-0.0080500785
2593,-0.027094731
2594,-0.05647711
2595,-0.04576297
2596,-0.030806025
2597,-0.031965483
2598,-0.04054734
2599,0.05143957
2600,-0.03358131
2601,-0.016215274
2602,-0.024091262
2603,-0.033958822
2604,-0.014316438
2605,-0.028089672
2606,-0.05143349
2607,-0.037748337
2608,-0.026992556
2609,-0.028434614
2610,-0.046150237
2611,-0.036260027
2612,-0.03453594
2613,-0.015799483
2614,-0.022667466
2615,-0.0079696635
2616,0.0047567827
2617,0.0017872156
2618,-0.040049907
2619,0.02056689
2620,-0.053652983
2621,-0.017119376
2622,0.004362253
2623,-0.03297457
2624,-0.0154338125
2625,-0.04321225
2626,0.037698343
2627,-0.02003832
2628,-0.031500235
2629,-0.025896814
2630,-0.029131414
2631,0.013845166
2632,-0.013178569
2633,-0.0046169404
2634,-0.002113926
2635,0.026066957
2636,-0.04373791
2637,-0.010458846
2638,-0.009789513
2639,-0.045387164
2640,-0.01247092
2641,-0.0023456085
2642,-0.04353224
2643,-0.029111952
2644,-0.034301948
2645,0.005794511
2646,-0.015413594
2647,-0.004129873
2648,-0.04186369
2649,0.023538714
2650,-0.007846733
2651,-0.047902565
2652,-0.019547943
2653,-0.0090970835
2654,-0.012082024
2655,-0.049943503
2656,-0.020787835
2657,0.016532991
2658,-0.050180882
2659,-0.029102227
2660,-0.036740217
2661,-0.00470955
2662,-0.049538
2663,-0.058389872
2664,-0.043132126
2665,-0.023094751
2666,-0.02495056
2667,-0.021082079
2668,0.020353751
2669,0.0044856914
2670,-0.037254024
2671,-0.006200718
2672,-0.023290811
2673,-0.051223323
2674,0.0069010835
2675,-0.036571227
2676,-0.053350292
2677,-0.010823572
2678,-0.013019772
2679,0.0031559935
2680,-0.060852427
2681,-0.046915315
2682,-0.02335259
2683,-0.029401952
2684,-0.042833768
2685,-0.025454095
2686,-0.009693244
2687,-0.007518323
2688,-0.051792387
2689,-0.028924916
2690,-0.033815935
2691,-0.041056033
2692,-0.015400155
2693,-0.02178839
2694,0.048363976
2695,0.011230653
2696,-0.019300368
2697,-0.014207446
2698,-0.030933527
2699,0.02772844
2700,0.03076894
2701,-0.04495454
2702,-0.017357936
2703,0.009953388
2704,-0.029721979
2705,0.028720103
2706,-0.053030353
2707,-0.04955838
2708,-0.022345297
2709,-0.045669015
2710,-0.040543932
2711,-0.02248932
2712,-0.009540424
2713,-0.015463629
2714,-0.028657231
2715,0.030946761
2716,-0.02970005
2717,-0.04957145
2718,-0.029903518
2719,-0.008441103
2720,-0.053360578
2721,-0.039960615
2722,0.03209767
2723,-0.018021852
2724,-0.009103621
2725,-0.011343872
2726,-0.024421277
2727,-0.030166669
2728,-0.027924972
2729,-0.029581424
2730,0.010140574
2731,0.0005341548
2732,0.0028153046
2733,-0.017466318
2734,0.004066463
2735,0.01822381
2736,0.012202932
2737,-0.009951688
2738,-0.035698567
2739,-0.035233784
2740,-0.028909156
2741,-0.01685148
2742,-0.043635722
2743,-0.05962238
2744,-0.0049382523
2745,-0.015075776
2746,-0.0268309
2747,-0.013437692
2748,-0.030724816
2749,-0.01622788
2750,-0.028704865
2751,-0.018497502
2752,-0.050401237
2753,0.015340216
2754,-0.048089217
2755,-0.047439307
2756,-0.024998708
2757,-0.016505342
2758,-0.04825974
2759,-0.03573076
2760,-0.02188507
2761,0.034530424
2762,-0.01835239
2763,-0.02940394
2764,0.03203473
2765,-0.024425216
2766,-0.032640047
2767,0.023046821
2768,-0.020983407
2769,-0.030473582
2770,-0.026811078
2771,-0.035845853
2772,0.02836804
2773,0.0156656
2774,-0.0009239387
2775,-0.049917363
2776,-0.022117222
2777,-0.03763542
2778,-0.040912103
2779,-0.029767033
2780,-0.050344393
2781,0.024760142
2782,-0.018557971
2783,-0.046874344
2784,-0.026418915
2785,0.060676303
2786,-0.0067604408
2787,-0.036115136
2788,-0.014244317
2789,-0.016154366
2790,-0.002823493
2791,0.011703356
2792,-0.027235432
2793,-0.058747154
2794,-0.034288894
2795,-0.028116403
2796,-0.0019381514
2797,-0.031240135
2798,-0.0031042586
2799,-0.040388394
2800,-0.033658933
2801,-0.006125511
2802,-0.032931965
2803,-0.0022042792
2804,-0.0334208
2805,-0.012865862
2806,-0.028065179
2807,-0.046565026
2808,0.018457387
2809,-0.03642148
2810,-0.049370117
2811,-0.037817024
2812,-0.04239177
2813,-0.04271736
2814,-0.046400845
2815,-0.030735776
2816,-0.006421952
2817,-0.0075807767
2818,0.012305261
2819,-0.02850342
2820,0.008151184
2821,0.0006596538
2822,0.0115784835
2823,-0.005457852
2824,-0.004114542
2825,-0.0056932815
2826,-0.008925144
2827,-0.009034751
2828,-0.0059745493
2829,-0.015093862
2830,0.023833998
2831,-0.011456129
2832,-0.014649942
2833,0.02556967
2834,-0.011099593
2835,-0.015863681
2836,-0.0037806507
2837,-0.0037381533
2838,-0.014460288
2839,-0.012991871
2840,0.009187823
2841,-0.020556198
2842,0.00034058176
2843,-0.004147553
2844,3.9112892e-06
2845,-0.012814448
2846,-0.000101232115
2847,-0.00031178343
2848,0.0025035543
2849,-0.016530547
2850,-0.019300262
2851,-0.018757017
2852,-0.004219007
2853,0.0065945946
2854,-0.010167934
2855,0.039208986
2856,-0.0045517813
2857,0.005618827
2858,0.017795622
2859,-0.019885872
2860,-0.0048738266
2861,0.0106442105
2862,-0.0074223857
2863,0.002512912
2864,-0.017942699
2865,-0.0025972184
2866,-0.017712422
2867,-0.008774657
2868,0.0075109075
2869,-0.003337621
2870,0.011526865
2871,0.016670974
2872,0.028369913
2873,0.00011074354
2874,-0.020089852
2875,0.007885182
2876,-0.024714598
2877,-0.0023200775
2878,0.0041544256
2879,-0.009383518
2880,-0.0052112197
2881,0.0019528057
2882,0.0031517933
2883,-0.010416602
2884,-0.00824021
2885,0.006081448
2886,-0.00463799
2887,0.035069384
2888,-0.0037992182
2889,-0.019121755
2890,-0.020997142
2891,-0.021038005
2892,-0.02655775
2893,0.0038017621
2894,6.602899e-05
2895,-0.013189251
2896,-0.015683452
2897,-0.0141451135
2898,-0.009748018
2899,-0.012729686
2900,0.014956282
2901,0.0044181133
2902,-0.0119291805
2903,-0.007208775
2904,0.003867294
2905,0.0019761971
2906,0.012113336
2907,0.0038685743
2908,-0.0077696727
2909,-0.009081278
2910,-0.01613859
2911,-0.014541
2912,-0.0064201113
2913,-0.010968111
2914,-0.012476036
2915,-0.006100648
2916,-0.023243917
2917,0.027014615
2918,0.018319147
2919,0.0087832995
2920,0.0008380841
2921,0.0031587817
2922,-0.008054394
2923,-0.016910244
2924,-0.003767103
2925,0.0038429438
2926,-0.012712348
2927,0.020215388
2928,-0.00796911
2929,-0.004966358
2930,-0.003258701
2931,-0.019234197
2932,-0.004657302
2933,-0.026325004
2934,-0.010591312
2935,-0.0071634
2936,-0.012566402
2937,-0.0068813018
2938,-0.010438903
2939,-0.006231248
2940,-0.0028162252
2941,-0.009664032
2942,0.002789557
2943,-0.0058652344
2944,-0.021872748
2945,0.0077273734
2946,-0.014611164
2947,-0.015860075
2948,0.008303687
2949,-0.007065312
2950,0.013594471
2951,-0.0017796294
2952,-0.013154266
2953,-0.018055666
2954,-0.013835877
2955,-0.007856436
2956,-0.011442469
2957,-0.004917969
2958,-0.0046784473
2959,-0.003824057
2960,-0.012482784
2961,0.00556888
2962,-0.013761608
2963,-0.025931574
2964,0.00863756
2965,-0.012928287
2966,0.022390166
2967,-0.012347814
2968,-0.011451648
2969,-0.005679174
2970,-0.0019503532
2971,0.011876297
2972,-0.0054594777
2973,-0.008187975
2974,-0.024037486
2975,-0.0016082402
2976,-0.011033388
2977,-7.683612e-05
2978,0.008781227
2979,-0.007179461
2980,-0.012838768
2981,-0.0057951007
2982,0.0071206368
2983,-0.0023913952
2984,-0.013501192
2985,0.014123164
2986,0.03214994
2987,-0.0039374307
2988,0.0044465507
2989,-0.014264006
2990,0.013475021
2991,-0.017150799
2992,-0.0045865546
2993,0.00074970315
2994,-0.012081747
2995,-0.007727164
2996,-0.027395593
2997,-0.016613511
2998,-0.0064755166
2999,-0.012785446
3000,0.0035545502
3001,0.010220425
3002,-0.01852095
3003,0.01369014
3004,-0.015481837
3005,-0.018777901
3006,-0.012014078
3007,-0.025801176
3008,-0.0057321335
3009,0.0039743194
3010,-0.009638909
3011,0.001417568
3012,0.00045381274
3013,-0.010199709
3014,0.017544014
3015,-0.014760948
3016,-0.012975276
3017,0.020035174
3018,-0.0045010685
3019,-0.00590838
3020,-0.0074249664
3021,-0.0047995574
3022,0.009041318
3023,-0.0065191817
3024,0.016590327
3025,0.0048427726
3026,-0.018090047
3027,0.022704002
3028,0.035079006
3029,-0.014097173
3030,-0.0063138753
3031,0.0010457311
3032,-0.0035196193
3033,-0.022531122
3034,-0.028933762
3035,-0.016833205
3036,-0.009884513
3037,-0.00011869011
3038,-0.0048035616
3039,-0.021477511
3040,0.0006698878
3041,0.012541011
3042,-0.019642655
3043,-0.009794029
3044,0.020650603
3045,-0.0056627253
3046,-0.00043282786
3047,-0.008286147
3048,0.016995855
3049,-0.024006313
3050,-0.00045986424
3051,-0.0003585551
3052,-0.012943839
3053,-0.019964516
3054,-0.0009902067
3055,0.0057207798
3056,-0.022777705
3057,-0.011346604
3058,-0.0033071032
3059,-0.010209454
3060,0.011680904
3061,8.9730114e-05
3062,-0.011354331
3063,-0.0047945734
3064,0.023678325
3065,-0.0014761022
3066,-0.0118036885
3067,-0.017326003
3068,0.023918798
3069,-0.018360574
3070,-0.0070583103
3071,0.0059135663
3072,0.0038470968
3073,-0.0073371814
3074,-0.009632131
3075,0.007893932
3076,0.0066698855
3077,-0.007469331
3078,0.0009923175
3079,0.0032977478
3080,-0.0007155252
3081,0.0019014438
3082,-0.008368968
3083,0.011513451
3084,0.008008712
3085,0.008819364
3086,0.005893885
3087,-0.0056003802
3088,-0.001175207
3089,0.003321427
3090,0.002125118
3091,0.0072546783
3092,0.0008178339
3093,0.00069711223
3094,-0.0062841116
3095,0.0016816163
3096,0.0030508945
3097,-0.0026169084
3098,0.015150013
3099,0.0015721503
3100,-0.0074792122
3101,0.0039958283
3102,-0.010094166
3103,0.0003779319
3104,0.0011686941
3105,-0.0128364405
3106,-0.011037942
3107,0.008941173
3108,0.00094197644
3109,0.01211225
3110,-0.012159327
3111,0.015488244
3112,0.004911026
3113,0.002679596
3114,0.0020731918
3115,0.0061504636
3116,0.019726954
3117,-0.01625649
3118,0.014376962
3119,0.012987158
3120,0.013898885
3121,0.01589226
3122,0.0054630614
3123,-0.0009482346
3124,-0.019296091
3125,0.011105407
3126,-0.010163359
3127,0.008590328
3128,-0.0057422486
3129,0.0017741722
3130,0.016318949
3131,-0.0008008649
3132,0.013617333
3133,0.010415163
3134,-0.0037976578
3135,-0.00305854
3136,-0.0014696957
3137,0.008321206
3138,-0.0024995848
3139,-0.011248027
3140,0.0025066992
3141,0.004818253
3142,0.011302318
3143,-0.0020916795
3144,0.007290434
3145,0.00570242
3146,0.01563734
3147,0.0070235906
3148,-0.011612556
3149,-5.5301272e-05
3150,0.0057049426
3151,0.0020371554
3152,-0.010792759
3153,0.00010333248
3154,0.0047169602
3155,0.00066515047
3156,0.0075041847
3157,-0.0052400986
3158,0.0047595627
3159,-0.014043736
3160,0.0016992195
3161,0.01410961
3162,-0.0028535456
3163,0.008708159
3164,0.004502644
3165,0.0132885445
3166,-0.0037579178
3167,0.003503072
3168,-0.0035685678
3169,0.013428882
3170,-0.00093266007
3171,0.004216242
3172,-0.007473672
3173,0.0016687047
3174,0.013708131
3175,0.007375059
3176,-0.007043619
3177,-0.00948547
3178,0.00783427
3179,0.015774516
3180,0.019616175
3181,0.015782272
3182,-0.006333662
3183,-0.0036154413
3184,-0.0050042155
3185,-0.015892453
3186,0.011920881
3187,0.0038903507
3188,0.006353647
3189,0.016810173
3190,0.015039062
3191,-0.011752886
3192,-0.0025565785
3193,0.006556124
3194,-0.0063536484
3195,0.002793588
3196,0.0010106473
3197,0.006024836
3198,-0.014997721
3199,-0.013166613
3200,-0.0030874196
3201,-0.00026633614
3202,0.0022663472
3203,-0.0036113115
3204,0.00744809
3205,0.010426068
3206,0.006689775
3207,0.010316882
3208,0.011815971
3209,0.009209333
3210,0.002799213
3211,0.0026809939
3212,0.002522916
3213,-0.0037078084
3214,0.003556314
3215,-0.0072306828
3216,-0.004827347
3217,-0.0040945965
3218,-0.0061680595
3219,0.0016218751
3220,0.0100722825
3221,-0.006308861
3222,-0.004856297
3223,0.0069346623
3224,-0.0019166976
3225,0.013679757
3226,0.0073082712
3227,-0.0028177535
3228,0.00029504998
3229,0.00097564224
3230,-0.003552701
3231,-0.0033420073
3232,-0.0018306227
3233,0.017652608
3234,0.010501837
3235,-0.011345528
3236,0.0018490475
3237,-0.010778056
3238,0.0093071265
3239,0.012075601
3240,-0.0061072498
3241,0.013285702
3242,0.00349198
3243,-0.002794249
3244,0.004875116
3245,-0.0011602214
3246,-0.015989723
3247,-0.011550857
3248,0.0071684434
3249,-0.011141592
3250,-0.009573687
3251,0.00016868394
3252,-0.0041640736
3253,0.018401805
3254,0.010062597
3255,0.012763923
3256,-0.012211277
3257,0.01534174
3258,0.012895505
3259,-0.0018274811
3260,-0.0077575906
3261,0.0028777989
3262,-0.018997723
3263,-0.0071902093
3264,0.013604728
3265,0.0007150868
3266,0.0058362167
3267,-0.006493424
3268,0.0034484398
3269,0.003601325
3270,0.0044836146
3271,0.0006605139
3272,0.010363294
3273,0.00043521385
3274,-0.0015472855
3275,-0.018848356
3276,-0.013257859
3277,-0.010597226
3278,0.0016080005
3279,-0.0031894962
3280,-0.00037004324
3281,0.008130516
3282,-0.012689625
3283,0.0036330062
3284,-0.0056948722
3285,0.0030660103
3286,-0.009537141
3287,-0.0131717
3288,-0.011702731
3289,0.0037316638
3290,-0.017280519
3291,0.014889606
3292,0.0018816278
3293,0.0024950264
3294,0.005754286
3295,-0.005120489
3296,-0.0037563914
3297,-0.0028512785
3298,-0.016028728
3299,-0.015941449
3300,0.0042704567
3301,-0.00040003037
3302,-0.002053142
3303,-0.0031891002
3304,0.00053109135
3305,-0.009398528
3306,0.0022372983
3307,-0.0034189895
3308,0.009705296
3309,-0.0018704875
3310,0.0048865452
3311,-0.006752845
3312,-0.019561997
3313,0.0012322075
3314,0.002045802
3315,0.0020125976
3316,-0.016793033
3317,0.014152471
3318,-0.0136501985
3319,-0.006258408
3320,0.001170284
3321,-0.019894913
3322,0.0032449188
3323,1.5693176e-05
3324,0.007372884
3325,-0.0034940173
3326,-0.011213926
3327,-0.010042127
3328,0.0016310109
3329,0.0034466856
3330,0.005186631
3331,-0.005273513
3332,0.015055873
3333,-0.002098805
3334,0.014774384
3335,-0.002155553
3336,-0.016721496
3337,0.0074379933
3338,0.0044205696
3339,-0.011692524
3340,0.0012272921
3341,0.019233912
3342,0.0046973513
3343,-0.0024452396
3344,-0.012225174
3345,0.010293931
3346,0.0058688913
3347,0.0036222269
3348,0.000892352
3349,-0.018502746
3350,0.000990507
3351,-0.013084212
3352,0.0070603006
3353,-0.0056305807
3354,-0.0008194112
3355,0.0050477535
3356,0.0083061205
3357,0.0092943525
3358,0.0023409687
3359,0.0067059654
3360,0.005414844
3361,-0.007911297
3362,0.0073643057
3363,-0.005713086
3364,-0.01079637
3365,-0.006486614
3366,-0.0064931354
3367,-0.00015388352
3368,0.00015365134
3369,0.0033191675
3370,-0.0012015845
3371,-0.017384369
3372,-0.009507444
3373,-0.00457706
3374,0.006419528
3375,0.015203716
3376,0.0024537349
3377,0.011665678
3378,0.017199544
3379,-0.0013799561
3380,-0.011515516
3381,0.003144555
3382,-0.005341464
3383,0.0044207973
3384,-0.0011706102
3385,0.017908819
3386,0.01804792
3387,0.0020681343
3388,0.008997235
3389,-0.0014552596
3390,-0.0007325994
3391,-0.0014698766
3392,-0.01186881
3393,0.0004049436
3394,-0.0056919246
3395,0.005840958
3396,0.0048572216
3397,0.012351696
3398,0.012024833
3399,-0.0019018763
3400,-0.0065319412
3401,0.0033065097
3402,-0.00592482
3403,0.008544056
3404,-0.008280143
3405,-0.0014519204
3406,-0.0040638414
3407,0.007884168
3408,0.002346076
3409,0.009218511
3410,-0.0045788405
3411,0.015951214
3412,0.007554012
3413,-0.012003669
3414,-0.007520138
3415,0.007198873
3416,0.01857732
3417,0.002976571
3418,0.011231914
3419,0.011767307
3420,-0.0068470365
3421,-0.0010892408
3422,0.013483569
3423,0.01302809
3424,-0.010647807
3425,0.0093117505
3426,0.0066948417
3427,0.008005447
3428,-0.012950771
3429,-0.00792789
3430,-0.0070847296
3431,0.0013996841
3432,0.0028442654
3433,-0.015467859
3434,-0.0111023085
3435,0.002788729
3436,-0.00908515
3437,0.014459989
3438,-0.010446319
3439,0.0013771969
3440,0.016147323
3441,0.004639007
3442,0.011143179
3443,0.014076748
3444,0.003372066
3445,-0.016660077
3446,0.0019300892
3447,0.006155826
3448,-0.010730704
3449,0.008037047
3450,0.016988037
3451,0.0078785885
3452,0.004867776
3453,0.0033201608
3454,-0.0016196591
3455,-0.0020654604
3456,-0.00052612275
3457,0.007859143
3458,0.018499885
3459,-0.0012974853
3460,-0.008291634
3461,-0.0034243595
3462,0.002482126
3463,-0.0033384275
3464,-0.007695343
3465,0.008110093
3466,0.01983453
3467,0.0087994365
3468,0.008412524
3469,-0.0002238996
3470,-0.009029811
3471,-0.011117217
3472,0.010251499
3473,0.002653738
3474,-0.007962039
3475,-0.008055715
3476,-0.0038956588
3477,-0.0049938695
3478,0.0031230033
3479,-0.003616155
3480,0.0036740017
3481,0.0021564108
3482,-0.005877151
3483,0.005147385
3484,-0.007505873
3485,0.0074389484
3486,-0.0008637281
3487,0.005866884
3488,-0.001580898
3489,-0.0055108033
3490,0.0065765423
3491,0.0061574746
3492,-0.00046221117
3493,-0.004645111
3494,0.017594531
3495,0.0046075606
3496,-0.008980849
3497,-0.0043217787
3498,-0.0027449464
3499,0.0008460282
3500,-0.018266203
3501,0.0011330014
3502,-0.0027341947
3503,-0.007887191
3504,0.00035462
3505,-0.007135242
3506,-0.004655744
3507,0.0050275433
3508,0.005040514
3509,-0.011360326
3510,0.0030179408
3511,0.0018526777
3512,0.009666377
3513,-0.010754748
3514,-0.0059738243
3515,0.0027987452
3516,-0.005160077
3517,-0.009541738
3518,0.001705633
3519,-0.0040039513
3520,-0.0076808226
3521,-0.005038028
3522,0.0008075799
3523,-0.004193032
3524,0.01398306
3525,-0.0009641852
3526,-0.00020263117
3527,-0.00042542192
3528,-0.013665838
3529,-0.008596939
3530,-0.0073632905
3531,-0.0065380014
3532,0.009950829
3533,0.002671164
3534,-0.0026716504
3535,-0.018461788
3536,-0.00052302965
3537,-0.0038630252
3538,0.004793725
3539,0.014667222
3540,0.010211026
3541,-0.004425423
3542,-0.001128438
3543,-0.0139067015
3544,0.0026605781
3545,0.0074842954
3546,-0.0031173795
3547,0.012485529
3548,-0.008065524
3549,0.00464316
3550,0.0019834845
3551,0.0046340288
3552,-0.008039264
3553,0.008709005
3554,0.009163387
3555,-0.0045664096
3556,-0.0044285674
3557,-0.0046260217
3558,-0.0010340879
3559,0.0055242702
3560,-0.0020286187
3561,-0.003850524
3562,-0.006579695
3563,0.010202162
3564,0.007495066
3565,-0.00899546
3566,0.010932484
3567,-0.008045447
3568,0.00697035
3569,0.0097441925
3570,0.0076700137
3571,-0.0012669832
3572,0.0076495563
3573,-0.019956926
3574,0.01508098
3575,0.0045373905
3576,-0.0016314441
3577,-0.00012095845
3578,0.0064702956
3579,0.0057299477
3580,-7.669519e-05
3581,0.012286601
3582,0.0041848575
3583,-0.0105424505
3584,0.00996116
3585,-0.0066373292
3586,0.01084124
3587,0.00053262815
3588,-0.0018621008
3589,0.0034289518
3590,-0.0041064518
3591,-0.010622868
3592,0.0030665803
3593,-0.0064543835
3594,-0.012040736
3595,0.016865868
3596,-0.0041458025
3597,0.011326439
3598,-0.011442264
3599,0.0062979246
3600,0.005796047
3601,-0.009255222
3602,0.00013349087
3603,0.017929459
3604,0.012760763
3605,0.018474128
3606,-0.013358127
3607,0.011140457
3608,0.0029311676
3609,0.0014337813
3610,-0.00014363643
3611,-0.005279527
3612,-0.006109602
3613,0.0042037973
3614,0.017796932
3615,0.009966859
3616,-0.0034496114
3617,-0.00916759
3618,0.006040029
3619,0.004110187
3620,0.0067187487
3621,0.0030183345
3622,0.002537537
3623,0.0024933347
3624,0.019276556
3625,-0.013598797
3626,-0.0022002645
3627,0.008277417
3628,0.003590049
3629,-0.011275664
3630,0.0012393178
3631,-0.0024356458
3632,0.006180531
3633,0.002819279
3634,-0.009227041
3635,0.009724167
3636,-0.009315201
3637,0.006591431
3638,0.0021144974
3639,-0.013757153
3640,-0.0030412269
3641,-0.004260214
3642,-0.006852584
3643,-0.00977117
3644,0.004964758
3645,-0.0061074137
3646,0.00987665
3647,0.0033135077
3648,0.008341029
3649,0.00036177188
3650,0.0049201986
3651,-0.0023222032
3652,0.004048157
3653,-0.00347126
3654,-0.00372369
3655,-0.00047765797
3656,0.0043198704
3657,0.0028167202
3658,0.0019954622
3659,-0.0035203856
3660,-0.008886227
3661,0.0055045206
3662,0.006824462
3663,-0.007472196
3664,-0.002637802
3665,0.0073603913
3666,0.008643112
3667,0.009554209
3668,-0.0007388274
3669,-0.004462374
3670,-0.0119630275
3671,-0.012684326
3672,-0.0018673564
3673,0.019301444
3674,0.016171696
3675,0.00449288
3676,-0.004412363
3677,0.002715346
3678,0.007355987
3679,-0.0071292766
3680,0.00848975
3681,-2.307027e-05
3682,0.012006953
3683,0.0070468285
3684,0.016048511
3685,-0.0021608353
3686,-0.005288427
3687,-0.001402153
3688,-0.0056253225
3689,-0.0051550097
3690,-0.010580255
3691,0.0028059962
3692,0.0046833702
3693,-0.0014862866
3694,0.00736004
3695,-0.0019226538
3696,-0.0032578323
3697,0.0024502564
3698,0.0016026228
3699,0.0014668386
3700,0.0111357095
3701,0.016186092
3702,0.0022561247
3703,-1.36729295e-05
3704,0.0069542276
3705,0.0111557
3706,-0.001770675
3707,0.0033090685
3708,0.0008917959
3709,0.009218106
3710,-0.003122131
3711,0.013480263
3712,0.004473699
3713,0.0013316573
3714,-0.0024123474
3715,0.014943883
3716,-0.0040838323
3717,0.00076172035
3718,-0.006857577
3719,0.01770761
3720,-0.012791879
3721,-0.008237585
3722,0.0012738944
3723,0.010519144
3724,0.007394103
3725,-0.007052758
3726,0.0034856875
3727,0.010677732
3728,0.00090478617
3729,-0.0050862804
3730,0.005947322
3731,0.0030341067
3732,0.0040587382
3733,-0.0042865975
3734,-0.0005400951
3735,0.009091851
3736,-0.0067514423
3737,-0.0056117624
3738,-0.012196751
3739,0.012402459
3740,0.001511537
3741,-0.010063927
3742,-0.0052524623
3743,-0.003510567
3744,0.00015687627
3745,-0.005030172
3746,-0.0020458526
3747,0.004472629
3748,0.007867122
3749,-0.0071108243
3750,0.009717104
3751,-0.0009920438
3752,0.0045281337
3753,-0.0048718825
3754,0.0041708564
3755,0.0027741299
3756,-0.0051844954
3757,0.0070611057
3758,-0.001251436
3759,-0.010808054
3760,-0.0018128727
3761,0.015194725
3762,-0.012108167
3763,-0.0139609715
3764,0.010510347
3765,0.019721247
3766,0.0046247276
3767,-0.005777331
3768,-0.00075710646
3769,-0.000480815
3770,-0.008759083
3771,0.0005186257
3772,0.010486798
3773,-0.009063069
3774,0.0033822171
3775,0.012701856
3776,-0.017174613
3777,-0.00988069
3778,-0.00033195052
3779,8.481097e-05
3780,0.0009073581
3781,-0.014208573
3782,0.0074807745
3783,0.0002809757
3784,0.005588519
3785,0.0016043758
3786,0.012232838
3787,0.003861123
3788,-0.0015301667
3789,0.004444439
3790,-0.016402116
3791,-0.005055845
3792,0.0031834536
3793,-0.00093117205
3794,-0.0053180763
3795,0.00050603785
3796,0.014882664
3797,0.007796137
3798,0.0074887616
3799,-0.0021609175
3800,0.017089132
3801,-0.00085887196
3802,0.0064209667
3803,-0.011903443
3804,0.004872261
3805,-0.008581027
3806,0.0015182953
3807,-0.004857526
3808,0.0055236453
3809,-0.0029405074
3810,-0.0022043027
3811,0.008594654
3812,0.0002178928
3813,-0.0041584126
3814,0.01736937
3815,-0.0041497285
3816,0.017159527
3817,-0.013869993
3818,-0.00056864903
3819,-0.012619414
3820,0.009049964
3821,-0.0131899305
3822,0.0010912518
3823,0.0026856596
3824,-0.0051518194
3825,-0.0075638387
3826,0.0013148183
3827,0.011997676
3828,-0.008259522
3829,-0.01565836
3830,-0.016016603
3831,0.0016530553
3832,-0.009353683
3833,-0.014000067
3834,-0.0055347327
3835,0.0027831916
3836,0.00040740252
3837,-0.009915599
3838,0.006662936
3839,0.001625205
3840,-0.009134888
3841,0.011988961
3842,-0.0006807822
3843,0.009913135
3844,-0.013684071
3845,-0.009325467
3846,0.0024635573
3847,-0.00068439497
3848,-0.0077478075
3849,-0.0052114236
3850,0.0022423614
3851,-0.013604118
3852,-0.00798285
3853,0.010682856
3854,-0.0037982247
3855,-0.006717879
3856,-0.007905266
3857,0.0032101371
3858,0.005280191
3859,-0.014387812
3860,0.0146117015
3861,0.00031828057
3862,0.007010496
3863,0.01825179
3864,0.00924933
3865,-0.017925628
3866,-0.00032435622
3867,-0.002779568
3868,0.0107152425
3869,-0.00989706
3870,-0.005653071
3871,-0.009152958
3872,0.012065025
3873,0.008019675
3874,0.01789124
3875,-0.002317609
3876,-0.00644947
3877,0.0045264927
3878,-0.007459782
3879,-0.009770514
3880,0.004659048
3881,-0.0027011617
3882,-0.011552427
3883,0.0036006751
3884,-0.012325421
3885,0.019347668
3886,0.002278666
3887,0.0035754708
3888,-0.0067715305
3889,-0.00841645
3890,0.0010072177
3891,-0.003531204
3892,-0.012895635
3893,0.008746155
3894,-0.0025389409
3895,-0.008974471
3896,-0.0012703646
3897,0.0056119845
3898,-0.001539124
3899,-0.0052953814
3900,0.0013788712
3901,-0.0133940745
3902,-0.007854752
3903,-0.0040594763
3904,0.00023682922
3905,0.0061780736
3906,0.0012020364
3907,-0.0021022067
3908,0.0070476755
3909,-0.0104917865
3910,0.00014691829
3911,-0.011606541
3912,-0.0012437332
3913,0.006136577
3914,-0.0017210753
3915,0.006761151
3916,0.010669214
3917,0.0048811464
3918,-0.0014542536
3919,-0.016592793
3920,0.007871506
3921,0.0040524513
3922,-0.009099574
3923,0.0065610455
3924,0.0015985306
3925,0.0036548227
3926,0.011661003
3927,0.00032927547
3928,-0.0199017
3929,0.008120837
3930,-0.000524073
3931,0.005699548
3932,0.0056877034
3933,0.00031674217
3934,-0.0071006147
3935,0.006168213
3936,-0.00259177
3937,-0.0074793193
3938,0.011495616
3939,0.0009519001
3940,0.0038948026
3941,0.0184651
3942,0.0063282214
3943,-0.01229992
3944,-0.010059881
3945,-0.017624395
3946,0.009443134
3947,0.007945456
3948,-0.011910423
3949,-0.005768966
3950,0.010613354
3951,-0.006859113
3952,0.0069618016
3953,-0.0195886
3954,0.0048183454
3955,0.013548315
3956,0.00082990434
3957,-0.008523402
3958,-2.4812678e-05
3959,0.0041345023
3960,-0.007598073
3961,-0.0014016392
3962,0.015314634
3963,-0.010271964
3964,0.0010875129
3965,0.0016795095
3966,0.0104986895
3967,-0.0004543556
3968,0.0004446249
3969,0.0042631603
3970,-0.012698767
3971,-0.0011341753
3972,-0.013157699
3973,0.013487903
3974,0.008930348
3975,0.0021059997
3976,0.0040203934
3977,-0.0088004405
3978,-0.0063226973
3979,-0.003571314
3980,-0.012197011
3981,0.0052139293
3982,-0.0059267115
3983,-0.011917929
3984,0.007225198
3985,-0.012300156
3986,-0.01269973
3987,-0.0039957045
3988,-0.0067262063
3989,-0.008079185
3990,-0.00492859
3991,-0.0014954504
3992,-0.0016495101
3993,-0.019044947
3994,-0.00670342
3995,0.016341904
3996,0.0086258305
3997,-0.0019061329
3998,-0.0028097155
3999,-0.002123011
4000,-0.009971884
4001,-0.0026212826
4002,0.0048452904
4003,0.0012888117
4004,-0.010379183
4005,-0.0032097432
4006,-0.0062705087
4007,-0.00313911
4008,-0.008808863
4009,-0.0048949746
4010,-0.00018641335
4011,0.01746699
4012,-0.013974
4013,0.01138711
4014,0.001172778
4015,-0.005610251
4016,-0.0025347194
4017,0.007823399
4018,-0.0064982558
4019,0.011724447
4020,-0.0060154055
4021,-0.0071202475
4022,0.00068820716
4023,0.0029131772
4024,-0.004878908
4025,0.0075648604
4026,0.015478609
4027,-0.0057843262
4028,-0.005350364
4029,-0.0040753596
4030,-0.008320345
4031,-0.000916559
4032,-0.011667434
4033,-0.0030204188
4034,-0.009388745
4035,-0.0014094476
4036,0.019460712
4037,-0.0026021488
4038,-0.011183319
4039,-0.00095408154
4040,-0.006894904
4041,0.0012150828
4042,-0.014885601
4043,0.0013617296
4044,-0.004799452
4045,0.0045242202
4046,-0.00067970826
4047,-0.0040480117
4048,0.0094160335
4049,-0.0053758686
4050,0.0019790253
4051,-0.0029214744
4052,-0.00083097874
4053,0.0028454543
4054,-0.012887058
4055,0.0022491466
4056,0.00083920197
4057,-0.0067603495
4058,-0.009587375
4059,0.00047663588
4060,0.001980815
4061,0.0011749868
4062,-0.012168213
4063,0.0028453427
4064,-0.0012297803
4065,-0.003047454
4066,-0.017985934
4067,-0.004459637
4068,0.015543719
4069,0.019853737
4070,0.01052601
4071,-0.008288803
4072,-0.0042747604
4073,0.012137034
4074,0.006917168
4075,-0.00011017411
4076,-0.018790396
4077,0.013957609
4078,0.008713528
4079,0.017913844
4080,-0.002986751
4081,-0.0076433085
4082,-0.018151982
4083,-0.00055455085
4084,-0.0028161453
4085,-0.0016481493
4086,-0.013063858
4087,-0.008976953
4088,0.016506882
4089,0.006825081
4090,-0.002901151
4091,0.0021451775
4092,-0.0033185293
4093,0.010509808
4094,-0.010155424
4095,0.0033951153
4096,-0.06383028
4097,0.011667312
4098,-0.14330171
4099,-0.003012957
4100,0.01706817
4101,0.030197171
4102,-0.058227003
4103,0.021990435
4104,0.0080620805
4105,0.0005745276
4106,-0.03234488
4107,-0.055725183
4108,-0.032769166
4109,-0.0014593098
4110,0.026147028
4111,0.007284893
4112,-0.0059598465
4113,-0.051936414
4114,0.020239413
4115,-0.060041968
4116,0.01725638
4117,0.00248604
4118,-0.00020470169
4119,0.013956611
4120,-0.026309976
4121,-0.008869292
4122,-0.021073226
4123,0.031965002
4124,-0.04195526
4125,-0.063781925
4126,-0.011886089
4127,-0.023063265
4128,0.016262054
4129,0.07561104
4130,-0.07589038
4131,0.04053349
4132,0.007076924
4133,0.014960323
4134,-0.052794434
4135,-0.00802529
4136,-0.011383553
4137,0.07740996
4138,0.02677213
4139,0.008752272
4140,-0.06257933
4141,0.018174779
4142,-0.026173852
4143,0.021826666
4144,-0.013889793
4145,0.028056819
4146,0.005470826
4147,0.0027612373
4148,-0.042610586
4149,-0.049859002
4150,0.018754363
4151,-0.023796126
4152,-0.050295956
4153,0.03973244
4154,-0.05735408
4155,0.03009419
4156,-0.029159253
4157,0.0077506555
4158,0.053932168
4159,0.01202209
4160,-0.015656348
4161,0.0076791625
4162,0.03289077
4163,0.03373906
4164,0.015516106
4165,0.011934503
4166,0.00612219
4167,-0.052384015
4168,-0.0011071312
4169,-0.0016133392
4170,-0.04172356
4171,0.027445147
4172,-0.032139603
4173,0.019255353
4174,-0.060225792
4175,-0.045287482
4176,-0.004985941
4177,0.038621493
4178,-0.059649613
4179,-2.9911236e-05
4180,0.010316792
4181,0.03319107
4182,-0.022168582
4183,0.013644989
4184,0.0023141159
4185,0.01634923
4186,0.022591053
4187,-0.037525564
4188,0.04528668
4189,0.035497524
4190,0.023336936
4191,-0.04669623
4192,0.042942684
4193,0.035965674
4194,-0.062154163
4195,0.014214315
4196,-0.043774024
4197,-0.106505975
4198,-0.053207595
4199,0.020645376
4200,0.019185813
4201,0.04148061
4202,-0.010058098
4203,0.03978136
4204,0.030019645
4205,-0.10332209
4206,0.0054090186
4207,0.012682299
4208,0.06722519
4209,-0.053207196
4210,-0.094485104
4211,-0.04715131
4212,0.028337797
4213,0.016005741
4214,0.027783757
4215,-0.004025445
4216,-0.01760681
4217,-0.026581585
4218,0.041483846
4219,0.008683241
4220,0.01755439
4221,-0.06825659
4222,0.01940111
4223,0.041484
4224,-0.018162036
4225,0.046165407
4226,-0.016286116
4227,0.03924227
4228,-0.0076370058
4229,0.02766486
4230,0.011022944
4231,-0.006348939
4232,0.017883828
4233,-0.06284961
4234,0.021524267
4235,0.0108336
4236,-0.028385403
4237,-0.0151323415
4238,-0.01807443
4239,0.039748233
4240,-0.06382951
4241,0.032771204
4242,-0.03250471
4243,-0.053923465
4244,0.01513203
4245,0.036366817
4246,0.025750753
4247,0.041883063
4248,0.02518062
4249,-0.009713341
4250,-0.048820484
4251,-0.08873997
4252,-0.046143044
4253,-0.05177723
4254,-0.041920844
4255,-0.08006547
4256,-0.04499623
4257,-0.026837947
4258,-0.10537539
4259,0.029111259
4260,0.019972451
4261,0.012301918
4262,-0.0031722651
4263,0.029670838
4264,-0.010008038
4265,0.010864403
4266,-0.040994663
4267,0.045230925
4268,0.0114664035
4269,-0.058956865
4270,-0.014978881
4271,0.035879534
4272,-0.045798324
4273,-0.028412309
4274,-0.008949818
4275,-0.023379117
4276,-0.008299111
4277,0.026019901
4278,-0.007662303
4279,-0.04861687
4280,-0.023722796
4281,0.08378839
4282,0.04376545
4283,0.0052378867
4284,-0.0019256535
4285,0.0033860535
4286,-0.03297293
4287,-0.06794004
4288,-0.028990095
4289,-0.014912009
4290,0.0012290998
4291,-0.036074106
4292,0.030951727
4293,-0.049828235
4294,-0.04433726
4295,-0.054215763
4296,-0.04807239
4297,-0.08252177
4298,-0.05080738
4299,-0.038360044
4300,-0.09000847
4301,0.020823926
4302,-0.0057292767
4303,0.028848382
4304,0.03249429
4305,-0.0005853787
4306,-0.029556837
4307,0.00035244474
4308,-0.030083662
4309,-0.018727254
4310,-0.000778393
4311,-0.040487815
4312,0.03276015
4313,0.061440285
4314,-0.018886881
4315,-0.046934314
4316,-0.054830026
4317,0.01108665
4318,0.016487004
4319,-0.053609867
4320,0.018983958
4321,-0.029460263
4322,0.00040215754
4323,-0.0015114255
4324,0.014831041
4325,0.013805527
4326,0.030617481
4327,0.05432717
4328,-0.043359976
4329,-0.0580886
4330,0.02141045
4331,0.037708618
4332,0.03281369
4333,0.042600103
4334,0.044459753
4335,-0.050222054
4336,-0.056312013
4337,0.045905516
4338,0.05088725
4339,0.038005717
4340,0.045031577
4341,0.031156396
4342,0.03329517
4343,-0.02732306
4344,-0.018361714
4345,0.016782023
4346,-0.051991694
4347,0.0011069917
4348,0.026095726
4349,-0.052863877
4350,-0.01483907
4351,0.020168824
4352,-0.049024984
4353,0.021932218
4354,-0.14647916
4355,0.056230146
4356,0.04887524
4357,0.012899684
4358,0.0722865
4359,0.049809314
4360,-0.017048463
4361,-0.06780518
4362,-0.034434088
4363,-0.008642014
4364,0.041528605
4365,0.026086042
4366,0.014968263
4367,0.008004169
4368,0.059142273
4369,0.030615432
4370,-0.013960926
4371,0.014691467
4372,0.046995357
4373,0.042081002
4374,0.034929916
4375,0.040518917
4376,0.03980913
4377,-0.06889357
4378,0.019031884
4379,0.015370568
4380,0.02528397
4381,-0.06397709
4382,0.038555574
4383,0.017680634
4384,0.014657726
4385,-0.06514116
4386,-6.3587395e-05
4387,0.022822982
4388,0.050640985
4389,0.03163518
4390,0.037788738
4391,0.017343419
4392,0.055482216
4393,-0.043737687
4394,0.029736746
4395,0.03272766
4396,0.020943495
4397,0.023162842
4398,-0.06413728
4399,0.027655665
4400,0.025787463
4401,0.026058715
4402,0.04504581
4403,0.06977901
4404,0.022765445
4405,-0.0058734682
4406,0.016925076
4407,0.01734478
4408,-0.099735975
4409,-0.00595561
4410,-0.0043610507
4411,0.036148805
4412,-0.0711078
4413,0.021956183
4414,-0.08224461
4415,0.04824239
4416,-0.0567629
4417,0.04065859
4418,0.046477985
4419,0.054828912
4420,0.01623727
4421,0.02364791
4422,0.0052532917
4423,0.011994084
4424,-0.0016146407
4425,-0.06874676
4426,0.022013992
4427,0.0032501845
4428,-0.024199272
4429,0.04374552
4430,-0.060055107
4431,0.009842743
4432,0.0715956
4433,0.02850592
4434,-0.059402913
4435,-0.07161126
4436,0.03058585
4437,-0.05765191
4438,-0.055341043
4439,0.017041767
4440,0.058569256
4441,0.024164645
4442,-0.032959756
4443,0.053200703
4444,0.022599189
4445,-0.05796232
4446,0.040523782
4447,-0.0077724196
4448,0.018336827
4449,0.0068454198
4450,-0.061660204
4451,-0.035673752
4452,0.033282023
4453,0.049885567
4454,0.037380718
4455,-0.07600108
4456,0.05208321
4457,0.056709114
4458,0.05140239
4459,0.045415647
4460,-0.02674175
4461,-0.015632585
4462,0.034842834
4463,0.05246267
4464,-0.05590038
4465,0.049939353
4466,-0.032658815
4467,-0.052058086
4468,-0.058231696
4469,-0.03432961
4470,0.014367242
4471,0.023933316
4472,-0.054856934
4473,0.045729283
4474,-0.06280443
4475,0.045614764
4476,0.061301336
4477,-0.06809109
4478,-0.05623908
4479,0.021648481
4480,-0.042364195
4481,0.042315222
4482,0.04268952
4483,-0.046879914
4484,0.0443211
4485,0.039115705
4486,0.045722924
4487,-0.0009540991
4488,-0.0061686225
4489,-0.045108058
4490,0.020857485
4491,0.04860426
4492,-0.02378163
4493,-0.02745816
4494,0.07203218
4495,0.0073786033
4496,0.030053718
4497,0.0124461055
4498,-0.06318584
4499,-0.048647135
4500,0.017916797
4501,-0.060075738
4502,0.047128163
4503,-0.060609993
4504,0.052547526
4505,-0.011195542
4506,0.041324582
4507,-0.036360748
4508,-0.0449
4509,-0.05177119
4510,0.025108367
4511,0.0009517945
4512,-0.042290714
4513,-0.06926264
4514,0.10141973
4515,0.009257654
4516,0.015289599
4517,0.025018467
4518,0.04866504
4519,0.0033780024
4520,0.025790384
4521,-0.020195981
4522,-0.04130863
4523,0.014917866
4524,-0.09978483
4525,-0.0029882847
4526,0.027250782
4527,-0.027015729
4528,0.060145505
4529,0.022444645
4530,-0.031731132
4531,-0.027711852
4532,0.07240845
4533,0.027527768
4534,0.033054102
4535,-0.048636734
4536,-0.030789733
4537,-0.011438909
4538,0.036612425
4539,0.036844112
4540,0.040215928
4541,-0.05990383
4542,-0.05757854
4543,-0.06814655
4544,0.04875641
4545,0.029010745
4546,0.047566418
4547,-0.02304741
4548,0.025147062
4549,-0.014654611
4550,0.04785859
4551,0.033619933
4552,0.03854567
4553,-0.08270917
4554,-0.0083529195
4555,0.028188797
4556,-0.020271683
4557,0.017023586
4558,-0.06014472
4559,-0.0003823411
4560,0.044219315
4561,0.02873638
4562,-0.040733233
4563,0.009433204
4564,0.0057832086
4565,-0.01855144
4566,-0.0034053014
4567,-0.062885396
4568,0.019818928
4569,-0.059501648
4570,0.024268705
4571,0.020737128
4572,0.036218356
4573,0.0418213
4574,0.012977382
4575,-0.0538856
4576,0.043368015
4577,0.019812426
4578,-0.00830182
4579,0.015847364
4580,0.051496997
4581,0.016136097
4582,0.010076897
4583,0.009005005
4584,0.037934564
4585,0.022248065
4586,0.043181315
4587,0.036978636
4588,0.0106837815
4589,0.045547985
4590,0.007074602
4591,-0.05044187
4592,0.02237586
4593,-0.0018191129
4594,0.0316034
4595,-0.060059734
4596,-0.0052019563
4597,0.007141808
4598,0.033292323
4599,0.045222588
4600,-0.01645635
4601,0.039797556
4602,-0.05162261
4603,0.04753748
4604,0.03189448
4605,0.040567596
4606,0.04317211
4607,0.04271854
4608,0.0108255
4609,0.028544176
4610,0.0014830732
4611,-0.06986312
4612,0.032107722
4613,0.011254364
4614,0.026397787
4615,-0.022427026
4616,-0.016084306
4617,0.071602486
4618,-0.03422387
4619,0.08870978
4620,0.043896463
4621,0.022637319
4622,0.043925848
4623,-0.0003953966
4624,-0.06683582
4625,0.04309933
4626,0.0014596625
4627,0.024265153
4628,-0.06339423
4629,-0.040498074
4630,0.025427213
4631,-0.00029847908
4632,0.029020943
4633,0.053602997
4634,-0.0490943
4635,0.008688468
4636,-0.022396073
4637,0.042457756
4638,0.036708117
4639,0.0406924
4640,0.025624981
4641,0.007060335
4642,0.0029106585
4643,0.022108248
4644,-0.03080327
4645,-0.0005127887
4646,0.03667557
4647,0.035839066
4648,0.05742705
4649,-0.041807465
4650,0.01213111
4651,0.01888624
4652,0.06732406
4653,0.021849409
4654,0.039033826
4655,0.046200234
4656,-0.049439806
4657,0.013890166
4658,0.035490744
4659,-0.06274426
4660,0.016636882
4661,-0.013174839
4662,0.04495669
4663,0.04548067
4664,0.12522341
4665,-0.008763057
4666,0.03325446
4667,-0.0017457014
4668,-0.0705925
4669,-0.023147522
4670,-0.08335626
4671,-0.061598904
4672,0.06105058
4673,0.047702894
4674,0.043408144
4675,0.021687102
4676,0.024763048
4677,-0.005189987
4678,0.0192378
4679,0.036890958
4680,-0.0016992107
4681,0.06817192
4682,0.03395505
4683,0.0110586155
4684,0.053875405
4685,-0.0017310845
4686,-0.060212426
4687,0.0008686637
4688,-0.07349955
4689,0.040654015
4690,0.01326597
4691,0.04538818
4692,0.017184336
4693,-0.057530846
4694,0.054317098
4695,0.03126716
4696,-0.06130493
4697,-0.0015869385
4698,0.013916775
4699,0.03704842
4700,-0.046838645
4701,0.01599126
4702,-0.014727513
4703,0.0474983
4704,-0.055763807
4705,-0.06073208
4706,0.05122804
4707,0.04372982
4708,0.021239461
4709,0.08044331
4710,0.041286238
4711,-0.075966924
4712,0.0062699993
4713,-0.063767165
4714,0.049256366
4715,0.009747423
4716,-0.011678426
4717,-0.014746346
4718,0.020109426
4719,-0.0648183
4720,-0.047310278
4721,-0.035621565
4722,-0.12264965
4723,0.050179604
4724,0.0397373
4725,0.07809017
4726,0.013435271
4727,-0.04787917
4728,0.03485357
4729,0.044966396
4730,0.016498148
4731,0.043299887
4732,-0.05373079
4733,-0.00375771
4734,-0.055641104
4735,0.01126923
4736,0.035609763
4737,-0.06744706
4738,0.026600584
4739,0.0008260583
4740,0.051305246
4741,0.03633204
4742,-0.019711226
4743,-0.038389444
4744,0.012783969
4745,-0.0021025073
4746,0.057316788
4747,0.02097612
4748,-0.0038962981
4749,0.026303735
4750,-0.06981682
4751,0.015233173
4752,-0.059187625
4753,0.008947011
4754,0.045236237
4755,0.051754747
4756,-0.00012584137
4757,-0.059829764
4758,0.020726668
4759,0.01405934
4760,0.031853568
4761,-0.008136381
4762,0.05072119
4763,-0.074954905
4764,-0.046083592
4765,0.0471645
4766,-0.012470207
4767,0.08654584
4768,-0.045318343
4769,-0.06920952
4770,-0.11440062
4771,0.0074883606
4772,0.014153989
4773,-0.026769713
4774,-0.05096434
4775,0.009204314
4776,0.009879701
4777,0.03285616
4778,0.003405881
4779,-0.04607044
4780,-0.09936524
4781,0.030308772
4782,0.026547916
4783,-0.068473265
4784,-0.08733401
4785,0.0486205
4786,0.05107812
4787,-0.016081499
4788,-0.0799727
4789,0.024418557
4790,-0.053204153
4791,-0.048536327
4792,-0.016995816
4793,-0.0043066437
4794,0.026196865
4795,0.014220477
4796,0.0182328
4797,0.051529363
4798,0.011995799
4799,-0.0036497854
4800,-0.039747007
4801,0.021390278
4802,0.011887748
4803,0.08013978
4804,0.016349053
4805,0.05813323
4806,0.028294282
4807,0.01220401
4808,0.040630598
4809,-0.04367573
4810,-0.051008694
4811,0.020048045
4812,-0.1254806
4813,0.008249338
4814,0.048317764
4815,0.019954605
4816,0.03554998
4817,0.014873016
4818,-0.06625027
4819,0.03536551
4820,0.070795454
4821,-0.0006307834
4822,-0.017124364
4823,-0.06287389
4824,0.014163541
4825,-0.059735693
4826,-0.04690253
4827,0.027863119
4828,-0.002694501
4829,0.010708897
4830,-0.045255475
4831,0.034946352
4832,-0.035862822
4833,-0.024727022
4834,-0.0123441145
4835,-0.0091898125
4836,-0.0011820853
4837,0.004786343
4838,0.024198722
4839,0.0005769021
4840,0.028317807
4841,0.04034698
4842,0.0077606468
4843,0.02296196
4844,0.014729909
4845,0.040579688
4846,0.036417674
4847,0.058988187
4848,0.008313414
4849,-0.00022790712
4850,-0.055570886
4851,0.020456092
4852,0.007171664
4853,0.010620651
4854,0.012200605
4855,0.043031797
4856,-0.008250637
4857,0.035577416
4858,0.052338295
4859,0.027700545
4860,0.032825768
4861,0.042396378
4862,0.044891823
4863,-0.05703636
4864,0.051429547
4865,-0.011556778
4866,0.06401517
4867,-0.070065334
4868,-0.009326115
4869,-0.045184433
4870,-0.060647894
4871,-0.051232494
4872,-0.03824466
4873,-0.06819026
4874,0.0706588
4875,-0.026424626
4876,-0.03870177
4877,0.0027919055
4878,0.01594373
4879,0.00077466207
4880,-0.06681376
4881,-0.002231835
4882,-0.018214198
4883,0.024065897
4884,0.037977405
4885,0.03873447
4886,0.010663208
4887,-0.042519685
4888,0.0038868533
4889,-0.06887222
4890,-0.04909925
4891,-0.03693103
4892,0.06751247
4893,0.020564606
4894,0.031638436
4895,-0.022708096
4896,0.00401679
4897,-0.065069616
4898,0.08519994
4899,-0.046096165
4900,0.027633969
4901,0.0023595036
4902,0.037521373
4903,-0.016861495
4904,-0.05500776
4905,-0.034836076
4906,0.010886059
4907,-0.04096536
4908,0.030182099
4909,0.00068252673
4910,0.049161885
4911,0.032220263
4912,0.030115858
4913,0.026682667
4914,0.036615595
4915,-0.05993499
4916,0.034139656
4917,0.066103674
4918,-0.039422896
4919,0.036568683
4920,0.08159356
4921,-0.05171345
4922,0.04196513
4923,-0.0153566785
4924,0.070822574
4925,-0.023002129
4926,0.008646514
4927,-0.052590434
4928,-0.06052612
4929,0.030989384
4930,-0.0010338173
4931,-0.001145181
4932,-0.020659657
4933,-0.0037361826
4934,0.020529788
4935,0.042949583
4936,-0.053375952
4937,-0.068680994
4938,-0.04243673
4939,0.037534684
4940,0.030941637
4941,-0.01816645
4942,-0.06021864
4943,0.009594867
4944,-0.07337665
4945,0.029263599
4946,0.052361455
4947,-0.0718011
4948,-0.0025333778
4949,-0.057681087
4950,-0.05641491
4951,-0.005043208
4952,-0.0615247
4953,-0.0314939
4954,-0.027893653
4955,0.034395784
4956,0.024169317
4957,0.027678067
4958,-0.04440647
4959,0.022696218
4960,-0.030460782
4961,0.012076539
4962,0.06106406
4963,-0.035369463
4964,0.01592835
4965,-0.103082605
4966,0.031728998
4967,0.05526305
4968,0.008174431
4969,0.05717159
4970,-0.060821123
4971,0.0072195977
4972,-0.03568035
4973,-0.03889112
4974,-0.00400609
4975,0.06208315
4976,-0.06877475
4977,0.044368327
4978,0.12507069
4979,0.053925194
4980,0.05075185
4981,-0.08025436
4982,-0.055796653
4983,0.03645672
4984,0.056880783
4985,-0.044222984
4986,-0.076350555
4987,-0.058402713
4988,-0.053767387
4989,0.0012426167
4990,-0.055499606
4991,-0.038270112
4992,0.044901576
4993,-0.067037255
4994,-0.028488768
4995,0.040458877
4996,-0.03621554
4997,-0.049528755
4998,-0.073507726
4999,0.05541501
5000,-0.016624298
5001,-0.06253741
5002,0.01262653
5003,-0.050778043
5004,-0.0313756
5005,0.044589546
5006,-0.06987219
5007,-0.00077798916
5008,0.06479304
5009,-0.044063132
5010,0.04915314
5011,-0.05399823
5012,-0.034679122
5013,-0.059743553
5014,-0.0031039226
5015,0.030169401
5016,0.0332323
5017,-0.011610047
5018,-0.041734964
5019,-0.057302125
5020,-0.04614559
5021,0.046582047
5022,0.018340696
5023,-0.10144889
5024,0.05724093
5025,-0.069088735
5026,-0.040818084
5027,-0.003141862
5028,-0.026596734
5029,-0.07484421
5030,0.05503703
5031,-0.0020293125
5032,-0.0032403457
5033,-0.060873535
5034,-0.005998109
5035,0.00854105
5036,0.04620676
5037,0.035009228
5038,0.050586972
5039,-0.06844183
5040,-0.08693602
5041,-0.026552418
5042,-0.027064169
5043,0.028847063
5044,-0.08005344
5045,-0.05048388
5046,0.04062661
5047,0.058216758
5048,-0.06355669
5049,-0.039537515
5050,-0.050939914
5051,-0.0050334833
5052,0.0068145213
5053,-0.05994408
5054,-0.05725967
5055,-0.01054812
5056,0.04598724
5057,0.025906347
5058,-0.024654837
5059,-0.03275996
5060,-0.04366236
5061,0.033026263
5062,0.04165036
5063,0.02984188
5064,-0.04791531
5065,-0.0011916264
5066,-0.05196918
5067,-0.004119228
5068,0.09852699
5069,0.0049868114
5070,0.053858027
5071,-0.03554741
5072,-0.0065738796
5073,0.023572223
5074,-0.04662977
5075,0.027915807
5076,0.02935191
5077,0.021433167
5078,-0.015485775
5079,0.059125498
5080,-0.038913887
5081,0.055220056
5082,0.03673007
5083,0.02487008
5084,0.046998326
5085,-0.040435307
5086,0.008611132
5087,0.038857885
5088,-0.013012361
5089,-0.027586453
5090,-0.012607801
5091,0.008197007
5092,-0.012406438
5093,-0.023384506
5094,-0.038934402
5095,-0.03927
5096,0.026095921
5097,0.029082013
5098,-0.055447698
5099,-0.02088241
5100,-0.037345067
5101,-0.058112375
5102,-0.042928424
5103,-0.05006353
5104,0.011286206
5105,-0.053573363
5106,0.028223068
5107,0.03520256
5108,-0.037704114
5109,0.014786499
5110,0.013713689
5111,0.02366594
5112,0.009977408
5113,-0.03786435
5114,0.056060955
5115,0.01600306
5116,0.02700005
5117,-0.053201105
5118,-0.046375398
5119,-0.05702058
5120,-0.057403747
5121,0.041195136
5122,0.11935075
5123,0.059587516
5124,-0.031345118
5125,0.004596797
5126,-0.05693538
5127,-0.0053516827
5128,-0.026228594
5129,-0.068196945
5130,0.06823727
5131,-0.051622618
5132,0.019846499
5133,-0.037793364
5134,-0.008408136
5135,0.006217432
5136,-0.06690982
5137,0.03935453
5138,-0.0011415858
5139,0.050585926
5140,-0.06313697
5141,0.010398905
5142,-0.039509606
5143,-0.043167677
5144,0.022678602
5145,0.05309265
5146,-0.04897604
5147,-0.037197128
5148,-0.025580062
5149,0.02928765
5150,0.033070114
5151,-0.0007083484
5152,-0.078367285
5153,-0.04297485
5154,0.083332114
5155,-0.04585342
5156,0.01113233
5157,-0.038769525
5158,-0.052897755
5159,-0.013586408
5160,-0.054875292
5161,-0.039223444
5162,0.021491913
5163,-0.04119188
5164,0.025129406
5165,-0.03862662
5166,-0.06439682
5167,0.024693161
5168,0.033676315
5169,-0.006143608
5170,0.019345548
5171,-0.07396804
5172,0.015623567
5173,-0.044552308
5174,-0.007781795
5175,0.04773162
5176,-0.015996294
5177,-0.051278036
5178,0.048640706
5179,-0.008069716
5180,0.04690245
5181,-0.02267576
5182,-0.08433844
5183,0.035147823
5184,0.03505092
5185,0.033405717
5186,-0.038429383
5187,-0.009832907
5188,-0.040826026
5189,0.0020810736
5190,-0.002184478
5191,0.023798635
5192,-0.053424608
5193,-0.069118015
5194,-0.041376397
5195,-0.0015053664
5196,-0.023617288
5197,-0.041099694
5198,-0.05989263
5199,0.047977965
5200,-0.063729696
5201,0.0043376624
5202,0.052051347
5203,-0.07188356
5204,-0.008666415
5205,-0.057763606
5206,0.06203513
5207,0.00060383504
5208,0.010839155
5209,-0.03933149
5210,-0.030133996
5211,-0.036573462
5212,0.021694962
5213,-0.058096603
5214,-0.03495069
5215,0.042402934
5216,-0.005793279
5217,-0.024084488
5218,-0.06225734
5219,0.058103606
5220,0.021998579
5221,-0.01551108
5222,0.009325729
5223,-0.07598939
5224,-0.04822839
5225,-0.06371613
5226,-0.060715955
5227,-0.035697497
5228,-0.035625726
5229,0.07712815
5230,-0.033041485
5231,-0.052183766
5232,-0.045524843
5233,0.015370361
5234,0.0801735
5235,-0.038110185
5236,-0.05825624
5237,-0.08025926
5238,-0.055615205
5239,-0.04645259
5240,0.06796436
5241,0.018950839
5242,0.013834235
5243,-0.052950256
5244,0.037784584
5245,-0.068204165
5246,-0.056650694
5247,-0.038085632
5248,-0.042458117
5249,0.010704639
5250,0.005042229
5251,0.02512104
5252,-0.01222458
5253,0.01574543
5254,-0.0042419676
5255,-0.042710777
5256,-0.023367077
5257,-0.062492784
5258,-0.051222254
5259,0.009755915
5260,0.04476264
5261,-0.027504638
5262,-0.06952242
5263,-0.026706276
5264,-0.062415127
5265,-0.011558958
5266,-0.06345581
5267,0.04619432
5268,0.01844085
5269,0.06273955
5270,-0.00886154
5271,0.034657054
5272,0.0026810917
5273,-0.008693768
5274,-0.0092583755
5275,-0.030123882
5276,0.07440236
5277,0.033595353
5278,-0.041473374
5279,0.03207818
5280,0.050950862
5281,0.06149589
5282,0.00707692
5283,-0.015183323
5284,-0.028433949
5285,-0.05891284
5286,-0.050809596
5287,-0.026871473
5288,0.018417692
5289,-0.061450586
5290,0.057894886
5291,0.0021089162
5292,-0.099303246
5293,0.025966646
5294,0.008476821
5295,-0.06743358
5296,-0.0872718
5297,-0.02872648
5298,-0.0074037784
5299,0.0334737
5300,-0.080037504
5301,-0.050296526
5302,0.041302223
5303,0.013245674
5304,-0.06357072
5305,-0.042346843
5306,0.013053809
5307,-0.060053367
5308,-0.029244479
5309,0.035929386
5310,-0.0136097465
5311,-0.056835156
5312,-0.009292505
5313,0.022335308
5314,-0.0032778014
5315,-0.0034267083
5316,0.030767428
5317,-0.024261158
5318,-0.0025298886
5319,0.014533614
5320,-0.047994107
5321,0.02409296
5322,-0.051642895
5323,-0.038452864
5324,0.0013814896
5325,-0.036595125
5326,-0.060098566
5327,0.007423691
5328,-0.010969079
5329,-0.04423372
5330,0.05916853
5331,0.0026574384
5332,0.007057127
5333,-0.012555482
5334,-0.0022220104
5335,0.04698536
5336,-0.037980974
5337,0.06638853
5338,0.024843752
5339,-0.046808682
5340,0.042112917
5341,0.008877273
5342,0.007339192
5343,0.04671637
5344,0.014862272
5345,0.029227613
5346,-0.008556083
5347,0.030592415
5348,0.029035449
5349,0.02738604
5350,-0.002060639
5351,-0.03585322
5352,0.036232837
5353,0.022689415
5354,0.01697859
5355,-0.048993684
5356,-0.037034888
5357,-0.058307763
5358,-0.042636197
5359,0.06178863
5360,0.06723242
5361,0.0017281761
5362,-0.055676386
5363,-0.060082603
5364,-0.033953402
5365,-0.020266036
5366,-0.045023266
5367,-0.028940648
5368,0.050200474
5369,-0.042295408
5370,-0.028201194
5371,-0.034000564
5372,0.024329955
5373,-0.053061463
5374,-0.046443842
5375,0.01513345
5376,0.054121893
5377,-0.06668483
5378,0.051046446
5379,-0.06984845
5380,0.00412323
5381,-0.044835474
5382,-0.061241
5383,-0.060162857
5384,-0.021417754
5385,-0.013839823
5386,-0.03449805
5387,-0.025767133
5388,0.004867551
5389,-0.037445243
5390,-0.010264596
5391,-0.03257073
5392,-0.051435284
5393,0.031487554
5394,-0.040486272
5395,0.013827847
5396,-0.058807265
5397,-0.040765785
5398,0.03921268
5399,-0.04269031
5400,-0.035191666
5401,-0.068683825
5402,0.06531005
5403,-0.03731637
5404,0.018067686
5405,-0.06392976
5406,-0.011105245
5407,0.006258099
5408,0.051216416
5409,-0.051866323
5410,-0.023822568
5411,-0.04581763
5412,-0.03105708
5413,-0.037574507
5414,-0.024421811
5415,-0.013841913
5416,-0.055010293
5417,-0.030045787
5418,-0.037032746
5419,0.023328388
5420,-0.017808955
5421,-0.03801044
5422,-0.06429898
5423,-0.03523825
5424,-0.029781464
5425,-0.04333915
5426,0.0051029488
5427,-0.07388836
5428,0.0096203275
5429,0.069364265
5430,-0.0396383
5431,-0.00852711
5432,-0.02083092
5433,-0.03052828
5434,0.010317979
5435,-0.032435156
5436,-0.07118106
5437,0.025728561
5438,-0.08361469
5439,-0.060610946
5440,-0.05994254
5441,0.015900517
5442,0.012721098
5443,-0.04006091
5444,0.01607295
5445,-0.012834619
5446,0.0061288583
5447,0.025600795
5448,-0.053633623
5449,-0.02782204
5450,-0.042136163
5451,-0.03713847
5452,0.03243604
5453,-0.03690004
5454,0.055097006
5455,-0.020765347
5456,-0.072413564
5457,-0.040420357
5458,-0.059748385
5459,0.03738345
5460,-0.018392565
5461,0.05878771
5462,-0.056154884
5463,-0.009330136
5464,0.037015397
5465,-0.03838448
5466,-0.02542324
5467,-0.03170707
5468,-0.04661526
5469,0.036705744
5470,-0.03221062
5471,-0.04687521
5472,-0.0077317273
5473,-0.034540825
5474,-0.062068146
5475,0.012171401
5476,-0.043818627
5477,0.017917212
5478,-0.05349407
5479,-0.032374565
5480,0.03508314
5481,-0.02464818
5482,-0.011908295
5483,-0.033109404
5484,-0.034409452
5485,-0.009261361
5486,-0.032995466
5487,-0.052216385
5488,-0.068976395
5489,-0.019720454
5490,-0.022592645
5491,-0.029116318
5492,-0.05818729
5493,-0.03990454
5494,-0.053578682
5495,-0.043237533
5496,-0.05523278
5497,-0.044188693
5498,-0.07656047
5499,-0.050798446
5500,0.038346842
5501,0.020752704
5502,0.04301665
5503,-0.03803831
5504,0.059308194
5505,-0.06741235
5506,-0.028446525
5507,-0.032869898
5508,-0.034817673
5509,-0.019279445
5510,0.018570792
5511,0.016595742
5512,0.057399735
5513,0.011812138
5514,-0.034460317
5515,-0.0013512096
5516,0.007930766
5517,-0.023292625
5518,-0.06980175
5519,-0.028429542
5520,0.0063588717
5521,-0.0061680297
5522,-0.044597976
5523,0.047464963
5524,-0.03598387
5525,0.042945366
5526,-0.030193081
5527,-0.04563619
5528,-0.04312676
5529,-0.008344523
5530,-0.0014944271
5531,0.016655566
5532,-0.024553042
5533,-0.036614433
5534,0.028373769
5535,-0.017976817
5536,0.043132458
5537,0.044011373
5538,0.02259495
5539,-0.010745144
5540,-0.0264632
5541,-0.069596455
5542,-0.0508839
5543,0.006176819
5544,0.026508434
5545,-0.0027496123
5546,0.020432102
5547,-0.03442394
5548,-0.07050536
5549,-0.024800528
5550,-0.005029463
5551,-0.036945533
5552,-0.08690258
5553,-0.014540339
5554,-0.03192892
5555,-0.029026339
5556,-0.071697675
5557,0.038116958
5558,-0.05320716
5559,0.016917182
5560,0.0658699
5561,-0.032530062
5562,-0.028882913
5563,0.03207304
5564,-0.026519231
5565,-0.05967628
5566,-0.057244413
5567,0.06772213
5568,-0.011016592
5569,0.02450821
5570,0.0019086387
5571,-0.014012469
5572,-0.043715596
5573,0.012771963
5574,-0.029173644
5575,0.0021440417
5576,-0.04800153
5577,0.039313108
5578,0.051581632
5579,-0.037817027
5580,0.084340274
5581,-0.046403654
5582,-0.060224
5583,-0.0047980016
5584,-0.01160519
5585,-0.044208657
5586,0.057400223
5587,-0.0028954463
5588,-0.008940895
5589,-0.023165258
5590,-0.0015587225
5591,0.0430883
5592,-0.03527042
5593,-0.059363484
5594,-0.04664418
5595,0.013426027
5596,-0.054818913
5597,0.017203635
5598,-0.044175237
5599,0.031824816
5600,-0.028292203
5601,0.026977463
5602,-0.012329246
5603,-0.035383783
5604,-0.017024739
5605,-0.03307155
5606,-0.027155165
5607,0.004652688
5608,0.06366806
5609,0.008241274
5610,0.035205774
5611,-0.02537125
5612,-0.037389573
5613,-0.058078844
5614,-0.016459335
5615,-0.010703191
5616,0.043289572
5617,-0.0011270939
5618,-0.05567147
5619,-0.06000289
5620,-0.048181552
5621,-0.044222727
5622,-0.045560475
5623,0.026875932
5624,0.024553359
5625,-0.04189568
5626,-0.051970534
5627,0.020222861
5628,-0.0015516818
5629,-0.052897554
5630,-0.03348595
5631,-0.024313355
5632,-0.006913925
5633,0.047682803
5634,0.07167513
5635,-0.06988423
5636,0.0059513026
5637,-0.04511216
5638,-0.07036819
5639,-0.008794196
5640,-0.024971794
5641,-0.02320914
5642,0.047345206
5643,-0.0046694838
5644,0.0009024402
5645,-0.037978932
5646,0.012577261
5647,-0.033238154
5648,-0.061096944
5649,0.011037628
5650,-0.040673982
5651,0.056240037
5652,-0.05899824
5653,-0.0346312
5654,-0.03857039
5655,-0.042668533
5656,-0.03530238
5657,-0.06887806
5658,-0.048781045
5659,-0.036675114
5660,0.027097784
5661,-0.063691095
5662,-0.04854673
5663,0.00093692495
5664,-0.07805977
5665,-0.058131784
5666,-0.033449832
5667,0.043628424
5668,-0.031676713
5669,-0.038743347
5670,-0.05300875
5671,-0.007947579
5672,-0.05472818
5673,-0.032604955
5674,0.021933256
5675,-0.041327976
5676,-0.022311745
5677,0.0028632008
5678,-0.06407745
5679,-0.037126556
5680,-0.026325729
5681,-0.009153338
5682,-0.038369417
5683,0.05339149
5684,-0.032002196
5685,-0.0063562924
5686,-0.03909337
5687,-0.010217747
5688,-0.016976114
5689,-0.002926968
5690,0.013458056
5691,0.015579874
5692,-0.069387145
5693,-0.0022647544
5694,0.020814402
5695,0.03868485
5696,-0.0566602
5697,0.01821042
5698,0.010541736
5699,-0.019728305
5700,-0.04022578
5701,0.0033660843
5702,0.0072407885
5703,0.010890482
5704,0.064051785
5705,-0.03791631
5706,-0.023682574
5707,-0.009700049
5708,-0.011320971
5709,-0.043555483
5710,-0.059183665
5711,-0.012549366
5712,-0.07104895
5713,-0.0007928806
5714,-0.013597241
5715,-0.055139113
5716,-0.021988228
5717,-0.057811722
5718,-0.04723841
5719,-0.024774514
5720,-0.06139433
5721,0.024198044
5722,-0.018480705
5723,-0.037263904
5724,-0.04678745
5725,-0.058112178
5726,-0.022138203
5727,-0.046525538
5728,-0.055658765
5729,-0.020652942
5730,-0.062053617
5731,0.025799168
5732,-0.043623243
5733,0.015871314
5734,-0.053222243
5735,-0.054861296
5736,0.008670184
5737,-0.06382976
5738,-0.026415389
5739,0.024752583
5740,-0.031026062
5741,0.037076395
5742,-0.00059925084
5743,-0.055061094
5744,-0.06893134
5745,-0.022058308
5746,-0.02306201
5747,-0.05268611
5748,-0.025640413
5749,-0.049301367
5750,-0.055680383
5751,-0.046370912
5752,-0.05494753
5753,0.0018777344
5754,-0.069866
5755,-0.058416877
5756,-0.054031793
5757,-0.011930095
5758,-0.056379497
5759,-0.026732432
5760,-0.042096004
5761,-0.06713281
5762,-0.028718121
5763,-0.04723902
5764,-0.0051238686
5765,-0.024169538
5766,0.011039363
5767,-0.035557196
5768,0.028027868
5769,0.050746158
5770,-0.044225182
5771,-0.0019007348
5772,0.028435994
5773,-0.02724135
